-1.158614754676818848e-01
-2.228474244475364685e-02
-2.414723187685012817e-01
-3.826060295104980469e-01
-1.660504639148712158e-01
-4.513485729694366455e-01
-6.882306933403015137e-01
-3.764100968837738037e-01
-3.573359549045562744e-01
-3.869629502296447754e-01
-5.710970163345336914e-01
1.754709482192993164e-01
-8.841253072023391724e-02
-4.737876057624816895e-01
-1.932286918163299561e-01
-1.855923533439636230e-01
8.182498067617416382e-02
-4.386955797672271729e-01
-7.384781241416931152e-01
-5.026117563247680664e-01
-4.655832350254058838e-01
-1.560221463441848755e-01
-4.796711504459381104e-01
-3.906063139438629150e-01
-5.889732837677001953e-01
-5.145335793495178223e-01
-3.156310617923736572e-01
-6.281933188438415527e-01
-3.122907876968383789e-01
-4.943258464336395264e-01
-2.977999448776245117e-01
-2.436075210571289062e-01
-1.187789961695671082e-01
-6.851816177368164062e-01
-6.386151313781738281e-01
-2.223156690597534180e-01
-8.631865978240966797e-01
-7.975349202752113342e-03
-7.220517396926879883e-01
-1.682178527116775513e-01
-4.299159348011016846e-01
-2.151091769337654114e-02
-4.816696643829345703e-01
-1.099701374769210815e-01
-1.219731494784355164e-01
-7.919421792030334473e-02
-6.125406622886657715e-01
-8.428438007831573486e-02
-5.014933347702026367e-01
-4.216763675212860107e-01
-5.766093730926513672e-01
-3.573478758335113525e-01
-6.362897157669067383e-01
-1.487995982170104980e-01
-7.364124655723571777e-01
-3.636697232723236084e-01
1.877114474773406982e-01
-1.375217288732528687e-01
-8.964328169822692871e-01
-3.849257230758666992e-01
-4.424955844879150391e-01
-2.997635006904602051e-01
-1.419488489627838135e-01
8.615164458751678467e-02
1.203084830194711685e-02
1.232938691973686218e-01
-9.205637127161026001e-02
-1.630716621875762939e-01
-2.692513763904571533e-01
-3.500083982944488525e-01
-2.480493634939193726e-01
-3.360707461833953857e-01
-3.420463204383850098e-01
-3.087810873985290527e-01
-4.826661944389343262e-01
2.441790550947189331e-01
-2.074750065803527832e-01
-4.517000913619995117e-01
-5.998294800519943237e-02
-2.446919232606887817e-01
2.220945656299591064e-01
-3.513268530368804932e-01
-3.941187858581542969e-01
-4.234083890914916992e-01
-2.685046195983886719e-01
-2.943049371242523193e-01
-4.227543473243713379e-01
-3.475069403648376465e-01
-3.638813495635986328e-01
-6.190487146377563477e-01
1.683552861213684082e-01
-4.927484691143035889e-01
-1.665618568658828735e-01
-4.627634584903717041e-01
-3.307375609874725342e-01
-2.264342755079269409e-01
7.944811135530471802e-02
-5.347571969032287598e-01
-3.820658922195434570e-01
-3.298372328281402588e-01
-3.743454813957214355e-01
2.670283615589141846e-01
-4.277571141719818115e-01
-1.616622358560562134e-01
-5.447549223899841309e-01
1.204676479101181030e-01
-2.290737181901931763e-01
1.406746655702590942e-01
-1.402624249458312988e-01
-6.730043143033981323e-02
-3.877432048320770264e-01
-1.175527721643447876e-01
-2.811372578144073486e-01
-1.863832473754882812e-01
-4.006381630897521973e-01
-2.241730242967605591e-01
-4.717923104763031006e-01
-1.751384139060974121e-01
-2.814312577247619629e-01
-2.464067786931991577e-01
3.159930408000946045e-01
-6.196305900812149048e-02
-4.361860752105712891e-01
-3.764096200466156006e-01
-3.098634183406829834e-01
-2.194504737854003906e-01
-1.302191019058227539e-01
3.599013090133666992e-01
-5.025459080934524536e-02
2.570259198546409607e-02
7.605890929698944092e-02
8.176764845848083496e-02
-8.573710918426513672e-02
6.089241430163383484e-02
-9.463630616664886475e-02
1.835278049111366272e-02
1.259447783231735229e-01
-4.562932625412940979e-02
-9.484875015914440155e-03
-1.730567030608654022e-02
8.093217760324478149e-02
1.688715629279613495e-02
7.476035505533218384e-03
-1.538853067904710770e-02
-1.086049899458885193e-01
1.111646965146064758e-01
1.724923029541969299e-02
5.405323207378387451e-02
1.142172068357467651e-01
1.016657277941703796e-01
6.441284716129302979e-02
1.048038527369499207e-01
2.268424630165100098e-02
8.148767799139022827e-02
-1.351211071014404297e-01
1.231521815061569214e-01
7.736060023307800293e-02
5.524918437004089355e-02
-3.715025633573532104e-02
4.407602921128273010e-02
5.956142023205757141e-02
-1.569159328937530518e-02
5.589698255062103271e-02
-3.576234355568885803e-02
-8.658239245414733887e-02
-2.623476088047027588e-02
2.758799865841865540e-02
-1.150331366807222366e-02
-7.891152054071426392e-02
-1.072935461997985840e-01
-1.196378394961357117e-01
-4.376569017767906189e-02
5.067336373031139374e-03
1.218212842941284180e-01
5.016653612256050110e-02
-1.739987432956695557e-01
8.981223404407501221e-02
2.242050878703594208e-02
1.618195325136184692e-01
-4.016081616282463074e-02
-1.508186459541320801e-01
8.812394738197326660e-02
-4.556494578719139099e-02
8.388668298721313477e-03
-1.663825847208499908e-02
-6.200612336397171021e-02
2.489658445119857788e-02
4.155044257640838623e-02
-3.852738067507743835e-02
8.364706486463546753e-02
-2.990073896944522858e-02
-3.877176344394683838e-02
-2.792808413505554199e-01
6.315451860427856445e-02
-1.772958487272262573e-01
-9.738960117101669312e-02
-4.530055522918701172e-01
-5.075976252555847168e-01
-5.328240394592285156e-01
-3.904626667499542236e-01
-2.147756367921829224e-01
-4.286727905273437500e-01
-4.246963560581207275e-01
-1.371389329433441162e-01
-6.627129018306732178e-02
-4.841508269309997559e-01
-3.200812041759490967e-01
-5.450887680053710938e-01
2.356164008378982544e-01
-4.201982617378234863e-01
-4.521010816097259521e-01
-3.500631153583526611e-01
-3.578793406486511230e-01
-2.066398561000823975e-01
-4.667885899543762207e-01
-3.563466370105743408e-01
-5.215458869934082031e-01
-4.050172269344329834e-01
-7.774393260478973389e-02
-5.837423205375671387e-01
-1.394363641738891602e-01
-6.216452121734619141e-01
-2.940960228443145752e-01
-1.738696843385696411e-01
-6.646526604890823364e-02
-2.614838778972625732e-01
-4.977367520332336426e-01
-3.495831191539764404e-01
-5.683364868164062500e-01
1.155406311154365540e-01
-2.888221442699432373e-01
-9.997372329235076904e-02
-5.008604526519775391e-01
-6.763562560081481934e-02
-4.663024544715881348e-01
7.051770389080047607e-02
-2.679017782211303711e-01
-2.064712345600128174e-01
-4.005650281906127930e-01
-1.446293741464614868e-01
-1.357364505529403687e-01
-2.491281777620315552e-01
-1.944269090890884399e-01
-2.458212673664093018e-01
-4.015784263610839844e-01
3.123585693538188934e-02
-6.267597079277038574e-01
-2.343006581068038940e-01
2.238703891634941101e-03
-2.625472843647003174e-01
-6.781581044197082520e-01
-4.204342365264892578e-01
-5.970975756645202637e-01
-5.131551623344421387e-01
-2.362893670797348022e-01
7.583102583885192871e-02
