-2.506656348705291748e-01
-1.022874861955642700e-01
-4.881414175033569336e-01
-1.245893463492393494e-01
-2.150799334049224854e-01
-2.753143310546875000e-01
-1.227837875485420227e-01
-1.488683521747589111e-01
-5.030884742736816406e-01
-2.332299351692199707e-01
-2.825505137443542480e-01
-2.298280894756317139e-01
-2.207242697477340698e-01
-1.262969374656677246e-01
-2.786759845912456512e-02
-4.743217676877975464e-02
-2.434162050485610962e-01
-5.616464018821716309e-01
-2.038936018943786621e-01
-4.023007154464721680e-01
-1.352944821119308472e-01
-2.887246310710906982e-01
6.292101740837097168e-02
-1.371445059776306152e-01
-5.212830752134323120e-02
-2.832830548286437988e-01
-5.449590459465980530e-02
-3.267098069190979004e-01
-7.377307116985321045e-02
-2.320526540279388428e-01
-8.714536577463150024e-02
-6.283500045537948608e-02
-2.296291887760162354e-01
-1.165714338421821594e-01
-2.424144297838211060e-01
-1.003014147281646729e-01
-1.049098968505859375e-01
9.256352484226226807e-02
7.927534729242324829e-02
3.381627500057220459e-01
-2.731234431266784668e-01
-8.793314546346664429e-02
-1.192587316036224365e-01
-2.584871053695678711e-01
-3.761706650257110596e-01
-5.709845200181007385e-02
-2.249408513307571411e-01
-9.037854522466659546e-02
-5.984384566545486450e-02
-4.086642265319824219e-01
-2.531283162534236908e-02
-1.708742678165435791e-01
-2.091426700353622437e-01
-1.533114016056060791e-01
-1.389774084091186523e-01
3.022957406938076019e-02
-1.535927951335906982e-01
-1.338804364204406738e-01
-4.504057765007019043e-02
1.227402985095977783e-01
-2.449486702680587769e-01
4.732641857117414474e-03
-1.424705386161804199e-01
-3.049504384398460388e-02
5.018787458539009094e-02
-3.763523697853088379e-01
-2.502870261669158936e-01
1.131531074643135071e-01
2.871407568454742432e-01
-3.302924633026123047e-01
2.158535122871398926e-01
2.605775594711303711e-01
-2.761012315750122070e-01
-1.764064729213714600e-01
-5.491760745644569397e-02
-3.847454488277435303e-01
9.911815077066421509e-02
5.652567371726036072e-02
5.685468669980764389e-03
-1.463520079851150513e-01
-3.705655634403228760e-01
-2.842802703380584717e-01
-1.341959685087203979e-01
-2.490196377038955688e-01
-8.977861702442169189e-02
-2.167224436998367310e-01
-2.686226069927215576e-01
-1.081036329269409180e-01
1.277854740619659424e-01
-3.335370719432830811e-01
-3.824641108512878418e-01
1.167756388895213604e-03
-1.525616645812988281e-01
-1.221317872405052185e-01
-9.514696896076202393e-02
3.995740786194801331e-02
5.849373992532491684e-03
7.844197005033493042e-02
-6.752946227788925171e-02
-1.383488327264785767e-01
-8.024106919765472412e-02
-2.512379288673400879e-01
1.137805879116058350e-01
1.008499860763549805e-01
-5.487598478794097900e-03
1.356595605611801147e-01
1.013420894742012024e-01
-2.585163712501525879e-01
-1.942334771156311035e-01
-7.837174087762832642e-02
-3.603545129299163818e-01
-7.238726317882537842e-02
-2.881538495421409607e-02
2.977126091718673706e-02
1.292331516742706299e-01
-1.715788543224334717e-01
-1.685917526483535767e-01
-2.416567057371139526e-01
-2.020913213491439819e-01
-3.945969939231872559e-01
1.529756002128124237e-03
-1.230570673942565918e-01
2.444292902946472168e-01
1.565055400133132935e-01
-2.896912992000579834e-01
-2.396236211061477661e-01
-3.332548588514328003e-02
-3.680874705314636230e-01
-4.638930037617683411e-02
-6.879600137472152710e-02
-9.007251821458339691e-03
1.237262189388275146e-01
2.111275494098663330e-02
8.438199758529663086e-02
7.268276065587997437e-02
1.036306098103523254e-01
8.029765635728836060e-02
-7.504226267337799072e-02
-5.703600123524665833e-02
1.389192938804626465e-01
-1.865111589431762695e-01
-7.390104979276657104e-02
1.292367372661828995e-02
1.721237599849700928e-02
-2.728097140789031982e-01
4.640170931816101074e-02
-1.515227556228637695e-01
1.894148066639900208e-02
1.085618808865547180e-01
-1.205050572752952576e-01
-6.564748287200927734e-02
4.363462328910827637e-02
1.840614974498748779e-01
-1.661235988140106201e-01
1.049791947007179260e-01
-2.035822570323944092e-01
-1.891561001539230347e-01
-1.961500495672225952e-01
-1.185916811227798462e-01
1.033982038497924805e-01
6.517035886645317078e-03
1.836696714162826538e-01
-2.861548662185668945e-01
-2.036681398749351501e-02
-1.072180340997874737e-03
-2.134967595338821411e-01
-1.988637149333953857e-01
9.615288674831390381e-02
-6.134842708706855774e-02
1.060285046696662903e-01
2.244618535041809082e-02
-5.857489258050918579e-02
2.011971920728683472e-01
2.432497441768646240e-01
2.104152143001556396e-01
2.468391880393028259e-02
-6.792579591274261475e-02
-8.857375383377075195e-02
1.924984604120254517e-01
2.519143521785736084e-01
-2.627777494490146637e-02
-1.445059925317764282e-01
6.237160414457321167e-02
-8.243243396282196045e-02
-3.706609085202217102e-02
-3.322429955005645752e-02
1.844766438007354736e-01
2.229703217744827271e-02
9.300398081541061401e-02
1.540115326642990112e-01
-1.959691345691680908e-01
1.520124822854995728e-01
-2.334769666194915771e-01
-5.800183862447738647e-02
-2.354439646005630493e-01
-9.912317246198654175e-02
4.914660006761550903e-02
-2.836531102657318115e-01
-1.012554317712783813e-01
8.871289342641830444e-02
-6.607167124748229980e-01
-2.586277425289154053e-01
-1.826357543468475342e-01
-3.597513735294342041e-01
-1.741143465042114258e-01
7.307165861129760742e-02
-6.042607873678207397e-02
-2.100404202938079834e-01
-2.286285161972045898e-01
-3.677963316440582275e-01
-9.144551306962966919e-02
-2.457125484943389893e-01
-6.320380140095949173e-03
-1.596277207136154175e-01
-7.106049358844757080e-02
-2.903603315353393555e-01
-2.006978392601013184e-01
-2.450842857360839844e-01
-2.444870173931121826e-01
-9.637165814638137817e-02
-4.256507754325866699e-02
1.624111272394657135e-02
-1.751022338867187500e-01
-7.463582605123519897e-02
-1.856391429901123047e-01
-6.541515886783599854e-02
2.565641105175018311e-01
-9.078373014926910400e-02
-1.701281964778900146e-01
5.618766695261001587e-02
-7.881388813257217407e-02
1.333500742912292480e-01
-1.102020777761936188e-02
8.584536612033843994e-03
-5.051927641034126282e-02
-3.061105310916900635e-01
-3.025694489479064941e-01
6.869292259216308594e-02
-2.676408290863037109e-01
-1.157530173659324646e-01
1.150508150458335876e-01
-4.197139143943786621e-01
3.431063890457153320e-02
-8.853404968976974487e-02
-1.657718867063522339e-01
-8.175580948591232300e-02
-1.191284209489822388e-01
-1.040212735533714294e-01
-5.220287665724754333e-02
-1.840796619653701782e-01
8.487007766962051392e-02
7.492510229349136353e-02
-1.227963939309120178e-01
-5.112600326538085938e-02
-1.871203072369098663e-02
-1.749122142791748047e-01
