2.530473051592707634e-03
-2.090388089418411255e-01
-2.978382110595703125e-01
5.500299856066703796e-02
8.928512781858444214e-02
-5.016255378723144531e-01
-4.042111709713935852e-02
-2.453134059906005859e-01
-2.935219109058380127e-01
-6.172993183135986328e-01
-2.297290414571762085e-01
-6.377114653587341309e-01
-7.695877552032470703e-01
5.610791221261024475e-02
-5.732133984565734863e-01
-1.662818789482116699e-01
2.382651865482330322e-01
-4.689704477787017822e-01
-4.766119122505187988e-01
-4.558562040328979492e-01
-1.482688337564468384e-01
-3.951541781425476074e-01
-1.995192468166351318e-01
-5.052963495254516602e-01
-6.006038784980773926e-01
-5.766318440437316895e-01
1.144584193825721741e-01
-2.015126496553421021e-01
2.385717034339904785e-01
-7.010295521467924118e-03
2.041727453470230103e-01
-3.356726374477148056e-03
-3.836561739444732666e-01
-5.029316544532775879e-01
1.905084550380706787e-01
-1.876071691513061523e-01
-2.676121890544891357e-01
1.974811404943466187e-01
-5.960600972175598145e-01
-5.423430204391479492e-01
-3.003439307212829590e-01
-6.178345084190368652e-01
-1.178550481796264648e+00
-4.836866259574890137e-01
-3.065384626388549805e-01
-5.457687005400657654e-02
-2.877808213233947754e-01
-6.743435859680175781e-01
-4.208901524543762207e-01
-6.094573140144348145e-01
8.018527179956436157e-03
-6.912590861320495605e-01
-1.580677926540374756e-01
2.815729081630706787e-01
-8.058856129646301270e-01
-9.839233756065368652e-02
2.346483767032623291e-01
-7.629581689834594727e-01
1.154515985399484634e-02
-6.871793270111083984e-01
-2.430333644151687622e-01
-3.290177881717681885e-01
-5.751982927322387695e-01
-2.242979407310485840e-01
3.682859987020492554e-02
-2.132588028907775879e-01
1.016278401948511600e-03
2.957376278936862946e-02
1.947384178638458252e-01
-2.333980053663253784e-01
-1.514002531766891479e-01
-2.188461124897003174e-01
-1.871104836463928223e-01
-2.960372865200042725e-01
-3.497697412967681885e-01
-2.658821940422058105e-01
-3.796586096286773682e-01
-5.381742864847183228e-02
-2.667593359947204590e-01
-2.211553156375885010e-01
3.579318523406982422e-02
-2.571819722652435303e-01
-2.762903273105621338e-01
-1.860781610012054443e-01
-2.668274939060211182e-01
-2.561098933219909668e-01
-1.879956722259521484e-01
-2.709932923316955566e-01
-3.649510741233825684e-01
-4.025176763534545898e-01
4.830595850944519043e-02
-2.247606366872787476e-01
-1.764659024775028229e-02
-2.176448702812194824e-01
1.423063576221466064e-01
1.979996562004089355e-01
-2.133194208145141602e-01
-3.763049244880676270e-01
3.818593546748161316e-02
-2.121598422527313232e-01
-2.357550263404846191e-01
2.364490479230880737e-01
-3.895708918571472168e-01
-3.572461903095245361e-01
-1.186627149581909180e-01
-3.152226209640502930e-01
-3.259735405445098877e-01
-2.888557910919189453e-01
-3.294330835342407227e-01
-1.058841794729232788e-01
-1.776283532381057739e-01
-3.174872994422912598e-01
-3.109503090381622314e-01
-3.109411001205444336e-01
-1.661520749330520630e-01
-3.306325972080230713e-01
-1.026871800422668457e-01
8.279120177030563354e-02
-2.936822175979614258e-01
-1.625562012195587158e-01
3.991104196757078171e-03
-2.978900074958801270e-01
-3.176438435912132263e-02
-4.183417558670043945e-01
-2.380550205707550049e-01
-2.758051753044128418e-01
-3.131105899810791016e-01
-2.784474790096282959e-01
2.419623732566833496e-01
8.135089278221130371e-02
8.990624547004699707e-02
-1.732695251703262329e-01
-1.128618493676185608e-01
2.415148727595806122e-02
1.431482881307601929e-01
-1.521912310272455215e-02
2.271981723606586456e-02
3.769062086939811707e-02
-7.247642427682876587e-02
-2.029551425948739052e-03
3.465700894594192505e-02
-1.055222675204277039e-01
5.777486134320497513e-03
1.305607520043849945e-02
3.789013028144836426e-01
-4.699096549302339554e-03
-4.384460672736167908e-02
-6.277018785476684570e-02
-8.252808451652526855e-02
1.295546721667051315e-02
8.774784207344055176e-02
-4.789398238062858582e-02
4.839076474308967590e-02
5.903147626668214798e-03
4.260083436965942383e-01
1.461593055864796042e-04
-3.328164517879486084e-01
-7.737702131271362305e-02
-3.543089032173156738e-01
-6.261933594942092896e-02
3.235663985833525658e-03
-1.926147192716598511e-02
1.443069577217102051e-01
1.073912903666496277e-01
1.009929627180099487e-01
4.237579107284545898e-01
3.490619594231247902e-03
-4.332534596323966980e-02
3.040228039026260376e-02
7.455781847238540649e-02
7.042959332466125488e-02
9.512776881456375122e-02
-5.715570971369743347e-02
-3.031689859926700592e-02
-5.264469608664512634e-02
1.100364923477172852e-01
1.040294393897056580e-01
-3.517880290746688843e-02
2.012158781290054321e-01
-5.426234751939773560e-02
8.131939917802810669e-02
6.118116974830627441e-01
6.384949386119842529e-02
-5.679405760020017624e-03
4.797546863555908203e-01
-4.968583956360816956e-02
2.440083026885986328e-02
-1.628038287162780762e-02
-1.642904728651046753e-01
1.339659988880157471e-01
-3.793491423130035400e-02
-1.925487667322158813e-01
-4.077143073081970215e-01
-8.316612988710403442e-02
-1.636153459548950195e-01
-2.481928914785385132e-01
-8.921912312507629395e-02
-2.633764147758483887e-01
-4.524241983890533447e-01
-3.309073746204376221e-01
-2.784104049205780029e-01
-2.381587326526641846e-01
-1.878184229135513306e-01
-2.063508778810501099e-01
-2.475869506597518921e-01
-4.255007207393646240e-01
-1.318449676036834717e-01
-5.628752112388610840e-01
1.139956861734390259e-01
-3.853735625743865967e-01
-2.201453410089015961e-02
-3.704632520675659180e-01
-2.320981621742248535e-01
-1.792024224996566772e-01
-3.501915633678436279e-01
-6.236853078007698059e-02
-3.266331925988197327e-02
-1.272168904542922974e-01
1.220330446958541870e-01
-5.786825418472290039e-01
5.783719941973686218e-02
-5.143312811851501465e-01
-3.650020658969879150e-01
3.496656194329261780e-02
-1.575932502746582031e-01
7.724253460764884949e-03
5.395109299570322037e-03
-2.043966203927993774e-01
-1.906062364578247070e-01
-2.899171710014343262e-01
-3.640927970409393311e-01
-2.844901680946350098e-01
-3.459854423999786377e-02
-2.486096471548080444e-01
5.057032694821828045e-07
-3.230570852756500244e-01
-3.433386981487274170e-01
-4.759655594825744629e-01
-8.244509249925613403e-02
-1.328812539577484131e-01
-2.963181436061859131e-01
-3.981471657752990723e-01
1.313764881342649460e-02
-3.616492450237274170e-02
-1.174898743629455566e-01
-2.167741656303405762e-01
-3.073560297489166260e-01
-6.993722170591354370e-02
-1.796397864818572998e-01
-4.167302846908569336e-01
3.036867268383502960e-02
-3.005760014057159424e-01
-2.805444598197937012e-01
-3.877787292003631592e-02
-2.563522160053253174e-01
6.143600866198539734e-02
