1.020533591508865356e-02
-2.111770957708358765e-01
-3.263432085514068604e-01
1.565740257501602173e-01
4.789017513394355774e-02
-4.926179647445678711e-01
-2.280572652816772461e-01
-1.946578323841094971e-01
-2.922269403934478760e-01
-6.822121143341064453e-01
-2.038878798484802246e-01
-6.756243705749511719e-01
-7.812253832817077637e-01
7.284098863601684570e-02
-5.217620134353637695e-01
-1.139788851141929626e-01
1.575475633144378662e-01
-5.382719635963439941e-01
-4.838406741619110107e-01
-4.720236957073211670e-01
-1.397178769111633301e-01
-4.024986624717712402e-01
-1.918487697839736938e-01
-5.404760241508483887e-01
-5.964329242706298828e-01
-4.578212201595306396e-01
1.600898057222366333e-01
-1.937887817621231079e-01
1.838865429162979126e-01
-6.311050150543451309e-03
3.563501238822937012e-01
3.836508840322494507e-02
-3.960497379302978516e-01
-5.218956470489501953e-01
2.807670831680297852e-01
-1.389226466417312622e-01
-2.767426967620849609e-01
1.268550306558609009e-01
-5.758874416351318359e-01
-4.088121056556701660e-01
-2.607632279396057129e-01
-5.611666440963745117e-01
-1.225057840347290039e+00
-5.295512080192565918e-01
-2.075687050819396973e-01
5.738404765725135803e-02
-2.231548279523849487e-01
-6.376124024391174316e-01
-4.434085190296173096e-01
-6.117042899131774902e-01
-2.899103052914142609e-02
-6.087288856506347656e-01
-5.773303285241127014e-02
4.027462303638458252e-01
-8.245411515235900879e-01
-9.715753048658370972e-02
2.627352178096771240e-01
-7.346420288085937500e-01
-5.982104316353797913e-02
-6.993250846862792969e-01
-9.270929545164108276e-02
-3.190462291240692139e-01
-5.613766312599182129e-01
-1.149943247437477112e-01
2.181532047688961029e-02
-1.913668811321258545e-01
-1.542857848107814789e-02
-3.957172483205795288e-02
3.488331660628318787e-02
-2.285547852516174316e-01
-2.801832556724548340e-01
-2.084893286228179932e-01
-2.209584116935729980e-01
-3.196669518947601318e-01
-3.697915673255920410e-01
-2.416091561317443848e-01
-3.642894923686981201e-01
1.103351786732673645e-01
-2.757877111434936523e-01
-2.300394326448440552e-01
-3.258414193987846375e-02
-2.045459747314453125e-01
-2.905222475528717041e-01
-1.949344873428344727e-01
-1.580957621335983276e-01
-2.404838055372238159e-01
-1.860180348157882690e-01
-2.803370356559753418e-01
-4.004852771759033203e-01
-4.035564064979553223e-01
5.762992426753044128e-02
-2.041584700345993042e-01
-9.054918587207794189e-02
-2.096907645463943481e-01
7.052553445100784302e-02
2.114260643720626831e-01
-2.852577865123748779e-01
-3.451925814151763916e-01
1.909861564636230469e-01
-1.637101918458938599e-01
-2.271533757448196411e-01
9.782672673463821411e-02
-4.409551918506622314e-01
-3.073941171169281006e-01
-8.346897363662719727e-02
-3.700723648071289062e-01
-3.262526988983154297e-01
-2.745933532714843750e-01
-2.522141039371490479e-01
4.986023530364036560e-03
-2.250419557094573975e-01
-3.538376688957214355e-01
-2.936972081661224365e-01
-2.896506190299987793e-01
-2.047975212335586548e-01
-3.213475048542022705e-01
-8.111529052257537842e-02
1.430585086345672607e-01
-2.743720114231109619e-01
-1.490522623062133789e-01
9.437741339206695557e-02
-3.016684055328369141e-01
4.760016128420829773e-02
-3.927079141139984131e-01
-2.796004116535186768e-01
-2.288809269666671753e-01
-3.131524026393890381e-01
-2.741549909114837646e-01
2.814202904701232910e-01
-7.336419075727462769e-03
5.307739600539207458e-02
-2.202912420034408569e-02
-1.521582305431365967e-01
1.189110148698091507e-02
1.221891939640045166e-01
-2.029768191277980804e-02
9.464330226182937622e-02
3.257299831602722406e-04
-1.550301909446716309e-01
5.099990405142307281e-03
3.828052431344985962e-03
-2.696025930345058441e-02
7.338324934244155884e-02
-1.471147965639829636e-02
4.399626851081848145e-01
6.886827293783426285e-03
4.869110882282257080e-02
3.995550796389579773e-03
-8.345144242048263550e-02
-1.765514537692070007e-02
3.843747824430465698e-02
5.105050280690193176e-02
-6.283860653638839722e-02
-7.703773677349090576e-02
2.377119213342666626e-01
-1.206892891786992550e-03
-2.510900497436523438e-01
-7.412299513816833496e-02
-2.190023064613342285e-01
2.012266049860045314e-04
2.514860965311527252e-02
1.216598600149154663e-01
1.872736811637878418e-01
6.488565355539321899e-02
5.653138831257820129e-02
2.993184626102447510e-01
5.044843256473541260e-02
1.512759029865264893e-01
-8.201859891414642334e-02
6.446406990289688110e-02
-6.244233623147010803e-02
-3.797544911503791809e-02
-1.104464307427406311e-01
1.634764298796653748e-02
-2.502932958304882050e-02
-5.196661502122879028e-02
-4.497977346181869507e-02
-2.297417819499969482e-02
2.105113118886947632e-01
-4.010362178087234497e-02
9.160278737545013428e-02
5.580422878265380859e-01
-1.462236512452363968e-02
1.498486846685409546e-01
5.988132953643798828e-01
-7.167602889239788055e-03
1.066753268241882324e-01
1.514608692377805710e-02
-3.228696435689926147e-02
-2.427561394870281219e-02
-4.981291666626930237e-02
-1.169644892215728760e-01
-4.811236858367919922e-01
-6.271126866340637207e-02
-1.146677881479263306e-01
-1.656909137964248657e-01
-2.077550888061523438e-01
-3.137857615947723389e-01
-4.065391123294830322e-01
-2.557420134544372559e-01
-3.100219666957855225e-01
-2.290428131818771362e-01
-2.097563147544860840e-01
-2.063509672880172729e-01
-2.492977678775787354e-01
-4.473769068717956543e-01
-1.367952823638916016e-01
-4.470555484294891357e-01
1.714782565832138062e-01
-3.312133848667144775e-01
-2.247890457510948181e-02
-3.547832369804382324e-01
-2.160084545612335205e-01
-1.792013049125671387e-01
-3.267291784286499023e-01
-7.870645821094512939e-02
-3.266560286283493042e-02
-1.318543553352355957e-01
1.322247684001922607e-01
-5.359640121459960938e-01
1.278117150068283081e-01
-5.540761351585388184e-01
-3.483966588973999023e-01
4.976308718323707581e-02
-1.575947254896163940e-01
7.729563862085342407e-03
6.357207428663969040e-03
-3.230402469635009766e-01
-2.263016849756240845e-01
-2.949556410312652588e-01
-3.570868372917175293e-01
-2.659227252006530762e-01
-3.460051864385604858e-02
-2.303470373153686523e-01
4.548095944301167037e-07
-3.231500089168548584e-01
-3.105042278766632080e-01
-4.318441450595855713e-01
-1.000754013657569885e-01
-9.282452613115310669e-02
-2.105127722024917603e-01
-4.057679176330566406e-01
5.913664400577545166e-02
-3.616248816251754761e-02
-5.833819881081581116e-02
-2.656320035457611084e-01
-3.050359189510345459e-01
-4.801566898822784424e-02
-1.777512729167938232e-01
-4.480697810649871826e-01
1.206571683287620544e-01
-3.161033391952514648e-01
-2.250712066888809204e-01
-3.770751878619194031e-02
-2.616302669048309326e-01
5.527326092123985291e-02
