-5.775840207934379578e-02,4.467891901731491089e-02,4.290527105331420898e-02,-5.823289155960083008e-01,-1.083830147981643677e-01,-2.094162702560424805e-01,-1.260794997215270996e-01,1.165598630905151367e-01,1.836651265621185303e-01,8.768571168184280396e-02,9.199576079845428467e-02,-2.806593775749206543e-01,2.664456665515899658e-01,-9.916704148054122925e-02,-3.965725004673004150e-02,-2.605513036251068115e-01,2.528920024633407593e-02,-4.388800263404846191e-02,-3.230371326208114624e-02,-3.433118807151913643e-03,-1.774481087923049927e-01,1.719912588596343994e-01,-7.397093623876571655e-02,2.180777788162231445e-01,-1.394167095422744751e-01,6.944143027067184448e-02,-2.903689444065093994e-01,-1.701217591762542725e-01,1.846946030855178833e-01,9.872601181268692017e-02,-4.054782167077064514e-02,2.237917110323905945e-02,-6.217780336737632751e-02,-1.319196522235870361e-01,1.057415381073951721e-01,1.210822835564613342e-01,-6.070499494671821594e-02,-2.382523864507675171e-01,-3.779596090316772461e-02,5.775349959731101990e-02,3.082610666751861572e-01,-1.576348841190338135e-01,5.477320868521928787e-03,-1.619945317506790161e-01,2.300718426704406738e-01,-2.298419177532196045e-02,-1.264857798814773560e-01,-3.353719413280487061e-02,-9.008193761110305786e-02,7.454901933670043945e-02,-9.713198244571685791e-02,-9.972670674324035645e-02,-5.286865308880805969e-02,1.470392197370529175e-01,-4.130416549742221832e-03,-7.755413651466369629e-02,-5.992206186056137085e-02,1.518557369709014893e-01,-2.530899941921234131e-01,1.781172752380371094e-01,-4.479266107082366943e-01,-3.753515779972076416e-01,2.995825186371803284e-02,-5.213966369628906250e-01
-1.397506892681121826e-01,3.803462684154510498e-01,-1.161699146032333374e-01,-6.355980634689331055e-01,-3.902904689311981201e-01,3.066957890987396240e-01,4.668061435222625732e-01,-1.132366299629211426e+00,-5.725162625312805176e-01,3.453065752983093262e-01,3.843579292297363281e-01,-1.464585959911346436e-01,4.172463119029998779e-01,2.238025665283203125e-01,-2.000795453786849976e-01,3.278145790100097656e-01,-4.463107287883758545e-01,1.472350507974624634e-01,1.130734905600547791e-01,2.942366302013397217e-01,3.656134009361267090e-01,4.285893142223358154e-01,-5.166878104209899902e-01,-3.488567471504211426e-01,-3.538184762001037598e-01,1.405329555273056030e-01,-1.496143043041229248e-01,-2.906465530395507812e-01,-4.042301177978515625e-01,1.513098925352096558e-01,5.707483366131782532e-02,-4.261870682239532471e-02,3.001072406768798828e-01,-1.451705545186996460e-01,5.429116077721118927e-03,-2.348886877298355103e-01,-1.449203044176101685e-01,-8.510920405387878418e-01,-2.013331204652786255e-01,5.310139656066894531e-01,-1.398573517799377441e-01,3.308392763137817383e-01,1.394169311970472336e-02,1.535190194845199585e-01,-1.130270138382911682e-01,2.163835167884826660e-01,1.342011895030736923e-02,-1.308747529983520508e-01,2.298237532377243042e-01,-3.080819845199584961e-01,4.323311448097229004e-01,-2.449940741062164307e-01,-1.654044836759567261e-01,-3.931637704372406006e-01,3.213851898908615112e-02,-2.252125740051269531e-02,-1.377803683280944824e-01,-4.794241189956665039e-01,1.317298859357833862e-01,-3.804272040724754333e-02,-3.607183992862701416e-01,9.347354620695114136e-02,-1.580519229173660278e-01,-1.171548515558242798e-01
7.080416381359100342e-02,5.622329711914062500e-01,1.848890185356140137e-01,7.918586023151874542e-03,1.850443333387374878e-02,2.858275473117828369e-01,3.101094961166381836e-01,-4.522498324513435364e-02,-8.165860772132873535e-01,4.621204435825347900e-01,3.731223344802856445e-01,-2.917681038379669189e-01,-7.818789035081863403e-02,6.368802487850189209e-02,-1.900631338357925415e-01,3.921177983283996582e-01,-8.428412079811096191e-01,5.348700881004333496e-01,3.028666134923696518e-03,-1.903888583183288574e-01,1.037021651864051819e-01,4.969815909862518311e-01,1.655274182558059692e-01,-3.921716511249542236e-01,-3.905100822448730469e-01,2.791430056095123291e-01,2.094358354806900024e-01,-3.705509006977081299e-01,-7.176650222390890121e-03,-1.146526560187339783e-01,3.307960629463195801e-01,-2.091152071952819824e-01,4.710771739482879639e-01,-4.281171560287475586e-01,1.072453781962394714e-01,-2.551780641078948975e-02,-1.486749947071075439e-02,-6.082308888435363770e-01,-3.613755702972412109e-01,-4.098061099648475647e-02,4.919584989547729492e-01,1.897328048944473267e-01,-3.716962337493896484e-01,1.241168528795242310e-01,-1.770019680261611938e-01,-2.015488147735595703e-01,4.668481349945068359e-01,-4.461500048637390137e-01,6.459262967109680176e-01,-2.551410496234893799e-01,1.827783882617950439e-01,-1.962178498506546021e-01,-5.276844501495361328e-01,-1.412801444530487061e-02,1.626136153936386108e-01,-3.337871432304382324e-01,1.063590124249458313e-01,-3.179357349872589111e-01,-1.128094568848609924e-01,4.763633906841278076e-01,-2.340110689401626587e-01,-2.011533826589584351e-02,-6.331766247749328613e-01,-3.126088082790374756e-01
7.964650541543960571e-02,2.550928592681884766e-01,1.255459431558847427e-02,6.602425128221511841e-02,-7.881608605384826660e-02,4.572494924068450928e-01,-2.279801666736602783e-01,2.019475400447845459e-01,4.093913435935974121e-01,-1.282709836959838867e-01,3.516343608498573303e-02,4.640354216098785400e-01,1.436485499143600464e-01,1.162297651171684265e-01,-2.470825240015983582e-02,-2.085671275854110718e-01,-6.589038968086242676e-01,-7.975482195615768433e-02,1.264239549636840820e-01,2.483910918235778809e-01,2.325905412435531616e-01,2.156683951616287231e-01,5.925013497471809387e-02,2.310271561145782471e-01,2.062402218580245972e-01,9.957341849803924561e-02,-4.690573811531066895e-01,4.202437400817871094e-01,-2.999148070812225342e-01,-1.423320621252059937e-01,-4.072227776050567627e-01,5.905992984771728516e-01,9.887143969535827637e-02,7.296199351549148560e-02,1.771895736455917358e-01,7.627402991056442261e-02,-1.133480593562126160e-01,-6.829069256782531738e-01,-1.011814922094345093e-01,2.443366125226020813e-02,-5.128844976425170898e-01,3.567494451999664307e-02,8.364164084196090698e-02,-3.568534851074218750e-01,-4.270040988922119141e-01,3.379929065704345703e-01,2.047622390091419220e-02,-3.942120671272277832e-01,1.297040432691574097e-01,-1.318794637918472290e-01,3.324354887008666992e-01,-8.613263070583343506e-02,-1.309409588575363159e-01,3.425902128219604492e-01,-3.443418145179748535e-01,8.365572988986968994e-02,-3.431607484817504883e-01,-5.535007119178771973e-01,1.820896863937377930e-01,-3.977393507957458496e-01,2.703152894973754883e-01,2.061359584331512451e-01,-4.192139580845832825e-02,-2.093662172555923462e-01
6.188625842332839966e-02,-1.520144641399383545e-01,-8.859400451183319092e-02,-2.216658145189285278e-01,2.194037660956382751e-02,3.369592726230621338e-01,-2.114150971174240112e-01,-1.412473917007446289e-01,1.065447032451629639e-01,-3.088828325271606445e-01,-2.336513251066207886e-01,1.188367977738380432e-01,4.027918577194213867e-01,-6.879240274429321289e-02,-3.684497475624084473e-01,-9.658259153366088867e-02,-2.746815681457519531e-01,-7.104291766881942749e-02,-3.243312612175941467e-02,2.427885308861732483e-02,2.140045315027236938e-01,7.734981924295425415e-02,3.778861165046691895e-01,-7.952291518449783325e-02,6.994244456291198730e-02,-3.571663200855255127e-01,-1.360721737146377563e-01,4.098005890846252441e-01,-3.600886166095733643e-01,8.346696943044662476e-02,-3.622405529022216797e-01,1.432966887950897217e-01,-9.537234436720609665e-04,1.606255024671554565e-01,-7.756544649600982666e-02,-3.924138844013214111e-01,9.033042937517166138e-02,1.245998889207839966e-01,-1.837792992591857910e-01,-1.962174195796251297e-03,-6.556509733200073242e-01,7.270859926939010620e-02,3.842144310474395752e-01,5.891756340861320496e-02,-1.095716357231140137e-01,1.846481412649154663e-01,-4.044882487505674362e-03,-3.616669178009033203e-01,8.207973837852478027e-02,3.035084530711174011e-02,3.312858343124389648e-01,-2.118395566940307617e-01,-3.051772341132164001e-02,-1.172522008419036865e-01,5.432493984699249268e-02,1.703602075576782227e-01,1.075570210814476013e-01,6.766234338283538818e-02,4.904671609401702881e-01,1.458764970302581787e-01,2.533146142959594727e-01,3.581188917160034180e-01,2.292378619313240051e-02,7.289674878120422363e-02
-1.140884775668382645e-02,1.129905432462692261e-01,-3.855059295892715454e-02,-1.749649085104465485e-02,-2.224641665816307068e-02,-3.313692808151245117e-01,-2.636649273335933685e-02,2.049331068992614746e-01,1.498421281576156616e-01,-1.630600392818450928e-01,-4.479448795318603516e-01,1.739307343959808350e-01,1.743148118257522583e-01,-2.451719343662261963e-01,-3.700615838170051575e-02,-4.538758099079132080e-01,6.032848730683326721e-02,-1.972350329160690308e-01,-6.722177565097808838e-02,1.908445358276367188e-01,-2.456922456622123718e-02,-2.355947941541671753e-01,3.325436413288116455e-01,6.563677638769149780e-02,1.209196299314498901e-01,-2.201751917600631714e-01,-2.964284420013427734e-01,2.916178107261657715e-01,1.186130121350288391e-01,6.500324700027704239e-03,-2.409241348505020142e-01,5.442464351654052734e-01,-2.713823616504669189e-01,1.561408638954162598e-01,-7.734918501228094101e-03,1.596044749021530151e-01,1.343224346637725830e-01,1.190198492258787155e-02,2.025425136089324951e-01,-3.917435407638549805e-01,-4.370042979717254639e-01,7.496783044189214706e-03,1.269992291927337646e-01,-2.080197036266326904e-01,-2.139762341976165771e-01,2.170469798147678375e-02,-3.215672969818115234e-01,2.350627183914184570e-01,-1.682516187429428101e-01,2.505469024181365967e-01,-2.388227283954620361e-01,2.978461682796478271e-01,2.058492153882980347e-01,9.629381299018859863e-01,1.607373007573187351e-03,1.653110533952713013e-01,4.195087030529975891e-02,2.943547964096069336e-01,4.514486193656921387e-01,-1.699345707893371582e-01,-3.051552549004554749e-02,2.538944780826568604e-01,1.665150523185729980e-01,1.793145239353179932e-01
-4.459208622574806213e-02,2.221340080723166466e-03,-2.375029623508453369e-01,5.756399631500244141e-01,2.937899902462959290e-02,4.499977529048919678e-01,-3.740603476762771606e-02,-1.613443484529852867e-03,5.117992404848337173e-03,-4.802937805652618408e-02,-1.999260336160659790e-01,1.669400334358215332e-01,1.117904558777809143e-01,1.199814081192016602e-01,-2.762501835823059082e-01,-6.053594872355461121e-03,-3.835730850696563721e-01,-9.176910971291363239e-04,1.292888671159744263e-01,8.251317776739597321e-03,1.513887345790863037e-01,4.636331647634506226e-02,1.437604613602161407e-02,-1.381121128797531128e-01,-2.157145412638783455e-03,-2.593420147895812988e-01,-1.890621334314346313e-01,3.052189387381076813e-02,-1.294611543416976929e-01,2.116745524108409882e-02,-2.226814776659011841e-01,2.314665541052818298e-02,1.192903816699981689e-01,7.606738060712814331e-02,-8.471219986677169800e-02,-2.058974206447601318e-01,1.479335688054561615e-02,1.087208986282348633e-01,-6.614848971366882324e-02,1.586635969579219818e-02,-3.495974466204643250e-03,-1.221106052398681641e-01,3.184485062956809998e-02,1.184756383299827576e-01,1.146183982491493225e-01,3.452800959348678589e-02,2.198394685983657837e-01,-9.490218013525009155e-02,2.386039309203624725e-02,2.141012102365493774e-01,3.390499055385589600e-01,-2.230003178119659424e-01,3.944462165236473083e-02,2.611803412437438965e-01,-3.016044571995735168e-02,1.910017430782318115e-02,5.823628231883049011e-02,-2.099482566118240356e-01,1.500574946403503418e-01,-2.875782316550612450e-03,3.638044372200965881e-02,1.341981887817382812e-01,1.967556476593017578e-01,-1.422467380762100220e-01
-7.002740502357482910e-01,3.867020308971405029e-01,-2.820115163922309875e-02,3.859613537788391113e-01,1.313412189483642578e-01,-3.157905340194702148e-01,-2.373262494802474976e-02,5.896390974521636963e-02,2.050123661756515503e-01,-2.765545807778835297e-02,-2.306014746427536011e-01,3.220074176788330078e-01,4.235846102237701416e-01,-3.590268492698669434e-01,3.689809143543243408e-01,-1.550235087051987648e-03,-7.992046303115785122e-04,8.054883778095245361e-02,-3.274460136890411377e-01,-3.239334225654602051e-01,8.304134756326675415e-02,-3.083115816116333008e-01,8.173340559005737305e-02,2.630340456962585449e-01,1.244394555687904358e-01,-4.030274227261543274e-02,-2.121796086430549622e-02,1.425824314355850220e-01,1.665839850902557373e-01,1.795158237218856812e-01,-3.006735630333423615e-02,-2.283959388732910156e-01,-2.423937171697616577e-01,-3.721455577760934830e-03,-3.559482991695404053e-01,3.944302499294281006e-01,-7.398077286779880524e-03,7.652674615383148193e-02,-1.545591503381729126e-01,7.496011257171630859e-02,-3.216239511966705322e-01,9.943998605012893677e-02,9.013078361749649048e-02,-1.197780668735504150e-01,5.113807693123817444e-02,1.961162537336349487e-01,-1.909989491105079651e-02,-1.426319475285708904e-03,5.624677240848541260e-02,2.515511214733123779e-01,-1.509647369384765625e-01,-2.606623107567429543e-03,1.369575411081314087e-02,1.169851049780845642e-01,4.942279309034347534e-02,8.158597350120544434e-02,1.117028817534446716e-01,-9.538920223712921143e-02,1.579019129276275635e-01,-7.350806146860122681e-02,3.895558789372444153e-02,-8.767143590375781059e-04,2.465562522411346436e-01,3.914823532104492188e-01
-2.004537284374237061e-01,-4.243108332157135010e-01,-3.541452586650848389e-01,1.126689016819000244e-01,-2.610707469284534454e-02,1.522341817617416382e-01,-2.498583495616912842e-01,-7.316212356090545654e-02,1.877564340829849243e-01,-4.619674980640411377e-01,-4.458665549755096436e-01,3.518649041652679443e-01,5.121752619743347168e-01,-1.569231152534484863e-01,-3.198899701237678528e-02,-1.817823760211467743e-02,-2.576098963618278503e-02,-2.142121549695730209e-03,-9.474883228540420532e-02,-2.025162577629089355e-01,-7.312700618058443069e-03,-1.270919945091009140e-02,-6.286712735891342163e-02,8.111309260129928589e-02,1.700321733951568604e-01,-3.516027033329010010e-01,-1.821564882993698120e-01,-6.729096919298171997e-02,1.863474957644939423e-02,-6.245822831988334656e-02,-3.419249057769775391e-01,3.029032796621322632e-02,1.574052125215530396e-01,1.747174113988876343e-01,6.042598932981491089e-02,-6.755977123975753784e-02,3.968778625130653381e-02,2.898813188076019287e-01,2.829253440722823143e-03,4.377868771553039551e-01,-7.256478071212768555e-02,-2.111539542675018311e-01,3.224926292896270752e-01,1.815442889928817749e-01,-9.258089587092399597e-03,3.501285612583160400e-01,-1.675204187631607056e-01,-1.071446202695369720e-02,-1.284376233816146851e-01,2.389051020145416260e-01,1.047283560037612915e-01,-3.320263326168060303e-02,2.145194634795188904e-02,4.230354726314544678e-01,-3.676718100905418396e-02,9.374909847974777222e-02,5.870672315359115601e-02,-3.409763574600219727e-01,3.481577336788177490e-01,-5.627757310867309570e-02,1.078677922487258911e-01,1.104947328567504883e-01,4.400992393493652344e-01,2.004371583461761475e-01
-1.329170763492584229e-01,-2.428448498249053955e-01,-5.381869673728942871e-01,2.231798171997070312e-01,-6.426682323217391968e-02,3.001878261566162109e-01,2.470653131604194641e-02,-2.909026443958282471e-01,-6.750643998384475708e-02,-1.193520203232765198e-01,-1.961581259965896606e-01,1.280237883329391479e-01,2.204589545726776123e-01,9.945616871118545532e-02,-2.255010306835174561e-01,-9.220535308122634888e-02,-5.190380811691284180e-01,-3.590233251452445984e-02,1.762603074312210083e-01,4.848545789718627930e-02,1.385357379913330078e-01,-2.750275284051895142e-02,2.764934673905372620e-02,-2.807263433933258057e-01,4.446605220437049866e-02,2.041337192058563232e-01,-3.256929665803909302e-02,2.098719216883182526e-02,-1.317988336086273193e-01,-4.934395663440227509e-03,-1.484550982713699341e-01,-1.067586690187454224e-01,2.049850076436996460e-01,3.922174125909805298e-02,-2.247001677751541138e-01,-1.632527858018875122e-01,2.664658613502979279e-02,4.999849796295166016e-01,1.126441266387701035e-02,1.345006376504898071e-01,-1.412265598773956299e-01,9.797301143407821655e-02,-1.912788301706314087e-01,4.823774695396423340e-01,1.079696267843246460e-01,1.557956039905548096e-01,1.271319985389709473e-01,-2.589233517646789551e-01,7.493381202220916748e-02,1.896872371435165405e-01,2.990471422672271729e-01,-1.179260984063148499e-01,1.167014613747596741e-02,5.434516072273254395e-01,7.269263267517089844e-02,-2.224512994289398193e-01,-1.518028229475021362e-01,-3.941396772861480713e-01,2.023678570985794067e-01,-8.301445841789245605e-02,9.342949092388153076e-02,1.493524760007858276e-01,2.256550490856170654e-01,2.520935833454132080e-01
-3.146996200084686279e-01,-4.680034518241882324e-01,-3.653308153152465820e-01,5.696060657501220703e-01,-3.322806656360626221e-01,5.556801557540893555e-01,1.096154004335403442e-01,-4.523447155952453613e-01,-2.063090056180953979e-01,1.577395051717758179e-01,-2.003111690282821655e-01,-6.725544482469558716e-02,2.477711141109466553e-01,-7.589507382363080978e-03,-4.017065744847059250e-03,-9.963811933994293213e-02,-5.318507552146911621e-01,-1.749005168676376343e-02,1.456423550844192505e-01,4.329248517751693726e-02,1.672285050153732300e-01,-9.389561414718627930e-02,1.558778584003448486e-01,-6.259207725524902344e-01,-3.994602560997009277e-01,2.992163598537445068e-01,-4.734283685684204102e-01,2.714706063270568848e-01,-3.435381948947906494e-01,-2.672163024544715881e-02,-2.389666736125946045e-01,-1.163887381553649902e-01,1.471010446548461914e-01,-1.272214055061340332e-01,-3.852598667144775391e-01,-5.419223904609680176e-01,2.444752454757690430e-01,4.439993202686309814e-01,-1.402634233236312866e-01,1.624515205621719360e-01,-1.657170057296752930e-01,5.341128706932067871e-01,-4.038211703300476074e-01,3.738678991794586182e-01,-3.977909684181213379e-02,-4.077471792697906494e-02,9.558416157960891724e-02,-4.526363015174865723e-01,5.794374737888574600e-03,7.047295570373535156e-02,1.870011985301971436e-01,-4.331597685813903809e-01,1.858829520642757416e-02,6.559213995933532715e-01,6.194013357162475586e-01,-1.954169124364852905e-01,2.705486118793487549e-02,-2.791966199874877930e-01,2.688766717910766602e-01,-1.396444737911224365e-01,3.720931708812713623e-02,-3.464137390255928040e-02,-1.926580816507339478e-02,-1.819868087768554688e-01
-3.956548403948545456e-03,-1.560009568929672241e-01,-7.943526655435562134e-02,8.933233022689819336e-01,-4.051661789417266846e-01,5.771622061729431152e-01,-2.757503092288970947e-01,-1.155656352639198303e-01,7.849405705928802490e-02,-3.292495310306549072e-01,-1.412707418203353882e-01,3.533444702625274658e-01,-4.380801692605018616e-02,-1.321682631969451904e-01,-1.930267959833145142e-01,-2.316804379224777222e-01,-3.984694182872772217e-02,-2.338156253099441528e-01,1.399759799242019653e-01,4.484461843967437744e-01,-2.991799637675285339e-02,-4.193807542324066162e-01,7.527451217174530029e-02,-3.115313500165939331e-02,1.545228362083435059e-01,-6.443706154823303223e-02,-2.930971682071685791e-01,-2.798327244818210602e-02,2.752922475337982178e-02,-2.110099941492080688e-01,-5.556222200393676758e-01,1.744672209024429321e-01,-1.062934026122093201e-01,2.798315286636352539e-01,1.654714904725551605e-02,-2.534088194370269775e-01,1.764866262674331665e-01,3.749615252017974854e-01,1.042374316602945328e-02,5.101219937205314636e-02,7.800237741321325302e-03,-1.822208464145660400e-01,3.360062092542648315e-02,4.163317009806632996e-02,-1.532269269227981567e-01,2.977668344974517822e-01,7.693556696176528931e-02,-4.150153696537017822e-02,-1.256449967622756958e-01,-3.710148856043815613e-02,6.860195398330688477e-01,-1.121367886662483215e-01,9.210149198770523071e-02,1.634207963943481445e-01,-1.645173430442810059e-01,-2.084503881633281708e-02,2.015002369880676270e-01,-3.939650356769561768e-01,1.485068816691637039e-02,-1.684831529855728149e-01,6.843636929988861084e-02,2.740131616592407227e-01,1.630488187074661255e-01,1.213534772396087646e-01
-1.433514505624771118e-01,-1.028745174407958984e+00,3.413632884621620178e-02,-3.122244775295257568e-01,1.461175233125686646e-01,-9.737769514322280884e-02,-3.852401375770568848e-01,-3.300228714942932129e-01,2.276891320943832397e-01,-3.368352651596069336e-01,-4.789187908172607422e-01,4.255310893058776855e-01,2.441608458757400513e-01,2.246403321623802185e-02,-2.364077270030975342e-01,-1.269500106573104858e-01,1.754215210676193237e-01,-1.933909952640533447e-01,-1.795135252177715302e-02,2.592972218990325928e-01,7.490449398756027222e-02,-2.447113543748855591e-01,-1.337341666221618652e-01,2.202045470476150513e-01,1.966556459665298462e-01,-4.877150654792785645e-01,-6.178439259529113770e-01,3.016045987606048584e-01,-5.423943996429443359e-01,2.036279886960983276e-01,-6.432154774665832520e-01,7.065209746360778809e-01,-2.006925940513610840e-01,5.386648774147033691e-01,3.686271011829376221e-01,-8.204689621925354004e-02,-2.119695581495761871e-02,9.910564124584197998e-02,7.356965541839599609e-01,-1.284418702125549316e-01,-3.242200314998626709e-01,-4.159190058708190918e-01,2.509873211383819580e-01,-3.894885629415512085e-02,2.254477143287658691e-01,4.110153317451477051e-01,-3.450914472341537476e-02,4.186026155948638916e-01,-3.896463513374328613e-01,3.689341247081756592e-01,-6.644084304571151733e-02,4.832026064395904541e-01,5.620332956314086914e-01,2.549702227115631104e-01,2.745966613292694092e-01,3.914119303226470947e-01,3.254075348377227783e-01,-1.103615239262580872e-01,1.006435602903366089e-02,-5.352793931961059570e-01,-5.357818305492401123e-02,-4.220215976238250732e-02,3.866236805915832520e-01,-3.498738408088684082e-01
-5.033234506845474243e-02,-5.450791120529174805e-01,-5.558066964149475098e-01,7.160806655883789062e-01,-3.207773566246032715e-01,5.781386494636535645e-01,-2.417952418327331543e-01,-1.168224886059761047e-01,2.349820733070373535e-01,-2.882672548294067383e-01,-3.576384484767913818e-01,2.015393227338790894e-01,5.424816906452178955e-02,1.219772081822156906e-02,-6.378999352455139160e-01,-5.782315880060195923e-02,2.068265080451965332e-01,-3.924084007740020752e-01,-1.513888835906982422e-01,5.402094125747680664e-01,1.016910448670387268e-01,-5.858835205435752869e-02,7.286605238914489746e-02,-2.118041366338729858e-02,-3.543111309409141541e-02,-8.983938605524599552e-04,-3.832282423973083496e-01,1.846807301044464111e-01,-1.849857345223426819e-02,3.461973965167999268e-01,-6.046710014343261719e-01,3.746775090694427490e-01,-9.373001754283905029e-02,6.195713281631469727e-01,2.746909260749816895e-01,-1.856865435838699341e-01,3.304224833846092224e-02,-8.851634711027145386e-02,1.670070439577102661e-01,-3.111989796161651611e-01,-2.304790914058685303e-01,-6.007129326462745667e-03,2.398479878902435303e-01,3.553594276309013367e-02,1.516729146242141724e-01,1.456786543130874634e-01,1.772873476147651672e-02,-2.821119502186775208e-02,-2.639272212982177734e-01,4.316893517971038818e-01,2.628788650035858154e-01,7.605941593647003174e-02,3.615557253360748291e-01,7.892006039619445801e-01,1.709282845258712769e-01,-1.586117595434188843e-01,-1.230673044919967651e-01,7.827378809452056885e-02,2.039508521556854248e-01,-5.676793456077575684e-01,2.542901039123535156e-01,3.776637017726898193e-01,3.876018226146697998e-01,-3.410839661955833435e-02
1.916711404919624329e-02,-5.510118007659912109e-01,-2.656001746654510498e-01,-3.594066500663757324e-01,-1.129261106252670288e-01,1.749513298273086548e-01,-1.300621926784515381e-01,-6.044270992279052734e-01,-9.981428831815719604e-02,-7.150728255510330200e-02,-3.347173035144805908e-01,1.087262257933616638e-01,4.438359439373016357e-01,2.666805982589721680e-01,-4.190281927585601807e-01,-1.543925143778324127e-02,3.453984260559082031e-01,-2.536767162382602692e-02,4.174093157052993774e-02,4.219906330108642578e-01,1.613162159919738770e-01,8.572039008140563965e-02,1.478784829378128052e-01,-1.369562149047851562e-01,-7.278015464544296265e-02,-2.706443890929222107e-02,-8.582810312509536743e-02,5.335746333003044128e-02,-7.743536829948425293e-01,7.266714423894882202e-02,-5.967338755726814270e-02,-5.646955966949462891e-02,7.679918408393859863e-02,1.206496208906173706e-01,2.265743017196655273e-01,-1.667354702949523926e-01,3.469590842723846436e-01,4.415715336799621582e-01,3.603227734565734863e-01,9.964566677808761597e-02,-1.964363157749176025e-01,4.850816428661346436e-01,3.340010643005371094e-01,1.501019597053527832e-01,1.996061950922012329e-01,5.667884945869445801e-01,-2.860103547573089600e-02,2.757852971553802490e-01,2.980226278305053711e-02,5.918750166893005371e-02,3.193493187427520752e-01,5.391072481870651245e-02,-2.658910118043422699e-03,2.826100774109363556e-02,2.199920415878295898e-01,2.040106803178787231e-01,2.065960019826889038e-01,-1.301624905318021774e-02,3.055569231510162354e-01,8.994145691394805908e-02,1.314412206411361694e-01,2.211002260446548462e-01,2.162243425846099854e-01,3.118628263473510742e-01
6.089449673891067505e-02,3.702048957347869873e-01,-3.626520931720733643e-02,-9.547615051269531250e-02,3.874935582280158997e-02,-1.846031844615936279e-02,1.648195087909698486e-02,2.385270446538925171e-01,7.729082554578781128e-02,-1.659378595650196075e-02,1.907122693955898285e-02,6.410646438598632812e-02,2.604186236858367920e-01,-6.220997311174869537e-03,6.710515916347503662e-02,2.145241387188434601e-02,-9.665733575820922852e-02,2.168267220258712769e-02,-2.588929831981658936e-01,-6.095017120242118835e-02,-3.744928108062595129e-04,-1.003953292965888977e-01,1.458806693553924561e-01,-3.377463668584823608e-02,-4.671871289610862732e-02,1.111110001802444458e-01,7.357168942689895630e-03,1.360384374856948853e-01,-1.113982647657394409e-01,-2.468200959265232086e-02,-3.125658491626381874e-03,-6.823585182428359985e-02,-2.256339937448501587e-01,-4.883077368140220642e-02,1.681515388190746307e-02,1.176493167877197266e-01,-1.605474203824996948e-02,-1.241538822650909424e-01,-1.785102337598800659e-01,1.782038360834121704e-01,1.123313158750534058e-01,-1.644651889801025391e-01,6.795241683721542358e-02,-7.688771933317184448e-02,4.205248877406120300e-02,9.005352109670639038e-02,-1.559211015701293945e-01,-2.551499903202056885e-01,2.882358618080615997e-02,1.245584920980036259e-03,-7.923207432031631470e-02,5.606813821941614151e-03,-2.149411290884017944e-02,-1.472320687025785446e-02,-1.970816636458039284e-03,-2.845226228237152100e-01,-4.441127777099609375e-01,-2.216645702719688416e-02,-7.874343544244766235e-02,-4.871543962508440018e-03,3.346755728125572205e-02,-6.985623389482498169e-02,6.006119307130575180e-03,1.579755693674087524e-01
9.264650195837020874e-02,2.201964855194091797e-01,1.013966500759124756e-01,-1.874537616968154907e-01,-9.337199479341506958e-02,-5.638355016708374023e-02,2.175503969192504883e-01,6.288426369428634644e-02,1.187995076179504395e-01,-1.344854086637496948e-01,-1.693093180656433105e-01,4.547839760780334473e-01,1.501318216323852539e-01,-3.388799130916595459e-01,3.431373834609985352e-01,-1.004786491394042969e-01,-4.192260205745697021e-01,7.889647781848907471e-02,-5.075516924262046814e-02,-2.633160352706909180e-01,9.823708236217498779e-02,7.090988755226135254e-02,-1.439066082239151001e-01,6.837221980094909668e-02,2.504585981369018555e-01,-5.168417692184448242e-01,-6.039442494511604309e-02,2.152117490768432617e-01,-6.222405284643173218e-02,-3.506525158882141113e-01,-4.257036745548248291e-02,-3.130348026752471924e-02,-1.303433328866958618e-01,-5.144946649670600891e-02,-2.663857936859130859e-01,-2.959364652633666992e-02,6.186655908823013306e-02,2.489907592535018921e-01,-3.605528175830841064e-01,2.334925681352615356e-01,-2.394268959760665894e-01,-2.785257101058959961e-01,-2.686735391616821289e-01,-2.117067016661167145e-02,-3.355249166488647461e-01,3.815777599811553955e-01,-3.274636343121528625e-02,-2.748575434088706970e-02,-5.352520570158958435e-02,7.636203616857528687e-02,7.981029897928237915e-02,-1.425396054983139038e-01,1.889308169484138489e-02,-2.400931864976882935e-01,-8.363205939531326294e-02,5.139385163784027100e-02,-1.608693301677703857e-01,-1.627571731805801392e-01,3.514344394207000732e-01,1.534761115908622742e-02,2.797669470310211182e-01,8.067271858453750610e-02,2.139960825443267822e-01,8.627234697341918945e-01
-6.353915669023990631e-03,8.501667529344558716e-02,-1.519054472446441650e-01,-5.093169808387756348e-01,-1.113648936152458191e-01,9.513771533966064453e-02,1.886938363313674927e-01,1.358801722526550293e-01,-4.164174199104309082e-02,-1.760304346680641174e-02,6.208081543445587158e-02,-1.643000356853008270e-02,3.520402014255523682e-01,7.234185189008712769e-02,3.650201857089996338e-02,2.011797949671745300e-02,-3.364219367504119873e-01,-1.767901144921779633e-02,9.915672242641448975e-02,-3.432333469390869141e-01,-5.108756572008132935e-02,-1.561042387038469315e-02,-1.226673722267150879e-01,-7.309245318174362183e-02,-8.280143141746520996e-02,-5.441157892346382141e-02,5.125645548105239868e-02,5.255446955561637878e-02,-1.289812326431274414e-01,-5.457015708088874817e-02,1.997285336256027222e-02,-8.614758844487369061e-04,8.161498606204986572e-02,-1.747704483568668365e-02,-7.152263820171356201e-02,-1.327016204595565796e-01,-1.871736906468868256e-02,-2.470830529928207397e-01,-1.083894670009613037e-01,-6.382217258214950562e-02,-1.930372267961502075e-01,-3.947017788887023926e-01,-8.684803545475006104e-02,6.881111115217208862e-02,5.692633986473083496e-02,-1.683746725320816040e-01,-2.341837808489799500e-02,-2.338263839483261108e-01,-8.907775580883026123e-02,-6.970357149839401245e-02,5.695424601435661316e-02,-2.346897684037685394e-02,-1.713135689496994019e-01,2.287874072790145874e-01,4.701893776655197144e-02,-2.084918469190597534e-01,-5.877217054367065430e-01,-1.184816434979438782e-01,1.377988904714584351e-01,3.780691698193550110e-02,-1.954381167888641357e-01,2.536524832248687744e-01,-1.945018209517002106e-02,2.672408819198608398e-01
9.926375746726989746e-02,-1.062745079398155212e-01,-2.082026153802871704e-01,-8.375088125467300415e-02,-2.093802392482757568e-02,6.232943851500749588e-04,1.035619303584098816e-01,-1.632972955703735352e-01,-9.873543679714202881e-02,-1.644484326243400574e-02,-1.545281857252120972e-01,6.130240391939878464e-03,3.375881016254425049e-01,-1.229711715131998062e-02,-1.104388982057571411e-01,5.897778086364269257e-03,2.260648459196090698e-02,-1.766495704650878906e-01,-6.638396065682172775e-03,1.537902951240539551e-01,-8.126661181449890137e-02,7.091148942708969116e-02,1.887572258710861206e-01,-9.973892010748386383e-03,1.981740891933441162e-01,1.186058111488819122e-02,-4.956696927547454834e-01,1.434843838214874268e-01,3.156951442360877991e-02,1.621313840150833130e-01,-2.138668112456798553e-02,3.073437372222542763e-03,7.570427842438220978e-03,-1.033255923539400101e-02,-8.216737187467515469e-04,6.891876459121704102e-02,4.527642577886581421e-02,-1.425224170088768005e-02,-1.594823449850082397e-01,-2.376672625541687012e-02,-2.089759558439254761e-01,-2.455544769763946533e-01,-1.548510789871215820e-01,-1.478035282343626022e-02,-3.000696003437042236e-01,-3.363617137074470520e-02,1.117149926722049713e-02,-6.551510095596313477e-02,-5.790342763066291809e-02,5.404371395707130432e-02,4.186214134097099304e-02,-1.743438281118869781e-02,-1.184054836630821228e-02,1.163252234458923340e+00,2.024491131305694580e-01,4.759677872061729431e-02,-1.312095969915390015e-01,-2.547727227210998535e-01,5.024433732032775879e-01,-3.560332953929901123e-02,-2.186038494110107422e-01,3.502641245722770691e-02,-5.153547227382659912e-02,-5.144460797309875488e-01
5.766373276710510254e-01,1.002413511276245117e+00,3.081533312797546387e-01,6.836238503456115723e-01,4.017909467220306396e-01,-2.132192254066467285e-01,1.394387334585189819e-01,-2.435574829578399658e-01,-7.932133972644805908e-03,8.698109537363052368e-03,1.973066478967666626e-01,2.606345713138580322e-01,3.544892966747283936e-01,-8.355743438005447388e-02,9.470313787460327148e-02,3.420944511890411377e-02,2.474566847085952759e-01,3.933745995163917542e-02,-1.796627193689346313e-01,-9.237065911293029785e-02,3.177476227283477783e-01,-4.105180799961090088e-01,1.203925535082817078e-01,1.845851093530654907e-01,-3.069379925727844238e-02,-4.824468493461608887e-02,-3.421758711338043213e-01,4.776949882507324219e-01,-1.626276820898056030e-01,-2.642109096050262451e-01,3.912624716758728027e-02,7.111278362572193146e-03,8.136801421642303467e-03,-1.944525241851806641e-01,1.335376501083374023e-02,2.534579932689666748e-01,-3.447809722274541855e-03,-2.433377355337142944e-01,7.584571093320846558e-02,-1.401284039020538330e-01,-4.271052405238151550e-02,1.272747516632080078e-01,3.426930308341979980e-01,-3.550748825073242188e-01,-6.940479278564453125e-01,1.914267092943191528e-01,2.929931692779064178e-02,2.015188485383987427e-01,2.803482115268707275e-01,5.832970142364501953e-03,-2.803176343441009521e-01,2.020929306745529175e-01,-1.707044430077075958e-02,2.732188999652862549e-01,-1.764005869626998901e-01,3.439233005046844482e-01,-1.757290214300155640e-01,1.767528057098388672e-01,4.115002453327178955e-01,2.515218555927276611e-01,6.224668622016906738e-01,2.432014793157577515e-01,-4.813791811466217041e-01,-1.924021393060684204e-01
9.837966412305831909e-03,6.081404164433479309e-02,4.262311384081840515e-02,7.837604284286499023e-01,-4.847638607025146484e-01,-1.267266739159822464e-02,-5.222330987453460693e-02,3.755103680305182934e-04,9.693270549178123474e-03,8.571182936429977417e-02,8.835951983928680420e-02,6.206025928258895874e-02,-4.807322099804878235e-02,8.609157800674438477e-02,-1.341401338577270508e-01,-2.776829712092876434e-02,1.152518838644027710e-01,1.521192863583564758e-02,-5.220750346779823303e-02,2.621842920780181885e-01,6.165420264005661011e-02,-1.291592717170715332e-01,-2.319094166159629822e-02,-1.594693064689636230e-01,-2.428695745766162872e-02,6.161104142665863037e-02,-6.689260900020599365e-02,4.822522401809692383e-03,3.895771503448486328e-02,-1.283460203558206558e-02,3.118968801572918892e-03,1.569514162838459015e-02,1.496261805295944214e-01,-5.213738977909088135e-02,1.121088746003806591e-03,-1.133731007575988770e-01,-1.452144794166088104e-02,-1.339283138513565063e-01,-3.013860881328582764e-01,7.724740356206893921e-02,2.940011620521545410e-01,1.387129258364439011e-02,1.060241907835006714e-01,2.497079409658908844e-02,1.218361631035804749e-01,3.837727382779121399e-02,-3.051439765840768814e-03,-2.193497717380523682e-01,-9.005776792764663696e-02,8.996274322271347046e-03,-7.358866930007934570e-02,-2.638977468013763428e-01,5.932945292443037033e-03,2.733608521521091461e-02,1.698207668960094452e-02,-2.606348134577274323e-02,1.072462871670722961e-01,-9.623700380325317383e-02,-9.932710975408554077e-02,-2.893068082630634308e-02,1.634429097175598145e-01,-6.460115313529968262e-02,-1.176991015672683716e-01,-2.320705950260162354e-01
2.392950057983398438e-01,1.349755376577377319e-01,-1.725327372550964355e-01,3.606643900275230408e-02,-1.400245577096939087e-01,1.831891387701034546e-01,-6.397625058889389038e-02,2.381289899349212646e-01,-9.693364799022674561e-02,1.170595809817314148e-01,2.160577625036239624e-01,1.390726491808891296e-02,-1.998965442180633545e-01,4.046920537948608398e-01,-4.519791901111602783e-02,-3.163207694888114929e-02,-3.031471371650695801e-01,-2.861021272838115692e-02,3.431913554668426514e-01,4.664858281612396240e-01,-5.940797924995422363e-02,2.333658039569854736e-01,4.652829468250274658e-01,-7.152456045150756836e-02,-3.460883498191833496e-01,-1.317606568336486816e-01,-1.267067193984985352e-01,2.356370389461517334e-01,2.809875309467315674e-01,-1.681748479604721069e-01,7.738613057881593704e-04,-5.601830035448074341e-02,1.217993199825286865e-01,-2.569608762860298157e-02,1.104800626635551453e-01,-1.243657171726226807e-01,-1.791565865278244019e-02,-1.262163519859313965e-01,-3.566726297140121460e-02,2.952594077214598656e-03,1.730697453022003174e-01,-2.126195728778839111e-01,2.814199775457382202e-02,-1.132508516311645508e-01,1.330791860818862915e-01,2.758197188377380371e-01,3.103995621204376221e-01,4.023965075612068176e-02,1.586715281009674072e-01,-3.258757526054978371e-03,2.484680712223052979e-01,-4.403880983591079712e-02,1.314150635153055191e-02,-2.082909829914569855e-02,6.662323325872421265e-02,1.176193505525588989e-01,-8.659690618515014648e-02,-2.237240225076675415e-01,-1.675991117954254150e-01,4.506453499197959900e-02,-4.234854578971862793e-01,-4.425904527306556702e-02,-3.686494380235671997e-02,-2.324888482689857483e-04
2.205889225006103516e-01,1.601644605398178101e-01,-9.218085557222366333e-02,1.003546640276908875e-01,-8.207576721906661987e-02,1.527211964130401611e-01,-5.866902321577072144e-02,-6.743690371513366699e-02,1.109590977430343628e-01,-1.485988050699234009e-01,-2.316169738769531250e-01,2.058726036921143532e-03,1.612052023410797119e-01,2.153670638799667358e-01,4.235113412141799927e-02,-6.269653141498565674e-02,1.004729885607957840e-02,-1.815323531627655029e-02,3.857300430536270142e-02,1.793979853391647339e-01,-1.039348766207695007e-01,-9.576779603958129883e-02,2.063512057065963745e-01,-8.210034668445587158e-02,3.740540519356727600e-02,-2.938090590760111809e-03,-2.062338143587112427e-01,-2.656325399875640869e-01,4.839702323079109192e-02,4.098029807209968567e-02,-1.025504618883132935e-01,3.641984760761260986e-01,1.448552608489990234e-01,6.127389147877693176e-02,1.406862679868936539e-02,-1.557812001556158066e-02,9.072391688823699951e-02,1.131494492292404175e-01,1.007672771811485291e-01,-2.017495781183242798e-02,-1.549095474183559418e-02,-8.280771225690841675e-02,2.135205268859863281e-01,-4.486369714140892029e-02,7.254195958375930786e-02,3.532453179359436035e-01,-1.576232612133026123e-01,1.571533530950546265e-01,-1.859389841556549072e-01,2.516558170318603516e-01,-1.354865450412034988e-02,8.202254772186279297e-02,1.974948495626449585e-01,-2.367048896849155426e-02,6.204536184668540955e-02,2.310491353273391724e-01,5.819259211421012878e-02,2.465952001512050629e-02,4.025940224528312683e-02,-7.468117028474807739e-02,3.473814725875854492e-01,1.087955236434936523e-01,2.268684506416320801e-01,-6.446068733930587769e-02
1.571596413850784302e-01,-4.927268624305725098e-02,-2.131814509630203247e-01,2.327694743871688843e-02,9.710035473108291626e-02,1.814130246639251709e-01,-4.590835049748420715e-02,3.988628461956977844e-02,1.965548545122146606e-01,-3.869715034961700439e-01,-4.567838609218597412e-01,5.755478739738464355e-01,-6.280780583620071411e-02,-2.851129695773124695e-02,4.663171246647834778e-02,4.590273834764957428e-03,-1.082988530397415161e-01,-4.032811149954795837e-02,3.987451270222663879e-02,5.782593786716461182e-02,4.728392511606216431e-02,-4.489244520664215088e-02,1.387540698051452637e-01,2.457914501428604126e-02,3.244613111019134521e-01,-4.716048240661621094e-01,-2.322077006101608276e-01,2.673037648200988770e-01,2.885067276656627655e-02,-1.491543948650360107e-01,-3.955424726009368896e-01,3.064477443695068359e-01,-1.099442988634109497e-01,3.426054716110229492e-01,4.084758460521697998e-02,1.610848456621170044e-01,1.275962889194488525e-01,3.472800850868225098e-01,-8.048979565501213074e-03,1.258993148803710938e-01,-1.356281340122222900e-01,-6.633160263299942017e-02,2.018339186906814575e-01,4.094862937927246094e-02,-3.416643738746643066e-01,1.120695322751998901e-01,1.783455722033977509e-02,1.448435895144939423e-02,4.454031120985746384e-03,2.277583032846450806e-01,2.639013826847076416e-01,1.223059073090553284e-01,3.692960366606712341e-02,1.965333372354507446e-01,-1.862820051610469818e-02,1.448529660701751709e-01,5.609540641307830811e-02,-5.360710620880126953e-01,4.363788366317749023e-01,-5.315887182950973511e-02,2.085598260164260864e-01,5.006940960884094238e-01,4.802526533603668213e-01,5.968580245971679688e-01
-2.202333062887191772e-01,-4.596660435199737549e-01,-4.672210216522216797e-01,2.206394225358963013e-01,8.936300128698348999e-02,1.390858888626098633e-01,7.762236893177032471e-02,-1.506876945495605469e-01,7.192495465278625488e-02,-8.206690847873687744e-02,-2.167126983404159546e-01,8.313772082328796387e-02,4.175976514816284180e-01,5.902664735913276672e-02,-2.487714439630508423e-01,-1.951850485056638718e-03,3.643460944294929504e-02,4.947746172547340393e-02,-3.130842372775077820e-02,2.644498646259307861e-02,1.661904454231262207e-01,-2.663148939609527588e-01,1.581120342016220093e-01,-8.244220912456512451e-02,4.649596288800239563e-02,-2.516479790210723877e-02,-6.824274361133575439e-02,8.306521177291870117e-02,-7.793249189853668213e-02,9.513708204030990601e-02,-1.217676028609275818e-01,-6.679753959178924561e-02,1.882307827472686768e-01,1.202992722392082214e-01,-1.449957191944122314e-01,-5.425956100225448608e-02,-1.261706091463565826e-02,7.812976837158203125e-01,-4.465090110898017883e-02,2.989699542522430420e-01,-4.251445829868316650e-02,-2.082579284906387329e-01,5.434666574001312256e-02,2.419557720422744751e-01,2.654088288545608521e-02,3.042848110198974609e-01,-8.140888065099716187e-02,-1.382461190223693848e-01,-2.374799698591232300e-01,1.027014702558517456e-01,1.330501288175582886e-01,-2.252526767551898956e-02,-1.687891595065593719e-02,1.114632375538349152e-02,-6.681740283966064453e-02,-7.774554193019866943e-02,-6.161786243319511414e-02,-2.595450282096862793e-01,1.460429579019546509e-01,-7.744214683771133423e-02,3.081912398338317871e-01,1.425583511590957642e-01,7.054697275161743164e-01,4.014843106269836426e-01
-8.666025847196578979e-02,-3.145296871662139893e-01,-5.623165965080261230e-01,-3.674339354038238525e-01,2.850607633590698242e-01,6.400463171303272247e-03,-1.739001870155334473e-01,1.242697760462760925e-01,2.437766343355178833e-01,-9.777526371181011200e-03,-4.224704578518867493e-02,2.066617906093597412e-01,3.780521452426910400e-01,-1.946443133056163788e-02,-3.068504296243190765e-02,-3.598879650235176086e-02,1.408789902925491333e-01,4.181876778602600098e-03,-2.222951129078865051e-02,-4.744355082511901855e-01,2.687790431082248688e-02,-6.991726905107498169e-02,-2.500774562358856201e-01,4.459944553673267365e-03,7.046114653348922729e-02,1.905873864889144897e-01,-7.191109657287597656e-02,1.206464394927024841e-01,-4.967948421835899353e-02,6.014441605657339096e-03,-1.609549075365066528e-01,-1.242905706167221069e-01,1.156324893236160278e-01,-3.841922432184219360e-02,-5.167297273874282837e-02,2.228443510830402374e-02,-6.190719082951545715e-03,2.036313116550445557e-01,-2.139524091035127640e-03,3.003984093666076660e-01,1.216796110384166241e-03,-6.756335496902465820e-02,2.567465007305145264e-01,1.198073774576187134e-01,1.279372274875640869e-01,3.222515583038330078e-01,-2.174009382724761963e-01,-2.801339626312255859e-01,-1.003216803073883057e-01,3.934606909751892090e-01,1.288953423500061035e-01,-1.531074494123458862e-01,-1.417590379714965820e-01,6.433488726615905762e-01,1.825073361396789551e-01,-7.567831873893737793e-02,-2.210558354854583740e-01,-2.911505997180938721e-01,-9.415622800588607788e-03,9.796849638223648071e-02,-3.768129972741007805e-04,-1.943741291761398315e-01,2.428369522094726562e-01,1.103875488042831421e-01
-8.498350530862808228e-02,-1.070682704448699951e-01,-4.328042864799499512e-01,-3.483911603689193726e-02,-5.419475957751274109e-02,3.498081862926483154e-01,-2.275027567520737648e-03,2.019128799438476562e-01,2.696436084806919098e-02,-6.176913157105445862e-03,-3.392206728458404541e-01,9.093571454286575317e-02,4.894987940788269043e-01,1.990757435560226440e-01,-2.886413633823394775e-01,-6.433287262916564941e-02,-2.794350683689117432e-01,-6.385517772287130356e-03,7.755351066589355469e-02,-2.562586367130279541e-01,-9.153772890567779541e-02,-1.956639885902404785e-01,8.716457337141036987e-02,-4.148797392845153809e-01,-8.900900185108184814e-02,1.395187973976135254e-01,-3.100898861885070801e-01,1.554328352212905884e-01,-1.032471563667058945e-02,8.871453814208507538e-03,-3.593212068080902100e-01,-1.796808391809463501e-01,4.617602005600929260e-02,1.699482835829257965e-02,-8.341785520315170288e-02,-1.722827553749084473e-01,-2.122090943157672882e-02,-8.766986429691314697e-02,-1.546595841646194458e-01,5.144735425710678101e-02,-1.268711835145950317e-01,-2.702635228633880615e-01,-6.806099414825439453e-02,2.396793067455291748e-01,3.233512043952941895e-01,-2.254834584891796112e-02,1.160099878907203674e-01,-2.979011237621307373e-01,1.293137669563293457e-02,1.282058805227279663e-01,1.200044155120849609e-01,-2.796109914779663086e-01,1.058964729309082031e-01,7.187431454658508301e-01,2.783973515033721924e-01,-3.533224463462829590e-01,-5.017364025115966797e-01,-1.454349160194396973e-01,2.399026155471801758e-01,-4.793717339634895325e-02,2.823915146291255951e-02,1.500925421714782715e-02,2.055399715900421143e-01,3.703063428401947021e-01
-6.050606444478034973e-02,3.408153951168060303e-01,4.673032090067863464e-02,-8.924416266381740570e-03,-4.883919656276702881e-01,-1.552236676216125488e-01,2.655079029500484467e-02,2.576176524162292480e-01,1.132099479436874390e-01,1.855616420507431030e-01,3.484807312488555908e-01,-2.191559821367263794e-01,-4.443930089473724365e-02,-9.488976560533046722e-03,-1.088276877999305725e-01,5.225890502333641052e-02,-6.923360228538513184e-01,1.628547757863998413e-01,1.892465949058532715e-01,9.568750113248825073e-02,3.078539855778217316e-02,3.659560680389404297e-01,1.073226481676101685e-01,-2.572381198406219482e-01,-1.313212960958480835e-01,2.930451333522796631e-01,-7.985199801623821259e-03,-8.101213723421096802e-02,4.249308705329895020e-01,2.097956538200378418e-01,-5.051220953464508057e-02,-2.814535200595855713e-01,1.856715381145477295e-01,-2.905499935150146484e-01,-7.661213725805282593e-02,-7.944650202989578247e-02,-9.039250016212463379e-02,-8.898780941963195801e-01,-3.787297606468200684e-01,1.059738770127296448e-01,5.679906606674194336e-01,-1.403625756502151489e-01,-2.045750170946121216e-01,3.302844613790512085e-02,2.283505946397781372e-01,-1.947638690471649170e-01,2.396240830421447754e-01,-2.587010860443115234e-01,2.091952711343765259e-01,7.329673320055007935e-02,1.242282451130449772e-03,-2.861071825027465820e-01,-2.403229773044586182e-01,1.936681866645812988e-01,-5.307643115520477295e-02,-1.946370154619216919e-01,-1.674933359026908875e-02,-2.253881096839904785e-01,-4.877273142337799072e-01,1.293651759624481201e-01,-6.738269925117492676e-01,-4.295793175697326660e-01,-4.085162281990051270e-01,-6.082283258438110352e-01
1.044990792870521545e-01,2.876160740852355957e-01,-2.271458804607391357e-01,4.677731692790985107e-01,-2.449560724198818207e-02,-4.904749989509582520e-02,-7.656235992908477783e-02,3.275146707892417908e-02,3.154318407177925110e-02,-9.558701515197753906e-02,7.059368491172790527e-02,-6.539653986692428589e-02,-4.833399876952171326e-02,1.569039225578308105e-01,3.743499144911766052e-02,2.817112505435943604e-01,7.943359762430191040e-02,1.417953521013259888e-01,6.139859184622764587e-02,-2.345903217792510986e-01,1.538919955492019653e-01,-5.805250629782676697e-02,-1.914695203304290771e-01,-7.894199341535568237e-03,8.603058010339736938e-02,3.382056951522827148e-01,1.961048394441604614e-01,-1.850012987852096558e-01,4.151881858706474304e-02,1.599873006343841553e-01,2.138712406158447266e-01,-2.213650196790695190e-01,9.706339985132217407e-02,-2.333272248506546021e-01,-2.022429928183555603e-02,1.119509786367416382e-01,-1.267659217119216919e-01,-1.114501804113388062e-02,-1.936580538749694824e-01,2.996265292167663574e-01,1.920681446790695190e-01,1.572593748569488525e-01,3.295453488826751709e-01,1.597947627305984497e-01,3.087660372257232666e-01,-2.875545620918273926e-01,4.532784968614578247e-02,-3.338954746723175049e-01,4.082290530204772949e-01,-5.809984356164932251e-02,6.687568873167037964e-02,-2.511940002441406250e-01,-2.051851153373718262e-01,-4.434610605239868164e-01,-5.848473310470581055e-02,-2.831188440322875977e-01,2.239276096224784851e-02,1.221471726894378662e-01,-1.071432679891586304e-01,2.385608255863189697e-01,3.364488184452056885e-01,-3.006043136119842529e-01,1.596879586577415466e-02,1.296007335186004639e-01
1.183258518576622009e-01,-5.229382961988449097e-02,5.500368773937225342e-02,7.898509502410888672e-02,1.944948546588420868e-02,4.248521327972412109e-01,3.607674539089202881e-01,-1.460284292697906494e-01,-1.297708004713058472e-01,2.148991823196411133e-01,3.851438164710998535e-01,-4.834287986159324646e-02,-1.849026083946228027e-01,1.528205573558807373e-01,-2.601570487022399902e-01,9.403496235609054565e-02,-4.753537774085998535e-01,3.795047104358673096e-02,4.323873817920684814e-01,-3.527368903160095215e-01,-8.411953598260879517e-02,1.546483784914016724e-01,-2.404174506664276123e-01,-3.718142509460449219e-01,-7.152996212244033813e-02,3.920291960239410400e-01,-3.340503945946693420e-02,-1.994052827358245850e-01,-1.310816109180450439e-01,1.407562047243118286e-01,3.368983417749404907e-02,-3.860008716583251953e-01,5.574144124984741211e-01,-2.692997455596923828e-01,2.334289252758026123e-01,-1.532979905605316162e-01,-5.905906111001968384e-02,-4.739138111472129822e-02,-5.660920739173889160e-01,3.296013176441192627e-01,2.624668478965759277e-01,-3.145655691623687744e-01,-2.528750598430633545e-01,5.410091280937194824e-01,3.537175059318542480e-02,-5.077360570430755615e-02,1.240442991256713867e-01,-7.121307849884033203e-01,1.372358389198780060e-02,-4.949134886264801025e-01,1.654878109693527222e-01,-6.005989909172058105e-01,-4.314952492713928223e-01,3.174384832382202148e-01,1.059468537569046021e-01,-5.285172462463378906e-01,-1.221061572432518005e-01,-3.012979924678802490e-01,3.355773398652672768e-03,3.025223314762115479e-01,6.231448426842689514e-02,-4.135638475418090820e-01,-1.795080751180648804e-01,-6.193248629570007324e-01
-1.501290965825319290e-02,-6.432040333747863770e-01,1.074072346091270447e-01,1.250813454389572144e-01,-1.396477520465850830e-01,2.104516774415969849e-01,-4.260020703077316284e-02,1.167651191353797913e-01,-1.513345539569854736e-02,9.388088248670101166e-03,4.058215394616127014e-02,1.842938214540481567e-01,-1.138815209269523621e-01,6.783350557088851929e-02,-2.064609155058860779e-02,-1.079226434230804443e-01,-1.937548667192459106e-01,6.084151100367307663e-03,2.375762313604354858e-01,4.340016469359397888e-02,1.564285717904567719e-02,-8.953475207090377808e-02,2.593360841274261475e-01,-1.502662450075149536e-01,-1.293579787015914917e-01,2.693052589893341064e-01,-1.545776575803756714e-01,1.955878734588623047e-01,-1.709165126085281372e-01,-7.751432061195373535e-01,-1.419649124145507812e-01,-1.563110947608947754e-01,5.128196254372596741e-02,-1.675206571817398071e-01,-5.733177438378334045e-02,-1.460211277008056641e-01,1.790201663970947266e-01,2.205805778503417969e-01,-9.516906738281250000e-02,1.949763670563697815e-02,1.935611665248870850e-01,-2.256966531276702881e-01,4.212595988065004349e-03,1.107330471277236938e-01,-5.868991091847419739e-02,2.486504316329956055e-01,1.128694787621498108e-01,-2.292352467775344849e-01,-3.743190085515379906e-03,-2.604880928993225098e-02,1.553502082824707031e-01,-9.814724326133728027e-02,-7.337212562561035156e-02,4.558548629283905029e-01,2.670837193727493286e-02,8.809278160333633423e-02,-1.105848550796508789e-01,-4.230293929576873779e-01,-9.844723343849182129e-02,1.611939072608947754e-02,-9.400723874568939209e-02,-4.674391448497772217e-02,-3.539291024208068848e-02,-1.233595516532659531e-02
-1.970687881112098694e-02,-3.745539486408233643e-01,-4.580263495445251465e-01,3.892572224140167236e-01,-3.625323176383972168e-01,4.103704094886779785e-01,1.336884349584579468e-01,3.854851052165031433e-02,-1.690963357686996460e-01,2.019037958234548569e-03,-9.007361531257629395e-02,1.576046794652938843e-01,5.025200843811035156e-01,2.955544888973236084e-01,-2.524567842483520508e-01,-3.293360769748687744e-01,-1.325094848871231079e-01,-3.490526601672172546e-02,2.982887625694274902e-01,-1.496665626764297485e-01,-4.507489502429962158e-02,-1.966623216867446899e-01,2.935621142387390137e-01,-3.298301453469321132e-05,-7.919476926326751709e-02,2.352260053157806396e-01,-2.966248691082000732e-01,6.476106643676757812e-01,3.064006380736827850e-02,6.082516908645629883e-02,-4.892242550849914551e-01,-8.004988729953765869e-02,9.282353520393371582e-02,6.055642664432525635e-02,-8.158187568187713623e-02,-4.572119116783142090e-01,2.388817518949508667e-01,7.784419655799865723e-01,-2.648815326392650604e-02,5.561025813221931458e-02,-5.203436017036437988e-01,-5.268536806106567383e-01,-2.936331033706665039e-01,4.038720428943634033e-01,1.996369063854217529e-01,2.782939933240413666e-02,2.519465088844299316e-01,-2.810690402984619141e-01,1.934406161308288574e-02,1.029176637530326843e-01,2.334233522415161133e-01,-5.148410052061080933e-02,1.211582496762275696e-01,1.079999566078186035e+00,2.819788157939910889e-01,-1.975980699062347412e-01,-3.438285291194915771e-01,-2.425612062215805054e-01,5.104841589927673340e-01,-1.473565995693206787e-01,5.570930242538452148e-02,1.153670474886894226e-01,6.744329631328582764e-02,6.112306192517280579e-02
-1.906743198633193970e-01,-3.348876237869262695e-01,-2.921131849288940430e-01,4.033693075180053711e-01,-9.504014253616333008e-02,3.275471031665802002e-01,-1.531559228897094727e-01,-2.477002888917922974e-01,3.906197547912597656e-01,-4.064140915870666504e-01,-5.952180027961730957e-01,3.895476162433624268e-01,-3.682447969913482666e-02,1.419648341834545135e-02,-3.948218226432800293e-01,-8.731624484062194824e-02,-3.010779023170471191e-01,-3.320460319519042969e-01,6.203848868608474731e-02,4.696246236562728882e-02,1.098834276199340820e-01,-1.153409928083419800e-01,-3.620527312159538269e-02,-4.283351451158523560e-02,2.007887959480285645e-01,-1.052760519087314606e-02,-3.556822240352630615e-01,2.565115094184875488e-01,-7.107708603143692017e-02,3.864834085106849670e-02,-4.647582769393920898e-01,3.556146323680877686e-01,-1.050753742456436157e-01,3.886053562164306641e-01,-9.125000983476638794e-02,-3.888713717460632324e-01,1.717542856931686401e-02,-5.339020118117332458e-02,-9.061522036790847778e-02,3.282404690980911255e-02,2.141484618186950684e-02,1.052087992429733276e-01,8.944851905107498169e-02,1.186216473579406738e-01,-8.876051753759384155e-02,-4.275020211935043335e-02,-7.157959043979644775e-02,-1.976552158594131470e-01,-1.335501819849014282e-01,1.198328733444213867e-01,1.762579679489135742e-01,-1.154861450195312500e-01,2.296995930373668671e-02,6.733098626136779785e-01,-1.950169727206230164e-02,-1.471590399742126465e-01,-9.809410199522972107e-03,-2.569938004016876221e-01,1.477020829916000366e-01,-2.669228315353393555e-01,2.149517685174942017e-01,1.098285689949989319e-01,4.115286469459533691e-01,-2.325143665075302124e-02
-1.882790476083755493e-01,-3.608348667621612549e-01,-1.479765283875167370e-03,3.397166728973388672e-01,1.127124130725860596e-01,5.357134938240051270e-01,3.678106144070625305e-02,-6.871999055147171021e-02,4.187159612774848938e-02,-2.128071784973144531e-01,-5.126130208373069763e-02,1.958982497453689575e-01,2.862164676189422607e-01,-5.555735528469085693e-02,-8.726371452212333679e-03,-1.677507907152175903e-01,4.175381734967231750e-02,-1.100496295839548111e-02,1.711893081665039062e-01,-1.485151946544647217e-01,4.161784797906875610e-02,-3.597045540809631348e-01,6.708288192749023438e-01,7.405389100313186646e-02,1.000633165240287781e-01,3.288117423653602600e-02,-2.129858732223510742e-01,2.893645167350769043e-01,-5.500436946749687195e-02,-2.561132311820983887e-01,-3.750661313533782959e-01,-1.400823593139648438e-01,6.840551644563674927e-02,1.298639923334121704e-01,-2.343501746654510498e-01,-4.697221815586090088e-01,9.189704060554504395e-02,8.773817420005798340e-01,-4.846615344285964966e-02,-2.088826335966587067e-02,-4.444687366485595703e-01,-3.698765635490417480e-01,-1.901377290487289429e-01,2.505041956901550293e-01,-1.351422667503356934e-01,1.330998837947845459e-01,2.952923476696014404e-01,-6.422840803861618042e-02,6.073341518640518188e-02,1.604745686054229736e-01,2.412280291318893433e-01,-1.376730352640151978e-01,-1.822250708937644958e-02,5.320255756378173828e-01,1.227881759405136108e-02,-2.223978005349636078e-02,-2.771505415439605713e-01,-6.775507926940917969e-01,2.613468468189239502e-01,1.232554987072944641e-01,3.753984570503234863e-01,2.220864444971084595e-01,1.668414920568466187e-01,2.486962080001831055e-01
1.362083759158849716e-02,4.347692802548408508e-02,-2.306379824876785278e-01,-2.171763330698013306e-01,-1.839934587478637695e-01,-7.093130797147750854e-02,-9.490338154137134552e-03,-1.932728290557861328e-02,6.624241918325424194e-02,6.176225095987319946e-02,-3.744096495211124420e-03,4.334793612360954285e-02,4.952575564384460449e-01,-1.273448616266250610e-01,-2.875943481922149658e-01,-1.217328011989593506e-02,5.907113850116729736e-02,2.948247827589511871e-02,-4.688497865572571754e-04,2.183165550231933594e-01,-3.244780702516436577e-03,9.783877432346343994e-02,-1.700426191091537476e-01,-5.228480789810419083e-03,-6.124102696776390076e-02,9.113891422748565674e-02,9.337925165891647339e-02,-5.154263973236083984e-01,2.212304770946502686e-01,2.764069736003875732e-01,7.563059031963348389e-02,-8.069091290235519409e-02,-7.708683609962463379e-02,-5.781301110982894897e-02,2.244992405176162720e-01,-5.460944958031177521e-03,1.103932261466979980e-01,-7.071532607078552246e-01,-1.440587639808654785e-01,9.277873486280441284e-02,2.354919165372848511e-01,-5.148033611476421356e-03,1.454246640205383301e-01,-2.212973982095718384e-01,4.114012420177459717e-01,4.698819816112518311e-01,-5.020015873014926910e-03,-1.083814203739166260e-01,-3.623969480395317078e-02,-1.401489824056625366e-01,1.114127971231937408e-02,2.695974521338939667e-02,2.172110415995121002e-02,8.123748749494552612e-02,1.619909703731536865e-02,-2.044068425893783569e-01,-8.660630136728286743e-02,3.179563581943511963e-02,-1.922756880521774292e-01,-1.263728439807891846e-01,-1.817312240600585938e-01,-1.270765662193298340e-01,-1.733078807592391968e-01,-2.264075577259063721e-01
-1.071680039167404175e-01,3.468538820743560791e-01,-1.201628148555755615e-02,-1.175018027424812317e-01,1.679399460554122925e-01,-2.545345388352870941e-02,4.642852023243904114e-02,2.134949713945388794e-02,-2.883335016667842865e-02,-1.652567152632400393e-04,-1.095237806439399719e-01,2.516857385635375977e-01,1.939458400011062622e-01,-8.759018778800964355e-02,1.885746568441390991e-01,6.512182950973510742e-02,-1.147277727723121643e-01,-2.419094555079936981e-02,-1.564066559076309204e-01,2.991982363164424896e-02,2.991516329348087311e-02,-1.583634875714778900e-02,-1.426294445991516113e-02,4.134428501129150391e-02,8.856887370347976685e-02,-1.770066320896148682e-01,-1.245299726724624634e-02,2.558642625808715820e-01,-9.154777973890304565e-02,8.962903916835784912e-02,-6.314844638109207153e-02,-4.016829188913106918e-03,-2.266640029847621918e-02,2.133260369300842285e-01,-8.650721609592437744e-02,3.086180053651332855e-02,-1.542692035436630249e-01,-4.791192337870597839e-02,-5.936004966497421265e-02,-6.216493993997573853e-02,-2.001237124204635620e-01,1.352189388126134872e-02,9.107547253370285034e-02,6.545633822679519653e-02,-2.095412015914916992e-01,-6.112178042531013489e-02,-6.291180104017257690e-02,-1.940016299486160278e-01,4.909508302807807922e-02,6.786808371543884277e-02,-2.340493164956569672e-02,2.835995517671108246e-02,-1.547324284911155701e-02,1.069230958819389343e-01,6.302973628044128418e-02,9.326707571744918823e-03,4.208806529641151428e-02,-3.688026666641235352e-01,4.273795485496520996e-01,-1.116284206509590149e-01,1.434754282236099243e-01,5.423549935221672058e-02,5.976378917694091797e-02,3.151367902755737305e-01
-3.661734610795974731e-02,-2.971871569752693176e-02,-8.675691485404968262e-02,1.296256110072135925e-02,8.119275420904159546e-02,-6.254639476537704468e-02,-1.557895541191101074e-01,2.350050956010818481e-02,1.748898794176056981e-04,-1.960222795605659485e-02,3.304155543446540833e-02,9.015513956546783447e-02,-2.624849788844585419e-03,-6.332705914974212646e-02,9.902869910001754761e-02,1.686554700136184692e-01,2.832157909870147705e-02,-3.712921217083930969e-02,6.288865581154823303e-03,-5.687775090336799622e-02,-1.063720211386680603e-01,-3.737004473805427551e-02,-3.397670760750770569e-02,5.247170105576515198e-02,-6.236910074949264526e-02,-1.125014722347259521e-01,1.286188606172800064e-02,-2.081343978643417358e-01,3.317009210586547852e-01,-2.625544965267181396e-01,1.181525439023971558e-01,3.054816275835037231e-03,3.779269009828567505e-02,-1.557751651853322983e-02,3.668629378080368042e-02,-6.671295315027236938e-02,-1.673930436372756958e-01,7.938221096992492676e-03,-5.806921720504760742e-01,8.956128358840942383e-02,4.776767268776893616e-02,-1.558115184307098389e-01,1.060377508401870728e-01,4.756989702582359314e-02,-1.680822484195232391e-02,-1.627907902002334595e-01,-1.156533509492874146e-01,-3.562656044960021973e-02,-6.538643967360258102e-03,-1.354774925857782364e-02,-8.101630955934524536e-02,-2.708427608013153076e-01,-1.480074077844619751e-01,2.922982275485992432e-01,-9.693221747875213623e-02,9.148325026035308838e-02,-1.439786404371261597e-01,-1.597061008214950562e-01,4.006315022706985474e-02,4.969948902726173401e-02,-6.933531910181045532e-02,9.020581841468811035e-02,-8.323919028043746948e-02,-1.169994249939918518e-01
-1.088356692343950272e-02,-4.891839623451232910e-01,5.896197259426116943e-02,-2.191738337278366089e-01,-3.470816835761070251e-02,1.324946880340576172e-01,-9.513816982507705688e-02,-5.290195345878601074e-01,-1.469447463750839233e-02,1.431940346956253052e-01,9.858345240354537964e-02,3.853146731853485107e-01,-1.132128834724426270e-01,-1.173483133316040039e-01,-7.014761865139007568e-02,8.616038411855697632e-02,-1.384660750627517700e-01,2.098056115210056305e-02,-7.085132598876953125e-02,5.145182609558105469e-01,-1.949964314699172974e-01,-1.530318707227706909e-01,-2.753365337848663330e-01,1.115285381674766541e-01,5.269318819046020508e-03,-2.218838483095169067e-01,1.591952592134475708e-01,-4.021420478820800781e-01,-3.709999918937683105e-01,-3.040425293147563934e-02,-1.747166067361831665e-01,8.931683003902435303e-02,6.035897880792617798e-02,7.563456147909164429e-02,9.864366054534912109e-02,8.834920078516006470e-02,-5.276120454072952271e-02,-2.150782346725463867e-01,2.134439796209335327e-01,1.912595629692077637e-01,-3.834396973252296448e-02,-9.609694778919219971e-02,1.137410253286361694e-01,-2.262510955333709717e-01,-1.864882707595825195e-01,7.085480690002441406e-01,-1.449211686849594116e-01,3.444502055644989014e-01,-2.235545963048934937e-01,-1.874682158231735229e-01,5.284665897488594055e-02,1.896192729473114014e-01,1.277404129505157471e-01,-1.632435619831085205e-01,4.135901480913162231e-02,8.103509992361068726e-02,4.327999055385589600e-01,5.646044015884399414e-02,2.679302692413330078e-01,-2.895273566246032715e-01,-1.655638962984085083e-02,2.591733336448669434e-01,2.245894223451614380e-01,-3.124921619892120361e-01
1.990380138158798218e-01,-2.137302160263061523e-01,-2.647809088230133057e-01,1.878656744956970215e-01,-2.916722893714904785e-01,3.970984816551208496e-01,-3.825961351394653320e-01,-1.723479181528091431e-01,3.383212685585021973e-01,-3.262231647968292236e-01,-3.633612394332885742e-01,4.116539657115936279e-01,1.453702598810195923e-01,9.022950381040573120e-02,-1.427704393863677979e-01,-2.688393592834472656e-01,-1.523809321224689484e-02,-3.251512721180915833e-02,3.230667114257812500e-02,2.947567105293273926e-01,1.770858168601989746e-01,-4.444897770881652832e-01,-2.012764215469360352e-01,4.200894385576248169e-02,4.565008580684661865e-01,1.565212458372116089e-01,-4.190093576908111572e-01,1.758048236370086670e-01,-4.913981631398200989e-02,-1.374602615833282471e-01,-6.237582564353942871e-01,3.071570396423339844e-01,-1.222365163266658783e-02,3.941504359245300293e-01,8.314623683691024780e-02,-5.867270827293395996e-01,1.520885061472654343e-02,2.805036902427673340e-01,-7.368332240730524063e-03,1.989692896604537964e-01,-1.487650573253631592e-01,-2.698382139205932617e-01,8.896431326866149902e-02,1.014747843146324158e-01,-3.319787681102752686e-01,1.241867709904909134e-02,-3.406378626823425293e-01,-1.581339091062545776e-01,-3.360958695411682129e-01,1.733621023595333099e-02,2.873570919036865234e-01,-1.388405114412307739e-01,2.299363315105438232e-01,8.167225718498229980e-01,-2.886635996401309967e-02,-7.195409387350082397e-02,-1.559914499521255493e-01,-3.040678501129150391e-01,3.087371885776519775e-01,-2.401417195796966553e-01,4.760963022708892822e-01,1.319405883550643921e-01,3.003490865230560303e-01,-7.963117212057113647e-02
6.983367353677749634e-02,1.360500305891036987e-01,-3.681293874979019165e-02,-3.169552087783813477e-01,-6.096640229225158691e-02,2.022973001003265381e-01,3.318954706192016602e-01,3.489618301391601562e-01,-4.669189453125000000e-01,4.450459033250808716e-02,2.014554291963577271e-01,-4.842597246170043945e-02,2.090898305177688599e-01,1.725922822952270508e-01,-2.999471127986907959e-01,1.109308656305074692e-02,-4.133223593235015869e-01,7.977868616580963135e-02,-1.472101509571075439e-01,-1.005854830145835876e-01,-1.839998178184032440e-02,4.895634353160858154e-01,7.722926139831542969e-02,-3.414513766765594482e-01,9.793424047529697418e-03,1.240841895341873169e-01,-6.748318672180175781e-02,2.468297332525253296e-01,3.220262750983238220e-02,-5.538234487175941467e-03,-7.289984077215194702e-02,2.610901594161987305e-01,2.373905032873153687e-01,7.087346166372299194e-02,1.737432181835174561e-02,-3.287689015269279480e-02,7.975853979587554932e-02,-3.602662384510040283e-01,3.991158306598663330e-02,6.402014195919036865e-02,-5.025317892432212830e-02,-5.215988755226135254e-01,-5.558245182037353516e-01,-2.078230381011962891e-01,-1.009962856769561768e-01,-2.136389613151550293e-01,-9.910861402750015259e-02,-2.700449526309967041e-01,-9.140896052122116089e-02,-4.279689863324165344e-02,1.952578872442245483e-01,1.150827035307884216e-01,1.234327163547277451e-02,2.609631121158599854e-01,1.267372667789459229e-01,-3.904019594192504883e-01,-3.957640826702117920e-01,-1.679257005453109741e-01,-1.300582885742187500e-01,5.372989922761917114e-02,-3.252443969249725342e-01,1.345687210559844971e-01,5.576085671782493591e-02,-4.304226338863372803e-01
3.005698025226593018e-01,-2.190057933330535889e-01,-1.045901030302047729e-01,-6.809237599372863770e-02,-8.785684593021869659e-03,-5.903266072273254395e-01,-4.055015742778778076e-02,-7.598981261253356934e-02,2.413079738616943359e-01,1.090901494026184082e-01,4.464871436357498169e-02,-3.915642574429512024e-02,1.271085888147354126e-01,-4.104008674621582031e-01,6.688517928123474121e-01,-4.512969404458999634e-02,1.663782894611358643e-01,-9.033099748194217682e-03,-2.671541646122932434e-02,-3.712232690304517746e-03,-1.428942978382110596e-01,-1.943385750055313110e-01,2.400600910186767578e-02,3.115125894546508789e-01,2.410712242126464844e-01,-3.787770867347717285e-01,-1.967713236808776855e-01,-2.595490217208862305e-01,1.859550476074218750e-01,1.278941184282302856e-01,-4.082457348704338074e-02,4.433371871709823608e-02,-1.875904500484466553e-01,5.378976464271545410e-02,-1.815039664506912231e-01,3.990860655903816223e-02,-1.274826079607009888e-01,5.159221887588500977e-01,-4.208964109420776367e-02,1.312151849269866943e-01,-2.108994126319885254e-01,-2.181986272335052490e-01,9.261727333068847656e-03,-1.823756396770477295e-01,7.274460792541503906e-02,-7.571293413639068604e-02,-3.031304776668548584e-01,1.867242455482482910e-01,-1.974933147430419922e-01,1.682654917240142822e-01,-4.428519308567047119e-01,1.536889076232910156e-01,4.837252572178840637e-02,2.476694248616695404e-02,-3.006828390061855316e-02,3.832671940326690674e-01,2.239736914634704590e-01,2.660192176699638367e-02,-6.130788475275039673e-02,-4.939713701605796814e-02,-9.022476524114608765e-02,-8.193325251340866089e-02,4.445757716894149780e-02,-3.986513316631317139e-01
2.259778231382369995e-01,1.415953040122985840e-01,-1.243470534682273865e-01,1.516521573066711426e-01,2.298423089087009430e-03,-5.378004908561706543e-02,4.386469349265098572e-02,1.558706462383270264e-01,-4.223410785198211670e-02,-3.375497460365295410e-01,-5.740652233362197876e-02,1.027701497077941895e-01,2.683768272399902344e-01,7.692876458168029785e-02,-2.775564603507518768e-02,-2.183246910572052002e-01,4.053634032607078552e-02,-1.742312014102935791e-01,-1.591672748327255249e-01,2.467855364084243774e-01,-3.696605935692787170e-02,-3.138979151844978333e-02,3.025656566023826599e-02,-9.325879067182540894e-02,-8.327974006533622742e-03,-5.569282770156860352e-01,-3.272153437137603760e-01,4.427408874034881592e-01,-1.549101173877716064e-01,5.844188854098320007e-03,-4.586116373538970947e-01,3.093637228012084961e-01,-2.419111877679824829e-01,5.280435681343078613e-01,7.147232443094253540e-02,3.618190810084342957e-02,4.200855493545532227e-01,3.315367400646209717e-01,3.613598048686981201e-01,-1.585201025009155273e-01,-1.079652905464172363e-01,-3.056725859642028809e-01,-2.324785739183425903e-01,-1.389376372098922729e-01,8.815273642539978027e-02,1.089699342846870422e-01,-8.567173033952713013e-02,9.766947478055953979e-02,-2.994054555892944336e-01,7.712141424417495728e-02,1.631433144211769104e-02,2.014862596988677979e-01,2.252929508686065674e-01,-5.375243257731199265e-03,6.133608222007751465e-01,2.194217443466186523e-01,-3.035857677459716797e-01,2.705787718296051025e-01,5.118507146835327148e-02,-3.633284866809844971e-01,-1.412360668182373047e-01,2.977986633777618408e-01,1.085134372115135193e-01,-3.713653236627578735e-02
-1.718687117099761963e-01,-1.607305854558944702e-01,-7.517932448536157608e-03,4.390889108180999756e-01,-4.203830361366271973e-01,6.512183696031570435e-02,6.808692961931228638e-02,-4.142900407314300537e-01,8.999942988157272339e-02,4.419880732893943787e-02,-1.713415086269378662e-01,1.264889091253280640e-01,2.509150505065917969e-01,6.191180646419525146e-02,-7.875475287437438965e-02,-9.705155156552791595e-03,-8.899323642253875732e-02,4.447207227349281311e-02,3.920480608940124512e-03,3.429133594036102295e-01,1.691315621137619019e-01,-6.054615229368209839e-02,4.041931778192520142e-02,-2.410589456558227539e-01,-2.273178659379482269e-02,1.367642730474472046e-02,-1.717286705970764160e-01,-1.992753520607948303e-02,-2.414840757846832275e-01,2.200999110937118530e-01,-6.021285429596900940e-02,-6.460786610841751099e-02,-2.068458683788776398e-02,-6.087843701243400574e-02,-1.279151737689971924e-01,-1.899489164352416992e-01,3.868156671524047852e-01,8.820630609989166260e-02,5.578301101922988892e-02,2.222483456134796143e-01,4.217733163386583328e-03,1.349426060914993286e-01,-8.704583346843719482e-02,9.044569730758666992e-02,2.574695050716400146e-01,3.380006551742553711e-01,-4.897568747401237488e-02,1.030089482665061951e-01,-1.080857240594923496e-03,8.922741562128067017e-02,1.083811447024345398e-01,-1.095406636595726013e-01,1.704147458076477051e-01,-1.199744865298271179e-01,3.372848033905029297e-02,1.093220338225364685e-02,9.821666777133941650e-02,8.766197413206100464e-02,7.905500009655952454e-03,-8.232213556766510010e-02,9.344682097434997559e-02,-1.544229686260223389e-01,1.143958419561386108e-01,-2.016822434961795807e-02
1.315047405660152435e-02,-4.432841539382934570e-01,-4.326942563056945801e-01,1.036272570490837097e-01,-2.170473337173461914e-01,1.175723001360893250e-01,-2.263729870319366455e-01,-4.685129597783088684e-02,2.459942996501922607e-01,-1.678274571895599365e-01,-1.858085840940475464e-01,4.199737608432769775e-01,2.908048331737518311e-01,-4.104264825582504272e-02,-6.686488538980484009e-02,-4.093140661716461182e-01,2.242901325225830078e-01,-8.305292576551437378e-02,1.248146444559097290e-01,4.097487330436706543e-01,8.419484831392765045e-03,-3.524844720959663391e-02,2.157648950815200806e-01,6.766492873430252075e-02,1.104013770818710327e-01,4.016838967800140381e-02,-3.231837451457977295e-01,3.039309978485107422e-01,-7.075715111568570137e-04,-3.845189139246940613e-02,-3.354212641716003418e-01,2.206660360097885132e-01,2.179506719112396240e-01,2.910894155502319336e-01,1.465369910001754761e-01,-4.193673431873321533e-01,-1.264676800929009914e-03,3.015375733375549316e-01,2.816214859485626221e-01,5.452267453074455261e-02,-3.405485451221466064e-01,-8.509441465139389038e-02,2.288566082715988159e-01,2.839895710349082947e-02,-1.168902441859245300e-01,1.299617141485214233e-01,-6.251678615808486938e-02,-2.046124041080474854e-01,-1.596611440181732178e-01,4.157190322875976562e-01,1.430476922541856766e-02,4.395265877246856689e-02,5.709230154752731323e-02,8.643999695777893066e-01,-1.183151155710220337e-01,1.744145713746547699e-02,1.565889716148376465e-01,-2.947236895561218262e-01,4.998116493225097656e-01,-9.433182328939437866e-02,2.153252065181732178e-02,5.179425477981567383e-01,3.866767287254333496e-01,-6.157224625349044800e-02
8.722400665283203125e-02,-2.457508444786071777e-01,-5.476432293653488159e-02,-3.649553060531616211e-01,-3.692338764667510986e-01,1.710908859968185425e-01,3.375167846679687500e-01,-1.629156917333602905e-01,-1.546872854232788086e-01,-7.287228107452392578e-02,-2.737596072256565094e-02,-1.327910572290420532e-01,3.399776816368103027e-01,2.586659193038940430e-01,-9.387780725955963135e-02,-4.928190633654594421e-02,-1.355735957622528076e-01,-1.467346101999282837e-01,1.470302939414978027e-01,2.750428318977355957e-01,-6.679702550172805786e-02,-1.795747429132461548e-01,4.291532933712005615e-02,-4.623600542545318604e-01,-3.807896673679351807e-01,-2.372576110064983368e-02,-4.221743345260620117e-01,-1.338549051433801651e-02,1.135822311043739319e-01,1.199322119355201721e-01,-1.180827170610427856e-01,1.823652237653732300e-01,2.395455092191696167e-01,1.058081686496734619e-01,2.886525988578796387e-01,-3.238222301006317139e-01,3.645475208759307861e-01,-1.515007466077804565e-01,1.976416707038879395e-01,-1.070153117179870605e-01,3.088105320930480957e-01,-2.002453505992889404e-01,-2.786298692226409912e-01,3.562089428305625916e-02,2.078921794891357422e-01,-2.485761791467666626e-01,-8.517723530530929565e-02,-1.564598381519317627e-01,-2.303163409233093262e-01,2.998344786465167999e-02,-7.536865305155515671e-03,7.039152085781097412e-02,1.537735313177108765e-01,3.007356822490692139e-01,2.634633779525756836e-01,-3.709975183010101318e-01,2.720617949962615967e-01,4.378019273281097412e-02,-2.613839507102966309e-01,-3.871285915374755859e-01,-1.941090822219848633e-01,-1.419569551944732666e-02,1.371942460536956787e-01,-2.405119985342025757e-01
-3.930137678980827332e-02,-1.718212962150573730e-01,-7.331087440252304077e-02,3.556237742304801941e-02,-5.531429499387741089e-02,1.570252031087875366e-01,-2.373710125684738159e-01,5.724792480468750000e-01,2.179044932126998901e-01,-1.165644004940986633e-01,-3.527515232563018799e-01,-2.697217464447021484e-01,-2.938534617424011230e-01,-1.577315386384725571e-03,7.286927197128534317e-03,-1.295465081930160522e-01,1.233423203229904175e-01,-1.069227606058120728e-01,-6.358535587787628174e-02,-3.281265199184417725e-01,-1.165117844939231873e-01,-2.205000519752502441e-01,-8.478315919637680054e-02,2.643258869647979736e-01,2.560233175754547119e-01,-1.965072453022003174e-01,-2.300613075494766235e-01,2.546741068363189697e-01,2.674027718603610992e-02,-4.384412765502929688e-01,-2.113314531743526459e-02,1.001822352409362793e-01,9.791051596403121948e-02,1.337131261825561523e-01,-1.084660962224006653e-01,4.847375676035881042e-02,-2.263991832733154297e-01,1.994160711765289307e-01,-4.625762999057769775e-02,-3.139700591564178467e-01,-1.145233735442161560e-01,-2.065195590257644653e-01,1.954197585582733154e-01,9.767477959394454956e-02,-1.925274878740310669e-01,-4.280489087104797363e-01,-8.094329386949539185e-02,-3.089211285114288330e-01,-3.395656868815422058e-02,7.721291482448577881e-02,1.395716965198516846e-01,-1.110122650861740112e-01,3.795302938669919968e-03,3.189372122287750244e-01,-3.705082535743713379e-01,8.105539530515670776e-02,-1.830615848302841187e-01,2.474747002124786377e-01,7.601989060640335083e-02,2.181505113840103149e-01,1.356645375490188599e-01,1.892636716365814209e-01,2.705130493268370628e-03,5.953197553753852844e-02
-2.098718285560607910e-01,-4.678947031497955322e-01,-7.344248890876770020e-02,2.697505652904510498e-01,2.651279605925083160e-02,-9.249172359704971313e-02,-2.369316760450601578e-03,-1.687037199735641479e-01,1.439958959817886353e-01,-2.639012932777404785e-01,-2.766966521739959717e-01,3.227376341819763184e-01,1.138978451490402222e-01,2.845732728019356728e-03,1.040855869650840759e-01,-1.907087266445159912e-01,2.415901049971580505e-02,-2.028804719448089600e-01,5.154952406883239746e-02,1.424088329076766968e-01,4.284888564143329859e-04,1.376541256904602051e-01,3.423851216211915016e-03,1.522959321737289429e-01,8.216150850057601929e-02,-1.713688224554061890e-01,-5.559006929397583008e-01,3.068405091762542725e-01,-5.783103872090578079e-03,-2.750715315341949463e-01,-4.164726436138153076e-01,3.328990638256072998e-01,1.510488390922546387e-01,2.656337618827819824e-01,1.415046211332082748e-02,3.687066212296485901e-02,6.259620934724807739e-02,7.960311174392700195e-01,2.442786842584609985e-01,1.389213092625141144e-02,-2.880529165267944336e-01,-5.037500858306884766e-01,-5.781272891908884048e-03,-1.309033483266830444e-02,-3.863535225391387939e-01,1.884318739175796509e-01,-1.173021346330642700e-01,4.200612753629684448e-02,-2.781276106834411621e-01,1.273460090160369873e-01,-1.308919396251440048e-02,2.417030483484268188e-01,-5.241453275084495544e-02,6.866563558578491211e-01,-1.389600336551666260e-02,2.465217411518096924e-01,-7.462812215089797974e-02,-2.347155064344406128e-01,3.697472512722015381e-01,-1.171111240983009338e-01,-6.232417374849319458e-02,2.568298280239105225e-01,4.100990593433380127e-01,1.507509201765060425e-01
1.199579834938049316e-01,-1.350116878747940063e-01,-1.377587765455245972e-01,4.022421240806579590e-01,-1.628497689962387085e-01,2.030031085014343262e-01,-7.764376699924468994e-02,1.227089166641235352e-01,2.597142457962036133e-01,-9.751452505588531494e-02,3.147569894790649414e-01,-1.120242625474929810e-01,5.710592120885848999e-02,2.306578308343887329e-01,-2.580865025520324707e-01,4.868395999073982239e-02,2.533591166138648987e-02,1.433779951184988022e-02,5.782467126846313477e-02,3.970317542552947998e-01,-1.213279664516448975e-01,-3.952007591724395752e-01,2.739292085170745850e-01,-5.868060886859893799e-02,2.373910397291183472e-01,-3.484580432996153831e-03,-3.093223571777343750e-01,-1.574074663221836090e-02,9.545040875673294067e-02,8.688593655824661255e-02,-1.688463985919952393e-01,-4.384731873869895935e-02,3.563272356986999512e-01,1.125325635075569153e-02,-8.103972673416137695e-02,-2.260271310806274414e-01,-2.152069509029388428e-01,3.712015748023986816e-01,2.040728628635406494e-01,1.358636021614074707e-01,-3.708281740546226501e-02,-1.741916537284851074e-01,6.740320473909378052e-02,-2.528288401663303375e-02,1.855400390923023224e-02,2.245258092880249023e-01,6.102079153060913086e-02,-7.147888094186782837e-02,-2.118341028690338135e-01,3.583642244338989258e-01,-3.323595225811004639e-02,-6.323755532503128052e-02,2.761543989181518555e-01,1.363301873207092285e-01,-2.121527045965194702e-01,5.797352269291877747e-02,-1.659902557730674744e-02,6.309845298528671265e-02,-3.544483706355094910e-02,7.339646667242050171e-02,7.225719094276428223e-01,3.278281688690185547e-01,3.601578176021575928e-01,-1.660438179969787598e-01
-1.353771984577178955e-01,-6.808214783668518066e-01,-6.469035893678665161e-02,3.974755406379699707e-01,-1.644504070281982422e-02,2.283553332090377808e-01,-8.762498199939727783e-02,-1.103658080101013184e-01,-3.369463980197906494e-02,-2.472285628318786621e-01,-2.565735718235373497e-03,3.676711022853851318e-01,3.855547010898590088e-01,3.839930593967437744e-01,-1.932644844055175781e-01,1.014791652560234070e-01,2.230462385341525078e-03,4.068217054009437561e-02,1.713169813156127930e-01,6.220940127968788147e-02,1.266622692346572876e-01,1.894122809171676636e-01,4.057238399982452393e-01,5.510478280484676361e-03,4.269106686115264893e-02,-2.229635789990425110e-02,-3.143530189990997314e-01,5.588900297880172729e-02,-1.602172106504440308e-01,-3.292239606380462646e-01,-1.450780779123306274e-01,-8.158776164054870605e-02,2.734285295009613037e-01,1.301665902137756348e-01,1.948727220296859741e-01,-7.200145721435546875e-02,6.676282733678817749e-02,7.091127038002014160e-01,1.399845033884048462e-01,-1.206704080104827881e-01,-3.312697708606719971e-01,-2.116075009107589722e-01,1.504043638706207275e-01,2.496520876884460449e-01,-2.457551360130310059e-01,4.964441359043121338e-01,2.336841970682144165e-01,-4.279265552759170532e-02,-5.414011701941490173e-02,2.724572718143463135e-01,2.260269075632095337e-01,6.876273453235626221e-02,-2.112119458615779877e-02,3.541765213012695312e-01,2.043697237968444824e-02,3.445561230182647705e-02,-2.190884947776794434e-02,-4.683269560337066650e-01,1.743036508560180664e-01,1.537737846374511719e-01,3.232845962047576904e-01,4.610384106636047363e-01,1.887071877717971802e-01,2.426319122314453125e-01
5.885910242795944214e-02,6.379808485507965088e-02,-1.885811239480972290e-01,-2.882752716541290283e-01,2.254442125558853149e-02,-6.359227001667022705e-03,2.350698411464691162e-02,6.706692278385162354e-02,7.369610015302896500e-03,-2.306939661502838135e-02,7.285059988498687744e-02,8.582732640206813812e-03,3.556995093822479248e-01,-2.775799855589866638e-02,3.507363796234130859e-02,-5.182191962376236916e-04,-1.267602890729904175e-01,7.235120050609111786e-03,-8.624825626611709595e-02,-1.177545264363288879e-01,-1.425339188426733017e-02,-3.200301900506019592e-02,6.466212868690490723e-02,-1.220671087503433228e-02,1.770323812961578369e-01,1.226118486374616623e-02,1.887500472366809845e-02,3.150456026196479797e-02,-7.505512330681085587e-03,1.795779764652252197e-01,1.911686384119093418e-03,-4.816331714391708374e-02,3.679415967781096697e-04,-5.287141725420951843e-02,-2.902872301638126373e-02,1.403496600687503815e-02,5.236496683210134506e-03,6.248158589005470276e-02,-1.766003668308258057e-01,1.946935355663299561e-01,6.557624787092208862e-02,-3.315518796443939209e-02,-1.213258281350135803e-01,5.258854106068611145e-02,1.889206916093826294e-01,1.152976648882031441e-03,1.228680089116096497e-02,-3.595329821109771729e-01,-1.139496918767690659e-02,1.038357019424438477e-01,2.038603834807872772e-02,-3.417300432920455933e-02,-1.425013411790132523e-02,1.217862516641616821e-01,1.569299250841140747e-01,-2.786593139171600342e-01,-1.316504627466201782e-01,-2.392992526292800903e-01,-1.192693710327148438e-01,8.386109769344329834e-02,4.304265603423118591e-02,-3.368115425109863281e-02,5.812884122133255005e-02,5.852496251463890076e-02
-1.417320817708969116e-01,4.912452772259712219e-02,1.238217130303382874e-01,-2.776046842336654663e-02,-8.947464823722839355e-02,-8.309359545819461346e-04,-4.876982048153877258e-02,2.837655246257781982e-01,4.372460246086120605e-01,-1.970914006233215332e-01,-1.437391042709350586e-01,1.719856560230255127e-01,3.328929245471954346e-01,-1.452768296003341675e-01,-3.361502662301063538e-02,-3.793651759624481201e-01,3.311572596430778503e-02,-2.808452844619750977e-01,6.880193948745727539e-02,4.044719934463500977e-01,-8.549878746271133423e-02,-1.086064353585243225e-01,4.480847120285034180e-01,1.540117561817169189e-01,2.998527586460113525e-01,-2.172897458076477051e-01,-4.729092717170715332e-01,3.299742043018341064e-01,3.556478619575500488e-01,-4.973043128848075867e-02,-2.701981663703918457e-01,2.381474524736404419e-01,-5.508760921657085419e-03,1.058814376592636108e-01,-8.815962821245193481e-02,-2.558706700801849365e-01,-1.972741819918155670e-02,1.520576477050781250e-01,-2.221605181694030762e-01,-3.888022601604461670e-01,-2.379645854234695435e-01,-8.650222420692443848e-02,-2.733572125434875488e-01,6.607088446617126465e-02,-5.174468755722045898e-01,1.123949289321899414e-01,1.275175660848617554e-01,-4.304464161396026611e-02,-2.365052998065948486e-01,3.487114310264587402e-01,-3.409906476736068726e-02,-2.459542602300643921e-01,6.651757750660181046e-03,1.285164594650268555e+00,-5.593400448560714722e-02,2.838527262210845947e-01,5.563460290431976318e-03,-1.316985487937927246e-01,6.946925520896911621e-01,-5.804949626326560974e-02,-2.129911929368972778e-01,-8.491253480315208435e-03,7.948955893516540527e-02,-1.804658770561218262e-02
9.271395206451416016e-02,-2.184321284294128418e-01,-2.536942958831787109e-01,1.003898382186889648e-01,-4.051278904080390930e-02,2.792089283466339111e-01,-2.700807750225067139e-01,-1.611666679382324219e-01,1.862701028585433960e-01,-3.127226233482360840e-01,-3.053307235240936279e-01,5.291359424591064453e-01,1.944678276777267456e-01,1.243696548044681549e-03,-3.180257976055145264e-02,-4.137541949748992920e-01,1.563077569007873535e-01,-5.665777251124382019e-02,1.668757349252700806e-01,1.389399021863937378e-01,2.388244122266769409e-01,-3.484474495053291321e-02,1.138325706124305725e-01,3.844731301069259644e-02,3.630304336547851562e-01,-4.004801809787750244e-02,-3.159506916999816895e-01,3.561973869800567627e-01,-2.028760462999343872e-01,-1.269127875566482544e-01,-4.382634162902832031e-01,2.014817446470260620e-01,9.401144832372665405e-02,3.196261525154113770e-01,1.016048789024353027e-01,-4.558090865612030029e-01,8.213595300912857056e-02,3.447353541851043701e-01,2.308727651834487915e-01,-2.386590000241994858e-03,-4.937650859355926514e-01,-9.864612668752670288e-02,1.764877289533615112e-01,-1.345862299203872681e-01,-4.593708515167236328e-01,1.197085753083229065e-01,-3.870702907443046570e-02,-1.089283525943756104e-01,-1.721007823944091797e-01,6.529150903224945068e-02,2.109320163726806641e-01,3.457358479499816895e-02,7.929207640700042248e-04,9.159751534461975098e-01,-8.003414422273635864e-02,-1.169794425368309021e-02,2.822124026715755463e-02,-1.945344954729080200e-01,5.925902128219604492e-01,-8.508147299289703369e-02,1.215119138360023499e-01,3.212723135948181152e-01,4.326561689376831055e-01,1.280165165662765503e-01
6.824187934398651123e-02,-3.629429936408996582e-01,-1.980153173208236694e-01,3.424399793148040771e-01,-1.105296239256858826e-02,5.184137448668479919e-02,-2.206449629738926888e-03,1.220123022794723511e-01,1.859217584133148193e-01,-1.634332835674285889e-01,-4.552940279245376587e-02,2.775087952613830566e-01,1.035093888640403748e-01,-5.149715114384889603e-03,4.538041073828935623e-03,-8.595812320709228516e-02,4.461615160107612610e-02,-2.190480008721351624e-02,2.075291574001312256e-01,-8.286537975072860718e-02,-2.627865970134735107e-02,-3.365594893693923950e-02,7.395422458648681641e-02,2.028683573007583618e-02,2.017760425806045532e-01,1.910155564546585083e-01,-2.314472198486328125e-01,1.574799269437789917e-01,-1.159183122217655182e-02,-1.356714069843292236e-01,-2.732482552528381348e-01,-1.308681666851043701e-01,7.510534673929214478e-02,-5.121758440509438515e-04,-3.382674232125282288e-02,-1.452881991863250732e-01,-4.555142670869827271e-02,1.967508494853973389e-01,-5.812159925699234009e-02,2.561424374580383301e-01,6.116850767284631729e-03,-3.597615361213684082e-01,-1.238423436880111694e-01,2.729388512670993805e-02,4.671138152480125427e-02,2.656490504741668701e-01,8.211413025856018066e-02,-1.968620270490646362e-01,-1.740734279155731201e-01,-1.917320676147937775e-02,8.211935311555862427e-02,-1.040715947747230530e-01,-1.489220932126045227e-02,5.757777690887451172e-01,-1.481335908174514771e-01,-7.814960181713104248e-02,-2.108603417873382568e-01,-5.312457084655761719e-01,7.974758744239807129e-03,5.843745544552803040e-02,3.224701881408691406e-01,-2.663817107677459717e-01,1.093373224139213562e-01,2.484637312591075897e-03
-6.619889289140701294e-02,1.962336599826812744e-01,2.419115602970123291e-01,-2.184388414025306702e-02,-9.917883574962615967e-02,3.505602478981018066e-01,-1.170437410473823547e-01,-2.335693500936031342e-02,1.719953715801239014e-01,1.752166152000427246e-01,4.298504590988159180e-01,-5.707188323140144348e-02,1.903338283300399780e-01,-3.427116200327873230e-02,-1.841032318770885468e-02,1.393262743949890137e-01,-5.490934848785400391e-01,1.063972860574722290e-01,3.629236817359924316e-01,-3.267303109169006348e-01,-4.992565512657165527e-02,1.690777689218521118e-01,-1.106254681944847107e-01,5.228773877024650574e-02,1.316586416214704514e-02,2.252254188060760498e-01,-2.401099912822246552e-02,-3.228932321071624756e-01,-1.847630143165588379e-01,2.285953611135482788e-02,1.761451661586761475e-01,-1.811704635620117188e-01,7.575166970491409302e-02,-2.996535003185272217e-01,-1.230832338333129883e-01,-2.397240400314331055e-01,2.888087369501590729e-02,-4.390291571617126465e-01,-4.922784268856048584e-01,2.696566283702850342e-01,1.042650733143091202e-02,1.716659218072891235e-01,1.085368357598781586e-02,9.988712519407272339e-02,5.309767276048660278e-02,-9.978358447551727295e-02,-3.786404058337211609e-02,-4.122040271759033203e-01,2.644466161727905273e-01,-3.279455602169036865e-01,4.927269816398620605e-01,-4.911907017230987549e-01,-3.422450125217437744e-01,-3.011032044887542725e-01,7.202113419771194458e-02,-3.599334508180618286e-02,2.183266729116439819e-01,-1.622205227613449097e-01,-5.426488071680068970e-02,3.303984552621841431e-02,-1.760685592889785767e-01,-3.204787671566009521e-01,-5.183488130569458008e-01,-3.894512951374053955e-01
3.933817520737648010e-02,-1.230811178684234619e-01,3.777251765131950378e-02,3.018414378166198730e-01,-7.174636702984571457e-03,-4.624468460679054260e-02,4.988303780555725098e-02,5.293194204568862915e-02,-1.654527522623538971e-02,-3.405510634183883667e-02,-3.383290395140647888e-02,8.861508220434188843e-02,-8.891631662845611572e-02,-8.009003847837448120e-02,2.236518710851669312e-01,1.125207170844078064e-02,-1.201528608798980713e-01,-1.104000359773635864e-01,9.126282483339309692e-02,-1.185828298330307007e-01,-7.404753472656011581e-03,3.206973522901535034e-02,-6.289318948984146118e-02,-9.709128737449645996e-02,6.165327876806259155e-02,-2.093133777379989624e-01,-2.475590109825134277e-01,2.681148946285247803e-01,1.878874599933624268e-01,-7.878416031599044800e-02,-2.160477340221405029e-01,2.298247441649436951e-02,1.090315356850624084e-01,3.342188429087400436e-03,1.659667678177356720e-02,-1.428424287587404251e-02,-1.090773660689592361e-02,4.359244406223297119e-01,-1.157826110720634460e-01,1.746520027518272400e-02,4.932808876037597656e-02,-6.626995652914047241e-02,-2.187779843807220459e-01,3.065321445465087891e-01,-2.477484643459320068e-01,1.679278463125228882e-01,1.310476362705230713e-01,-2.501512765884399414e-01,-5.376668646931648254e-02,9.286054968833923340e-02,2.125521935522556305e-02,-2.263843715190887451e-01,3.219812735915184021e-02,3.332171142101287842e-01,4.076023399829864502e-02,5.895223096013069153e-02,2.730632573366165161e-02,-4.688743352890014648e-01,4.168769810348749161e-03,-1.540146023035049438e-01,-2.985064685344696045e-02,-3.882794827222824097e-02,1.998090147972106934e-01,-2.612971886992454529e-02
8.595256134867668152e-03,3.253935277462005615e-01,-1.054226532578468323e-01,-1.136167719960212708e-02,1.083269864320755005e-01,-5.454455688595771790e-02,-2.536812610924243927e-02,-1.253815144300460815e-01,7.365399599075317383e-02,-1.246396452188491821e-01,-1.248123273253440857e-01,2.409483864903450012e-02,1.376805305480957031e-01,6.271526962518692017e-02,1.405589282512664795e-01,-1.669004186987876892e-02,-1.399345099925994873e-01,1.865441538393497467e-02,-1.158167719841003418e-01,1.833411753177642822e-01,-3.769959881901741028e-02,-1.382064372301101685e-01,-3.322172537446022034e-02,4.988655820488929749e-02,4.829377681016921997e-02,-1.820087730884552002e-01,-2.427733838558197021e-01,-4.412844777107238770e-02,-4.111450910568237305e-02,1.637802720069885254e-01,1.122746542096138000e-01,-1.555121093988418579e-01,1.599473953247070312e-01,-1.914371848106384277e-01,-1.764294691383838654e-03,9.283940494060516357e-02,-7.703077513724565506e-03,-2.849638164043426514e-01,-7.720652967691421509e-02,-1.356041152030229568e-02,-1.186340078711509705e-01,9.411268681287765503e-02,-9.559136629104614258e-02,-9.739387780427932739e-02,-2.659974098205566406e-01,2.328557521104812622e-02,-1.241018250584602356e-01,1.724964566528797150e-02,5.387238040566444397e-02,3.942584618926048279e-02,3.958675637841224670e-02,-3.865600004792213440e-02,-1.369188167154788971e-02,1.289349198341369629e-01,2.698682062327861786e-02,1.821964979171752930e-01,-3.666377067565917969e-01,-8.994555473327636719e-02,2.545368969440460205e-01,-1.712981238961219788e-02,2.876074612140655518e-01,-2.111566625535488129e-02,7.546992506831884384e-03,1.435756087303161621e-01
-1.536528021097183228e-01,5.038676857948303223e-01,7.999604195356369019e-02,-3.211798844859004021e-03,-5.718846246600151062e-02,-9.853979945182800293e-02,9.046963602304458618e-02,5.264887586236000061e-03,-5.033613368868827820e-02,-1.634016782045364380e-01,-4.146175086498260498e-01,1.353264749050140381e-01,-3.181563317775726318e-01,-2.136195003986358643e-01,-1.380678117275238037e-01,4.361715540289878845e-02,-2.742838859558105469e-01,6.733051687479019165e-02,-6.161712855100631714e-02,1.977398991584777832e-03,-6.837831437587738037e-02,2.365766912698745728e-01,-2.117126286029815674e-01,-2.535445392131805420e-01,2.278263866901397705e-02,-2.717617154121398926e-01,-2.817068696022033691e-01,-6.131310388445854187e-02,6.451298296451568604e-02,-1.001385450363159180e-01,-5.215418338775634766e-02,6.783960014581680298e-02,-1.317655295133590698e-01,-1.242085546255111694e-02,9.421546012163162231e-02,6.521133333444595337e-02,2.712338864803314209e-01,-8.075528740882873535e-01,-7.339484989643096924e-02,-2.518388628959655762e-02,1.833301037549972534e-01,-2.639245688915252686e-01,-9.596775472164154053e-02,-2.470901459455490112e-01,2.554853260517120361e-01,1.498168855905532837e-01,1.190422549843788147e-01,-6.711355410516262054e-03,1.637541502714157104e-02,2.131842970848083496e-01,-8.514928072690963745e-02,-1.849898993968963623e-01,1.689570397138595581e-01,1.853362768888473511e-01,1.999440044164657593e-01,2.613695561885833740e-01,-5.575873851776123047e-01,1.451941728591918945e-01,-1.883555501699447632e-01,4.598975181579589844e-02,-5.676383897662162781e-02,-9.094267338514328003e-02,3.085436820983886719e-01,-4.580044150352478027e-01
7.962439954280853271e-02,-9.336813539266586304e-02,1.406699270009994507e-01,-1.542284898459911346e-02,3.930783569812774658e-01,-1.847943961620330811e-01,5.585027858614921570e-02,2.981505915522575378e-02,-3.502877952996641397e-04,-1.663834601640701294e-02,-4.124224483966827393e-01,4.866647347807884216e-02,2.092314064502716064e-01,-5.068950727581977844e-02,8.007761836051940918e-02,1.032245680689811707e-01,-1.852173358201980591e-02,1.293472051620483398e-01,1.209172606468200684e-02,-3.135253787040710449e-01,-2.494779042899608612e-02,7.833385467529296875e-02,-3.116867132484912872e-02,-6.275812536478042603e-02,-4.412210546433925629e-03,-3.797698393464088440e-02,-4.161560237407684326e-01,-3.042046539485454559e-02,-2.213357836008071899e-01,1.406345665454864502e-01,4.813863337039947510e-02,3.503858745098114014e-01,1.510615199804306030e-01,5.281466245651245117e-02,2.530436031520366669e-02,5.771581456065177917e-02,2.170608378946781158e-02,1.367141753435134888e-01,8.087930083274841309e-02,-1.072148531675338745e-01,-2.654411494731903076e-01,-2.805534303188323975e-01,8.148314803838729858e-02,-3.029688447713851929e-02,-6.676846742630004883e-02,-1.436161994934082031e-01,-2.870998978614807129e-01,-1.708580255508422852e-01,-3.123552203178405762e-01,1.040951535105705261e-02,-3.162800967693328857e-01,-1.914514414966106415e-02,-2.076906710863113403e-02,-1.004989892244338989e-01,-6.640620529651641846e-03,1.060897409915924072e-01,-9.912120550870895386e-02,5.089719966053962708e-02,3.121788799762725830e-01,-2.874268889427185059e-01,1.840770989656448364e-01,9.833456575870513916e-02,1.373013108968734741e-01,-6.281738728284835815e-02
1.227168515324592590e-01,2.654800713062286377e-01,2.127445302903652191e-02,4.358763620257377625e-02,-5.502755045890808105e-01,2.000838816165924072e-01,-1.611642725765705109e-02,-1.610728651285171509e-01,-1.264620870351791382e-01,1.141652390360832214e-01,-1.181793659925460815e-01,1.925758831202983856e-02,4.197086095809936523e-01,1.856579184532165527e-01,-9.669695794582366943e-02,1.663239789195358753e-03,-9.324892610311508179e-02,-1.562966592609882355e-02,4.466358572244644165e-02,1.707967817783355713e-01,2.876246906816959381e-02,1.524558216333389282e-01,1.133294254541397095e-01,5.802702531218528748e-02,5.991068668663501740e-03,-2.257491350173950195e-01,-3.245600163936614990e-01,1.139764264225959778e-01,1.217627301812171936e-01,1.308553665876388550e-01,-2.283328585326671600e-02,4.328984916210174561e-01,2.856265194714069366e-02,3.192476555705070496e-02,-1.297743320465087891e-01,-3.078296780586242676e-01,3.661982715129852295e-02,-2.250479720532894135e-02,1.971857622265815735e-02,-4.666926804929971695e-03,-2.308857738971710205e-01,-1.606674194335937500e-01,4.242679104208946228e-02,-2.655098028481006622e-02,7.581561058759689331e-02,-1.105964109301567078e-01,1.794427484273910522e-01,2.211239375174045563e-02,2.113280445337295532e-01,1.411996483802795410e-01,3.979957476258277893e-02,2.055420577526092529e-01,-4.212238360196352005e-03,1.159665063023567200e-01,-1.711552962660789490e-02,1.265578567981719971e-01,-2.280191034078598022e-01,1.950635612010955811e-01,3.428100794553756714e-02,6.920623779296875000e-02,-4.025929421186447144e-02,9.567707031965255737e-02,-1.405289117246866226e-02,-3.364349901676177979e-01
-2.345942407846450806e-01,-1.684796512126922607e-01,-1.398687958717346191e-01,3.430792987346649170e-01,-3.138127028942108154e-01,5.314296483993530273e-01,5.420959088951349258e-03,-1.068649068474769592e-01,-1.219764910638332367e-02,4.625490307807922363e-02,1.217981148511171341e-02,-5.618629232048988342e-02,4.503244534134864807e-02,5.744238570332527161e-02,-1.164902001619338989e-01,-4.711158946156501770e-02,-2.448767237365245819e-02,1.338102966547012329e-01,-4.619498178362846375e-02,4.163349419832229614e-02,1.075777709484100342e-01,-5.267508793622255325e-03,6.116394326090812683e-02,-8.485993742942810059e-02,-2.178766876459121704e-01,1.780772358179092407e-01,-3.864643722772598267e-02,1.657644510269165039e-01,1.354925520718097687e-02,-1.046805903315544128e-01,-5.670473352074623108e-02,-1.912582665681838989e-01,1.507961153984069824e-01,8.588013239204883575e-03,-1.627341844141483307e-03,-2.245356291532516479e-01,1.955895274877548218e-01,2.161461412906646729e-01,1.655820198357105255e-02,1.577357649803161621e-01,-7.489673793315887451e-02,3.839870542287826538e-02,-6.342874839901924133e-03,9.337874501943588257e-02,2.461845800280570984e-02,2.169467359781265259e-01,2.043535560369491577e-02,-1.175422221422195435e-01,1.446373313665390015e-01,5.136188119649887085e-03,3.674826622009277344e-01,5.646173283457756042e-02,-1.792903691530227661e-01,6.345496773719787598e-01,2.423283755779266357e-01,2.204056829214096069e-02,-3.026418387889862061e-01,-4.576548635959625244e-01,2.456645071506500244e-01,-2.786273658275604248e-01,-1.528191864490509033e-01,1.505415141582489014e-02,-1.938824504613876343e-01,2.117366902530193329e-02
-3.858646452426910400e-01,-2.993989735841751099e-02,7.483052462339401245e-02,1.105002984404563904e-01,-1.246743947267532349e-01,3.394749164581298828e-01,-9.481972083449363708e-03,-1.845169663429260254e-01,2.464717924594879150e-01,-4.760375618934631348e-02,-2.347191870212554932e-01,2.972413599491119385e-01,3.910513222217559814e-01,1.333372443914413452e-01,-2.608697414398193359e-01,-1.620693877339363098e-02,1.240285113453865051e-03,1.816988885402679443e-01,-6.367012113332748413e-02,5.053812861442565918e-01,7.733992487192153931e-02,-1.414762884378433228e-01,8.160789310932159424e-02,-1.495724022388458252e-01,-2.774101868271827698e-02,2.124595046043395996e-01,-5.356950759887695312e-01,3.055526614189147949e-01,-5.130878686904907227e-01,1.558859646320343018e-01,-1.989041119813919067e-01,2.250114828348159790e-01,-1.665319055318832397e-01,-6.887409090995788574e-02,4.214021842926740646e-03,-3.038898408412933350e-01,4.811813235282897949e-01,-2.573231458663940430e-01,2.227603644132614136e-01,1.302349567413330078e-01,-2.051466107368469238e-01,2.421270310878753662e-01,-4.971041902899742126e-02,1.434673089534044266e-02,3.824301362037658691e-01,6.748844981193542480e-01,-4.030575975775718689e-02,-4.712699353694915771e-02,-9.165488183498382568e-03,-1.688386946916580200e-01,4.546246826648712158e-01,1.886690780520439148e-02,9.603909403085708618e-02,2.045778632164001465e-01,2.149022184312343597e-02,3.922010958194732666e-02,1.631479561328887939e-01,-2.041040807962417603e-01,3.524836897850036621e-02,-5.377723574638366699e-01,-2.028570696711540222e-02,9.272091090679168701e-02,2.967441268265247345e-02,6.155594438314437866e-02
