-8.591096103191375732e-02,-2.825108170509338379e-01,-6.240229122340679169e-03,6.328127533197402954e-02,-1.686123572289943695e-02,5.860488116741180420e-02,2.911268666139221750e-07,-1.108781062066555023e-02,1.028053462505340576e-02,-8.368577808141708374e-03,-1.759831234812736511e-02,-2.082789838314056396e-01,3.274052217602729797e-02,1.514971809228882194e-04,-1.034958958625793457e-01,2.296542050316929817e-03,1.224447339773178101e-01,-1.079331268556416035e-03,1.695821993052959442e-02,3.387707844376564026e-02,7.835962623357772827e-02,5.641836300492286682e-02,4.229289665818214417e-02,-7.161561939028615598e-07,-3.550037799868732691e-04,-2.393408864736557007e-02,6.011222954839468002e-03,-2.652925625443458557e-02,1.839328855276107788e-01,-1.219584196805953979e-01,-9.663735516369342804e-03,4.734945297241210938e-02,1.249230057001113892e-01,5.240120231064793188e-07,3.792801521740329918e-07,-6.078002508729696274e-03,3.162216160035313806e-07,1.647213101387023926e-01,-2.731505333031236660e-08,3.959364767069928348e-05,-1.340383850038051605e-02,-2.091375142335891724e-01,6.677508354187011719e-02,1.479109227657318115e-01,-7.481034845113754272e-04,4.123914614319801331e-02,4.931085556745529175e-02,-8.441448956727981567e-02,-8.124026656150817871e-02,1.255978643894195557e-01,8.544334024190902710e-02,-1.570340013131499290e-03,-8.375339093618094921e-04,5.732469260692596436e-02,-5.342783282458185568e-08,4.305380210280418396e-02,-9.088404476642608643e-02,9.182815253734588623e-02,1.727940887212753296e-02,-2.522807382047176361e-02,-1.315793767571449280e-02,4.303188994526863098e-02,2.502773702144622803e-02,-7.957984507083892822e-02
-2.899584593251347542e-03,-2.447254955768585205e-01,5.475403741002082825e-03,-1.355807483196258545e-01,3.093532286584377289e-02,5.605671958619495854e-06,-1.558312874294642825e-06,-8.863472658049431629e-07,2.500873961253091693e-06,-5.502353133124415763e-07,4.550807261693989858e-06,5.681362748146057129e-02,1.587812602519989014e-01,1.335421075054910034e-06,1.634378433227539062e-01,-4.373305942863225937e-03,3.589328527450561523e-01,1.416912185959517956e-03,2.011335936913383193e-06,5.524576408788561821e-06,2.116311661666259170e-04,-1.322249919176101685e-01,4.880986580246826634e-06,1.012953703138919082e-06,-1.318087697654846124e-06,-6.231564384506782517e-07,-2.054859185591340065e-03,-1.922258661579689942e-06,-2.442638576030731201e-02,-5.197263089939951897e-04,9.315711213275790215e-04,-1.705639995634555817e-02,-1.066028475761413574e-01,-1.195880031445994973e-06,-1.373368945678521413e-06,2.812035148963332176e-03,2.373011511735967360e-07,3.705025911331176758e-01,-1.219202204083558172e-06,1.605810821056365967e-01,-9.291725859839061741e-07,1.183655634522438049e-01,3.027518232556758448e-06,4.291569292545318604e-01,7.851343601942062378e-02,1.210608892142772675e-02,5.778065315098501742e-06,-9.487301111221313477e-03,-1.368982135318219662e-03,4.579547385219484568e-04,1.032640459015965462e-03,-2.221434144303202629e-03,3.494682232485502027e-06,-8.270565420389175415e-02,-1.525384959677467123e-06,3.431929973885416985e-03,2.586485818028450012e-03,-1.115571260452270508e-01,1.950394789673737250e-06,-1.287760795776193845e-07,7.679587579332292080e-04,4.827051725442288443e-06,1.460783742368221283e-02,1.361231505870819092e-01
6.274443864822387695e-02,4.725074023008346558e-02,-2.521163085475564003e-03,-9.883305430412292480e-02,6.668367888778448105e-03,-6.690696352507075062e-08,-4.472216801332251634e-07,-1.074980478733778000e-03,2.266075824763902347e-07,-3.043947974219918251e-03,-5.159074021321430337e-07,9.942193329334259033e-02,-7.597364310640841722e-05,-1.829557277233107015e-06,5.671211332082748413e-02,5.239683741820044816e-05,-1.595703065395355225e-01,1.366755100207228679e-06,-9.679971668674625107e-08,-5.538267942029051483e-07,-1.711817390059877653e-06,-2.271042205393314362e-02,3.352685951085732086e-07,7.664211238989082631e-07,-1.684475563479281846e-07,-1.494137336521816906e-06,2.067576721310615540e-02,-7.152752345973567571e-07,-1.122518405318260193e-01,1.150743846665136516e-04,3.224810212850570679e-02,-1.030721432471182197e-05,-1.692422479391098022e-01,-4.411194822750985622e-07,-2.615603307276614942e-07,3.250123427278595045e-06,-7.315961738640908152e-07,-9.693461656570434570e-02,-8.605083934298818349e-08,-4.413315281271934509e-02,-7.898803744410543004e-08,2.271543741226196289e-01,-1.263760282199655194e-06,-9.348224848508834839e-02,-4.544239863753318787e-02,4.678009450435638428e-02,4.970709710505616385e-07,4.578785592457279563e-06,-1.999067762881168164e-06,-4.982355609536170959e-02,2.453896001952671213e-07,-2.760992856565280817e-07,-1.370043833048839588e-06,-9.980476461350917816e-03,-3.369696628396923188e-07,-6.431275606155395508e-02,6.302071362733840942e-02,-2.904795110225677490e-02,5.469335633279115427e-07,4.188805462490563514e-07,-3.142357854812871665e-06,5.658708346345520113e-07,-1.213923096656799316e-02,8.245749771595001221e-02
-1.453804373741149902e-01,1.802117377519607544e-01,1.911526545882225037e-02,1.580674350261688232e-01,-1.468343567103147507e-02,1.277747843414545059e-02,2.630943981785094365e-06,2.679153718054294586e-02,2.308144001290202141e-03,-5.206365603953599930e-03,-1.374972285702824593e-03,-2.201027423143386841e-01,-1.631486564874649048e-01,3.772840500460006297e-06,-2.516515851020812988e-01,-2.323793806135654449e-02,-4.571695029735565186e-01,-9.490970522165298462e-03,-2.819869450831902213e-06,9.719235822558403015e-03,9.097003377974033356e-03,1.698668450117111206e-01,-2.450993406455381773e-06,4.278738796710968018e-02,1.804485691536683589e-06,-7.234826218336820602e-03,3.360166680067777634e-03,-3.000763710588216782e-03,1.878544390201568604e-01,-2.638207748532295227e-02,7.854927680455148220e-04,7.133486215025186539e-03,1.969986408948898315e-01,5.858952363269054331e-07,2.191234216297743842e-06,-9.876977652311325073e-03,-4.325765075918752700e-06,-2.280044555664062500e-01,2.736885790000087582e-06,-3.044795989990234375e-01,3.219871587134548463e-06,-2.796881794929504395e-01,-5.588453263044357300e-03,-4.757130444049835205e-01,-2.733016014099121094e-01,-1.620123684406280518e-01,1.375821884721517563e-02,-6.116349622607231140e-02,9.558136574923992157e-03,6.929368525743484497e-02,1.046149712055921555e-02,-2.169429697096347809e-02,4.339546649134717882e-06,1.015081703662872314e-01,2.865860778911155649e-06,4.367733374238014221e-03,-2.019551396369934082e-01,1.654005050659179688e-01,-2.771828121694852598e-06,1.026719291985500604e-05,7.420867332257330418e-04,1.173068303614854813e-02,-2.513951361179351807e-01,-3.621996641159057617e-01
8.220490999519824982e-03,-4.740830976516008377e-03,-3.061873139813542366e-04,-3.630840778350830078e-02,5.761152505874633789e-02,-2.800353058773907833e-06,2.166517333535011858e-06,2.817817630784702487e-06,-1.467774040975200478e-06,2.054782044069725089e-06,3.907740847353124991e-06,-1.303556114435195923e-01,-3.098098933696746826e-02,1.888236397462605964e-06,1.826263777911663055e-02,2.118919976055622101e-03,-1.491982936859130859e-01,-5.310153028403874487e-06,-3.491641336950124241e-06,-2.262189354951260611e-06,-4.322757831687340513e-06,-1.003159955143928528e-02,-3.319778443255927414e-06,-1.146103613791638054e-06,2.419864131297799759e-06,1.994347940126317553e-06,4.939654842019081116e-03,2.388009103015065193e-03,1.216800510883331299e-02,6.322823464870452881e-03,7.407188415527343750e-03,-2.549635432660579681e-02,-9.345059096813201904e-02,4.329229170707549201e-07,1.238680624737753533e-06,1.810291968286037445e-02,-1.597974346623232123e-06,-1.342288404703140259e-01,8.885093052413139958e-07,-1.008104681968688965e-01,3.438481144257821143e-06,1.646222770214080811e-01,-9.697400033473968506e-03,-7.651843875646591187e-02,5.248065572232007980e-03,-3.895983844995498657e-02,-2.134548822141368873e-06,6.018543150275945663e-03,4.816164728254079819e-03,5.719074513763189316e-03,-4.383157829579431564e-06,7.172811310738325119e-04,3.524206022120779380e-06,-9.648140519857406616e-02,2.047341240540845320e-06,-2.270699106156826019e-02,-5.938433110713958740e-02,1.358664631843566895e-01,-3.860445303871529177e-06,9.536372497677803040e-03,1.564854272828597459e-07,-1.906954310834407806e-02,-5.353110283613204956e-02,1.555476039648056030e-01
-2.959773410111665726e-03,9.178415872156620026e-03,2.617543941596522927e-06,-3.569826367311179638e-04,9.894787353914580308e-07,-6.265573233577015344e-07,3.087427913328610884e-08,2.789694804050668608e-07,-2.034213935075968038e-07,-2.741282685292389942e-07,8.023393860412397771e-08,-3.687759339809417725e-01,9.991155820898711681e-06,2.924837474438390927e-07,-1.380190532654523849e-02,1.491778562012768816e-06,-3.251701127737760544e-03,-5.334640604814921971e-07,-1.420503252802518546e-07,4.198259659915493103e-07,-4.262734876192553202e-07,-8.664183326345664682e-08,-2.487775532244995702e-07,-6.448651106438774150e-07,1.254214083701299387e-07,9.303618497824572842e-08,2.337243873625993729e-03,7.056398771965177730e-07,1.807836815714836121e-02,-2.388524364960176172e-07,4.758692853101820219e-07,6.091439630836248398e-03,2.016519894823431969e-03,4.331059244577772915e-07,1.332144279331259895e-07,9.248845600495769759e-08,-4.284079579974786611e-08,-4.371081013232469559e-03,5.801256293125334196e-07,-6.162321195006370544e-02,-2.902725100284442306e-07,-1.304056681692600250e-02,1.387414429336786270e-02,-5.745451431721448898e-03,-2.257899723190348595e-06,-2.040169686079025269e-01,-1.398202869040687801e-07,-9.976786259358050302e-07,-7.839110338636601227e-08,1.756322011351585388e-02,-1.210283244290621951e-06,2.083466142721590586e-06,5.920903731748694554e-07,1.578436582349240780e-03,2.945775179341580952e-07,3.826966858468949795e-04,-1.294106990098953247e-01,1.841780096292495728e-01,-6.035311344021465629e-07,7.085050128807779402e-07,-9.825539564189966768e-07,3.188557922840118408e-03,-2.246534904770669527e-06,3.879400715231895447e-02
-2.837994372839602875e-07,3.700191620737314224e-03,-1.944748220239489456e-07,1.679038064139604103e-06,-1.808861753715973464e-07,-8.580139621017224272e-08,1.708386876408951593e-09,1.873657566875408520e-07,2.099269948985238443e-07,1.619042677702964284e-07,-7.967759074745117687e-08,-2.978004260967281880e-07,6.364760452015616465e-08,-9.482268126248527551e-08,-4.476972890188335441e-07,-8.787385468167485669e-07,2.073316636597155593e-06,-1.229536206182046953e-08,2.593427517183499731e-08,2.911234275870810961e-07,-3.391288672105474689e-08,1.062412096075604495e-07,1.007717020939935537e-08,-1.590122451489150990e-07,2.369031903981522191e-08,-1.601382848548382754e-07,-9.349344054498942569e-07,-5.539792482522898354e-07,1.158999339168076403e-06,-1.864355425595931592e-07,-1.311679511672991794e-07,7.129807499950402416e-07,1.669078642407839652e-06,-2.168013857328787708e-08,-3.280822369333691313e-08,-2.498661899608123349e-07,8.920862626382586313e-08,9.411459700459090527e-07,-2.384045529879585956e-07,-2.300813584099614673e-08,6.843206534767887206e-08,-1.556607003294629976e-06,-3.228332090543517552e-08,4.368920087927108398e-07,6.344141070258046966e-07,3.835300503851613030e-07,-8.906945225817253231e-08,-7.078367616486502811e-07,1.722100648748892127e-07,3.193238740095694084e-07,1.946598331414861605e-07,7.627171783042285824e-08,-3.676672406527359271e-07,1.326644337495963555e-06,-1.950997017274858081e-07,4.495691996453388128e-07,-1.919183205245644785e-06,-8.836867237960177590e-08,1.139757443979760865e-07,-2.734413726557249902e-07,-3.587987507103207463e-08,1.514690950443764450e-07,-6.304311455096467398e-07,-5.666388460667803884e-07
-9.686799719929695129e-03,-2.257576398551464081e-02,6.946144625544548035e-03,3.064443916082382202e-02,-1.086930637939076405e-06,4.785048986377660185e-06,-2.110128036747482838e-07,-9.498930012341588736e-06,6.853566674180910923e-07,-2.981553052450180985e-06,-2.880480849398736609e-07,-1.035708636045455933e-01,-1.232309453189373016e-02,1.485308143145402937e-08,-1.410532183945178986e-02,2.467327703925548121e-06,-3.734996914863586426e-02,3.325625357319950126e-07,-9.403316880707279779e-08,-5.298364840200520121e-07,4.922337666357634589e-07,-4.388170509628253058e-06,-3.318825392284452391e-08,-3.391505970284924842e-06,2.218849601831607288e-07,-2.132628083018062171e-07,-5.442881491035223007e-03,-9.349901120003778487e-07,2.849724702537059784e-02,-1.627578865736722946e-03,-8.679541679157409817e-06,1.184515561908483505e-02,1.543581020087003708e-02,-2.971304979837441351e-07,-4.550622350052435650e-07,-6.396790013241115957e-06,-2.824198297446400829e-08,4.584920406341552734e-02,-4.716805790394573705e-07,-6.930161267518997192e-03,-6.720939381921198219e-06,-2.742346003651618958e-02,1.686550304293632507e-02,-8.958255872130393982e-03,-2.108814008533954620e-02,-2.774051763117313385e-02,1.832342775287543191e-07,-1.422408968210220337e-04,9.505480136340338504e-08,2.477722801268100739e-02,7.606880899402312934e-06,5.492097443493548781e-06,2.165226078432169743e-07,3.462273627519607544e-03,2.318056147032621084e-07,8.590582292526960373e-04,-3.561677411198616028e-02,2.445882372558116913e-02,-3.839456610421621008e-07,-6.916886832186719403e-06,7.867844260545098223e-07,2.864372916519641876e-03,-3.174465848132967949e-03,-2.701572701334953308e-02
-5.336319475190975936e-08,8.527698810212314129e-04,2.072352778270669660e-08,3.998045485786860809e-06,-4.275731839697982650e-07,4.480107840265645791e-09,1.463465224560422939e-07,2.831631604749418329e-07,3.036539908407576149e-07,-4.096420624932761712e-08,1.692394988594969618e-07,-1.060825064778327942e-01,-9.811986956265172921e-07,1.970710314935786300e-07,1.428711470907728653e-06,2.082388306234861375e-07,4.923394881188869476e-03,1.487459826421400066e-07,3.147770399891669513e-08,2.244167163212296146e-08,-3.366083234368488775e-08,6.714840878885297570e-07,-7.188233297483748174e-08,1.279620942540304895e-08,-1.625206103028631333e-08,3.523709040109679336e-07,6.360147614032030106e-03,2.701473533761600265e-07,-5.994602929604297969e-07,1.540291520996106556e-07,-3.056674700019357260e-07,-4.459782587673544185e-07,7.417893812089459971e-06,-5.619639154019751004e-08,-3.820715903657401213e-07,-8.608122925579664297e-08,-8.652142469145474024e-08,-1.164771500043570995e-03,-6.283276121621383936e-08,-1.723265086184255779e-06,3.419054905862140004e-07,-9.541815416014287621e-06,-1.286333173311504652e-07,-1.054983727044600528e-06,-4.054338376136001898e-07,-1.389698777347803116e-02,4.656592977880791295e-08,2.148291997627893579e-07,7.990144013092503883e-08,4.534236950348713435e-07,-2.039855573343629658e-08,-3.188238508755603107e-07,-1.207865096830573748e-07,1.341113033959118184e-06,-9.132947731416152237e-09,-2.079462433357548434e-07,4.532918334007263184e-03,-3.827887354418635368e-03,-1.499144275385333458e-07,4.338854751040344127e-07,1.326567371506826021e-07,-1.629259038793406944e-08,1.215773977492062841e-06,7.911103777587413788e-03
5.324509189108539431e-08,5.961634451523423195e-04,5.363115178624866530e-06,-1.203960459679365158e-02,-6.974585176067193970e-07,-3.710881060214887839e-07,-4.249998539762600558e-07,1.224930883836350404e-06,-1.481739815289984108e-07,-1.201146233142935671e-06,-2.827271714522794355e-07,-1.607071422040462494e-02,-1.031612700899131596e-04,3.460785649167519296e-07,1.166082173585891724e-02,-3.624656983447493985e-07,-4.529524222016334534e-02,3.058798991872890838e-09,-1.449939546205314400e-08,1.932228883561037946e-07,-3.671835315799398813e-07,5.065622190159047022e-06,3.386771538771427004e-07,7.383343358924321365e-08,-1.105661766587218153e-07,2.513901620204705978e-07,-1.326018173131160438e-05,-6.503080953734752256e-07,-7.050541229546070099e-03,9.150792834589083213e-07,3.371106458871508949e-06,8.504867423653195146e-07,9.378143295180052519e-05,7.319849171238956842e-09,-5.401644784797099419e-07,-1.281662548535678070e-06,-1.917545802143649780e-07,2.320418134331703186e-03,-4.159461397534869320e-08,-2.752441447228193283e-03,-1.380864546263183001e-06,4.421654157340526581e-03,3.628703382219100604e-07,-3.067086078226566315e-02,-5.901232725591398776e-06,-1.352826971560716629e-02,1.567214553688245360e-07,3.640445243036083411e-07,-5.481122116179903969e-07,-7.163768600548792165e-08,1.012057509797159582e-06,7.451088777088443749e-07,-6.602079594131282647e-08,4.252574854035628960e-06,-2.950434065951412776e-07,5.304739829625759739e-07,-7.277462864294648170e-04,9.176156483590602875e-03,-1.698141858241797308e-07,-1.620974444449529983e-06,-5.792774686597113032e-07,7.196541673692991026e-07,-6.841115009592613205e-06,8.882900699973106384e-03
1.118761207908391953e-02,2.231594026088714600e-01,1.302025452787347604e-06,-2.863787487149238586e-02,1.325539778918027878e-02,1.476852276027784683e-07,-1.720939906135754427e-07,4.617350839453138178e-07,1.311125856773287524e-07,6.632991471633431502e-07,-5.842176520332031942e-08,-1.292218267917633057e-01,-1.725274883210659027e-02,-2.026360874651800259e-07,-3.349415212869644165e-02,-1.161454179054999258e-06,-8.206348866224288940e-02,6.433638191083446145e-07,2.350379872950725257e-07,-1.372558529055822873e-07,2.181414515689539257e-07,-3.871064865961670876e-03,4.163978246651822701e-07,3.776979156100424007e-07,-3.360442590860657219e-08,-1.216877336673860555e-07,2.281895093619823456e-02,-6.298135417637240607e-07,-1.336323190480470657e-02,7.077300455421209335e-03,1.166326273232698441e-02,-1.647271588444709778e-02,-2.616950124502182007e-02,1.792023454072477762e-07,-8.045034860515443143e-08,3.478951839497312903e-06,2.736856252738562034e-08,-1.936957687139511108e-01,-7.251239964034539298e-08,-1.276872307062149048e-01,2.760988593308866257e-07,1.718845032155513763e-02,-1.307682972401380539e-02,-1.677395552396774292e-01,6.968826521188020706e-03,-2.423418164253234863e-01,6.563503234247036744e-07,9.130327031016349792e-03,2.307150452907080762e-07,-1.442234590649604797e-02,-1.283183621580974432e-07,-1.400710857524245512e-06,-2.246725756549494690e-07,-2.706208080053329468e-02,-2.008146111620590091e-07,-1.173309609293937683e-02,-1.304580420255661011e-01,1.408819705247879028e-01,3.864972200062766206e-07,3.749885363504290581e-03,-1.520195382909150794e-07,-1.168638840317726135e-02,-2.515846375672481372e-08,3.070882707834243774e-02
-9.704279713332653046e-03,1.419820338487625122e-01,-2.479282207787036896e-02,1.554302498698234558e-02,-3.399455174803733826e-02,-4.794022515852702782e-06,-4.739574137602176052e-07,5.295494338497519493e-05,-4.891709068033378571e-06,-5.489707746164640412e-07,-3.760759227589005604e-06,-9.526516497135162354e-02,-7.240410894155502319e-02,-3.585418426155229099e-06,-1.227905303239822388e-01,4.897216567769646645e-04,-2.101024389266967773e-01,-2.511299044272163883e-07,-2.272602017683311715e-07,-6.153441972855944186e-06,-6.027705036103725433e-03,4.404370486736297607e-02,-2.835594614225556143e-06,3.049452975392341614e-02,7.231189442791219335e-07,4.096440039575099945e-03,-6.266392767429351807e-02,1.957664835572359152e-06,6.461103260517120361e-02,2.874856872949749231e-04,-4.413725808262825012e-02,6.846365286037325859e-04,1.164074316620826721e-01,1.930525513671454974e-06,1.158101099463237915e-06,2.994285896420478821e-04,-9.394715902999450918e-07,-2.758424729108810425e-02,1.558184692385111703e-07,-1.361663788557052612e-01,9.882053291221382096e-07,-2.121044136583805084e-02,8.834299631416797638e-03,-1.832380443811416626e-01,-8.587906509637832642e-02,-3.531349822878837585e-02,-2.384439483284950256e-02,8.362196385860443115e-03,-1.253303606063127518e-02,5.735054612159729004e-02,-2.047178102657198906e-03,-6.420914083719253540e-02,-5.005975708627374843e-06,4.113779962062835693e-02,3.241072477067064028e-07,-5.726222752855392173e-06,-5.949180573225021362e-02,1.074809432029724121e-01,-7.659551215510873590e-07,5.446554496302269399e-07,-1.067513716407120228e-03,-3.208651833119802177e-05,-4.664117097854614258e-02,-1.267935037612915039e-01
3.953402861952781677e-02,-1.156330853700637817e-01,-7.131079584360122681e-02,-2.007390856742858887e-01,1.898618414998054504e-02,-3.887215396389365196e-03,1.428341761311457958e-06,3.695952938869595528e-03,3.011514309037011117e-06,-3.858790174126625061e-02,-3.951592191242525587e-07,7.301267981529235840e-02,-6.738298386335372925e-02,-1.228884798365470488e-06,2.098669111728668213e-01,-1.434305217117071152e-03,-2.548356726765632629e-02,-6.874820974189788103e-05,1.777049533302488271e-06,3.132523715976276435e-07,2.975255483761429787e-04,-5.208800360560417175e-02,-3.321466792840510607e-04,-2.061746269464492798e-02,-5.333637318472028710e-07,-1.481415347370784730e-05,3.267505764961242676e-01,7.021843455731868744e-03,-2.467442154884338379e-01,1.001560166478157043e-01,1.083838753402233124e-03,-8.351571741513907909e-04,-2.543542385101318359e-01,-1.823605430217867251e-06,-3.495501005090773106e-06,-1.184011176228523254e-01,1.307091451963060535e-06,8.040764182806015015e-02,-9.307603932029451244e-07,4.611347615718841553e-02,-2.797295455820858479e-04,1.964243352413177490e-01,-4.019685834646224976e-02,-3.221548721194267273e-02,-5.107031669467687607e-03,1.067649349570274353e-01,1.599564996013214113e-07,-5.938247195445001125e-04,1.484242528676986694e-01,-2.647107243537902832e-01,-5.398954264819622040e-03,-5.069119855761528015e-03,1.749889861457631923e-06,-6.746660917997360229e-02,-1.387948032061103731e-06,-1.293844580650329590e-01,1.120340824127197266e-01,-7.455374300479888916e-02,1.086847802866941493e-07,-1.029505438054911792e-04,7.503197994083166122e-03,-1.978977769613265991e-02,3.167653689160943031e-03,2.150556072592735291e-02
-4.467722192202927545e-06,1.803090982139110565e-02,4.019376319774892181e-06,-1.760977655649185181e-01,-9.535283425066154450e-06,8.805043307802407071e-07,-3.283951173216337338e-07,-1.529763835605990607e-06,-2.892294617140578339e-07,-1.800356699277472217e-07,-7.451742476405343041e-07,-1.089320853352546692e-01,-1.403345074504613876e-02,-1.824928830274075153e-07,4.423129372298717499e-03,-4.696524229075293988e-06,-9.718820452690124512e-02,7.930077003948099446e-07,1.039251742440683302e-06,5.049419087299611419e-07,2.197744379373034462e-06,5.058219812781317160e-06,1.575052010593935847e-06,8.444626473647076637e-07,-4.291034372272406472e-07,-5.804449898505481542e-08,6.755661219358444214e-02,-1.326582605543080717e-06,-2.893491648137569427e-02,-1.011994640975899529e-06,3.112761490046977997e-02,7.627344530192203820e-06,-5.067668110132217407e-02,-5.182653808333270717e-07,-3.075310814892873168e-07,-3.804905873039388098e-06,-4.751235849198565120e-08,6.153195165097713470e-03,-2.726984291712142294e-07,-1.256810408085584641e-02,-4.099197496998385759e-07,6.151151284575462341e-02,2.740142917900811881e-06,-3.506115078926086426e-02,-3.968822056776843965e-06,-1.045166552066802979e-01,2.408193040537298657e-06,-4.985669875168241560e-06,6.446219913414097391e-07,-3.032119944691658020e-03,1.713090455268684309e-06,-2.310237050551222637e-06,-1.216540340465144254e-06,-1.640865951776504517e-01,-7.870640388318861369e-07,6.073040822229813784e-06,-1.295957248657941818e-02,1.117603033781051636e-01,1.535828232590574771e-06,-1.596405127202160656e-06,-5.898770609746861737e-07,5.946159944869577885e-06,-3.419427912376704626e-06,1.738429963588714600e-01
-1.203456893563270569e-02,1.240418478846549988e-01,-2.329507656395435333e-02,2.292807027697563171e-02,-1.270645298063755035e-02,-2.054334850981831551e-03,1.591670297784730792e-06,5.521311890333890915e-03,-1.176845444206264801e-06,1.349776903225574642e-05,6.457036761275958270e-06,-1.606895327568054199e-01,-2.209885418415069580e-01,8.617220373707823455e-06,-9.132565557956695557e-02,5.683074705302715302e-03,-3.171419203281402588e-01,-6.784053312003379688e-06,-1.023748191073536873e-03,-1.498087499385292176e-06,-8.651690586702898145e-05,7.885711640119552612e-02,-8.789437706582248211e-04,2.191598527133464813e-03,9.118936024606227875e-03,2.814354957081377506e-06,-9.061508625745773315e-02,1.470174826681613922e-02,1.366238147020339966e-01,-4.551449324935674667e-03,2.470585459377616644e-04,-4.636011086404323578e-03,1.709629744291305542e-01,6.282286904024658725e-07,6.857492280687438324e-07,2.478397451341152191e-02,-5.454474376165308058e-06,2.527935802936553955e-02,-1.138873926720407326e-06,-2.159276902675628662e-01,2.738358452916145325e-03,-1.653596758842468262e-01,2.049992419779300690e-02,-1.141290739178657532e-01,-1.648619621992111206e-01,-1.473904550075531006e-01,-1.469102967530488968e-02,2.532294951379299164e-03,-7.394816260784864426e-03,7.976755499839782715e-02,2.654985152184963226e-02,-1.508399873273447156e-04,1.893043401651084423e-03,-8.418663404881954193e-03,2.547507847339147702e-06,-2.877142469515092671e-05,-2.093589454889297485e-01,2.683525085449218750e-01,-2.490707207471132278e-03,9.733909973874688148e-04,-6.116871908307075500e-02,1.602677279151976109e-03,-2.041092701256275177e-02,-5.727628618478775024e-02
-2.301817221450619400e-05,2.288204804062843323e-02,1.466988772153854370e-02,2.348653972148895264e-02,-8.335337042808532715e-03,2.018682380366954021e-06,-1.240412927927536657e-07,-5.502451585925882682e-06,-1.766592276908340864e-06,-3.111528940280550160e-06,6.850941076663730200e-07,-1.750147938728332520e-01,-9.303014958277344704e-04,9.813942369873984717e-07,-9.046874009072780609e-03,-6.791434250771999359e-03,1.899151206016540527e-01,5.945031489318353124e-07,3.213419006442563841e-07,-6.817280109316925518e-07,2.720645966292067897e-07,1.462347805500030518e-03,-5.127259328219224699e-07,-3.208940142940264195e-06,2.047661666892963694e-07,-2.008884848692105152e-06,-9.419203549623489380e-02,6.198654887157317717e-07,1.709076314000412822e-04,4.940379312756704167e-06,-4.940119106322526932e-04,5.788934417068958282e-03,7.651901338249444962e-03,-4.218358640173391905e-07,1.856256375276643666e-07,-3.863570513203740120e-03,1.113104062255843019e-07,-1.155497729778289795e-01,3.565892257029190660e-07,-9.426216781139373779e-02,-3.870021828333847225e-06,-1.342089264653623104e-03,-9.324626404350055964e-08,5.316576571203768253e-04,-9.206702001392841339e-03,-1.526217162609100342e-01,-6.183494178912951611e-07,-5.196355283260345459e-03,1.247819163836538792e-03,3.776742232730612159e-05,1.641592680243775249e-04,-9.263525134883821011e-04,-8.754203122407488991e-07,1.672964356839656830e-02,-1.569264185263818945e-07,2.352718962356448174e-03,-1.445529609918594360e-01,1.037064008414745331e-03,-2.931493838786991546e-07,-3.742268063433584757e-06,2.076222561299800873e-03,3.866211773129180074e-05,-1.717320680618286133e-01,1.990195214748382568e-01
3.907542303204536438e-02,-2.906781733036041260e-01,-4.879353567957878113e-02,-8.797482401132583618e-02,-1.032039150595664978e-02,5.125629286339972168e-06,1.336613195235258900e-06,-1.296194852329790592e-03,2.628977881613536738e-06,3.763792337849736214e-04,2.883055276470258832e-05,1.077702939510345459e-01,3.117062747478485107e-01,4.299142347008455545e-06,2.006373703479766846e-01,1.189670432358980179e-02,2.608311474323272705e-01,-3.853390808217227459e-06,-3.701380819620680995e-06,7.742827619949821383e-06,-5.028115119785070419e-03,-2.069736123085021973e-01,5.975130534352501854e-06,-1.518195588141679764e-02,-4.655950931464758469e-07,3.520538564771413803e-03,2.405600808560848236e-02,-1.430328666174318641e-06,-2.364272996783256531e-02,1.028875634074211121e-02,-1.752066798508167267e-02,-8.865364640951156616e-02,-3.611224144697189331e-02,3.295906708444817923e-06,2.763168140518246219e-06,-6.671316176652908325e-02,-2.289106788566641626e-07,2.169947326183319092e-01,4.103606897842837498e-06,2.279229015111923218e-01,-1.656802371144294739e-03,-1.213006004691123962e-01,-3.580621629953384399e-02,2.447936534881591797e-01,1.920367926359176636e-01,1.572432368993759155e-01,2.718694449868053198e-04,4.801113158464431763e-03,4.794063512235879898e-03,-2.767045237123966217e-02,-1.559833902865648270e-02,-4.006211238447576761e-04,3.190932375218835659e-06,-7.461728062480688095e-03,-8.154809165716869757e-07,-2.337020263075828552e-02,-1.626993715763092041e-02,-1.950588673353195190e-01,-9.780715117813088000e-07,6.891676224768161774e-03,3.429518546909093857e-04,-2.250055409967899323e-02,2.749205753207206726e-02,-7.188332080841064453e-02
-2.242252321593696252e-06,1.638304144144058228e-01,1.574912715796017437e-07,-5.467049777507781982e-02,-5.365179276850540191e-06,3.423704697524954099e-07,-2.439909110307780793e-07,-4.708354595095443074e-07,-1.488402858740300871e-07,-1.663335922330588801e-07,-3.179594045832345728e-07,-6.598430871963500977e-02,7.328909532589023001e-07,-1.313119355472736061e-07,1.911656744778156281e-02,-2.254989567518350668e-06,-1.482991356169804931e-04,5.031331511418102309e-07,1.584893851713786717e-07,1.430780542932552635e-07,7.886814614721515682e-07,1.508061700405960437e-06,4.485198132897494361e-07,1.053511837767473480e-07,9.696940850290047820e-08,-3.628549620771082118e-07,1.949568465352058411e-02,-6.462188366640475579e-07,-8.361353725194931030e-02,-1.846439374730834970e-07,-1.712509060780575965e-06,-1.859971205703914165e-03,-3.083328157663345337e-02,1.155569773203524164e-08,6.619544734576265910e-08,-6.008781952004937921e-07,2.022188709815964103e-07,-1.479734573513269424e-02,-5.373393818786098564e-08,-1.404418516904115677e-02,-8.285929880003095604e-07,9.101722389459609985e-02,2.069567244689096697e-06,-6.588434334844350815e-03,-1.594507239133235998e-06,-2.842744588851928711e-01,9.013006661007239018e-07,-2.603022949188016355e-06,4.209140591626692185e-09,-5.301805585622787476e-02,6.047477540960244369e-07,-1.306609419771120884e-06,-2.759973938282200834e-07,-1.743422821164131165e-02,-3.539471720159781398e-07,-8.792746812105178833e-03,-2.696045488119125366e-02,7.857752032577991486e-03,9.007620178635988850e-07,-5.499827011590241455e-07,-2.128776941390242428e-07,2.461979647705447860e-06,-7.639353043487062678e-07,1.779080927371978760e-02
8.054457794059999287e-07,-4.931457624479662627e-06,4.981744794463338621e-09,-1.650058478116989136e-02,7.262497092597186565e-07,2.199239332867364283e-07,-1.491986836299474817e-07,1.118955026413459564e-07,7.551395952987149940e-08,5.589334772793108641e-09,-2.327266628299184958e-07,4.965388216078281403e-04,-4.651372762509708991e-07,-1.742565132190065924e-07,3.397124353796243668e-03,6.537531760386627866e-08,1.178929323941702023e-06,4.433273659287806368e-07,2.120664888138890092e-08,2.920050405919027980e-07,-4.620914637598616537e-07,-5.143146495356631931e-07,2.870690138934151037e-07,-1.648269437604099608e-10,-1.987135966885489324e-08,-3.414876914575870614e-07,1.697668060660362244e-02,4.542137332919082837e-07,3.768704743833950488e-07,3.804874211255082628e-07,7.068844638524751645e-07,-2.991526741880079499e-07,-1.398730184882879257e-02,4.548021337313912227e-08,-2.018838962669633474e-08,2.855731224826740799e-07,2.773701339719991665e-07,3.969493718614103273e-06,-4.468731162887706887e-08,2.660160589584847912e-06,9.975589421173935989e-08,1.514376047998666763e-02,-5.216954335196533066e-08,1.033202352118678391e-06,2.856717173926881514e-07,-3.192703275090025272e-07,1.396037845324826776e-07,1.141962457040790468e-06,3.019237340140534798e-07,2.424012564006261528e-07,1.481614120280028146e-08,1.628282433330241474e-07,-2.295938941188069293e-07,-7.144374762901861686e-07,-1.802460225519553205e-08,-1.011789336757829005e-07,1.238515134900808334e-02,-2.674038114491850138e-06,6.363328086678166073e-09,-1.539238496661710087e-07,-5.468348618364871072e-08,-6.349665113702940289e-07,7.364486975802719826e-08,1.076193340122699738e-02
-1.325137354433536530e-02,1.496512442827224731e-01,-1.680608875176403672e-06,1.018861122429370880e-02,2.794988176901824772e-06,-7.383750926237553358e-07,-1.860940130882227095e-07,-1.447356510198005708e-07,1.919997885124757886e-07,1.460918781504005892e-07,-4.012937608877109597e-07,-7.188120484352111816e-02,9.951586434908676893e-06,2.622465977708543505e-08,-4.476227238774299622e-02,1.732789769448572770e-06,-4.954801872372627258e-02,-1.718490665325589362e-07,-1.841066961105752853e-07,-2.909878844548074994e-07,-2.788956123822572408e-07,-2.452716444167890586e-06,-2.407608690191409551e-07,-9.267400713497409015e-08,2.757501249561755685e-07,1.274691072694622562e-07,-1.232638768851757050e-02,1.257317990166484378e-06,6.763991713523864746e-02,-5.665526259690523148e-03,1.197020083054667339e-06,1.520131621509790421e-02,1.219039130955934525e-02,-2.394483260559354676e-07,-3.157777683782114764e-08,-3.254658622608985752e-07,7.901559229139820673e-08,-5.701522529125213623e-02,-2.728484389535879018e-07,-3.530471026897430420e-02,3.969347517340793274e-07,-1.985651068389415741e-02,3.296025469899177551e-02,-1.198034510016441345e-01,1.457802000004448928e-06,-1.113383620977401733e-01,2.195998938248067134e-08,1.313229404331650585e-06,6.398877872015873436e-08,5.040806531906127930e-02,-1.354346636617265176e-06,-7.749211761165497592e-08,2.481848753177473554e-07,-1.499272184446454048e-05,3.073830043831549119e-07,5.709615536034107208e-03,-5.002657324075698853e-02,7.351531088352203369e-02,-2.606935254334530327e-07,8.732292826607590541e-07,6.901429401295899879e-07,1.575766876339912415e-02,1.636988827158347704e-06,1.501963287591934204e-01
-4.167946986854076385e-03,1.444609649479389191e-02,-1.750501041897223331e-06,1.484957244247198105e-02,-2.051413903245702386e-04,-2.618471910409425618e-07,2.155847198537230724e-07,-2.797636398099712096e-06,-3.748277208615036216e-07,-6.560512701980769634e-07,2.804356995511625428e-07,-6.788509339094161987e-02,-6.162822712212800980e-03,1.522989805380348116e-06,-9.854448959231376648e-03,-6.766374838207411813e-08,-1.328427606495097280e-04,-1.729163045638415497e-06,-1.428865175512328278e-06,-3.186837886914872797e-07,2.689079337869770825e-06,-1.438522986063617282e-06,-8.075775213001179509e-07,-2.388329960467672208e-07,5.777962428510363679e-07,1.081564050764427520e-06,1.792250759899616241e-02,1.110921971303469036e-06,1.368228718638420105e-02,-2.137645205948501825e-04,-4.362002946436405182e-04,1.295119756832718849e-03,-1.298064552247524261e-02,-1.831919291817030171e-07,2.051095009392156499e-07,-3.632429752542520873e-06,-9.650686934037366882e-07,-3.337010368704795837e-02,1.388312540484548663e-07,-5.137889087200164795e-02,-2.242341992086949176e-07,7.626205682754516602e-02,7.691822014749050140e-03,-2.434503659605979919e-02,2.140990545740351081e-06,-5.829596146941184998e-02,-9.883545999400666915e-07,-8.860757952788844705e-05,2.875176789984834613e-07,1.041391864418983459e-02,3.095439751632511616e-06,1.996215814870083705e-06,2.285675464008818381e-06,4.747750703245401382e-03,5.360222985473228619e-07,-2.711182169150561094e-04,-4.991178587079048157e-02,5.934150423854589462e-03,-8.612391866336110979e-07,-1.651401589697343297e-06,-7.289482795158619410e-08,2.106194617226719856e-03,-1.617596439018598176e-07,9.123533964157104492e-03
-6.826101802289485931e-03,4.493572283536195755e-03,1.337436027824878693e-03,-9.568824619054794312e-02,-1.396061736159026623e-03,-3.915348827376874397e-07,5.516498546853654261e-08,1.071085648618463892e-06,-8.979381505014316645e-08,3.169252806856093230e-07,5.938873641753161792e-07,-1.667597740888595581e-01,-1.563700148835778236e-03,9.185720273308106698e-07,2.791138552129268646e-02,4.651346444006776437e-06,-7.367914915084838867e-02,-6.317539487099566031e-07,-3.212651904505037237e-07,-1.261136389985040296e-06,-3.930301318177953362e-06,-1.171515805253875442e-06,-1.639543825149303302e-06,5.297263214742997661e-07,1.187097609545162413e-06,6.474365932263026480e-07,-6.634012609720230103e-02,2.585054517112439498e-06,1.062445156276226044e-02,-1.238736324012279510e-03,-3.355839289724826813e-03,5.328244064003229141e-03,7.097785361111164093e-03,-5.721580578210705426e-07,2.933702774043922545e-07,2.091365786327514797e-06,-8.585429327467863914e-07,-3.673438914120197296e-04,5.883888434254913591e-07,-1.020630635321140289e-02,6.297792651821509935e-07,-6.534849107265472412e-02,1.173675060272216797e-02,-1.331236958503723145e-02,-1.044638454914093018e-02,-3.418818861246109009e-02,-1.550804313410480972e-06,-8.327424438903108239e-05,-6.384050939232110977e-03,-1.082041859626770020e-02,-2.615779067127732560e-06,2.496365368642727844e-06,4.589448110436933348e-07,1.060749855241738260e-04,7.632244773958518635e-07,3.050412342417985201e-04,-1.280696392059326172e-01,5.959309637546539307e-02,-2.127138714058673941e-06,4.377431196189718321e-06,-5.683681365553638898e-07,7.409157697111368179e-04,2.094634737659362145e-06,-5.116295069456100464e-02
2.983330489314539591e-07,8.587812632322311401e-02,3.494015800242777914e-06,-2.755086310207843781e-02,2.176639554818393663e-06,-4.265020550064946292e-07,-2.646506347403487780e-09,8.553503789698879700e-07,-5.549783281821873970e-07,3.275587516782252351e-07,6.433671160266385414e-07,-5.306076258420944214e-02,-3.376596623638761230e-06,-2.018449052343385119e-08,5.903456360101699829e-03,1.393390562043350656e-06,-5.789456423372030258e-03,2.874134281682927394e-07,-4.782466476171975955e-07,-2.468965760726860026e-07,-1.237527982311803498e-07,7.162030328800028656e-07,-1.625509611358211259e-07,1.771302322595147416e-07,-5.758006977885088418e-07,-1.593978709024668206e-07,1.556854695081710815e-02,-7.648049518138577696e-07,6.960322025406640023e-07,-8.975229661700723227e-07,2.875711970773409121e-06,-5.953884496534556092e-08,-1.221747230738401413e-02,4.468618328701268183e-07,-9.882971774288762390e-09,1.763275179200718412e-07,1.332388279706719914e-07,-6.453598290681838989e-02,2.728180845679162303e-07,2.650411079230252653e-05,8.333899614854090032e-08,9.419384412467479706e-03,4.972326569259166718e-04,-5.118892341852188110e-02,-1.879903604276478291e-03,-1.986892148852348328e-02,-3.999946045496471925e-07,8.567907912038208451e-07,-1.381769607178284787e-06,1.365090429317206144e-04,-1.163416754934587516e-06,1.601374378878972493e-06,1.572015975170870661e-07,-2.171443838960840367e-06,-1.150840915897788364e-07,-2.784155306301272503e-08,-1.933449506759643555e-02,3.691475838422775269e-02,2.391228690612479113e-07,5.862920033905538730e-07,-8.506856943313323427e-07,1.596617403265554458e-05,-2.591663815110223368e-06,7.738923188298940659e-03
4.262214190475788200e-07,2.494567334651947021e-01,8.729585374567250255e-07,-1.311158143835200462e-06,-8.891772296237832052e-08,2.183156908586170175e-07,-2.197426951511260995e-08,5.913130962653667666e-08,1.385973380507721231e-08,7.667488262086408213e-07,6.258212437160182162e-08,-1.970540545880794525e-02,-3.032421227544546127e-03,3.310067882011935581e-07,-2.697078571145539172e-06,-5.097836037748493254e-07,-8.095557242631912231e-02,-6.598641988375675282e-08,-1.516997087946947431e-07,3.675424764537638112e-08,-6.369569405251240823e-07,3.622673148129251786e-07,1.206753950100392103e-07,4.882921089688352367e-08,1.703107876949161437e-08,-1.322184886021204875e-07,9.231461212038993835e-03,1.244652025889081415e-07,1.333381050017123925e-07,-9.996342953400016995e-08,6.555821414622187149e-07,-9.233988862433761824e-07,-5.907980948904878460e-07,9.935423150864153286e-08,-4.629913163967103173e-08,5.834151579620083794e-07,3.562882255891963723e-08,-2.100665718317031860e-01,1.730600445171148749e-07,-6.528985500335693359e-02,1.507732889649560093e-07,5.796114448457956314e-03,4.282047427750512725e-08,-1.563241928815841675e-01,-7.583194019389338791e-07,-5.280185490846633911e-02,1.168598231515716179e-07,-3.434146123026948771e-08,-4.639099984160566237e-07,-1.474526243328000419e-07,-1.772939697275432991e-07,1.515570460242088302e-07,-4.224604666092091065e-08,-9.097244060285447631e-07,6.237489458271738840e-08,1.737905677146045491e-07,-3.797784820199012756e-02,5.200407281517982483e-02,-3.005418705015472369e-07,3.750226369447773322e-07,3.743525098798272666e-07,-1.769721649225175497e-07,-1.903422116811270826e-06,1.849141903221607208e-02
1.763463160386891104e-06,5.243431031703948975e-02,-8.753256679483456537e-07,7.086363621056079865e-03,5.235389153313008137e-07,3.535298844781209482e-07,1.074334718964564672e-07,-1.293380620381867629e-07,1.099103457136152429e-07,1.829391749197384343e-07,2.343252276659768540e-07,-9.488452970981597900e-02,1.700139819149626419e-06,1.726027250015249592e-07,-1.197106111794710159e-02,5.286215127853211015e-07,7.081638614181429148e-06,-2.219243242507218383e-07,2.861890280314582924e-08,-1.971162646441371180e-07,-3.231242260426370194e-07,5.417181725420050498e-08,-2.096568181286784238e-07,-9.018846469643904129e-08,2.903510392116004368e-07,-7.342268126819817553e-09,-7.765783084323629737e-05,-1.774053259850916220e-07,2.423528581857681274e-02,1.699862764326098841e-06,-1.403269180855204468e-07,-1.628636823625129182e-06,9.380164556205272675e-05,1.989627236298474600e-07,-1.328510279563488439e-07,2.724749208482535323e-07,4.092408190103924426e-08,-8.022460388019680977e-04,-1.445350239492881883e-08,4.848646767641184852e-06,1.296344365186996583e-08,-9.991932660341262817e-03,4.383940715342760086e-03,5.423490620160009712e-06,9.137969527728273533e-07,-3.422263637185096741e-02,-2.136683185938181850e-08,3.429321537851137691e-08,2.099671689848037204e-07,1.504904590547084808e-02,1.265407263417728245e-07,2.139565395964382333e-07,-1.309483224076757324e-07,-9.846085049503017217e-06,2.497855575711582787e-07,-1.306827357439033221e-06,-2.945347689092159271e-02,2.860859502106904984e-03,-1.949127721445620409e-07,-3.225500790904334281e-07,9.766069553052147967e-08,-1.476751663176401053e-06,2.084304924210300669e-07,3.499902595649473369e-05
-6.005530245602130890e-03,5.662877485156059265e-02,5.893308753002202138e-06,-1.297285854816436768e-01,1.305168680846691132e-02,-2.166230697184801102e-03,7.088147668810051982e-08,9.300181642174720764e-03,1.678953083228407195e-07,-1.337163979542310699e-07,2.006081864237785339e-03,-1.099388599395751953e-01,-8.483222685754299164e-03,3.053657451346225571e-07,-2.896413020789623260e-02,7.719226414337754250e-04,-1.178238890133798122e-03,5.047572813055012375e-07,3.211023340554675087e-07,-1.592364014868508093e-06,-3.678298322483897209e-03,-5.533429794013500214e-03,6.295898913322162116e-08,4.101147510482405778e-07,-9.637359710268356139e-08,9.160742564517931896e-08,1.350871771574020386e-01,5.943552241660654545e-04,2.675837092101573944e-02,1.774083473719656467e-03,1.114288065582513809e-02,-1.309535559266805649e-02,-1.416881196200847626e-02,-4.761033096656319685e-07,-1.699863503290544031e-07,2.014994151977589354e-06,1.867826711077213986e-07,-1.322883665561676025e-01,-1.143379151358203671e-07,-5.586005374789237976e-02,-8.856539324142431724e-08,2.885519526898860931e-03,-1.262102043256163597e-03,-1.760499477386474609e-01,-7.636714144609868526e-05,-2.051986902952194214e-01,-8.526361057192843873e-07,1.611693575978279114e-02,-4.265812947323865956e-07,-6.688025780022144318e-03,-9.092695079743862152e-03,6.978012265790312085e-07,-2.344938110354632954e-07,-8.249428123235702515e-03,1.571870882344228448e-07,-1.856183074414730072e-02,3.787036694120615721e-04,1.236430853605270386e-01,-1.217519979945791420e-06,1.289977971464395523e-02,2.101137752674731018e-08,-9.350910113425925374e-05,-5.921586975455284119e-02,-1.035868935286998749e-02
-4.751579370349645615e-03,2.249798327684402466e-01,-5.454771220684051514e-02,-2.271937876939773560e-01,-1.436670422554016113e-01,-3.438987334902776638e-07,4.674217848332773428e-07,-1.024666786975103605e-07,-1.968268179552978836e-07,1.531250291009200737e-07,2.503866426195600070e-06,-8.198384642601013184e-01,-3.716388940811157227e-01,1.351590981357730925e-06,-4.196591675281524658e-01,-1.665898039937019348e-02,1.692494302988052368e-01,-1.272935047745704651e-02,-3.183550063567963662e-07,-3.223619273740041535e-07,-8.026028424501419067e-02,1.017632931470870972e-01,-7.413629532493359875e-08,-1.693838089704513550e-02,1.572918364445285988e-07,9.511080634183599614e-07,-2.348938137292861938e-01,5.446073373605031520e-06,1.560920625925064087e-01,5.211858544498682022e-03,1.400419324636459351e-01,-2.587221562862396240e-03,3.627201020717620850e-01,3.785844171488861321e-08,-1.324229970123269595e-07,1.714041829109191895e-02,1.349123266436436097e-07,-4.554460290819406509e-03,3.916414357263420243e-07,-4.740951359272003174e-01,-3.733019582341512432e-07,-2.092825323343276978e-01,-2.647511893883347511e-03,9.812573902308940887e-03,1.343373488634824753e-02,-6.623597741127014160e-01,-9.429345482203643769e-06,1.005313679343089461e-04,-8.049462735652923584e-02,2.097728699445724487e-01,5.833764444105327129e-04,1.382943987846374512e-01,2.847267296601785347e-06,-5.859179794788360596e-02,1.436282843769731699e-07,7.997573353350162506e-03,-6.157218217849731445e-01,6.513729095458984375e-01,-1.600219434294558596e-06,9.125603355641942471e-06,-1.352145820856094360e-01,-8.621059823781251907e-04,-5.079285800457000732e-02,-2.566192746162414551e-01
-9.760890156030654907e-03,2.144250720739364624e-01,2.501679700799286366e-04,3.122752904891967773e-02,-4.205759242177009583e-02,2.752612090262118727e-06,-2.011002493418345693e-07,-5.153187430551042780e-06,7.745800871816754807e-07,2.263143130676326109e-07,-1.168346898339223117e-06,-1.790627092123031616e-01,-1.080140098929405212e-01,-3.483343675725336652e-07,-5.438773334026336670e-02,-7.181808996392646804e-06,1.507541071623563766e-02,3.087113100264105015e-06,3.432278106174635468e-07,3.018909922047896544e-07,7.427408945659408346e-07,1.666956208646297455e-02,1.026977685114616179e-07,-1.774604015736258589e-06,-3.723920087850274285e-07,2.985969160818058299e-07,-2.618614770472049713e-02,-6.367203241097740829e-06,3.637103363871574402e-02,-1.501337252557277679e-02,-2.229192480444908142e-02,3.518855199217796326e-02,5.151256546378135681e-02,7.018701353445067070e-08,2.358951860514935106e-07,-6.651751846220577136e-06,7.033851261439849623e-07,-2.350953668355941772e-01,-2.968025398786267033e-07,-2.021948844194412231e-01,-5.532851332645805087e-07,-4.486490786075592041e-02,4.911021888256072998e-02,-2.370843440294265747e-01,-8.789120241999626160e-03,-1.012595593929290771e-01,1.468061725518055027e-07,-3.143591129628475755e-06,-1.605156064033508301e-02,5.169697105884552002e-02,4.893784080195473507e-06,-1.156597136287018657e-06,-1.790340093066333793e-06,3.845383971929550171e-02,-1.050952320724718447e-07,1.877805590629577637e-02,-1.838146150112152100e-01,1.802693158388137817e-01,2.706134694108186522e-07,-5.539375822991132736e-03,-2.835546865753713064e-06,3.031757660210132599e-02,1.696136791906610597e-06,-6.451215595006942749e-02
-6.523764878511428833e-02,-1.271370891481637955e-02,1.279368437826633453e-02,8.972591161727905273e-02,3.893531113862991333e-02,4.850846156477928162e-02,3.291423354312428273e-06,-2.217634394764900208e-02,-7.711420767009258270e-03,5.084673874080181122e-03,-8.587541524320840836e-04,-8.169232308864593506e-02,-5.039233714342117310e-03,2.680332399904727936e-03,-6.520554423332214355e-02,2.639961801469326019e-02,-5.659858509898185730e-02,-3.579991971491836011e-05,1.390949264168739319e-02,3.712160140275955200e-02,7.150707766413688660e-03,3.930336236953735352e-02,1.947251893579959869e-02,-4.621362779289484024e-03,-1.303482241928577423e-02,-5.143735688761807978e-05,-3.242605924606323242e-02,-3.492674231529235840e-02,7.821976393461227417e-02,-4.841766133904457092e-02,-1.843442954123020172e-02,3.860776498913764954e-02,3.089934028685092926e-02,1.624855627824217663e-07,1.988783822071127361e-07,1.608650945127010345e-02,-4.073843683727318421e-06,-1.062658336013555527e-02,-4.631948229416593676e-07,-6.696930155158042908e-03,-1.109694037586450577e-02,-1.751028895378112793e-01,6.820584833621978760e-02,-2.174784690141677856e-01,4.088540747761726379e-02,-1.289839390665292740e-02,4.773438721895217896e-02,-1.830140687525272369e-02,-3.202357888221740723e-02,8.120886981487274170e-02,1.856207964010536671e-03,2.603762224316596985e-02,7.456949333572993055e-06,2.835056744515895844e-02,4.111206806101108668e-07,4.717500507831573486e-02,-2.127991169691085815e-01,2.171938307583332062e-02,1.458965707570314407e-02,-2.325005270540714264e-02,-1.549232564866542816e-02,5.580314993858337402e-02,3.686445998027920723e-03,-2.082965523004531860e-01
-3.056195192039012909e-02,-1.651672273874282837e-02,1.474232226610183716e-02,7.527829706668853760e-02,-1.167625561356544495e-02,6.958802696317434311e-03,1.869301797796651954e-07,2.055242657661437988e-05,-4.764563641401764471e-07,3.353873267997187213e-08,2.707040721361408941e-06,-2.348017394542694092e-01,-3.665208071470260620e-02,-3.928824980903300457e-07,-1.314544081687927246e-01,2.632987452670931816e-03,-1.302122175693511963e-01,-3.160481355735100806e-06,-1.188262785944971256e-06,1.154780015349388123e-02,-1.765690467436797917e-05,3.223069757223129272e-02,-9.660492423790856265e-07,-4.787578291143290699e-06,1.732167902446235530e-06,6.657054427705588751e-07,-6.592395901679992676e-02,-1.551736984401941299e-02,7.221984863281250000e-02,-2.560980431735515594e-02,-6.849709432572126389e-03,2.778198011219501495e-02,4.632588475942611694e-02,2.472096980454807635e-07,-4.066335890229311190e-08,5.084260832518339157e-03,-2.238506979779231187e-08,-1.713360287249088287e-02,3.636995700162515277e-07,-2.188552469015121460e-01,6.482069693447556347e-06,-3.857806697487831116e-02,6.238243728876113892e-02,-1.839910000562667847e-01,-2.805852098390460014e-03,-1.241910755634307861e-01,1.191819645464420319e-02,2.994603710249066353e-04,-7.209281437098979950e-03,7.527678459882736206e-02,-3.981144691351801157e-04,7.367668786173453555e-07,5.700226665794616565e-06,7.781419553793966770e-04,3.633537346559023717e-07,3.438404947519302368e-02,-2.347587943077087402e-01,1.090382710099220276e-01,-5.043503279011929408e-06,1.098566208383999765e-04,2.380395744694396853e-04,4.214735329151153564e-02,-1.061522681266069412e-02,-9.100747108459472656e-02
-2.657959237694740295e-03,1.379321813583374023e-01,3.350167768076062202e-03,1.208073226734995842e-03,1.050548907369375229e-02,2.044322536676190794e-05,8.075254953610055964e-08,4.617773811332881451e-04,-4.503922355070244521e-07,-1.005991293823171873e-06,-4.088506955213233596e-07,-2.165354415774345398e-02,-2.117219567298889160e-02,7.298274340428179130e-07,-6.740327179431915283e-02,3.404010320082306862e-03,9.747965261340141296e-03,2.535829821681545582e-07,-2.426794765142403776e-07,-3.157561252464802237e-07,1.295159535175116616e-07,4.983373401046264917e-06,-2.266368710479582660e-07,-1.388846868621840258e-07,-2.221811428171349689e-07,-6.515026740316898213e-08,-4.495115485042333603e-03,-1.505841464677359909e-05,3.372872248291969299e-02,3.337714821100234985e-03,1.277248747646808624e-02,-1.383364386856555939e-02,-6.125968322157859802e-02,-2.659841236152260535e-08,2.742941660471842624e-07,5.454351594380568713e-06,-1.554194142272535828e-07,-1.508471816778182983e-01,-4.433513467461125401e-08,-8.962672948837280273e-02,2.106282437353002024e-07,1.101531367748975754e-02,1.053582411259412766e-03,-1.324087083339691162e-01,1.894457079470157623e-02,-2.633387409150600433e-02,5.693922503269277513e-06,9.929250925779342651e-03,4.499104339629411697e-03,5.983360856771469116e-02,-2.957831602543592453e-03,-2.249945055154967122e-06,-9.285627697863674257e-07,-2.949144877493381500e-02,9.170722137241682503e-08,2.675189636647701263e-03,-8.045466244220733643e-02,7.363455742597579956e-02,2.575376356617198326e-07,1.089795865118503571e-02,-1.772147470546769910e-06,1.288401108467951417e-04,-4.432186949998140335e-03,1.314433664083480835e-01
-9.275019913911819458e-02,-2.747582271695137024e-02,6.487914361059665680e-04,8.177512884140014648e-02,-2.101520635187625885e-02,3.469946607947349548e-02,1.670926792485261103e-07,-2.400035969913005829e-02,-4.578130585741746472e-07,1.902764950045821024e-07,2.357204721192829311e-06,-1.241251081228256226e-01,-1.126115908846259117e-03,-5.216905378802039195e-07,-1.375272274017333984e-01,3.854323923587799072e-02,1.575895547866821289e-01,-2.824691136993351392e-06,2.864179760217666626e-02,3.225143253803253174e-02,1.615960896015167236e-02,2.478211931884288788e-02,1.674885302782058716e-02,3.722221038060524734e-07,-1.538456883281469345e-02,3.328281934500409989e-07,-5.622076988220214844e-02,-2.831160277128219604e-02,1.552538871765136719e-01,-5.608284845948219299e-02,-3.490427508950233459e-02,3.410542383790016174e-02,7.051351666450500488e-02,-3.821189125119417440e-07,-3.736720088909351034e-07,-1.978888349185581319e-06,-8.003430806979849876e-09,4.075122997164726257e-02,-5.200693209417295293e-08,-1.335672661662101746e-02,-1.645144447684288025e-02,-1.304021626710891724e-01,7.933142781257629395e-02,4.195670783519744873e-02,5.201042070984840393e-02,4.025282710790634155e-02,5.845741182565689087e-02,-1.904509030282497406e-02,-6.275278329849243164e-02,1.665484011173248291e-01,1.314753666520118713e-02,1.237118709832429886e-02,-3.377235960215330124e-03,1.910431496798992157e-02,-9.195510841664145119e-08,6.901364773511886597e-02,-1.276524364948272705e-01,3.277411311864852905e-02,1.640630699694156647e-02,-1.589409820735454559e-02,1.080414494936121628e-05,7.952767610549926758e-02,1.771931536495685577e-02,-5.275328457355499268e-02
-9.557351469993591309e-02,2.956461012363433838e-01,6.347016314975917339e-04,1.057205349206924438e-01,-8.380531333386898041e-03,5.675139505001425277e-07,8.422596806667570490e-07,1.085706003323139157e-06,1.135666366280929651e-06,2.590746589703485370e-06,4.661069851863430813e-06,-3.769929111003875732e-01,-2.715324163436889648e-01,9.184607279166812077e-07,-3.195729851722717285e-01,-6.181845674291253090e-04,-1.103152036666870117e-01,-1.113843268285563681e-06,-1.352777871943544596e-06,3.558721346053062007e-06,-1.150372213487571571e-06,1.679544299840927124e-01,-1.838563889577926602e-06,-3.367585350133595057e-06,8.323542601829103660e-07,-4.578856987791368738e-06,-1.977304965257644653e-01,3.193116754118818790e-06,7.273074239492416382e-02,-6.493877619504928589e-03,-1.693899184465408325e-02,-2.073667244985699654e-03,2.591078281402587891e-01,-1.299086278550021234e-07,3.037492035673494684e-07,1.308427006006240845e-02,-3.713492162660259055e-07,-1.427484303712844849e-01,-6.979736788537138636e-10,-3.984889388084411621e-01,1.690125486675242428e-06,-2.490350753068923950e-01,5.847029853612184525e-03,-2.401894479990005493e-01,-3.433703631162643433e-02,-2.273539751768112183e-01,1.946370502992067486e-06,9.205931564792990685e-04,-1.004792284220457077e-02,2.300379052758216858e-02,2.607003785669803619e-03,8.760864602663787082e-07,5.991561920382082462e-06,3.714713826775550842e-02,1.477859768783673644e-06,9.350375086069107056e-02,-4.331464767456054688e-01,3.673622310161590576e-01,-2.282230980199528858e-06,3.382970135135110468e-06,-1.532437838613986969e-02,1.334477681666612625e-03,-1.127495989203453064e-01,-3.216422498226165771e-01
3.682865212795150001e-07,1.063019335269927979e-01,8.157233111205641762e-09,-8.930692821741104126e-02,7.330146445383434184e-08,-1.229558108661876759e-07,1.770676618662037072e-07,6.623623249879528885e-08,-4.035598522023065016e-07,3.420809377985278843e-07,1.959548114882636582e-07,-1.108613517135381699e-02,-2.935933414846658707e-03,-1.779011427061050199e-07,1.131809130311012268e-02,-5.207460844758315943e-07,1.495598722249269485e-02,-3.473160177236422896e-07,5.700162830635235878e-08,-1.779593503670184873e-07,-1.825895452611803194e-07,-1.177636249849456362e-06,2.715063942559936550e-07,-1.303691821163965869e-09,2.581878675300686155e-07,-2.574801385435421253e-07,1.317300647497177124e-01,9.435114378675280022e-08,-4.333201104600448161e-07,3.894375595336896367e-07,1.189098881582140166e-07,-1.518506564934796188e-07,-7.406582683324813843e-02,-1.967332821095624240e-07,-2.408636419204412960e-07,2.455911385368381161e-07,2.239294190076179802e-07,-6.893379241228103638e-02,-1.772452833392890170e-07,7.663318538106977940e-04,2.169952324493351625e-07,3.295805305242538452e-02,1.093688624109745433e-07,-1.827106811106204987e-03,-3.497831812637741677e-06,-7.727317512035369873e-02,-2.518796122785715852e-07,3.146973597267788136e-07,3.383977684734418290e-07,-4.394257557578384876e-04,2.190923353850848798e-08,1.845318848836541292e-07,1.628205552606232231e-07,-1.436247544006619137e-06,2.296416568015047233e-07,1.514547847136782366e-07,2.281128987669944763e-02,4.536679387092590332e-02,-2.132779712837873376e-07,1.372840472413372481e-07,1.018652895368177269e-08,-2.459499341966875363e-07,-2.007558805416920222e-06,3.673966228961944580e-02
-9.651608223748553428e-08,5.454220622777938843e-02,2.187047130064456724e-07,3.714748686434177216e-07,2.910334444550244370e-07,-9.300516268240244244e-08,-3.412800353430611722e-08,-3.825141803304177301e-08,4.270268050277081784e-08,-6.899086457679004525e-08,9.070792117427117773e-08,-9.128963824878155719e-07,-2.234592528793655219e-07,8.911433013736314024e-08,-2.243999688289477490e-07,-3.466569182819512207e-07,-1.826224661272135563e-06,2.602536994800175307e-07,-1.106268285866462975e-07,1.012222838880916242e-07,4.268845898991457943e-08,1.641091955661977408e-07,-2.573441690856270725e-07,-2.577588134045072366e-07,1.171524743881491304e-07,1.147800361422923743e-07,-1.155484937953588087e-06,3.926334102288819849e-08,5.336748998274742917e-08,-1.261659718920782325e-07,3.045080063657223945e-07,5.050953433283211780e-08,9.744049975779489614e-07,-1.375847915596750681e-07,4.379030471568512439e-08,2.352976053998645511e-07,5.064480035343876807e-08,-1.705064997076988220e-02,-3.127883729803215829e-08,-4.881430868408642709e-07,4.742708625826708158e-08,-4.179841255336214090e-07,-1.597824166310601868e-07,-4.877320520790817682e-07,-4.654282577121193754e-07,-8.855952764861285686e-04,-1.873067105861991877e-07,-5.671141067864482466e-08,2.949057602563698310e-07,-2.120724502674420364e-07,-2.637958402829099214e-07,3.627854994192603044e-07,-1.892884142762341071e-07,3.041708964701683726e-07,3.985781660276188632e-08,-1.320223930179054150e-07,-6.730034556312602945e-07,4.137586131491843844e-07,-9.235396447593302582e-08,1.380874010692423326e-07,-1.674113434546598000e-07,-7.323389894509091391e-08,-2.472483799920155434e-07,1.400321366418211255e-06
3.737903898581862450e-04,2.863395772874355316e-02,-1.994504418689757586e-05,-5.006000772118568420e-02,4.119444638490676880e-03,-3.865520739054773003e-07,5.384493988458416425e-07,-1.578465230522851925e-06,-1.274015488661461859e-07,-7.880370276325265877e-07,1.401213353346975055e-06,-5.529579520225524902e-02,7.237410172820091248e-04,7.812110425220453180e-07,4.991274327039718628e-03,-1.028105267323553562e-03,8.563732844777405262e-04,-1.653743311180733144e-06,-7.788324865032336675e-07,4.054137207276653498e-06,-1.106080617319094017e-06,-4.640866245608776808e-04,-1.517452005828090478e-06,-4.118145625398028642e-06,5.220894081503502093e-07,2.631662709973170422e-07,-3.204360604286193848e-02,1.775219971023034304e-06,1.556343631818890572e-03,-2.147980922018177807e-06,3.540267471180413850e-06,-3.902656317222863436e-04,-7.608500309288501740e-03,-3.174484319856674119e-08,5.879903142158582341e-07,-9.321313882537651807e-06,-1.291794688995651086e-07,-1.793880909681320190e-01,1.238573901218842366e-07,-1.021819487214088440e-01,1.442070242774207145e-06,-1.680463925004005432e-02,-4.139735756325535476e-05,-7.335808873176574707e-02,-1.248884247615933418e-03,-2.383855730295181274e-02,-5.753603886660130229e-07,1.191489431562331447e-07,5.135144965606741607e-05,-6.575995357707142830e-04,-3.813755938608665019e-06,2.528033519411110319e-06,2.667326270966441371e-06,-1.200720574706792831e-02,4.163334494933224050e-07,-2.920481620094506070e-06,-1.289280802011489868e-01,3.488484025001525879e-02,-2.029247980317450128e-06,1.502469785918947309e-06,-5.692085323971696198e-06,9.356380701319721993e-07,-1.029355102218687534e-03,1.191587373614311218e-01
-5.291769866744289175e-07,3.109645098447799683e-02,5.209762576896537212e-08,-8.874792605638504028e-03,1.113827110543752497e-07,3.569341089360023034e-08,-3.211902921407272515e-08,4.475417725302577310e-08,1.140371530539141531e-08,-5.452603701883163012e-08,-1.373421554262677091e-07,-2.628232778079109266e-06,-4.640437509806361049e-07,-3.127145475900761085e-07,-2.278300996749749174e-07,7.690029946161303087e-08,-4.909774631300933834e-08,-1.508385309989535017e-07,3.873728005032717192e-08,2.326637016381027934e-08,9.798239375413686503e-08,7.613768389092001598e-07,-1.155005264763531159e-07,3.484937565190193709e-07,-1.806641449775270303e-07,6.113707229360443307e-08,1.049221213907003403e-02,1.872144110848239507e-07,4.398482928991143126e-07,-2.098895777180587174e-07,-1.314783588668433367e-07,1.328899372765590670e-07,-7.184036541730165482e-03,-2.243241397081874311e-07,2.602843096610740758e-07,-3.638844781050920574e-09,-9.850901960817282088e-08,1.951867261595907621e-06,1.236723221609281609e-07,-1.051924755302025005e-06,8.808524398773442954e-08,6.542895920574665070e-03,5.868287900057111983e-08,4.854272219745325856e-07,-6.322909484879346564e-07,8.506194149049406406e-07,-5.584010054349164420e-08,-8.057414220274949912e-07,7.943604174442953081e-08,3.601769549277378246e-07,-2.389107294220593758e-07,-1.375512397316924762e-07,5.684890780344176164e-08,7.711272473898134194e-07,-1.326305465454424848e-07,-5.853484452700286056e-08,4.313189536333084106e-03,8.348110895894933492e-07,9.195284178531437647e-08,1.279949515264888760e-07,2.345551024518499617e-07,2.037887298911300604e-07,-7.702429343225958291e-07,9.284023195505142212e-03
2.425887994468212128e-02,-1.522697508335113525e-01,7.428476959466934204e-02,7.821011543273925781e-02,-5.109217390418052673e-02,-3.367163662915118039e-05,-4.874813157584867440e-07,2.208173274993896484e-02,-4.974520834366558120e-06,1.279786829400109127e-06,5.963964504189789295e-04,2.383947186172008514e-02,9.936254471540451050e-02,-5.320026502886321396e-06,-3.390569984912872314e-02,-8.945197612047195435e-02,3.959218561649322510e-01,5.364126712083816528e-02,1.171906163222047326e-07,-4.653735686588333920e-06,7.065613567829132080e-02,-2.499808615539222956e-04,-2.406777070973475929e-07,4.573369771242141724e-02,-7.212483978946693242e-07,3.600412128434982151e-06,6.483406573534011841e-02,8.893544785678386688e-03,-1.383122801780700684e-01,8.810877799987792969e-03,3.339867340400815010e-03,-1.003233715891838074e-01,-9.468115121126174927e-02,2.451447471685241908e-06,-2.306286859266037936e-07,-8.629181236028671265e-02,2.724450041569070891e-06,1.464882045984268188e-01,-1.823652652092278004e-03,1.567444019019603729e-02,1.307996535615529865e-05,2.121698558330535889e-01,-3.140680491924285889e-02,3.176810741424560547e-01,8.731517195701599121e-02,-4.729809239506721497e-03,6.201398718985728920e-07,7.717163767665624619e-03,8.938779681921005249e-02,-7.580702751874923706e-02,5.355156213045120239e-02,-6.029946357011795044e-02,3.763375570997595787e-04,-3.426114097237586975e-02,8.813580620881111827e-07,7.800986617803573608e-02,-1.013700589537620544e-01,-5.132855102419853210e-02,2.302301936651929282e-06,3.720880299806594849e-02,1.246137320995330811e-01,-3.784614056348800659e-02,-7.279271632432937622e-02,2.607106864452362061e-01
-1.293765734544649604e-07,3.111220896244049072e-01,-8.144588150571507867e-07,3.157383048346673604e-07,-3.174152993778989185e-07,-1.586173112855249201e-07,-1.241805307472532149e-07,8.143629770529514644e-08,-2.339372855431065545e-07,8.054936273538260139e-08,2.271313093160642893e-07,-1.691830456256866455e-01,-6.420317504307604395e-07,2.592206556073506363e-07,1.598798746726970421e-07,-2.468585762471775524e-07,-2.579443156719207764e-02,1.770434465697690030e-07,4.302748157769542559e-10,-3.213975503513211152e-07,-1.207836106686954736e-07,-3.527438252604042646e-07,6.623546511264066794e-08,2.921669590705278097e-07,-2.595025705431908136e-08,7.472603869018712430e-08,-2.220905770400349866e-07,-4.916484996897452220e-08,1.536394336199009558e-07,-3.589648258639499545e-07,3.045980889737620600e-08,3.354596245230823115e-08,2.698872378914529691e-07,-2.885548440190177644e-07,-2.687946789592388086e-07,2.575233182255942666e-08,-3.958010097449005116e-07,-1.569269895553588867e-01,4.391254915248055113e-09,-1.264677345752716064e-01,1.727635776660463307e-07,-3.256610341395571595e-07,2.041028039911907399e-07,-9.804502874612808228e-02,1.285663643102452625e-06,-1.720874309539794922e-01,9.419591862069864874e-08,1.989303228810967994e-07,3.692731809223914752e-08,-9.991308225210104865e-09,-5.439613914859364741e-07,3.682576732444431400e-07,2.546779853673797334e-07,1.433472220924159046e-07,3.598928044468152621e-09,-3.239527188725332962e-07,-1.333752721548080444e-01,1.510026007890701294e-01,-1.271327079166439944e-07,5.852521667293331120e-08,-2.152673914679326117e-07,7.313430216981942067e-08,1.401481881657673512e-06,-1.126548909269331489e-06
9.280530363321304321e-02,-1.719699651002883911e-01,-2.503593824803829193e-02,-8.681416511535644531e-02,-4.356775805354118347e-02,1.622468419373035431e-02,-2.383824494245345704e-06,-2.060946263372898102e-02,5.951052065938711166e-03,-1.344305090606212616e-02,-1.844014413654804230e-02,4.175665974617004395e-02,5.419614724814891815e-03,-1.243875431100605056e-06,1.003610417246818542e-01,-7.105609774589538574e-02,-2.744443118572235107e-01,-1.089677959680557251e-02,5.805345608678180724e-07,3.354749176651239395e-03,4.340460151433944702e-02,-6.661678850650787354e-02,-7.214477136585628614e-06,-1.786908251233398914e-04,2.320846760994754732e-06,-2.310109697282314301e-02,-2.548258379101753235e-02,-7.528960704803466797e-03,-7.408940047025680542e-02,-1.245033810846507549e-03,-1.462486921809613705e-03,2.891184762120246887e-02,2.775952918455004692e-03,-2.260149358335183933e-06,-1.517812506790505722e-06,-5.131547525525093079e-02,-1.187675138680788223e-06,1.381845325231552124e-01,-7.575557901873253286e-06,1.067665312439203262e-02,-8.808501996099948883e-03,1.048206314444541931e-01,4.835585877299308777e-02,-2.963455766439437866e-02,-2.127839028835296631e-01,1.380372345447540283e-01,1.966620096936821938e-03,-2.377996221184730530e-02,2.231177315115928650e-02,2.963343821465969086e-02,2.131432853639125824e-02,-1.380417415930423886e-05,2.068993353532277979e-06,5.311201140284538269e-02,1.257238750440592412e-06,-1.117264479398727417e-01,6.732293963432312012e-02,-1.502766646444797516e-02,3.903793869540095329e-03,-2.019751444458961487e-02,1.848999963840469718e-04,4.335130006074905396e-02,-2.519593341276049614e-03,-9.754096716642379761e-02
-6.166116691019851714e-06,2.213345840573310852e-02,-8.860931848175823689e-04,-1.970100402832031250e-02,-3.128515800199238583e-06,7.135082569220685400e-07,-5.034393524283586885e-08,-1.327125460193201434e-06,-3.705200697368127294e-07,-1.370353288621117827e-06,3.751459303202864248e-07,-4.798254370689392090e-02,-3.664257703348994255e-03,2.525399622754775919e-07,4.971912130713462830e-03,-3.035412419194472022e-06,-1.648241095244884491e-02,-1.652604169066762552e-06,-3.896868747688131407e-07,2.212746466057069483e-07,1.644994313210190739e-06,1.472753069720056374e-06,-1.953932695641924511e-07,-5.628141366287309211e-07,1.465559336111255107e-07,3.984434826520555362e-08,1.987813413143157959e-02,-8.081003670667996630e-07,6.102229817770421505e-04,-1.222338823936297558e-06,-1.670109554652299266e-06,-1.158149796538054943e-03,-9.685231372714042664e-03,2.948827955151500646e-07,2.317483733804692747e-07,2.396533034243475413e-07,-9.311480653195758350e-08,-2.042362280189990997e-02,1.208962601140228799e-07,-1.155473291873931885e-03,-7.291728252312168479e-07,2.701946068555116653e-03,5.838010692968964577e-04,-1.489809453487396240e-01,-2.381007187068462372e-03,-4.046048969030380249e-02,-3.830675439076003386e-07,-3.557250465746619739e-06,-1.559119027660926804e-06,6.506574572995305061e-04,1.284011318603006657e-06,1.533400791231542826e-06,4.306437233481119620e-07,3.429753178352257237e-06,4.201576189188926946e-07,6.760534233762882650e-06,9.341803961433470249e-04,1.469467300921678543e-03,8.328886025310566765e-09,-1.961938323802314699e-06,-1.913263986352831125e-06,1.638858520891517401e-04,6.013587608322268352e-06,-8.647719514556229115e-04
-4.049847368150949478e-03,4.211809337139129639e-01,5.755459144711494446e-02,9.306236356496810913e-02,1.676731109619140625e-01,5.577790550887584686e-03,6.563716397067764774e-06,1.870968379080295563e-02,-6.793740671128034592e-03,4.226771369576454163e-02,1.611977256834506989e-02,-2.057082056999206543e-01,-2.822034358978271484e-01,-6.082664430141448975e-02,-8.582443743944168091e-02,9.603781998157501221e-02,-2.380799651145935059e-01,1.495624482631683350e-01,7.222809927043272182e-06,-6.947511574253439903e-04,5.795373581349849701e-04,1.152874082326889038e-01,3.885989372065523639e-06,2.372474968433380127e-02,-4.358840328677615616e-07,1.051146630197763443e-02,-4.478640854358673096e-02,-4.141460638493299484e-03,1.190508157014846802e-01,-4.074001684784889221e-02,9.076022356748580933e-02,-2.035507559776306152e-02,9.155606478452682495e-02,-1.422786112925678026e-06,-1.989820506423711777e-03,1.890479028224945068e-01,-4.175208232481963933e-06,-3.334271013736724854e-01,-2.342084608972072601e-02,-1.494290381669998169e-01,-1.034798333421349525e-04,-3.051360845565795898e-01,-5.272290483117103577e-02,-5.268381834030151367e-01,-5.876414850354194641e-02,2.565234340727329254e-02,4.962679930031299591e-03,-3.472562180832028389e-03,-5.601918697357177734e-02,-1.270196959376335144e-02,-1.146012265235185623e-02,-7.930858433246612549e-02,-1.763206455507315695e-05,7.541160285472869873e-02,-4.399533679588785162e-07,-1.142196357250213623e-03,-3.405769467353820801e-01,9.208780527114868164e-02,5.410687532275915146e-03,5.700636282563209534e-02,-1.872347109019756317e-02,-1.143351662904024124e-03,3.771853446960449219e-02,-4.000858962535858154e-01
-7.102224230766296387e-02,8.046606928110122681e-02,-4.243789135216502473e-06,1.388807445764541626e-01,-1.264673471450805664e-02,2.315781638026237488e-02,9.825074442915138206e-08,-6.472358014434576035e-03,-2.762820940915844403e-07,1.059119540514075197e-06,-8.796984474201963167e-08,-1.914833039045333862e-01,6.549099452968221158e-06,2.161609558015697985e-07,-1.590095907449722290e-01,1.343666440334345680e-06,2.209355880040675402e-04,-3.628410993883335323e-08,-5.024183451496355701e-07,2.051350101828575134e-02,1.116088125854730606e-02,1.252350024878978729e-02,-4.509088569193409057e-07,-3.602955018777720397e-07,4.992289177607744932e-07,7.503012966481037438e-08,-7.935991138219833374e-02,-1.753191277384757996e-02,1.423591971397399902e-01,-4.029080271720886230e-02,-2.089154161512851715e-02,2.402709238231182098e-02,8.872302621603012085e-02,-1.051963778309072950e-07,-2.685393383217160590e-07,1.131704038925818168e-06,-2.721201219912927627e-08,-2.186492271721363068e-02,-1.723809788245489472e-07,-8.207924664020538330e-02,3.610538783505035099e-07,-1.161244511604309082e-01,5.445041880011558533e-02,-3.897907910868525505e-03,1.981814764440059662e-02,1.800674572587013245e-02,3.785816952586174011e-02,-6.960785947740077972e-03,-3.723078221082687378e-02,1.190109923481941223e-01,3.558658994734287262e-03,3.869960210067802109e-07,3.425990087180252885e-07,1.105335727334022522e-02,-2.414876121292763855e-07,4.084257408976554871e-02,-1.961364746093750000e-01,1.392521262168884277e-01,1.091646496206521988e-03,-2.073023002594709396e-03,-1.980202313234258327e-07,5.719080567359924316e-02,1.319544935540761799e-06,-6.605639308691024780e-02
2.923146486282348633e-01,-1.396622275933623314e-03,4.159639403223991394e-02,-1.845476329326629639e-01,5.140786245465278625e-02,5.975600215606391430e-04,-3.141594504540989874e-07,2.263431996107101440e-02,2.951975038740783930e-04,-5.789702758193016052e-03,-4.608798917615786195e-06,-1.946916803717613220e-02,2.609098330140113831e-02,-4.443714260560227558e-06,8.440030366182327271e-02,4.183585196733474731e-02,2.508113160729408264e-02,5.464935093186795712e-04,-9.445598720958514605e-07,2.686725792955257930e-06,-4.550865665078163147e-02,-1.685116291046142578e-01,1.149297822848893702e-04,-5.102762021124362946e-03,-3.342654736115946434e-06,-9.405253877048380673e-06,-8.105451613664627075e-02,-1.340092467216891237e-06,-4.551032092422246933e-03,-3.166078031063079834e-02,1.228221040219068527e-02,-6.272516213357448578e-03,-7.404934614896774292e-02,4.852491201745579019e-06,5.224151664151577279e-06,3.099089488387107849e-02,5.028019586461596191e-06,4.554703086614608765e-02,3.337688667670590803e-06,9.529282152652740479e-02,-2.099031844409182668e-04,8.624573796987533569e-02,-5.386853008531033993e-04,5.948452651500701904e-02,1.956275664269924164e-02,1.494643837213516235e-01,2.357132179895415902e-04,4.015287756919860840e-02,-7.557095959782600403e-04,1.932432205649092793e-04,-1.481198519468307495e-01,3.086056560277938843e-03,-4.295466624171240255e-06,-7.430727779865264893e-02,-4.602288754540495574e-06,-1.202899590134620667e-01,-9.929711371660232544e-02,-1.405931776389479637e-03,1.906045667965372559e-06,7.448647171258926392e-03,6.015285634930478409e-06,-1.264128647744655609e-02,-3.106979466974735260e-02,4.402489587664604187e-02
2.278628945350646973e-02,3.240310028195381165e-02,1.378813479095697403e-02,-2.252376405522227287e-03,-3.704110895341727883e-06,9.059988883564074058e-07,-4.687731802732741926e-07,9.956179186701774597e-03,-3.375063442945247516e-06,-3.412149908399442211e-06,-3.329598484924645163e-06,-1.120535582304000854e-01,-4.307401925325393677e-02,-6.964247631913167424e-07,-1.494975108653306961e-02,-6.376625504344701767e-03,1.727869659662246704e-01,-1.006392267299816012e-06,-1.839538725789680029e-07,-3.791027722854778403e-07,-1.847519888542592525e-03,3.030654974281787872e-03,7.041396088425244670e-07,-2.540921570926002460e-07,1.666953380663471762e-06,-1.542618747407686897e-06,-1.666932739317417145e-02,-4.407308551890309900e-06,-5.656420439481735229e-02,1.029002293944358826e-02,1.414981111884117126e-02,-2.561291307210922241e-02,1.602647267282009125e-02,3.830224159173667431e-06,-2.766437887657957617e-07,-7.994810403033625335e-06,-8.758054832469497342e-07,5.322524229995906353e-04,3.414788125155610032e-06,-8.445982635021209717e-02,-3.766835789065225981e-06,-1.570061407983303070e-02,-4.210921749472618103e-02,3.177496045827865601e-02,-4.678175970911979675e-02,-4.911933839321136475e-02,-1.754061941028339788e-06,2.357513876631855965e-03,9.864159859716892242e-03,-3.724632039666175842e-02,-1.436277758330106735e-03,3.904428467649267986e-06,-3.126424417132511735e-06,-4.799808375537395477e-04,6.031953603269357700e-07,-1.465127989649772644e-02,-1.995238065719604492e-01,1.190480887889862061e-01,-1.501355768596113194e-06,2.821821952238678932e-03,-5.305613512973650359e-07,-2.617927826941013336e-02,-2.328338101506233215e-02,-2.379287183284759521e-01
2.270145341753959656e-02,1.910963654518127441e-01,-2.066062092781066895e-01,-2.262190729379653931e-01,8.024048060178756714e-02,-9.577396849635988474e-05,-8.958299986261408776e-07,-9.850072674453258514e-04,-1.600343239260837436e-06,-5.129717010277090594e-06,1.442683860659599304e-04,2.494736760854721069e-02,-3.170768916606903076e-02,5.797008634544909000e-04,1.308486908674240112e-01,2.166027389466762543e-02,-7.805632799863815308e-02,-2.216156125068664551e-01,-5.590344313532114029e-03,-1.342637716561512207e-07,-1.208938211202621460e-01,-1.920401118695735931e-02,-3.466124879196286201e-03,-1.437885407358407974e-02,1.945889607668505050e-06,6.159011973068118095e-04,-1.032125502824783325e-01,1.892145350575447083e-02,-1.546402927488088608e-02,1.511372998356819153e-02,4.255240783095359802e-02,-1.734250411391258240e-02,-7.881898432970046997e-02,6.962839051993796602e-06,7.560645371995633468e-06,2.043223679065704346e-01,2.781998773571103811e-06,7.252687588334083557e-03,6.205315457918914035e-06,4.083161707967519760e-03,-8.244043588638305664e-02,2.229864001274108887e-01,-2.236636355519294739e-03,-2.065459266304969788e-02,-3.983659669756889343e-02,2.637352049350738525e-02,-2.377009950578212738e-03,2.111236006021499634e-02,-1.279489845037460327e-01,-3.931823652237653732e-03,-4.805646464228630066e-02,6.180423870682716370e-02,-5.778199010819662362e-06,-8.893056958913803101e-02,-1.917544750540400855e-06,-1.117513328790664673e-01,-1.183564774692058563e-02,8.079615980386734009e-02,-3.445426841608423274e-07,-3.384778276085853577e-03,-7.066513597965240479e-02,-5.842546932399272919e-03,2.189489305019378662e-01,-6.232739984989166260e-02
-6.725790910422801971e-03,1.831513196229934692e-01,-7.262005965458229184e-07,2.358268387615680695e-02,-1.168903149664402008e-02,1.088326143872109242e-06,2.596160300072369864e-07,-2.506572491256520152e-05,-2.706633779325784417e-07,4.931894750370702241e-07,4.709747258857532870e-07,-1.014643087983131409e-01,3.823619749709905591e-07,5.226949610914743971e-07,-1.874755509197711945e-02,1.485441543991328217e-06,-6.053726188838481903e-03,-8.121190262500022072e-07,-7.730263860139530152e-07,1.457362600376654882e-06,1.143455051533237565e-06,4.165128848399035633e-05,-1.043937629674474010e-07,-1.031611418511602096e-06,4.024340398700587684e-07,5.842287578161631245e-07,-1.283308025449514389e-02,-1.715918187983334064e-04,3.163281455636024475e-02,-2.753130160272121429e-03,-1.779133686795830727e-03,8.544867858290672302e-03,2.011851780116558075e-02,-1.113909249284006364e-07,-5.835935734666009012e-09,-2.293272473252727650e-06,-7.073539620705560083e-08,-1.451564282178878784e-01,-4.441546089251069418e-11,-3.720299154520034790e-02,5.004413878850755282e-07,-3.566991910338401794e-02,1.275560073554515839e-02,-9.453276172280311584e-03,-1.864033564925193787e-02,-1.982170157134532928e-02,2.454417881381232291e-06,-1.014624838717281818e-03,-9.843718089541653171e-07,2.253166213631629944e-02,-1.924138217646031990e-07,2.117568783432943746e-06,6.760444080100569408e-07,1.281187776476144791e-02,6.297176469161058776e-07,1.928375917486846447e-03,-1.077223718166351318e-01,5.419919639825820923e-02,-1.675070819828761159e-07,-9.900517034111544490e-05,-4.578567711632786086e-07,7.489448413252830505e-03,1.916263727252953686e-06,2.783615700900554657e-02
-4.584727063775062561e-02,-1.724148094654083252e-01,3.849911154247820377e-04,6.590907461941242218e-03,-4.291509278118610382e-03,4.459823685465380549e-05,1.453587628930108622e-06,-6.985009531490504742e-05,-2.279840600749594159e-06,-7.074968948472815100e-07,-6.007293791299161967e-07,-1.384693384170532227e-02,-4.722501907963305712e-04,1.870108803814218845e-06,-2.563571184873580933e-02,1.476989127695560455e-03,1.639622002840042114e-01,-3.567712383301113732e-06,-1.768324068507354241e-06,2.330358111066743731e-04,3.007466148119419813e-06,8.609780343249440193e-04,-1.418915985595958773e-06,-3.792759798670886084e-06,1.255188863069633953e-06,-3.596797341742785648e-06,-3.159420192241668701e-02,-6.707724533043801785e-04,8.543758839368820190e-02,-4.040033090859651566e-03,-1.123827765695750713e-03,7.332533597946166992e-03,2.662193030118942261e-02,-1.135859747591894120e-06,5.202854254093836062e-07,-2.167338664094131673e-07,-1.569898472553177271e-06,1.059067994356155396e-01,-5.410732342170376796e-07,3.449121117591857910e-02,-3.201974550393060781e-06,-7.380162924528121948e-02,2.375503256916999817e-02,2.312951907515525818e-02,4.860042594373226166e-03,5.485753715038299561e-02,2.842474032149766572e-06,1.728170786918781232e-06,-5.891720647923648357e-04,6.384551525115966797e-02,2.891938265747739933e-06,4.234576408634893596e-06,2.662841779965674505e-06,1.450417563319206238e-02,1.615872406546259299e-06,1.985667832195758820e-02,8.693715557456016541e-03,1.569724874570965767e-03,-1.257968392565089744e-06,-7.900638593127951026e-05,-9.054742258740589023e-05,1.814931258559226990e-02,3.613322507590055466e-03,2.219966053962707520e-02
2.151521109044551849e-02,2.828170657157897949e-01,-2.800553886572743068e-07,-2.728509530425071716e-02,7.651858031749725342e-02,1.098181996894709300e-06,6.788216211361941532e-08,2.987552725244313478e-04,-5.986955784464953467e-07,3.773316166189033538e-07,2.553840204200241715e-06,-1.348862200975418091e-01,-6.745522841811180115e-03,-5.144213446328649297e-07,-1.673694700002670288e-02,6.402845960110425949e-03,-3.774943063035607338e-03,3.762303606436034897e-07,3.359760114562959643e-07,2.346449718970688991e-06,-2.427133877063170075e-04,-4.059688188135623932e-03,-4.275640890227805357e-07,-3.292538622190477327e-06,-2.257264775096246012e-08,-1.669153562033898197e-06,1.099748769775032997e-03,4.606050936217798153e-07,2.383837476372718811e-02,1.860117772594094276e-03,1.677351305261254311e-03,-3.174301469698548317e-03,-1.054049655795097351e-01,2.531947984607541002e-07,1.117774175440899853e-07,3.098889254033565521e-03,1.324659706369857304e-07,-2.218379825353622437e-01,1.207732367447533761e-07,-8.405186235904693604e-02,-5.742573989664379042e-07,-2.004560519708320498e-04,7.588170003145933151e-03,-1.777738481760025024e-01,1.776533760130405426e-02,-7.733280956745147705e-02,1.512795847702363972e-06,1.236786134541034698e-02,5.819229409098625183e-03,1.653171703219413757e-02,-6.339375860989093781e-03,-5.454496658785501495e-07,1.103834847526741214e-06,-3.170547261834144592e-02,3.423899030963184487e-08,-5.141547694802284241e-02,-1.461537778377532959e-01,1.293382793664932251e-01,-5.637331810248724651e-07,6.560823880136013031e-03,7.441898342221975327e-03,2.171782311052083969e-03,-1.252151094377040863e-02,3.008522838354110718e-02
-6.489454209804534912e-02,1.349780410528182983e-01,1.242309917870443314e-05,6.730003654956817627e-02,-3.461808664724230766e-03,1.505126804113388062e-02,7.163161512835358735e-07,-4.563776776194572449e-03,-5.536867320188321173e-07,4.610601251897605835e-07,-5.703933311451692134e-06,-2.786883711814880371e-01,-5.239284783601760864e-02,2.189481392633751966e-06,-1.274726688861846924e-01,1.551070436835289001e-02,9.331639856100082397e-03,-1.755633320499327965e-06,-2.913840262408484705e-07,1.187196467071771622e-02,3.677873406559228897e-03,9.277121163904666901e-03,3.104659554082900286e-04,-3.781562782023684122e-06,-5.459625640469312202e-07,-3.510023589115007780e-06,-1.023727804422378540e-01,-1.232419628649950027e-02,1.192410513758659363e-01,-3.330934420228004456e-02,-1.210621744394302368e-02,1.751516759395599365e-02,9.118099696934223175e-03,1.325189913359281491e-07,1.179428963382633810e-07,7.674813241465017200e-05,-2.184837768481884268e-07,-1.202192753553390503e-01,-8.917211857806250919e-08,-2.350952029228210449e-01,-1.245388858706064639e-07,-3.142570331692695618e-02,5.803461745381355286e-02,-2.015989422798156738e-01,3.833518549799919128e-02,-1.951574385166168213e-01,2.606455609202384949e-02,-2.804810879752039909e-03,-2.362169697880744934e-02,7.197217643260955811e-02,1.765992608852684498e-03,3.756880005312268622e-06,1.841260882429196499e-06,-5.126528907567262650e-03,6.417349140974693000e-07,2.878918312489986420e-02,-3.110515475273132324e-01,1.593103706836700439e-01,-3.223929638807021547e-07,-2.936886390671133995e-03,5.673687155649531633e-06,4.507681354880332947e-02,-3.827860951423645020e-02,-1.666371971368789673e-01
-6.594369210688455496e-07,-2.673524431884288788e-02,-9.784141182899475098e-02,-1.068167984485626221e-01,-1.541989604447735474e-06,-5.530298494704766199e-07,6.405421686395129655e-07,1.442675397811399307e-06,-6.511231163131014910e-07,1.007086325444106478e-06,-1.175251895801920909e-06,-5.262053385376930237e-02,-9.858219418674707413e-04,7.185858521552290767e-07,-6.068761649657972157e-05,-2.135193426511250436e-06,3.691699728369712830e-02,-1.626141738597652875e-06,-1.442933125872514211e-06,-4.219223228574264795e-07,2.621461590024409816e-06,1.028637868216719653e-07,-2.803770655646076193e-07,-7.445360665769840125e-07,4.791062906406295951e-07,-1.766071591191575862e-07,6.328253448009490967e-02,7.259569088091666345e-07,9.980347240343689919e-04,5.415106443251715973e-07,1.928626147673639935e-07,8.280449401354417205e-05,-1.987857557833194733e-02,-1.921825827366774320e-07,8.348307289907097584e-08,-2.204374141001608223e-06,-2.891342205657565501e-07,2.819118462502956390e-02,2.058942527582985349e-07,-2.003004774451255798e-04,-5.376124434519624629e-08,2.401843201369047165e-03,1.191210001707077026e-03,4.318020120263099670e-02,4.877233368461020291e-05,-1.758297905325889587e-02,-1.707428850750147831e-06,-1.689966779849783052e-07,3.606951395340729505e-06,9.454707615077495575e-04,1.667426943186001154e-07,-1.170283098872459959e-06,-9.134586065329131088e-08,-4.273201921023428440e-04,2.673969845545798307e-07,-4.327049851417541504e-02,-1.693562231957912445e-02,1.211413834244012833e-02,-1.366512378808693029e-06,-2.776397138859465485e-07,2.979527380375657231e-06,4.081930383108556271e-04,9.172251338895875961e-06,4.565981216728687286e-03
1.125187168327101972e-06,2.523418962955474854e-01,-2.321665760973701254e-06,1.403022836893796921e-02,-3.394029135961318389e-06,-3.470754563750233501e-07,7.598960394261666806e-08,-4.088656453404837521e-07,-2.238520835362578509e-07,1.550973820485523902e-07,2.208605849318701075e-07,-1.514489799737930298e-01,-6.805846001952886581e-03,9.487565932886354858e-08,-5.932933185249567032e-03,-1.544897372696141247e-06,-2.945226728916168213e-01,-2.160330438982782653e-07,-2.824449438776355237e-07,-1.337660933131701313e-07,-3.973420348302170169e-07,-1.134636931965360418e-06,-1.859772851275920402e-07,1.170356398461080971e-07,1.873138586461209343e-07,2.679840918062836863e-07,6.178378313779830933e-02,7.935817052384663839e-07,3.856669645756483078e-03,1.717946105372902821e-07,-4.895770757684658747e-07,3.806591499596834183e-03,1.109431311488151550e-02,-8.716628485672117677e-08,-2.000446528427346493e-07,-1.678429157436767127e-06,1.184698135148209985e-07,-1.047738045454025269e-01,-1.351228178236851818e-07,-9.800401329994201660e-02,4.484393230086425319e-07,-1.107776910066604614e-02,-9.072749094229948241e-07,-2.161180973052978516e-01,-3.094595298171043396e-02,-1.798596233129501343e-01,-7.204198482213541865e-07,1.789263478713110089e-06,-9.337423989563831128e-08,-3.389935159248125274e-07,-3.316844470191426808e-07,1.047671730702859350e-06,3.630718481417716248e-07,5.960173439234495163e-03,4.580552968036499806e-07,-1.416691816302773077e-06,-8.092663437128067017e-02,4.961814731359481812e-02,-1.389942951846023789e-07,8.508062592227361165e-07,-6.371969618612638442e-08,-1.138538095801777672e-06,-1.809020886867074296e-06,-1.376232057809829712e-01
1.140748622674436774e-06,1.660229414701461792e-01,-5.606085906606494973e-08,-5.375960096716880798e-02,1.382647610626008827e-06,9.264569200695405016e-08,-1.307908661374312942e-07,3.882581438574561616e-07,-1.177985780032031471e-07,1.358466406031766383e-08,1.017013389059684414e-07,-1.699536852538585663e-02,-2.053192389439573162e-07,2.105078067415888654e-07,-2.478550868545426056e-06,1.422331365574791562e-06,-6.686990445814444683e-07,-2.676815995528158965e-07,-1.644998377514639287e-07,4.566260614069506119e-08,-5.481998641698737629e-07,-8.596298926022427622e-07,2.175898003997644992e-07,6.283880793489515781e-08,1.726365042031829944e-07,-1.808774996447937156e-08,3.166471049189567566e-02,8.314294746014638804e-07,-2.846517759280686732e-07,7.283125569301773794e-07,3.945872890653845388e-07,-9.365336381961242296e-07,-4.635477904230356216e-03,-2.120132336358437897e-07,-6.890955717153701698e-08,6.856422487544477917e-07,-3.012947757952133543e-08,-6.240142509341239929e-02,2.434858572541998001e-07,-1.400661972184025217e-06,-9.000352463317540241e-08,2.767174318432807922e-02,-4.439974929937307024e-07,-9.396426321472972631e-07,5.877477633475791663e-07,-3.141836449503898621e-02,-1.999546981323874206e-07,1.207690729643218219e-06,-2.454183061217918294e-07,-1.750764937469284632e-07,-4.227606495987856761e-07,8.583068051848385949e-07,2.749834493442904204e-07,-1.440206688130274415e-06,-3.024774031246124650e-08,-5.005884986530872993e-07,7.739162538200616837e-04,-7.870418698985304218e-07,2.965329670701066789e-08,3.476798440260608913e-07,2.414734368016979715e-08,-5.755710503763111774e-07,1.171782514575170353e-06,-3.685147021315060556e-06
-2.717136405408382416e-02,2.092013694345951080e-02,3.101554512977600098e-02,6.750631146132946014e-03,1.002493593841791153e-02,2.939371857792139053e-03,2.100489155054674484e-06,5.009563324165355880e-07,5.051617790741147473e-06,1.737939555823686533e-06,5.071141458756756037e-06,-8.103178441524505615e-02,-2.751821838319301605e-02,1.584107394592138007e-06,-1.013776473701000214e-02,1.452534692361950874e-03,-1.361662894487380981e-01,-7.315623861359199509e-06,-4.062376774527365342e-06,1.759849023073911667e-03,3.720767097547650337e-03,5.457975901663303375e-03,-2.810167188727064058e-06,-1.507345132267801091e-06,2.365297632422880270e-06,-6.109673904575174674e-06,-2.502262592315673828e-03,-4.503430332988500595e-03,5.856584757566452026e-02,-2.450317610055208206e-03,2.947593806311488152e-03,-7.379575399681925774e-04,-9.401679039001464844e-03,3.106495398697006749e-07,6.220502655196469277e-07,-2.507187309674918652e-04,-3.049269935218035243e-06,-4.682989791035652161e-02,4.407560538766119862e-07,-8.307944983243942261e-02,2.521603619243251160e-06,-1.046197041869163513e-01,1.277762558311223984e-02,-1.301945447921752930e-01,-5.273923650383949280e-02,4.154634661972522736e-04,1.225212961435317993e-02,1.265206839889287949e-03,1.981046050786972046e-03,6.176205724477767944e-02,-3.354888394824229181e-05,5.113906809128820896e-04,5.904105819354299456e-06,-2.873248420655727386e-02,1.386501708111609332e-06,2.315280400216579437e-02,-1.485501974821090698e-01,2.842718176543712616e-02,-4.842395810555899516e-06,3.987346310168504715e-03,-2.047681846306659281e-05,2.256841165944933891e-03,-5.448241904377937317e-02,-4.606178402900695801e-02
4.335347512096632272e-07,2.903126366436481476e-02,-1.561388785376038868e-06,-5.784060340374708176e-03,1.016055364289059071e-07,-2.383954900153639755e-08,4.001939544195920462e-07,-1.834833085467835190e-07,-1.025476308313955087e-07,2.214775776110400329e-07,7.008758728943575989e-08,4.315729142945201602e-07,-1.154121719082468189e-06,1.777714402351193712e-07,4.050608310990355676e-07,1.966917153595204582e-07,-2.971373760374262929e-06,-1.873605555147150881e-07,-6.478320102587531437e-08,-1.083639418197890336e-07,-2.005445054464871646e-07,-1.635410171729745343e-07,1.470160384542396059e-07,1.393202921917691128e-07,-5.473783559750700078e-08,-1.033916987580596469e-07,5.700134206563234329e-03,8.831013076360250125e-08,-2.878182669974194141e-07,5.897549613109731581e-07,9.642320719649433158e-09,-5.109653216095466632e-07,-1.610712558886007173e-07,-2.943831489687909198e-08,1.200413777269204729e-07,3.024261445716547314e-07,1.874122688150237082e-07,-3.597821923904120922e-04,1.821954356273636222e-07,-1.398698373122897465e-06,2.152116849174490198e-07,4.673199782700976357e-08,-4.142887064517708495e-07,-2.290921429448644631e-06,1.515213739367027301e-06,-9.830347380557213910e-07,2.026493817197660974e-08,8.679086249685497023e-07,2.126505052046923083e-07,-2.028110088758694474e-07,-2.833214409747597529e-07,4.026725832773081493e-07,-1.413467600741569186e-07,1.309441159946800326e-07,-1.648555638666948653e-07,-3.893555913236923516e-07,-1.733061944833025336e-04,5.299112899592728354e-07,-4.825166377564471532e-10,-1.129866511462296330e-08,-2.671328047654242255e-07,-4.695141910815436859e-07,4.781898041983367875e-07,2.240125013486249372e-06
-4.293078556656837463e-02,9.832722693681716919e-02,-2.172855744220214547e-07,3.480812162160873413e-02,-1.219403278082609177e-02,1.637456822209060192e-03,7.039502634142991155e-07,-1.647773897275328636e-04,-7.433134214807068929e-07,9.017902584673720412e-07,4.568414624372962862e-07,-2.940234541893005371e-01,-3.785338625311851501e-02,5.459207272906496655e-07,-1.086521372199058533e-01,2.205305463576223701e-06,1.264602411538362503e-03,-6.640394758505863138e-07,-2.525998183955380227e-07,-5.408018637353961822e-07,-1.021861137928681273e-07,5.764199886471033096e-03,-7.087635367497568950e-07,-4.619167555119929602e-07,9.234717026629368775e-07,-7.805218160683580209e-08,-1.960250549018383026e-02,-4.436817485839128494e-03,1.023884341120719910e-01,-2.761441469192504883e-02,-4.007658455520868301e-03,2.066486887633800507e-02,5.624660477042198181e-02,-1.362380572800248046e-07,1.148903550074464874e-07,-6.838156423327745870e-06,-7.950893063934927341e-07,-3.373930603265762329e-02,1.299903971130333957e-07,-2.659454941749572754e-01,3.142632749586482532e-07,-1.020671799778938293e-01,3.684624284505844116e-02,-2.913573943078517914e-02,-2.577274106442928314e-03,-2.779158055782318115e-01,5.521282946574501693e-05,-8.560175076127052307e-03,-8.510079234838485718e-03,5.817511305212974548e-02,-2.732589746301528066e-05,1.509690832790511195e-06,6.187997314555104822e-07,2.328732283785939217e-03,4.431715296959737316e-07,8.561353199183940887e-03,-2.493769228458404541e-01,1.986094415187835693e-01,7.177698879701210899e-09,-4.816481377929449081e-04,3.295706619610427879e-06,2.485184930264949799e-02,-4.013108082290273160e-06,-2.818529726937413216e-03
-3.945489972829818726e-02,-5.783368349075317383e-01,-3.971154689788818359e-01,3.655396029353141785e-02,1.173272635787725449e-02,-2.625505148898810148e-04,-1.648802140152838547e-06,-9.187038987874984741e-02,-1.818644232116639614e-04,-1.997768133878707886e-01,-1.516709029674530029e-01,-1.676942706108093262e-01,2.029567807912826538e-01,-1.568647176027297974e-01,6.759016215801239014e-02,-1.719734445214271545e-02,-1.568393409252166748e-01,-4.049894958734512329e-02,1.679737238191592041e-06,-6.079243121348554268e-06,4.493004083633422852e-02,-4.099840670824050903e-02,1.649053208529949188e-02,-7.941907644271850586e-02,1.795973730622790754e-06,-6.513927131891250610e-02,-2.822750508785247803e-01,2.309008501470088959e-03,-8.500782400369644165e-02,1.525293383747339249e-02,-2.822987139225006104e-01,1.934337057173252106e-02,2.486305236816406250e-01,-1.849157342803664505e-06,-5.771591418124444317e-07,-6.851100176572799683e-02,1.315452891503809951e-06,5.856400728225708008e-01,-2.895955403801053762e-04,1.779966205358505249e-01,-1.035308837890625000e-01,2.624182030558586121e-03,-8.450937457382678986e-03,1.714164912700653076e-01,2.406440675258636475e-02,1.410396695137023926e-01,-1.036619323713239282e-06,-1.708556562662124634e-01,-7.819945923984050751e-03,1.040705069899559021e-01,8.946001529693603516e-02,2.601358667016029358e-02,-1.780651323497295380e-02,1.820189505815505981e-01,2.020017973336507566e-06,-3.330768644809722900e-02,-1.251972466707229614e-01,-1.367033123970031738e-01,1.614190182408492547e-06,-2.755008041858673096e-01,-1.168327257037162781e-01,1.569453626871109009e-01,1.270002424716949463e-01,-2.815058231353759766e-01
-3.484512912109494209e-03,-1.530968397855758667e-01,-9.290841221809387207e-02,-1.085702255368232727e-01,1.201219856739044189e-02,1.450759154977276921e-04,2.697289858133444795e-07,9.105485863983631134e-03,3.641547891675145365e-06,8.036544546484947205e-03,2.884994260966777802e-03,-7.399219274520874023e-02,1.249292306602001190e-02,3.051404519283096306e-06,-7.844399660825729370e-03,4.419073462486267090e-03,-1.718212217092514038e-01,-1.167310188066039700e-06,-7.274211952790210489e-07,8.936582162277773023e-05,-3.585833823308348656e-03,3.817265620455145836e-03,-9.422803373126953375e-07,2.293617853865725920e-06,2.083176696032751352e-06,3.493275493383407593e-03,1.044461801648139954e-01,-3.573503636289387941e-05,1.652532443404197693e-02,3.884653002023696899e-02,1.489890925586223602e-02,-1.258883252739906311e-02,-4.045677185058593750e-02,5.080095206722035073e-07,1.046484044309181627e-06,2.235437044873833656e-03,-3.485767763322655810e-07,2.234843820333480835e-01,-2.561734504524793010e-07,-1.626106910407543182e-02,7.749667856842279434e-04,8.381900191307067871e-02,2.527717268094420433e-03,-8.674320578575134277e-02,-9.013342671096324921e-03,-3.668927773833274841e-02,1.350629754597321153e-04,1.334151253104209900e-02,-1.328082580585032701e-04,-5.569821689277887344e-03,-1.234404183924198151e-02,-2.685926801859750412e-06,3.402922857276280411e-06,-5.524807795882225037e-02,9.622610264159447979e-08,-7.930082827806472778e-02,1.826559752225875854e-02,2.294941246509552002e-02,-1.245556290996319149e-06,1.359317637979984283e-02,6.073550321161746979e-04,5.571199581027030945e-04,-3.395069157704710960e-03,-4.642688482999801636e-02
-1.747177168726921082e-02,1.125676706433296204e-01,-1.126944198404089548e-06,2.495100907981395721e-02,-1.080558262765407562e-02,1.260346721210225951e-06,3.761603295515669743e-08,5.161991367685914156e-08,-3.711456599830853520e-07,1.791998442968179006e-07,-1.206701313094526995e-06,-6.571228802204132080e-02,-4.900031723082065582e-03,1.328213130591393565e-07,-1.808311417698860168e-02,1.472555595682933927e-06,-9.959522634744644165e-03,7.223075613183027599e-07,1.900290840239904355e-07,1.843631366682529915e-06,1.446036321794963442e-06,-5.291285560815595090e-07,1.262843170479754917e-06,6.318936840443711844e-08,-8.424763109360355884e-07,2.776685334993089782e-07,-1.347228046506643295e-02,-7.240413106046617031e-05,5.892945453524589539e-02,-1.108942180871963501e-02,-6.930462084710597992e-03,8.711301721632480621e-03,1.701340079307556152e-02,4.517421245964214904e-07,4.863631488660757896e-07,-9.056293492903932929e-07,1.456071743177744793e-07,-3.277549520134925842e-02,4.432353080119355582e-07,-3.403288125991821289e-02,-1.042492726810451131e-06,-2.481976337730884552e-02,1.558986492455005646e-02,-3.551345318555831909e-02,-4.798211157321929932e-02,-3.268076106905937195e-02,-4.958347417414188385e-04,-7.622960838489234447e-04,-6.689324509352445602e-03,3.836999088525772095e-02,3.807102757491520606e-07,1.022616970658418722e-06,-6.249620696507918183e-07,1.733466237783432007e-02,2.893224291256046854e-07,1.212340313941240311e-03,-6.589929759502410889e-02,3.106117434799671173e-02,1.261395368601370137e-06,-5.222869105637073517e-03,-6.258085250010481104e-07,9.291321970522403717e-03,1.801433654691209085e-06,-2.678676322102546692e-02
-1.314408727921545506e-03,5.187043175101280212e-02,5.675199645338580012e-06,-2.620679512619972229e-02,2.193801850080490112e-02,-2.241679624148673611e-07,1.573022601064621995e-08,6.955601274967193604e-03,-6.040148150532331783e-07,1.356412656605243683e-03,4.518372938036918640e-03,-5.207784846425056458e-02,-7.364887744188308716e-03,5.225730319580179639e-07,-3.924076631665229797e-02,1.496866252273321152e-02,-3.323654457926750183e-02,-4.856698865296493750e-07,1.833752918400932685e-07,-4.942638156535394955e-07,-1.376607006164931590e-08,-3.976492211222648621e-03,2.090835806711766054e-07,1.398273411723494064e-06,1.169593701888516080e-07,2.388179418630897999e-04,2.457833476364612579e-02,-2.883604111048043706e-07,3.917133063077926636e-02,6.452096626162528992e-03,1.859702356159687042e-02,-2.070882357656955719e-02,-4.922217130661010742e-02,-2.137332444362982642e-07,-6.991585088655938307e-09,5.590638465946540236e-06,6.160766474749834742e-08,-1.084138005971908569e-01,1.016301069967084914e-07,-9.849406033754348755e-02,1.126308802668063436e-06,1.656045019626617432e-02,-5.573178641498088837e-03,-1.668516099452972412e-01,2.052242867648601532e-02,-8.923397958278656006e-02,-1.682226127286412520e-07,1.792633533477783203e-02,-8.804679509921697900e-07,4.275587946176528931e-02,-9.058415889739990234e-03,-5.291744855639990419e-06,3.358746312187577132e-07,-2.721573598682880402e-02,8.480897406570875319e-08,8.582895970903337002e-04,-3.045571269467473030e-03,6.443119049072265625e-02,3.513748367822699947e-07,1.730933599174022675e-02,-4.578978973768244032e-07,-6.149523425847291946e-03,-2.772878622636198997e-03,1.448068302124738693e-02
7.455096580088138580e-03,8.482669293880462646e-02,9.920639544725418091e-02,-7.041018456220626831e-02,3.222763538360595703e-02,-3.345071745570749044e-04,-7.932078460726188496e-07,3.889622399583458900e-03,-3.246812149882316589e-03,1.492303982377052307e-02,6.975297001190483570e-04,6.139100994914770126e-03,6.002670526504516602e-02,-3.062544919885112904e-06,9.266111068427562714e-03,-5.589440930634737015e-03,-2.890276908874511719e-01,5.805967841297388077e-03,7.813529236955218948e-07,-1.212528804899193347e-04,2.214348409324884415e-03,1.285737496800720692e-03,1.715659550427517388e-06,6.719969096593558788e-04,-4.325005988903285470e-07,1.201148610562086105e-02,1.395790278911590576e-01,4.629830655176192522e-04,-1.638756692409515381e-01,5.251076817512512207e-02,1.480887271463871002e-02,-2.731042541563510895e-02,-6.543716788291931152e-02,-1.333189516117272433e-06,3.097641751992341597e-07,-6.706700474023818970e-02,-3.051272869925014675e-07,-2.959091365337371826e-01,-7.963214069604873657e-03,-1.152725070714950562e-01,-4.113651812076568604e-06,9.190572798252105713e-02,-9.837702848017215729e-03,-4.071793556213378906e-01,-2.070619352161884308e-02,5.683723371475934982e-03,4.556944128125905991e-03,1.547873113304376602e-02,1.367812156677246094e-01,-6.289469450712203979e-02,1.655176514759659767e-03,-2.801335602998733521e-02,-7.310486125788884237e-06,-1.099228933453559875e-01,-1.287167833652347326e-06,-1.190446037799119949e-02,-1.127335242927074432e-02,-7.472541928291320801e-02,4.251930931786773726e-06,2.660425379872322083e-02,1.358338072896003723e-02,-8.096458390355110168e-03,-2.727449238300323486e-01,1.255762726068496704e-01
