-2.886801958084106445e-01
-2.627480924129486084e-01
9.784168750047683716e-02
1.843118369579315186e-01
-4.491629302501678467e-01
4.710021615028381348e-02
-4.188770651817321777e-01
-6.214762330055236816e-01
-3.000342547893524170e-01
-8.944977521896362305e-01
-2.353292703628540039e-02
-8.109224587678909302e-02
-3.015404045581817627e-01
-8.647225499153137207e-01
-2.102115750312805176e-01
-6.746144294738769531e-01
-5.478950738906860352e-01
-3.874184191226959229e-01
-4.809117615222930908e-01
-1.088351488113403320e+00
-8.947799205780029297e-01
3.646230995655059814e-01
-3.025989234447479248e-01
4.604547843337059021e-02
1.354666501283645630e-01
-3.278604894876480103e-02
-1.812823563814163208e-01
-2.027473449707031250e-01
3.061075210571289062e-01
1.227809395641088486e-02
-3.642804324626922607e-01
-1.170656234025955200e-01
6.479655206203460693e-02
-6.542137861251831055e-01
-1.929191052913665771e-01
-3.591427206993103027e-01
-5.336673855781555176e-01
-3.129703402519226074e-01
-4.243606030941009521e-01
-3.601655662059783936e-01
-6.081510782241821289e-01
-3.438502550125122070e-01
-1.852437257766723633e-01
-5.549910068511962891e-01
-7.039239406585693359e-01
-3.691397607326507568e-01
-7.537816762924194336e-01
-6.882857680320739746e-01
-5.057154893875122070e-01
-2.756693661212921143e-01
-6.115871295332908630e-02
-3.126795887947082520e-01
-2.546739280223846436e-01
-3.725239634513854980e-01
-5.705849528312683105e-01
-1.650401651859283447e-01
-1.362214982509613037e-01
-1.863921433687210083e-01
-5.041406154632568359e-01
-3.655160069465637207e-01
-3.678615987300872803e-01
-3.530088067054748535e-01
-1.359400004148483276e-01
-2.541643381118774414e-01
-1.857547909021377563e-01
-7.198372390121221542e-03
1.899493485689163208e-01
-4.583150520920753479e-02
-1.464997977018356323e-01
4.599381610751152039e-02
-1.210907101631164551e-01
-3.616226017475128174e-01
-1.325684487819671631e-01
-5.920933485031127930e-01
7.422618567943572998e-02
-1.316779255867004395e-01
-5.414276942610740662e-02
-4.532025754451751709e-01
-8.478886634111404419e-02
-4.266964793205261230e-01
-1.087824627757072449e-01
-1.072875708341598511e-01
-7.259078323841094971e-02
-4.472959637641906738e-01
-3.949603736400604248e-01
2.171195298433303833e-01
-9.872426837682723999e-02
-4.788999259471893311e-02
1.196876540780067444e-01
1.252278238534927368e-01
-1.003010421991348267e-01
-1.601328449396532960e-06
1.239336654543876648e-01
8.071015472523868084e-04
-1.292121559381484985e-01
-1.106579322367906570e-02
1.885754168033599854e-01
-1.695602089166641235e-01
-1.847518235445022583e-01
-2.327535450458526611e-01
-2.710331380367279053e-01
-5.100893229246139526e-02
-2.263993322849273682e-01
-2.516439259052276611e-01
-2.974846661090850830e-01
-5.790138617157936096e-02
-3.984823822975158691e-02
-3.486508131027221680e-01
-1.815853416919708252e-01
-1.438175290822982788e-01
-3.637100160121917725e-01
-2.477935254573822021e-01
-3.307024240493774414e-01
-1.099814847111701965e-02
2.106971889734268188e-01
-7.221509516239166260e-02
-2.889379560947418213e-01
-4.412363171577453613e-01
-2.946610450744628906e-01
-1.732293367385864258e-01
-1.061509102582931519e-01
-1.569362893860670738e-06
-1.274223625659942627e-01
-3.027945756912231445e-01
-1.223436221480369568e-01
-2.409017086029052734e-01
-2.969289384782314301e-02
-2.056700587272644043e-01
-2.266032807528972626e-02
4.969234112650156021e-03
-1.625882275402545929e-02
-7.607342302799224854e-02
-1.657707057893276215e-02
5.781150981783866882e-02
3.400839120149612427e-02
-1.316507259616628289e-04
5.930825695395469666e-02
-1.468873117119073868e-02
-1.175681129097938538e-01
1.096528470516204834e-01
1.299887150526046753e-02
-2.193820476531982422e-02
5.226032435894012451e-02
5.745365750044584274e-03
-8.122864528559148312e-04
4.423648491501808167e-02
-3.456789534538984299e-03
-1.232729665935039520e-02
-6.830440368503332138e-03
-3.598140925168991089e-02
8.518033660948276520e-03
-3.151963278651237488e-02
-2.758920192718505859e-02
1.083032041788101196e-01
-1.074739918112754822e-01
-1.198564376682043076e-02
-4.022246599197387695e-02
-2.498549595475196838e-02
1.267785439267754555e-03
-7.243853062391281128e-02
-9.985367953777313232e-02
1.231154799461364746e-02
5.698126554489135742e-02
-2.300160471349954605e-03
8.955246210098266602e-02
-9.214352816343307495e-03
-2.976079285144805908e-02
-1.969560235738754272e-02
-6.780133582651615143e-03
5.939909443259239197e-02
2.539058215916156769e-02
-2.262246794998645782e-02
6.441375613212585449e-02
-1.078280969522893429e-03
-6.083855777978897095e-02
5.237755365669727325e-03
-1.231922116130590439e-02
2.348043583333492279e-02
2.169714719057083130e-01
4.538638051599264145e-03
5.623289942741394043e-02
-1.053214073181152344e-03
-2.381953038275241852e-02
8.984404616057872772e-03
4.561564698815345764e-02
-1.770724542438983917e-02
1.084971707314252853e-02
-3.674788400530815125e-02
-3.069070633500814438e-03
-1.452980097383260727e-02
1.592737995088100433e-02
7.571265101432800293e-02
4.021213948726654053e-02
-1.824299544095993042e-01
1.947254501283168793e-02
-9.845231473445892334e-02
-2.841745913028717041e-01
-4.894193261861801147e-04
-2.940967381000518799e-01
8.370086561626521870e-07
-2.880364656448364258e-01
-5.121193528175354004e-01
-1.920217275619506836e-02
-3.306178152561187744e-01
-1.157588735222816467e-01
5.492757540196180344e-03
-2.521817684173583984e-01
-3.077773749828338623e-01
-1.248228400945663452e-01
-5.227545648813247681e-02
-1.703814268112182617e-01
-1.373119801282882690e-01
-2.754930555820465088e-01
-5.896735191345214844e-02
-1.455441117286682129e-01
-2.667012438178062439e-02
5.719154700636863708e-02
2.292937971651554108e-02
-4.547024965286254883e-01
-1.266809701919555664e-01
1.114517897367477417e-01
2.790003083646297455e-03
-2.955130636692047119e-01
-1.149517521262168884e-01
7.428397890180349350e-03
-6.907263398170471191e-02
-1.540611088275909424e-01
-6.022098660469055176e-02
-3.546501398086547852e-01
-2.216990292072296143e-01
-3.999283015727996826e-01
-1.340565383434295654e-01
-7.439010590314865112e-02
-2.370637804269790649e-01
-2.645887434482574463e-01
6.038174405694007874e-02
-3.375530242919921875e-02
-3.635923564434051514e-01
-3.879172354936599731e-02
1.197103857994079590e-01
1.198801146529149264e-05
-9.128934144973754883e-02
1.043221540749073029e-02
-1.250279545783996582e-01
-1.657825559377670288e-01
-1.895776689052581787e-01
-3.691955804824829102e-01
-1.846224814653396606e-01
-1.752721518278121948e-01
-7.938345521688461304e-02
-1.790447086095809937e-01
1.164177879691123962e-01
-3.122286796569824219e-01
1.131661087274551392e-01
-3.023678064346313477e-02
-2.691565155982971191e-01
