-2.095464915037155151e-01
-1.717767566442489624e-01
-1.110934019088745117e-01
-1.054637581110000610e-01
3.174552619457244873e-01
-2.859602570533752441e-01
1.293733268976211548e-01
-1.221492588520050049e-01
1.828223094344139099e-02
-2.450631260871887207e-01
-9.778191149234771729e-02
-2.352978438138961792e-01
-9.442024864256381989e-03
-5.500749126076698303e-02
-5.030723214149475098e-01
-1.491743475198745728e-01
-2.470896989107131958e-01
-4.927153587341308594e-01
-2.498982995748519897e-01
-4.529640078544616699e-01
-1.859685182571411133e-01
-3.516137003898620605e-01
-2.612664401531219482e-01
-1.034520938992500305e-01
-6.407675798982381821e-03
-8.775104582309722900e-02
-2.080682218074798584e-01
-5.809578672051429749e-02
-1.774572730064392090e-01
-1.816718429327011108e-01
-1.839136779308319092e-01
-1.270375400781631470e-01
-2.393620610237121582e-01
-1.073717623949050903e-01
-7.820082455873489380e-02
-3.155730068683624268e-01
-1.111453101038932800e-01
-1.103626862168312073e-01
-1.353908237069845200e-02
-1.476944386959075928e-01
-2.178952284157276154e-02
6.302637606859207153e-02
-1.935651153326034546e-01
1.349218934774398804e-01
-4.974236488342285156e-01
-1.192271858453750610e-01
-4.164116829633712769e-02
-1.270882189273834229e-01
-3.542315065860748291e-01
8.090145885944366455e-02
-8.587541524320840836e-04
-4.719530344009399414e-01
-4.156874027103185654e-03
-1.186067238450050354e-01
-4.530142247676849365e-02
-2.739512622356414795e-01
-2.848721444606781006e-01
2.022112160921096802e-01
-5.831066146492958069e-02
-7.995319366455078125e-02
7.047772407531738281e-02
-2.660790979862213135e-01
-7.838997244834899902e-02
-2.522864341735839844e-01
-2.343966625630855560e-02
-2.094327956438064575e-01
-1.433414667844772339e-01
7.541117817163467407e-02
9.301644563674926758e-02
-1.624504476785659790e-01
-3.456990420818328857e-02
-2.028777897357940674e-01
-6.060237810015678406e-02
-2.287549972534179688e-01
-1.464903634041547775e-02
-3.347348868846893311e-01
-5.506586655974388123e-02
-6.432904303073883057e-02
-3.893079757690429688e-01
-1.206389591097831726e-01
-2.828617580235004425e-02
-4.288320541381835938e-01
-1.090959310531616211e-01
-2.354042679071426392e-01
-7.973870635032653809e-02
-2.249643057584762573e-01
-2.215601950883865356e-01
-2.316336482763290405e-01
2.446779012680053711e-01
3.846330568194389343e-03
-3.758026659488677979e-01
-2.726867794990539551e-01
-2.820183038711547852e-01
-5.116175860166549683e-02
-1.942894160747528076e-01
-1.040553227066993713e-01
-2.011787891387939453e-01
-4.938881099224090576e-02
-9.365642070770263672e-02
-9.899131953716278076e-02
6.724792718887329102e-02
4.136162996292114258e-02
-1.749061346054077148e-01
-2.803786993026733398e-01
7.383961929008364677e-05
-6.705449894070625305e-03
-8.572499454021453857e-02
3.459778726100921631e-01
-7.174527645111083984e-02
4.960237070918083191e-02
5.525040253996849060e-02
-2.768705189228057861e-01
-1.957800388336181641e-01
1.151093691587448120e-01
3.245175629854202271e-02
-1.927824765443801880e-01
-1.589344888925552368e-01
7.431008666753768921e-02
-1.501591652631759644e-01
-4.062419831752777100e-01
-1.143493503332138062e-01
-1.452112291008234024e-02
-2.241905182600021362e-01
-5.367637425661087036e-02
-9.332606196403503418e-02
-2.059315145015716553e-01
-1.694659143686294556e-01
-2.630190849304199219e-01
5.037952959537506104e-02
5.203363299369812012e-02
7.840506732463836670e-02
-5.323490127921104431e-02
-1.341309249401092529e-01
-7.935959100723266602e-02
-1.042691767215728760e-01
-5.098967999219894409e-02
1.002713143825531006e-01
2.704953216016292572e-02
-9.841898083686828613e-02
6.303060799837112427e-02
-9.585096687078475952e-02
9.372388012707233429e-03
-6.484628468751907349e-02
-1.099014282226562500e-01
8.022348582744598389e-02
3.259881958365440369e-02
6.512323021888732910e-02
3.178067738190293312e-03
-1.340169161558151245e-01
2.283952385187149048e-02
-5.446763709187507629e-02
8.367364853620529175e-02
-2.343708276748657227e-02
-9.869640693068504333e-03
-8.479937911033630371e-02
-1.162922754883766174e-01
-1.599170453846454620e-02
-1.297969371080398560e-01
4.629532806575298309e-03
-2.389566600322723389e-02
-2.901266328990459442e-02
1.277992576360702515e-01
-1.181361079216003418e-02
-4.207179322838783264e-02
-9.824808686971664429e-02
-4.427242651581764221e-02
3.421938419342041016e-02
-1.373565662652254105e-02
-6.551139056682586670e-02
-4.503172636032104492e-02
3.350536897778511047e-02
4.903546534478664398e-03
-2.563562989234924316e-02
-6.809228099882602692e-03
-4.835958033800125122e-02
-4.390847682952880859e-02
-5.381799116730690002e-02
7.630928885191679001e-03
1.105354540050029755e-02
-2.640507556498050690e-02
-8.555512758903205395e-04
-5.450343340635299683e-02
-1.009672805666923523e-01
1.831354759633541107e-02
-3.952779248356819153e-02
2.826129645109176636e-02
-1.342899948358535767e-01
7.963156700134277344e-02
3.654305264353752136e-02
5.310381203889846802e-02
1.826745457947254181e-02
-3.009474463760852814e-02
-2.576405405998229980e-01
-3.360624313354492188e-01
-1.245121434330940247e-01
-1.620043218135833740e-01
3.612761795520782471e-01
-2.829306423664093018e-01
3.496611863374710083e-02
-2.186245620250701904e-01
4.619801416993141174e-03
-5.380967855453491211e-01
-9.021208435297012329e-02
-1.947767138481140137e-01
2.548908069729804993e-02
-9.539134800434112549e-02
-3.507707417011260986e-01
-2.036884613335132599e-02
-2.591528594493865967e-01
-4.859583675861358643e-01
-4.339171350002288818e-01
-4.647804498672485352e-01
-2.370509654283523560e-01
-3.459860980510711670e-01
-4.705465137958526611e-01
-1.199678629636764526e-01
1.611496806144714355e-01
-3.182409703731536865e-01
-2.921684384346008301e-01
-2.367061376571655273e-02
-3.645712435245513916e-01
-2.523395419120788574e-01
-2.719998061656951904e-01
-2.714661359786987305e-01
-4.860833883285522461e-01
-1.883768588304519653e-01
-9.236671775579452515e-02
-4.161720275878906250e-01
-3.036605427041649818e-03
3.096103682764805853e-05
-1.397121548652648926e-01
-1.535600274801254272e-01
-1.778115928173065186e-01
-2.100461395457386971e-03
-2.043969631195068359e-01
1.327385306358337402e-01
-3.797141015529632568e-01
-3.678007423877716064e-01
-6.491342931985855103e-02
-1.571476757526397705e-01
-3.720002472400665283e-01
1.465810090303421021e-01
-2.387680113315582275e-01
-4.881362020969390869e-01
-9.304684400558471680e-02
-1.631197333335876465e-01
-1.841561347246170044e-01
-2.833338081836700439e-01
-5.616684556007385254e-01
-1.030966825783252716e-02
-1.772921830415725708e-01
-9.975894540548324585e-02
3.613794455304741859e-03
-2.547537982463836670e-01
-9.987728297710418701e-02
-2.666379511356353760e-01
