-3.909724354743957520e-01
-1.254378557205200195e-01
-2.685309052467346191e-01
-2.055176943540573120e-01
-4.968655109405517578e-01
-2.371423691511154175e-01
-7.830460667610168457e-01
-1.517896354198455811e-01
1.133414804935455322e-01
-7.207143306732177734e-02
-3.351776003837585449e-01
-2.602174878120422363e-01
-1.370910704135894775e-01
-6.021651029586791992e-01
-6.159781292080879211e-02
-3.344242870807647705e-01
-6.613761186599731445e-02
1.242072471541177947e-06
-1.112946271896362305e-01
-4.734247922897338867e-02
-7.370201945304870605e-01
-5.014095827937126160e-02
-2.303619235754013062e-01
-1.264907270669937134e-01
-6.693940162658691406e-01
2.112571150064468384e-03
-1.859400421380996704e-01
-4.299308657646179199e-01
1.611186453374102712e-04
2.176718044211156666e-05
-2.143349774996750057e-06
-2.058448642492294312e-01
-4.822098463773727417e-02
2.353844344615936279e-01
-4.179336726665496826e-01
-6.392738223075866699e-02
-6.682007908821105957e-01
-5.878261923789978027e-01
-7.664873600006103516e-01
-2.121603935956954956e-01
4.675691798183834180e-07
-3.262676000595092773e-01
-3.775549232959747314e-01
-2.479206919670104980e-01
3.592040762305259705e-02
1.662090767240442801e-06
-1.064503958332352340e-04
-1.712244451045989990e-01
2.865963033400475979e-04
-6.731696128845214844e-01
2.979957163333892822e-01
7.556557193311164156e-06
-2.639537155628204346e-01
-7.647708058357238770e-01
-3.414567410945892334e-01
-2.686501443386077881e-01
5.468506060424260795e-06
-3.724988102912902832e-01
-4.064721465110778809e-01
-2.234985530376434326e-01
-1.274610012769699097e-01
-2.115735858678817749e-01
-1.749859154224395752e-01
-3.006272315979003906e-01
-1.171059906482696533e-01
-2.321308106184005737e-02
-1.087226271629333496e-01
-1.175137013196945190e-01
-1.871065348386764526e-01
-1.410399675369262695e-01
-7.775287330150604248e-02
-9.621161222457885742e-02
4.835270717740058899e-02
-5.060566961765289307e-02
-2.048405259847640991e-01
-6.474676728248596191e-02
-1.344194263219833374e-01
-1.230687201023101807e-01
1.058653992913605180e-06
-1.349183470010757446e-01
-7.900023460388183594e-02
1.232497083947237115e-06
-2.022998842221568339e-06
2.030449195444816723e-06
-1.650483012199401855e-01
-1.111009026999454363e-07
2.175475628973799758e-06
-4.641410100703069475e-07
-1.789415478706359863e-01
3.098547225818037987e-03
-3.595511242747306824e-02
-1.127270311117172241e-01
1.824280625442042947e-04
2.458222661516629159e-05
-2.101193786074873060e-06
-1.676888316869735718e-01
-2.155653874069685116e-06
1.986025571823120117e-01
-6.604918837547302246e-02
-1.421340927481651306e-02
-3.869649171829223633e-01
-2.681967914104461670e-01
-1.147934272885322571e-01
-7.001584023237228394e-02
4.602050012181280181e-07
-3.294741809368133545e-01
-9.438346326351165771e-02
-2.436770051717758179e-01
3.450648486614227295e-02
1.480196374359366018e-06
5.022750049829483032e-02
5.023793619329808280e-06
2.982419682666659355e-04
-2.990542650222778320e-01
2.631547451019287109e-01
7.729411663603968918e-06
-1.862576454877853394e-01
-1.858334839344024658e-01
-1.595134437084197998e-01
-7.494108378887176514e-02
5.338710707292193547e-06
-1.635543555021286011e-01
-1.596553921699523926e-01
-6.459691375494003296e-02
-5.972420331090688705e-03
-4.611941426992416382e-02
-9.647140651941299438e-02
-8.059253543615341187e-02
8.282598108053207397e-02
-4.383884370326995850e-03
-2.509384416043758392e-02
1.772538013756275177e-02
-2.076408080756664276e-02
-1.997921429574489594e-02
-2.047424018383026123e-02
2.923560142517089844e-02
-2.204279601573944092e-01
-1.723380555631592870e-04
-2.122476883232593536e-02
-2.357639744877815247e-02
6.470815837383270264e-02
-1.263933489099144936e-03
-1.388640515506267548e-02
9.431242197751998901e-02
-3.089101240038871765e-02
-1.447162404656410217e-02
9.423484094440937042e-03
-1.004783343523740768e-02
3.405167534947395325e-02
-1.061345171183347702e-02
-6.726047722622752190e-04
5.622762069106101990e-02
-3.106549941003322601e-02
1.679103448987007141e-02
-1.664042100310325623e-02
-1.106450520455837250e-02
1.428610831499099731e-02
-7.899727672338485718e-03
-6.958413869142532349e-03
5.011660605669021606e-02
2.980166859924793243e-02
-2.396345138549804688e-01
2.759881550446152687e-03
1.056206692010164261e-02
1.534268818795681000e-02
-7.471197750419378281e-03
-4.813760751858353615e-04
-6.272049155086278915e-03
-4.283279646188020706e-03
5.526862293481826782e-02
-4.927119985222816467e-02
1.050201617181301117e-02
3.297953307628631592e-02
-7.685732562094926834e-03
-2.364450320601463318e-02
7.208675961010158062e-04
1.478455215692520142e-02
2.111774124205112457e-02
-2.891308367252349854e-01
1.330346986651420593e-02
-1.105332076549530029e-01
-7.518687099218368530e-02
3.368085948750376701e-03
-5.858663003891706467e-03
-1.006341725587844849e-02
-1.924200728535652161e-02
-1.595859229564666748e-02
-9.474324993789196014e-03
5.641283094882965088e-02
-1.464037783443927765e-02
-4.414590075612068176e-02
-2.829978766385465860e-04
1.051435356203000993e-05
-2.982071340084075928e-01
-8.184615871869027615e-04
-2.917153835296630859e-01
-3.135955035686492920e-01
-6.034520268440246582e-02
2.873557806015014648e-02
-6.434004753828048706e-02
4.517270252108573914e-02
-4.936186224222183228e-02
-3.286364302039146423e-02
-3.433630979543522699e-07
-4.754317924380302429e-02
-3.250147402286529541e-02
-4.717691410860425094e-07
-2.395540177822113037e-01
-1.600329726934432983e-01
-5.437641218304634094e-02
-5.857537314295768738e-02
-1.379818570512725273e-07
-4.156127199530601501e-02
-8.823420852422714233e-02
-4.108726159302023007e-07
-7.869870960712432861e-02
2.298666430533558014e-07
3.889670381340692984e-07
1.687744912715061218e-07
1.282276026904582977e-02
-4.559190478175878525e-03
4.482920758164254948e-06
-3.570500268779142061e-07
-1.114829331636428833e-01
-7.124945113901048899e-07
1.023856550455093384e-01
-8.648928254842758179e-02
1.602347590960562229e-03
-1.214469193655531853e-06
-1.301942616701126099e-01
-8.899886552171665244e-07
-6.399410218000411987e-02
3.221425117772014346e-07
2.060758136212825775e-02
-1.781235933303833008e-01
-1.386836022138595581e-01
2.061142958700656891e-02
3.754854560611420311e-07
5.189443007111549377e-02
-5.446871370077133179e-02
9.854392847046256065e-04
-4.639782477170228958e-03
1.353606432676315308e-01
-4.686415877586114220e-07
-9.410902857780456543e-02
-1.177210360765457153e-01
-2.104543000459671021e-01
-8.561039716005325317e-02
-1.780868842615745962e-06
-5.908103287220001221e-02
-1.236171796917915344e-01
-9.776765108108520508e-02
3.922886401414871216e-02
-2.100530309689929709e-06
-1.482520550489425659e-01
-1.648907214403152466e-01
