-2.152320891618728638e-01
-2.329779714345932007e-01
-6.221993267536163330e-02
-6.072873994708061218e-02
3.239459097385406494e-01
-1.155887618660926819e-01
8.652999065816402435e-03
-7.025641947984695435e-02
2.938452549278736115e-02
-2.761670351028442383e-01
-5.735864490270614624e-02
-3.694674968719482422e-01
5.359882488846778870e-02
-2.151218242943286896e-02
-4.818944036960601807e-01
-5.970217660069465637e-02
-2.065521031618118286e-01
-4.865909218788146973e-01
-2.181794494390487671e-01
-3.562938570976257324e-01
-1.049193963408470154e-01
-3.566843271255493164e-01
-3.514039814472198486e-01
-1.324624717235565186e-01
4.727568302769213915e-04
-1.530885696411132812e-01
-1.488443762063980103e-01
2.239156328141689301e-02
-2.607843279838562012e-01
-2.618066668510437012e-01
-3.520406782627105713e-01
-2.135159671306610107e-01
-2.262769490480422974e-01
-1.785023659467697144e-01
-2.362734079360961914e-02
-2.953500151634216309e-01
-1.092204600572586060e-01
-1.456302106380462646e-01
-1.291091442108154297e-01
-1.142546236515045166e-01
-4.400376230478286743e-02
2.245149388909339905e-02
-1.018370091915130615e-01
-1.181688345968723297e-02
-5.028847455978393555e-01
-2.119229733943939209e-01
-3.393140062689781189e-02
-1.236024275422096252e-01
-3.410190939903259277e-01
-2.360174246132373810e-02
-9.376109391450881958e-02
-4.339897632598876953e-01
-8.839774876832962036e-02
-1.636484116315841675e-01
-8.994264900684356689e-02
-3.830310702323913574e-01
-3.653275072574615479e-01
2.145079374313354492e-01
-6.911784410476684570e-03
-1.276315301656723022e-01
-6.214076280593872070e-02
-2.856734395027160645e-01
-1.390175223350524902e-01
-1.054227203130722046e-01
-1.035847365856170654e-01
-1.146363690495491028e-01
-1.328949183225631714e-01
1.309417188167572021e-01
1.083915531635284424e-01
-1.020149961113929749e-01
-4.452131316065788269e-02
-1.933024227619171143e-01
-2.096118181943893433e-01
-3.192965686321258545e-01
-8.654123544692993164e-02
-3.052282631397247314e-01
-7.868664711713790894e-02
-8.674341440200805664e-02
-3.601721525192260742e-01
-2.894840240478515625e-01
-6.308884173631668091e-02
-3.463323712348937988e-01
-2.502882480621337891e-01
-2.711706757545471191e-01
-1.742979325354099274e-02
-3.005059659481048584e-01
-2.267936766147613525e-01
-1.566163450479507446e-01
1.441467702388763428e-01
2.659400459378957748e-03
-2.726852297782897949e-01
-2.349681258201599121e-01
-2.694336175918579102e-01
-9.352789074182510376e-02
-2.091761082410812378e-01
-2.155214101076126099e-01
-2.628716826438903809e-01
-1.130708083510398865e-01
-2.058128416538238525e-01
-9.899263828992843628e-02
4.697196930646896362e-02
1.855603232979774475e-02
-2.702699787914752960e-02
-1.385376006364822388e-01
7.328414358198642731e-05
-5.160455778241157532e-02
-1.357195377349853516e-01
3.459924757480621338e-01
-1.133209168910980225e-01
5.615969374775886536e-02
-8.820305764675140381e-02
-2.181637585163116455e-01
-2.063743174076080322e-01
1.630854308605194092e-01
8.508604019880294800e-03
-9.138827025890350342e-02
-2.646103203296661377e-01
8.558620512485504150e-02
-2.021159790456295013e-02
-3.279086649417877197e-01
-1.187431886792182922e-01
-1.323594003915786743e-01
-1.300288885831832886e-01
-9.681132435798645020e-02
-2.314705252647399902e-01
-1.929441392421722412e-01
-9.900764375925064087e-02
-1.571891754865646362e-01
-6.560654938220977783e-02
-2.220979332923889160e-02
-1.221165154129266739e-02
-4.337892308831214905e-02
2.903641015291213989e-02
1.294790534302592278e-03
-7.283684611320495605e-02
6.961504369974136353e-02
6.927489489316940308e-02
-7.895851135253906250e-02
3.723054751753807068e-02
-4.275564849376678467e-02
-3.712606430053710938e-02
-6.286523491144180298e-02
1.527389138936996460e-02
-1.041302457451820374e-02
-3.085366450250148773e-02
-5.061331763863563538e-02
-7.364004105329513550e-02
1.453056931495666504e-02
7.202019542455673218e-02
-5.531096458435058594e-02
-2.883024327456951141e-02
1.752369664609432220e-02
1.213502660393714905e-01
8.790345862507820129e-03
1.067582890391349792e-01
9.078993648290634155e-02
2.974323369562625885e-02
8.148942142724990845e-02
4.267320781946182251e-02
-2.079375274479389191e-02
2.898008562624454498e-02
7.998376153409481049e-03
-1.055274307727813721e-01
-1.110766455531120300e-01
-9.426388144493103027e-02
5.648731067776679993e-02
-2.814773656427860260e-02
-1.770457625389099121e-02
4.298824071884155273e-02
-4.811161124962382019e-05
-3.093155333772301674e-03
-9.952916949987411499e-02
1.293499837629497051e-03
3.218568488955497742e-02
-3.378925099968910217e-02
-9.110926091670989990e-02
-2.006772719323635101e-02
8.712831139564514160e-02
-3.689191117882728577e-02
-2.073229104280471802e-02
2.372608520090579987e-02
-3.201538324356079102e-02
4.421845823526382446e-02
-7.948628813028335571e-02
4.178772866725921631e-02
-5.556797236204147339e-02
7.053382694721221924e-02
-1.264513880014419556e-01
1.073571220040321350e-01
-4.630411416292190552e-02
2.466737665235996246e-02
2.354597114026546478e-02
-2.557961046695709229e-01
-2.365159243345260620e-01
-1.970225870609283447e-01
-6.968179345130920410e-02
4.054137468338012695e-01
-1.807274520397186279e-01
-7.951256632804870605e-02
-9.886310249567031860e-02
-8.509209752082824707e-02
-4.024837315082550049e-01
-2.227462083101272583e-02
-2.106395214796066284e-01
6.661300361156463623e-02
-2.914370223879814148e-02
-4.168620407581329346e-01
-1.274463981389999390e-01
-3.177371621131896973e-01
-5.546312332153320312e-01
-4.585992991924285889e-01
-3.984168767929077148e-01
-2.372201085090637207e-01
-5.067517757415771484e-01
-4.784185588359832764e-01
-6.899621337652206421e-02
4.018534347414970398e-02
-3.464705646038055420e-01
-1.924443393945693970e-01
-1.275624036788940430e-01
-4.293338954448699951e-01
-4.540604650974273682e-01
-3.806103169918060303e-01
-2.240254431962966919e-01
-4.538418948650360107e-01
-7.975700497627258301e-02
-1.840250790119171143e-01
-4.367232620716094971e-01
1.278985887765884399e-01
-8.337137103080749512e-02
-1.346529275178909302e-01
-1.934015601873397827e-01
-1.634089052677154541e-01
-1.290990225970745087e-02
-2.752542793750762939e-01
7.250230759382247925e-02
-3.749138116836547852e-01
-3.742468655109405518e-01
-1.802477287128567696e-03
1.048142462968826294e-02
-4.659578502178192139e-01
1.631232500076293945e-01
-8.196713030338287354e-02
-4.123892188072204590e-01
-1.667642891407012939e-01
-2.710074186325073242e-02
-1.935825049877166748e-01
-2.280565649271011353e-01
-4.693831503391265869e-01
1.600045114755630493e-01
-6.214433908462524414e-02
-1.916852742433547974e-01
-7.940378785133361816e-02
-3.050755560398101807e-01
-8.922912925481796265e-02
-2.936933040618896484e-01
