-3.115692548453807831e-02,3.297002194813103415e-06,1.989566348493099213e-02,-1.779866218566894531e-01,-1.686800122261047363e-01,8.161633275449275970e-03,7.332993391173658893e-06,-2.546464791521430016e-03,1.579317832067772542e-08,8.662610501050949097e-02,-3.492462565191090107e-04,7.346233725547790527e-02,-1.691281613602768630e-05,-2.542518973350524902e-01,-2.472978849255014211e-06,3.280838206410408020e-02,-6.636843085289001465e-03,7.309669308597221971e-05,1.709732459858059883e-04,1.768894940614700317e-01,-3.171292319893836975e-02,-1.180666238069534302e-01,4.386471914585854392e-07,-1.343344571068882942e-03,-1.318586468696594238e-01,8.029552986954513472e-07,-2.743133008480072021e-01,-7.495210638808202930e-07,-4.361001253128051758e-01,-1.769119054079055786e-01,7.379570603370666504e-02,6.478226929903030396e-02,-8.510608971118927002e-02,1.280115842819213867e-01,4.310650378465652466e-02,3.501224098727107048e-03,8.833375759422779083e-04,3.330692125018686056e-04,-4.186415299773216248e-02,-1.743922978639602661e-01,-1.413214504718780518e-01,5.611575033981353045e-06,-6.125453393906354904e-03,9.650803357362747192e-02,-2.164029479026794434e-01,-1.853075064718723297e-02,7.330982387065887451e-02,1.629422046244144440e-02,8.503439277410507202e-02,5.472614429891109467e-04,-2.480731457471847534e-01,-3.529170498950406909e-06,5.743788182735443115e-02,1.472011208534240723e-01,-4.544597864151000977e-02,-1.488739252090454102e-01,3.599165081977844238e-01,-1.095558218366932124e-05,1.071804538369178772e-01,-3.016656637191772461e-02,3.280161138263792964e-07,-1.153453532606363297e-02,-1.437630355358123779e-01,7.151553034782409668e-02
4.671181738376617432e-01,2.141678123734891415e-06,1.128190290182828903e-02,-3.238708674907684326e-01,2.361700637266039848e-03,-2.323970431461930275e-03,6.219178203537012450e-07,5.214213952422142029e-02,-2.260155497424420901e-06,2.387411193922162056e-03,-1.503656449131085537e-06,-8.741332218050956726e-03,1.571642314956989139e-06,4.353605036158114672e-04,7.791848588567518163e-07,1.537344977259635925e-02,-1.237073774973396212e-06,-1.935669331487588352e-07,6.408338776964228600e-06,7.508518639951944351e-03,1.689368300139904022e-02,-3.996844217181205750e-02,1.397775122313760221e-06,-2.796948142349720001e-02,-1.416119374334812164e-02,-1.748553472680214327e-06,-6.546728312969207764e-02,-9.992560308091924526e-07,2.056455053389072418e-02,-4.160251617431640625e-01,-4.000220542366150767e-06,2.466297814862628002e-07,-1.468592882156372070e-02,-9.746382944285869598e-03,-5.611103959381580353e-03,3.103145398199558258e-03,7.207171961454150733e-07,-8.006641678548476193e-07,-7.340080104768276215e-03,3.552088746801018715e-03,-1.019924966385588050e-04,2.894336148528964259e-07,9.331759542874351609e-07,-2.620433178890380077e-06,-1.564573758514598012e-04,1.953477948291038047e-07,1.806463859975337982e-02,2.468114544171839952e-04,3.477696329355239868e-02,3.545231095358758466e-07,-1.750819757580757141e-02,1.781548576218483504e-06,4.997631534934043884e-03,3.107420401647686958e-03,-2.799805998802185059e-01,-2.256891876459121704e-02,1.202509179711341858e-01,-1.488109319325303659e-06,-1.475304272025823593e-02,6.752291694283485413e-03,7.216315793812100310e-07,5.068291723728179932e-02,-1.226357539962918963e-07,4.942394753015832976e-06
8.717473596334457397e-02,-2.547656549722887576e-06,9.609797853045165539e-04,9.066777676343917847e-02,-5.704448267351835966e-05,-3.414615755900740623e-03,-3.179473395675813663e-08,-5.744468580815009773e-05,1.368945163449097890e-06,3.437286242842674255e-02,2.817171207425417379e-06,1.593477278947830200e-02,-3.819363428192446008e-06,-5.312086082994937897e-03,2.001987695621210150e-07,-2.051369985565543175e-03,3.416664640099043027e-06,2.155976744688814506e-06,-3.080247097386745736e-07,-8.283664355985820293e-04,1.615352556109428406e-02,3.576458897441625595e-03,-2.265760031150421128e-06,9.584427811205387115e-03,-7.406248152256011963e-02,5.584705604633199982e-07,4.929457977414131165e-02,1.558232611387211364e-06,-1.695870757102966309e-01,3.871592879295349121e-02,-1.878059379123442341e-06,5.009314008930232376e-06,8.708082168595865369e-05,-6.297942716628313065e-03,-6.551644206047058105e-02,3.116106881861924194e-06,2.472926098562311381e-06,3.734501888175145723e-06,2.238589571788907051e-03,-7.959265261888504028e-03,3.048347076401114464e-03,2.840502304479741724e-07,1.647489284550829325e-06,-1.408353709848597646e-04,3.057519961657817475e-06,-1.022677565742924344e-06,-3.915742505341768265e-03,8.285909891128540039e-03,1.316631551162572578e-05,4.801446721103275195e-06,-8.443181402981281281e-03,-1.642242068555788137e-06,2.218071930110454559e-02,6.293050944805145264e-03,2.414767816662788391e-02,-5.005073733627796173e-03,1.706533581018447876e-01,-1.352641106677765492e-06,-1.309245089942123741e-05,3.519285842776298523e-02,9.376018965667753946e-07,1.485031396150588989e-01,1.387072727084159851e-03,-2.386201376793906093e-04
5.736307799816131592e-02,-3.136485247523523867e-05,7.860597223043441772e-02,-1.869986951351165771e-01,-8.509096369380131364e-05,7.656420767307281494e-02,1.269769389182329178e-02,-1.979284919798374176e-02,-4.860185072175227106e-06,6.544795352965593338e-03,3.739194711670279503e-03,1.748941093683242798e-02,-1.100048888474702835e-03,3.588449209928512573e-02,-1.928515985127887689e-06,2.703382819890975952e-02,1.378280855715274811e-02,2.891038777306675911e-03,-4.330190422479063272e-04,-1.772963255643844604e-01,5.894330143928527832e-02,-1.194979879073798656e-03,-1.856502960436046124e-03,-4.312752485275268555e-01,-2.155768275260925293e-01,9.770692486199550331e-07,1.167116221040487289e-03,-1.072612462849065196e-06,1.622036695480346680e-01,2.564222738146781921e-02,5.333724857337074354e-07,-2.163107320666313171e-02,-1.463358197361230850e-02,-2.466213405132293701e-01,2.064868248999118805e-02,-7.808334659785032272e-03,-5.143402959220111370e-04,6.296857260167598724e-03,3.772502020001411438e-02,4.284825548529624939e-02,1.232783403247594833e-02,3.358643152751028538e-04,1.834746822714805603e-02,-6.530880182981491089e-02,1.511000934988260269e-02,-1.428943965584039688e-02,-8.320231735706329346e-02,-8.026359230279922485e-02,-5.510284379124641418e-02,8.386167464777827263e-04,2.098415791988372803e-01,-8.563513983972370625e-04,-9.793956577777862549e-02,3.331294981762766838e-03,2.259418740868568420e-02,5.041008815169334412e-02,-7.055013626813888550e-02,5.015653187001589686e-06,-9.897743910551071167e-02,-7.441153377294540405e-02,5.095280241221189499e-03,-2.562648355960845947e-01,3.791067516431212425e-03,7.661906071007251740e-03
8.124520629644393921e-02,1.785253407433629036e-04,-1.611845791339874268e-01,2.494181841611862183e-01,5.780180171132087708e-02,5.816132761538028717e-03,4.376270342618227005e-03,-1.175424978137016296e-01,-4.142113141369918594e-07,-9.325134754180908203e-02,3.348672389984130859e-02,-7.194600254297256470e-02,2.524665032979100943e-04,1.632772088050842285e-01,3.787955620282446034e-06,-9.934304654598236084e-02,3.309474268462508917e-04,4.468917031772434711e-04,1.911493833176791668e-03,-8.481019176542758942e-03,-4.239759966731071472e-02,1.758468449115753174e-01,7.529707159847021103e-03,1.806939691305160522e-01,-1.046538352966308594e-01,-1.771611209733237047e-06,1.780345141887664795e-01,-1.191696469504677225e-06,3.321474790573120117e-02,3.763976320624351501e-02,-3.090619109570980072e-02,3.516962053254246712e-03,4.222796484827995300e-02,-6.306310743093490601e-02,-2.933798730373382568e-02,-6.858588010072708130e-02,-1.671874895691871643e-02,2.060205588350072503e-06,3.134511038661003113e-02,1.142385527491569519e-01,2.086025327444076538e-01,-3.954633939429186285e-05,1.560513737786095589e-05,-1.297343969345092773e-01,-6.101350882090628147e-04,3.110951744019985199e-02,-6.214284151792526245e-02,-3.193168900907039642e-03,-1.620487719774246216e-01,1.358694978989660740e-03,1.412373036146163940e-01,5.545028485357761383e-03,4.008533805608749390e-02,-1.577342599630355835e-01,2.015115506947040558e-02,3.134940564632415771e-02,5.223999544978141785e-02,-2.602998392831068486e-05,4.520615935325622559e-02,-1.126276627182960510e-01,-1.706439661575132050e-06,-9.963937103748321533e-02,1.098092994652688503e-03,-3.620177134871482849e-02
-2.868919670581817627e-01,2.296887714692275040e-06,1.156558189541101456e-02,1.447160392999649048e-01,4.556839168071746826e-02,6.478459108620882034e-03,9.201685898005962372e-03,-6.306918710470199585e-02,2.924169706375323585e-08,-1.086747795343399048e-01,-5.133139900863170624e-03,-1.664948314428329468e-01,-5.115009116707369685e-05,1.220111101865768433e-01,-1.211893732033786364e-06,2.375676482915878296e-01,2.026232505158986896e-05,1.894868619274348021e-04,1.203799434006214142e-02,-7.691268110647797585e-04,-3.016643039882183075e-02,-7.615959621034562588e-04,1.053689970831328537e-06,-2.205385863780975342e-01,-5.925986543297767639e-02,-1.186855769219619106e-07,-1.348132384009659290e-03,8.380907274840865284e-07,3.302521631121635437e-02,1.019769906997680664e-01,-5.918317008763551712e-03,-1.855643093585968018e-02,-1.768026798963546753e-01,-7.798274606466293335e-02,8.339665830135345459e-02,-6.331627070903778076e-02,-1.478798687458038330e-03,5.312564098858274519e-06,7.944484055042266846e-02,2.096533179283142090e-01,-4.962412640452384949e-02,-1.946267502717091702e-06,7.970372214913368225e-03,-2.588696544989943504e-03,1.044587334035895765e-04,-2.121677607647143304e-05,2.996434271335601807e-02,-4.035912826657295227e-02,-1.939689815044403076e-01,4.179995357844745740e-06,2.097998261451721191e-01,-2.990871280417195521e-06,-4.451455024536699057e-04,-5.777294561266899109e-02,2.876041457056999207e-02,-7.514961808919906616e-02,-1.182648120447993279e-03,1.366536821478803176e-07,-6.677721627056598663e-03,-5.879318714141845703e-02,-2.534400437070871703e-06,-2.831235527992248535e-01,-4.007206484675407410e-02,1.350888778688386083e-04
-1.945666223764419556e-01,2.061244100332260132e-03,-4.787280410528182983e-02,-1.042042765766382217e-02,3.810094669461250305e-02,-4.997848346829414368e-02,1.906645670533180237e-02,6.061147153377532959e-02,-6.894119053413305664e-09,-1.128920167684555054e-01,1.702078618109226227e-02,9.028935432434082031e-02,-1.868862227638601325e-06,1.347472667694091797e-01,-2.550592853367561474e-06,1.969234198331832886e-01,3.931245300918817520e-03,1.357071482743776869e-06,1.436606235802173615e-02,4.585594683885574341e-02,-9.089083969593048096e-02,-2.283857464790344238e-01,1.973544422071427107e-04,6.450604647397994995e-02,3.127354383468627930e-02,7.906867836027231533e-07,-1.462483257055282593e-01,8.701043157088861335e-07,-5.072234869003295898e-01,-1.828088425099849701e-02,-3.675111383199691772e-02,-5.334204179234802723e-04,7.617491064593195915e-04,5.098607856780290604e-03,4.543677344918251038e-02,-4.046839661896228790e-03,-2.677246183156967163e-02,-1.266852677872520871e-06,-3.499640384688973427e-03,6.106455251574516296e-02,-6.070325896143913269e-02,7.747678978375915904e-07,2.440983243286609650e-02,8.050429075956344604e-02,-2.286576782353222370e-04,-9.465249604545533657e-04,1.267105787992477417e-01,7.584760338068008423e-02,5.225543677806854248e-02,2.508588507771492004e-02,-5.941409245133399963e-02,-4.879644279753847513e-07,2.753585278987884521e-01,-6.450198590755462646e-02,2.337105013430118561e-02,-1.747024059295654297e-01,1.723815202713012695e-01,-9.413664656676701270e-07,2.477152459323406219e-02,9.829721599817276001e-02,-8.765962411416694522e-05,7.189910113811492920e-02,-2.913215383887290955e-02,7.797207683324813843e-02
-2.659168839454650879e-01,-2.638727210069191642e-06,-6.378963007591664791e-06,2.508788704872131348e-01,-1.518168486654758453e-02,-9.236682206392288208e-02,-1.581395395078288857e-06,5.943418294191360474e-02,4.251557754741952522e-07,9.661931544542312622e-02,1.115089864470064640e-03,4.399185627698898315e-02,2.668135311978403479e-05,-1.509057357907295227e-02,-1.766152990967384540e-06,-2.977501753775868565e-05,1.557664290885441005e-06,-9.229548254552355502e-07,-1.092486083507537842e-03,7.665297389030456543e-02,-5.563130229711532593e-02,-1.798470169305801392e-01,-9.623677215131465346e-07,7.904114574193954468e-02,2.995415590703487396e-02,-6.459999895014334470e-07,1.455611456185579300e-02,1.829639586503617465e-06,9.912820160388946533e-02,1.968246847391128540e-01,2.094223191306809895e-06,2.637029439210891724e-02,-4.674942418932914734e-02,1.431948691606521606e-01,-1.004135683178901672e-01,1.266097001462185290e-06,1.516617089691862930e-06,1.191404862765921280e-06,2.551317214965820312e-02,-4.737108200788497925e-02,3.787212699535302818e-05,1.406952151228324510e-06,-1.398683292791247368e-03,8.161381818354129791e-03,-5.404117928264895454e-06,2.301018412254052237e-06,9.720170055516064167e-05,8.076358586549758911e-02,2.154801785945892334e-02,-1.477738464927824680e-06,-1.670887768268585205e-01,-1.641312650235704496e-07,1.117185428738594055e-01,1.005812138319015503e-01,1.806645691394805908e-01,-1.732412874698638916e-01,2.580500766634941101e-02,-1.850058595209702617e-07,4.673943854868412018e-03,6.498381495475769043e-02,-6.750921102138818242e-07,9.266351908445358276e-02,1.374928187578916550e-02,1.421450264751911163e-02
1.385632455348968506e-01,7.308370442160594393e-08,7.440851535648107529e-03,4.956201091408729553e-02,2.191970683634281158e-02,-6.407869607210159302e-02,2.309658005833625793e-02,-1.183690503239631653e-03,-2.951018700514396187e-07,-2.211404442787170410e-01,-4.327011853456497192e-02,-7.966779172420501709e-02,-7.856012322008609772e-03,4.720618203282356262e-02,-8.896396934687800240e-07,9.337217360734939575e-02,-8.945810608565807343e-03,-4.253963008522987366e-03,2.503028884530067444e-02,1.016704589128494263e-01,-7.567926496267318726e-02,-3.760662674903869629e-01,2.868768206099048257e-06,8.868756145238876343e-02,2.411807072348892689e-04,8.610536497144494206e-07,-1.618674844503402710e-01,1.853825892794702668e-06,-1.738040708005428314e-02,-6.992608774453401566e-03,3.014279645867645741e-04,-1.100758314132690430e-01,-1.485601533204317093e-02,4.839449538849294186e-04,2.283179312944412231e-01,4.772078245878219604e-04,-1.551828067749738693e-02,-2.652663679327815771e-04,5.544508621096611023e-02,3.346917033195495605e-02,-1.668344289064407349e-01,-1.357638160698115826e-03,1.275366451591253281e-02,-2.032931297435425222e-05,-1.996125467121601105e-02,-4.904511943459510803e-02,2.128860950469970703e-01,1.012722682207822800e-02,-4.319281503558158875e-02,-3.995007773482939228e-07,1.339086443185806274e-01,5.024494384997524321e-07,1.025847941637039185e-01,-2.934406138956546783e-02,1.145932152867317200e-01,-1.321131885051727295e-01,1.518883258104324341e-01,-7.526696208515204489e-07,-2.396825700998306274e-03,7.074990868568420410e-02,-1.537569914944469929e-03,-1.748071424663066864e-02,-7.342547923326492310e-02,1.148359254002571106e-01
1.326134707778692245e-02,-4.455589817098370986e-07,1.431797386430844199e-06,-1.488694101572036743e-01,-2.002291921598953195e-06,-4.420594734710903140e-07,5.033080796579270100e-08,-5.849826720805140212e-07,8.313947432725399267e-07,1.684195740381255746e-05,-7.447715688613243401e-07,2.328914217650890350e-02,-1.348169007542310283e-06,-4.791181534528732300e-03,1.053780280813043646e-07,-1.583826929163478781e-06,-2.265260945932823233e-06,1.719265810606884770e-06,1.579831291564914864e-06,1.258582756236137357e-06,3.279272959844092838e-06,-3.329552942886948586e-03,1.087688815459841862e-06,-1.482665687799453735e-01,-6.483303755521774292e-02,6.346330110318376683e-07,-2.659067139029502869e-02,6.602465987270988990e-07,2.987852506339550018e-02,-1.401211172342300415e-01,-1.039678636516327970e-06,1.576596787344897166e-06,-8.418492041528224945e-03,1.560380383125448134e-06,2.023871638812124729e-05,2.040457502516801469e-06,4.454246038676501485e-07,-1.271484620701812673e-06,-2.378252247581258416e-04,-3.938349982490763068e-05,-1.947384444065392017e-04,-6.731664115022795158e-08,1.657208485994488001e-06,1.235481631010770798e-02,-1.949793613675865345e-06,-8.436375651399430353e-07,8.270120815723203123e-06,-1.371199346067442093e-06,-6.340039817587239668e-07,-5.190952379052760080e-07,-6.123143830336630344e-04,9.783631185200647451e-07,-1.744621060788631439e-02,-4.706440961399493972e-07,-1.414050608873367310e-01,7.058752089506015182e-07,-8.287140076390642207e-07,-1.274985493182612117e-06,-2.319182783594442299e-07,-2.914706990122795105e-02,-1.854009951784973964e-06,7.864076906116679311e-05,-2.429052838124334812e-04,-7.856771730985201430e-07
-2.315358221530914307e-01,5.004469585401238874e-07,1.219167024828493595e-04,-3.121585398912429810e-02,2.143139392137527466e-02,3.483009710907936096e-02,2.584471134468913078e-03,-1.118468493223190308e-01,-1.004953986694090418e-07,-7.420285046100616455e-02,7.788319635437801480e-05,-1.502731442451477051e-01,-9.161399248114321381e-07,5.769829452037811279e-02,1.299546852351340931e-06,-1.287361979484558105e-02,-8.657485182084201369e-07,5.357008376449812204e-06,1.347859669476747513e-02,-1.777750700712203979e-01,1.350483216810971498e-04,1.722510159015655518e-02,-1.781825176294660196e-06,-2.203282266855239868e-01,-1.096800267696380615e-01,-5.311477480063331313e-07,-3.672908991575241089e-02,6.962367251617251895e-07,-1.443637162446975708e-01,-9.958299808204174042e-03,-5.217000943957827985e-05,-1.768795959651470184e-02,1.090796384960412979e-02,-6.622319668531417847e-02,1.262427717447280884e-01,4.229497392316261539e-07,9.869272616924718022e-06,1.978272621272481047e-06,-1.779318414628505707e-02,2.844731323421001434e-02,3.074004780501127243e-03,8.647340337120112963e-07,2.303037763340398669e-04,-3.615094721317291260e-02,-5.818238264510000590e-07,-2.477427478879690170e-03,6.766372825950384140e-05,6.101162871345877647e-04,-1.030386164784431458e-01,2.282560672028921545e-06,1.533357985317707062e-02,-2.406579824310028926e-06,-1.168558001518249512e-02,-3.031175583600997925e-02,-1.575734838843345642e-02,9.477505087852478027e-02,5.655639246106147766e-02,6.210847232068772428e-07,-2.588728193586575799e-06,-1.464602351188659668e-01,-1.693455374152108561e-06,-8.267234265804290771e-02,7.804051507264375687e-03,-1.817689277231693268e-02
-8.042962849140167236e-02,1.680952976812477573e-07,-2.054423093795776367e-03,-4.044168293476104736e-01,3.671143949031829834e-02,2.737382985651493073e-02,5.792750812361191493e-07,-9.666515141725540161e-02,1.163536467174708378e-06,-1.110141575336456299e-01,-3.431117511354386806e-04,-3.986665606498718262e-02,-3.886166553002112778e-07,1.208402067422866821e-01,6.130635483714286238e-07,-7.021246710792183876e-04,-3.564101643860340118e-04,9.945615602191537619e-07,8.808818645775318146e-03,1.482659683915699134e-07,-9.785844013094902039e-03,2.280569635331630707e-02,1.066716208697471302e-07,-1.656716875731945038e-02,-4.882728457450866699e-01,1.892762355737431790e-07,-2.832193486392498016e-02,1.831316126299498137e-06,1.289466768503189087e-01,-1.349095702171325684e-01,-7.895712624303996563e-04,-1.285644900053739548e-02,-2.013653749600052834e-03,-3.044296288862824440e-03,1.184723228216171265e-01,1.101314046536572278e-04,5.536681442208646331e-07,-1.947428827406838536e-04,-7.905460079200565815e-04,8.378212898969650269e-02,3.939574526157230139e-04,-4.502428652131129638e-08,-4.712212842150620418e-07,-6.486897822469472885e-03,-2.084037618033107719e-07,-3.017355538759147748e-06,9.834379889070987701e-03,-9.641537070274353027e-02,-5.082359910011291504e-02,1.096761252483702265e-06,2.150698192417621613e-02,-1.234864271282276604e-06,-5.181642336538061500e-06,-5.413894355297088623e-02,-1.604375094175338745e-01,2.828411199152469635e-02,-2.061322145164012909e-02,9.672760370449395850e-07,9.540663450025022030e-05,-1.877210289239883423e-01,1.344933053815111634e-07,-9.328074753284454346e-02,2.621515159262344241e-05,-6.429124186979606748e-05
-5.576307773590087891e-01,1.858104951679706573e-06,-6.250278558582067490e-03,3.835297524929046631e-01,4.442461766302585602e-03,1.118248235434293747e-02,1.403468195348978043e-03,-9.155257046222686768e-02,2.791738097585039213e-06,-8.029897697269916534e-03,-9.373989887535572052e-03,6.226196885108947754e-03,1.006689126370474696e-04,5.452897399663925171e-02,-1.169193808436830295e-07,1.328672561794519424e-02,4.504509852267801762e-04,1.307470072060823441e-02,3.109207842499017715e-03,-1.094398573040962219e-01,-5.254253000020980835e-02,-6.518584210425615311e-03,2.213106199633330107e-05,2.852541208267211914e-01,-1.049952581524848938e-01,1.470679762860527262e-06,-2.019902169704437256e-01,1.838211687754665036e-06,-1.185016259551048279e-01,3.021621406078338623e-01,-5.524804815649986267e-03,-1.033641695976257324e-01,3.766938298940658569e-02,-1.781031042337417603e-01,1.382429152727127075e-01,1.632893836358562112e-04,1.259728241711854935e-02,2.584319096058607101e-03,8.202112466096878052e-02,6.682538986206054688e-02,-3.453054465353488922e-03,4.615238594851689413e-06,6.872506346553564072e-03,-1.805995255708694458e-01,4.128681495785713196e-03,-2.247718395665287971e-03,-4.180172830820083618e-02,3.204486565664410591e-04,-7.410801202058792114e-02,6.786353769712150097e-04,6.226903572678565979e-02,-2.290071279276162386e-06,3.442148566246032715e-01,-2.175900526344776154e-02,2.050579935312271118e-01,2.847423404455184937e-02,3.884247839450836182e-01,-4.918379090668167919e-07,-8.961100131273269653e-02,4.388978239148855209e-03,1.445752332074334845e-06,-5.188228189945220947e-02,1.749611273407936096e-02,4.066093638539314270e-02
-7.135757058858871460e-02,4.486799589358270168e-04,7.225760724395513535e-03,2.994590625166893005e-02,1.097547006793320179e-03,-1.196427792310714722e-01,-4.190098934486741200e-06,-1.154399663209915161e-02,2.816605331190658035e-07,1.833768486976623535e-01,-3.028255305252969265e-04,4.304143413901329041e-02,-1.217265435116132721e-06,2.208371646702289581e-02,-8.896643066691467538e-07,7.690432539675384760e-05,-4.604255082085728645e-05,2.918882819358259439e-05,3.421198198338970542e-05,1.904388330876827240e-02,-1.313335448503494263e-02,7.021708041429519653e-02,-2.335440427714274847e-07,1.116837258450686932e-03,2.922440879046916962e-02,9.702462477889639558e-08,-6.691402941942214966e-02,1.226799781761656050e-06,3.032291121780872345e-02,2.395805716514587402e-02,-7.725151721388101578e-03,-6.728575099259614944e-03,-9.322953969240188599e-02,-1.937067252583801746e-03,2.712950110435485840e-02,3.790508722886443138e-03,3.410868579521775246e-03,-1.451305797672830522e-05,4.528315272182226181e-03,3.393686143681406975e-03,2.216604480054229498e-04,1.453205982215877157e-06,-3.925837518181651831e-04,-1.509997807443141937e-02,-6.317427614703774452e-04,-2.109349239617586136e-03,7.078466524035320617e-07,1.943169385194778442e-01,-1.517351530492305756e-02,4.113607701583532616e-06,-8.668647706508636475e-02,-6.290133023867383599e-05,1.065047755837440491e-01,1.112365722656250000e-01,6.971389800310134888e-02,-2.115533947944641113e-01,1.055165082216262817e-01,9.069137740880250931e-05,-5.585676990449428558e-03,1.104668155312538147e-01,2.447292786200705450e-07,5.196401476860046387e-02,8.112916722893714905e-03,4.176621884107589722e-02
-1.201987192034721375e-01,3.471188392722979188e-06,-2.583673049230128527e-04,-4.494158923625946045e-02,1.793519128113985062e-03,-2.254864946007728577e-02,5.820201295136939734e-06,2.023690007627010345e-02,-2.464493945808499120e-06,2.311667799949645996e-01,4.958806559443473816e-03,-2.898996456224267604e-07,2.035614443229860626e-06,-1.167038735002279282e-02,-1.653515141697425861e-06,-4.223283613100647926e-04,7.768592240608995780e-07,-3.746326001419220120e-06,5.573538714997994248e-07,9.771342389285564423e-03,-2.891201060265302658e-03,6.594105064868927002e-02,2.452160288157756440e-06,2.248990163207054138e-02,1.925249584019184113e-02,-1.771508095771423541e-06,7.974616251885890961e-03,-1.978887894438230433e-06,-4.650516984838759527e-06,-2.074213232845067978e-03,-7.664131771889515221e-06,6.543946918100118637e-03,-1.132870167493820190e-01,4.252126440405845642e-02,-1.277613267302513123e-02,6.765943453501677141e-06,-2.310431682417402044e-06,-1.903313318507571239e-06,-6.007104646414518356e-03,-1.693404093384742737e-02,-8.371876560886448715e-07,-2.028033122769556940e-06,6.611235789932834450e-07,1.859153853729367256e-04,-1.471523319196421653e-06,-3.890042080456623808e-06,4.858568658505646454e-08,2.330494858324527740e-02,-1.346898670817608945e-06,3.515713387969299220e-06,-3.121856749057769775e-01,1.285987309529446065e-06,2.917743846774101257e-02,9.702515602111816406e-02,-1.018305309116840363e-02,-5.369747802615165710e-02,-1.880512759089469910e-02,-1.188300757348770276e-06,2.389940050306904595e-07,1.313445251435041428e-02,-2.129233280356856994e-06,3.153154626488685608e-02,1.448702732886886224e-06,1.651444904382515233e-06
-5.108587145805358887e-01,2.225154673851648113e-07,7.368281017988920212e-03,1.813956350088119507e-01,-6.232441402971744537e-03,1.843124045990407467e-04,-8.995547977974638343e-05,2.260977453261148185e-06,1.430501583854493219e-07,2.786329388618469238e-01,1.880803029052913189e-05,1.414501368999481201e-01,2.630467633935040794e-06,1.178885850094957277e-05,3.611136492054356495e-07,4.590684548020362854e-02,-3.824583529876690591e-07,1.546036219224333763e-05,-4.687322871177457273e-05,-1.593429744243621826e-01,1.918602921068668365e-02,-3.636912703514099121e-01,-1.010456230687850621e-06,-1.630061119794845581e-01,-3.164290189743041992e-01,4.376216111268149689e-06,-1.009721159934997559e-01,2.243425569758983329e-06,1.926011294126510620e-01,1.551501750946044922e-01,1.358030999654147308e-06,-3.353376314043998718e-02,-2.222589962184429169e-02,-1.048094779253005981e-01,4.567336663603782654e-02,-6.039878819137811661e-03,1.331556495279073715e-02,-1.913076857817941345e-06,1.455722004175186157e-01,1.481563039124011993e-02,-2.791593596339225769e-02,3.002931180162704550e-06,-6.762311386410146952e-05,-1.305959075689315796e-01,2.458107285201549530e-02,2.190845634686411358e-06,-7.119189202785491943e-02,-1.734327524900436401e-01,3.941816394217312336e-04,-2.158020151910022832e-06,7.314251363277435303e-02,-1.707565047581738327e-06,1.161330292234197259e-04,2.048014290630817413e-02,1.716663092374801636e-01,-3.171788901090621948e-02,-1.579055190086364746e-01,2.481451474523055367e-06,-1.030222102999687195e-01,-6.648973375558853149e-02,4.787534180650254712e-06,-4.266016781330108643e-01,2.115897089242935181e-02,-3.403731097932904959e-04
-6.262013316154479980e-02,-1.773993858478206675e-07,1.393107522744685411e-04,4.696686565876007080e-02,-3.394357487559318542e-02,-4.419029131531715393e-02,-2.329775816178880632e-05,5.635238811373710632e-02,-1.276051619925056002e-08,6.437666714191436768e-02,2.033121325075626373e-02,5.904043093323707581e-02,-1.401970280312525574e-06,-6.757575273513793945e-02,1.689309442554076668e-06,-1.134456670115469024e-05,5.367795097299676854e-07,-1.824627815949497744e-06,-2.380743436515331268e-02,-2.232642327726352960e-05,-1.743452996015548706e-02,-4.378714784979820251e-02,-3.651979625374224270e-07,8.510342240333557129e-02,-2.339739585295319557e-03,2.177688998017401900e-07,1.277071684598922729e-01,-1.068040546670090407e-06,-1.591725274920463562e-02,4.009950906038284302e-02,-2.963773226838384289e-07,3.763296082615852356e-02,-5.033086985349655151e-02,8.882094174623489380e-02,-8.623684942722320557e-02,2.706316066905856133e-03,1.089329771275515668e-06,8.934807738114614040e-07,1.560536306351423264e-02,-6.923881173133850098e-02,6.035608705133199692e-03,8.499790169480547775e-07,-6.472572567872703075e-04,5.956225562840700150e-03,3.784548607654869556e-05,3.870839951559901237e-03,-3.257911652326583862e-02,3.174977004528045654e-02,6.052203848958015442e-02,3.889389006417331984e-07,-4.601686075329780579e-02,-3.119539087492739782e-06,1.098558083176612854e-01,5.460178852081298828e-02,2.607398107647895813e-02,3.841812908649444580e-02,1.285053044557571411e-01,1.554257210045761894e-06,1.326221134513616562e-02,-1.672754064202308655e-02,1.640436721572768874e-06,2.813245356082916260e-02,5.094056017696857452e-03,1.943498477339744568e-02
-1.740154474973678589e-01,5.900714654671901371e-07,-1.007121284146705875e-07,-1.458710879087448120e-01,6.257189966163423378e-08,1.253555383300408721e-04,1.176963337456982117e-06,-1.048124659064342268e-06,1.094327103601244744e-06,-6.386993050000455696e-07,-2.343579126318218186e-06,-5.878508090972900391e-03,-1.352949425381666515e-06,4.256126412656158209e-04,1.293272930524835829e-06,2.035438083112239838e-04,-3.518061646445858059e-07,-3.771740750835306244e-07,2.179489911213750020e-06,2.287071038153953850e-05,2.114381277351640165e-05,3.122142288702889346e-06,1.056274072652740870e-06,-2.553701996803283691e-01,-2.334439605474472046e-01,2.070358533501348575e-07,9.795390069484710693e-03,3.314355581096606329e-07,6.597518175840377808e-02,-2.575260102748870850e-01,3.308699945137050236e-07,-5.464817718348058406e-07,-1.828824914991855621e-02,-1.118560205213725567e-03,-2.875993595807813108e-05,-3.891154847224242985e-07,6.659026894340058789e-07,6.320354462019395214e-09,2.093472518026828766e-03,-3.113422280875965953e-05,-7.158420339692384005e-05,-2.148484099961933680e-06,1.127197151618020143e-06,-1.569879896123893559e-05,1.604498578444690793e-07,-1.173471673610038124e-06,-6.470793323387624696e-07,-6.473443657159805298e-02,-1.388149371450708713e-06,8.476477546537353192e-07,2.967628836631774902e-02,6.616093060074490495e-07,1.310128754994366318e-05,1.197635697280929890e-06,-3.984041139483451843e-02,-1.421612296326202340e-06,-4.085397347807884216e-03,-3.819493770151893841e-07,-2.010278649322572164e-06,-2.330151647329330444e-01,-1.781869627848209348e-06,-5.077261850237846375e-02,-4.636584094441786874e-07,8.151246788656862918e-07
-8.901870809495449066e-03,-3.540749844432866666e-07,1.561243379910592921e-06,-4.185238108038902283e-02,1.048181957230553962e-06,3.914721601177006960e-04,3.829675279121147469e-07,-2.186085566791007295e-06,1.697861051752624917e-07,-2.453045624406513525e-07,-5.486548957378545310e-07,1.466484036427573301e-07,-1.315995746153930668e-06,1.032661884892149828e-06,5.963299827271839604e-07,-1.691720634698867798e-02,2.211554175346464035e-07,5.389759962781681679e-07,-2.021258467266306980e-07,7.559119126199220773e-07,-1.089353645511437207e-06,1.276963644158968236e-06,4.245539741987158777e-07,-2.733901739120483398e-01,-1.427194947609677911e-04,1.920130898724892177e-07,5.024585872888565063e-02,-1.914271052783078630e-07,1.241929829120635986e-01,-1.395257189869880676e-02,-1.965340743481647223e-06,-1.947881173691712320e-06,2.493630163371562958e-04,-1.682124889157421421e-06,-5.906846839934587479e-03,3.006016697781888070e-07,1.777441411832114682e-06,8.254867225332418457e-07,-2.046852558851242065e-02,1.416776399310037959e-06,1.502447994425892830e-04,-4.138454414714942686e-07,2.930602249762159772e-07,-4.092245262654614635e-07,1.846916347858496010e-06,-3.653260876035346882e-07,-1.373677037008746993e-06,-1.345757709714234807e-07,-2.012583763644215651e-06,9.988037845687358640e-07,-7.458936306647956371e-05,-3.182339014529134147e-07,3.153081706841476262e-06,1.072686359293584246e-06,-1.294560432434082031e-01,2.741494390647858381e-04,3.126444644294679165e-04,-2.694781926493305946e-07,-1.480335413361899555e-06,-5.491115152835845947e-03,3.472483456334884977e-07,1.419236355104658287e-06,2.441797732899431139e-07,-1.218543161485285964e-06
-4.956370219588279724e-02,-1.117576431397537817e-07,-2.430011818432831205e-07,4.524558025877922773e-04,-1.405309717483760323e-06,6.363633088767528534e-03,-2.113314621965400875e-06,1.294434582632675301e-06,-3.833814616882591508e-07,-6.028115376830101013e-02,-1.602427573743625544e-06,-5.152977630496025085e-02,2.406086991868505720e-07,4.382783919572830200e-02,1.116267640099977143e-06,7.024216465651988983e-04,-2.080174908769549802e-06,-4.740476526876591379e-07,3.838496525077061960e-07,1.243723727384349331e-05,3.257510115872719325e-06,-7.028484717011451721e-03,6.016521183482836932e-07,-2.594299912452697754e-01,-2.957822382450103760e-01,1.242161573600242264e-07,3.003257140517234802e-02,2.778687928639556048e-07,1.669463515281677246e-01,5.107278775540180504e-05,2.263852138639776967e-06,-1.230424686582409777e-07,-1.935186795890331268e-02,-1.894930144771933556e-03,-6.659902632236480713e-03,4.282379109099565540e-07,-9.142634382897085743e-08,1.248551768640027149e-07,5.105040036141872406e-04,-3.543872935551917180e-06,-1.032087486237287521e-02,-1.325365133197919931e-06,-1.464112870053213555e-06,-1.481005966752491076e-07,-9.286866884394839872e-07,-1.101091584132518619e-06,1.941385562531650066e-03,-6.818579882383346558e-02,4.924972358821833041e-07,-4.942479563396773301e-07,3.863092511892318726e-02,-1.527445419924333692e-06,5.463596433401107788e-03,9.417250339538441040e-07,1.429489348083734512e-04,-3.337853704579174519e-04,-5.625332414638251066e-05,-2.451826901506137801e-07,-4.548156994133023545e-06,-8.773554116487503052e-02,-1.280322635466291104e-06,1.409373362548649311e-04,-1.637316927372012287e-06,5.027115435041196179e-07
-5.143538862466812134e-02,1.990611664950847626e-03,4.982665413990616798e-04,-6.584744155406951904e-02,2.916617318987846375e-02,6.179119925945997238e-03,1.257781684398651123e-02,-3.671970218420028687e-02,7.197747322607028764e-07,3.941546007990837097e-02,-1.933649400598369539e-05,-4.047025442123413086e-01,-2.516325039323419333e-04,7.805754989385604858e-02,2.104937721014721319e-06,-6.310416013002395630e-02,-5.820370279252529144e-04,1.759558472258504480e-06,1.183889247477054596e-02,-2.988299727439880371e-01,2.595217153429985046e-02,-3.283020853996276855e-02,-7.105581403266114648e-07,-1.208195090293884277e-01,-2.800989449024200439e-01,1.126036863752233330e-06,1.937632262706756592e-01,2.281145583538091159e-07,-9.690005332231521606e-02,-3.428351283073425293e-01,-2.304420620203018188e-02,-2.491925843060016632e-02,-1.211973279714584351e-01,-4.585365951061248779e-02,-1.133064329624176025e-01,6.168091204017400742e-04,-1.532817445695400238e-02,-5.212386895436793566e-05,2.856930904090404510e-02,1.918014138936996460e-01,1.491659581661224365e-01,2.073894847853807732e-06,-1.478013928135624155e-05,-2.548748999834060669e-02,-2.968705724924802780e-03,-4.757877439260482788e-03,-1.253908872604370117e-01,-3.741884604096412659e-02,-3.640995174646377563e-02,1.052776351571083069e-02,1.660673320293426514e-02,-1.582139339006971568e-05,-3.886297345161437988e-02,-2.327792346477508545e-02,-3.582061827182769775e-01,-5.998944863677024841e-03,-1.494266092777252197e-01,2.347293047932907939e-04,-2.899928018450737000e-03,-1.759946495294570923e-01,-7.582410471513867378e-04,-1.874144077301025391e-01,2.657805103808641434e-03,2.632544562220573425e-02
2.186411991715431213e-03,1.149307422565470915e-06,-1.660266775616037194e-06,-2.361893393754144199e-06,-1.922379908592120046e-07,4.109153451281599700e-06,2.466152636770857498e-06,-8.444751529168570414e-07,-2.136557384346815525e-07,2.520327143429312855e-06,-1.681169464973208960e-06,-1.020259596407413483e-02,2.911640137881477131e-07,1.869341474957764149e-03,-1.976981991447246401e-07,-1.907702198877814226e-06,-7.556834589195204899e-07,-1.253850086868624203e-06,2.251489377158577554e-06,9.873970157059375197e-07,-1.118307295655540656e-06,6.175951057230122387e-06,1.317194346484029666e-06,-2.036507613956928253e-02,-4.711808685442520073e-07,-5.792257411485479679e-07,2.278615511386306025e-06,-3.335208589305693749e-07,4.245709776878356934e-01,-3.321017629787093028e-06,-2.143145820809877478e-06,-3.160200776619603857e-06,7.828968591638840735e-06,2.504193844288238324e-06,3.022617818260187050e-07,-1.619332465452316683e-06,-1.406912474521959666e-06,-5.674096428265329450e-07,-4.032846391055500135e-06,4.344276476331287995e-07,1.692168325462262146e-06,-4.969911415741989913e-08,2.480472176102921367e-06,2.809797194913699059e-07,-1.300179405916424002e-06,-1.825503659347305074e-06,-1.889046870928723365e-06,-2.868987621695850976e-06,-1.675729322414554190e-06,5.878457045582763385e-07,8.791545405983924866e-05,2.490859969839220867e-06,-3.183346279911347665e-06,-9.442401847081782762e-07,-4.129835815547266975e-06,4.240751422912580892e-06,5.319660704117268324e-05,-4.375389153210562654e-07,-9.065261679097602610e-07,3.173904406139627099e-05,-6.865722070870106108e-07,-1.139141659223241732e-06,2.468445472914027050e-06,-1.228545215781196021e-06
3.595849126577377319e-02,-3.044538630092574749e-07,-2.762854819593485445e-06,-1.710370555520057678e-02,-3.030938557913032128e-07,5.946357734501361847e-03,8.306724339490756392e-07,-7.187646815509651788e-07,9.530573663596442202e-08,-5.238350422587245703e-05,2.199301434302469715e-06,-1.207387167960405350e-02,-6.068625566513219383e-07,-1.343216013083292637e-06,4.282106260689033661e-07,-2.305776206412701868e-06,1.681848743828595616e-06,-9.916535645970725454e-07,-1.912732841446995735e-06,-5.268577751849079505e-07,-1.868664003268349916e-05,2.467295985297823790e-07,-1.075319801202567760e-06,6.318268715403974056e-04,1.631360987630614545e-06,-3.091122948717384133e-07,-2.357801655307412148e-03,-6.226708251233503688e-07,9.113284759223461151e-03,-1.878412812948226929e-02,-8.977388006314868107e-07,1.529410724288027268e-06,2.860090695321559906e-02,6.557687884196639061e-04,1.401609733875375241e-05,2.719445113541496539e-09,2.711167326197028160e-07,1.335845354333287105e-06,-6.127074593678116798e-04,-2.021129375862074085e-06,1.299926111641980242e-06,9.788489023776492104e-07,-5.112893859404721297e-07,8.218021321226842701e-07,1.785563767953135539e-07,2.268763665824735654e-07,3.378215114935301244e-05,-6.943517830222845078e-03,4.200538512577622896e-07,2.033476221185992472e-06,-9.890798246487975121e-04,-8.647431286590290256e-07,-1.101583620766177773e-05,-3.514871423249132931e-06,-2.425043098628520966e-02,2.721127308905124664e-02,-9.904109174385666847e-05,2.461263761688314844e-07,-2.913411378813179908e-07,-3.946376382373273373e-04,1.120494630413304549e-06,-8.702115337655413896e-06,1.053186835520136810e-07,-2.085274900309741497e-06
-2.356210052967071533e-01,-5.642913265546667390e-07,1.843954919422685634e-06,1.977462088689208031e-03,-4.543608156382106245e-05,-8.667163783684372902e-04,-2.960471192636759952e-06,-1.989104971289634705e-02,3.605549068197433371e-07,-3.612750023603439331e-02,-1.182382476372367819e-07,2.187505515394150279e-06,1.429297782351568458e-07,-1.949263241840526462e-04,-3.116835785021976335e-07,6.985716254348517396e-07,2.225541038569645025e-06,2.153233481294591911e-06,-8.251901135736261494e-07,-1.515822578221559525e-02,1.463901298848213628e-05,-6.891492521390318871e-04,6.089931616770627443e-07,-5.298396199941635132e-02,1.021536812186241150e-02,1.346548742731101811e-06,-1.337935924530029297e-01,1.418849365109053906e-06,-1.179276779294013977e-01,3.904486447572708130e-02,1.670221536187455058e-06,2.136744342351448722e-06,2.515644021332263947e-02,-2.674818970263004303e-02,1.004830747842788696e-01,-3.161045754040969769e-07,4.639284270524512976e-06,-1.466994348220396205e-07,4.590333264786750078e-04,-1.784727792255580425e-04,-7.834146526874974370e-05,-1.316217208113812376e-06,-5.155171720616635866e-07,-1.480612438172101974e-02,1.056758947015623562e-06,8.100790728349238634e-05,-4.524379164649872109e-06,3.612536238506436348e-04,-5.796357523649930954e-03,-1.157264136963931378e-06,1.141931116580963135e-02,9.915364671542192809e-07,8.398595382459461689e-04,5.230550596024841070e-05,2.942789532244205475e-02,2.068021101877093315e-03,1.618553325533866882e-02,2.777542107423869311e-08,2.788358699490345316e-07,7.730029989033937454e-03,-9.407506240677321330e-07,-5.631860718131065369e-02,3.919736191164702177e-04,-8.377701742574572563e-04
-2.454405874013900757e-01,-2.633665826579090208e-05,9.695003926753997803e-02,1.287402212619781494e-01,-3.329680487513542175e-02,-4.546632617712020874e-02,2.697279342100955546e-05,2.691303566098213196e-02,-2.567333240222069435e-06,3.121027350425720215e-01,2.469429187476634979e-02,-4.161723190918564796e-04,5.401801690459251404e-02,-5.649168416857719421e-02,-1.537799676043505315e-06,-7.153059123083949089e-04,2.136798808351159096e-03,-1.797769963741302490e-02,-1.593791181221604347e-03,1.576144993305206299e-02,3.048603422939777374e-02,3.118904866278171539e-02,-2.536593819968402386e-04,1.176771521568298340e-01,7.528781890869140625e-02,-3.170052423229208216e-06,-2.634178847074508667e-03,6.909947813937833416e-08,-8.712715655565261841e-02,7.525289803743362427e-02,3.357570385560393333e-04,5.612546950578689575e-02,-1.287432461977005005e-01,1.239942610263824463e-01,-6.293405778706073761e-03,3.847613930702209473e-02,-1.075357291847467422e-02,3.438236599322408438e-04,9.142039343714714050e-03,-6.381799280643463135e-02,-2.783912234008312225e-02,1.996360806515440345e-04,-6.533230189234018326e-04,9.905783832073211670e-02,5.654923734255135059e-04,1.236783689819276333e-03,-1.453936398029327393e-01,5.966653674840927124e-02,7.325511425733566284e-02,-2.160756703233346343e-04,-1.535874605178833008e-01,-3.701753996665502200e-07,2.133381217718124390e-01,2.613827586174011230e-01,1.853467226028442383e-01,-5.935164541006088257e-02,-2.786137163639068604e-03,1.174842395812447648e-06,7.599264383316040039e-02,-6.558448076248168945e-02,-8.878281505531049334e-07,-1.172212436795234680e-01,-4.867654759436845779e-03,2.124532684683799744e-02
1.845056942784140119e-07,-1.928587067823173129e-07,-2.838880845956737176e-07,3.051008832244406221e-07,-6.938514616194879636e-07,-4.922701464238343760e-07,-1.677825309798208764e-07,6.989593543949013110e-07,6.353368320333174779e-08,1.047610851401259424e-07,3.258736285260965815e-07,1.300838619044952793e-07,-3.771003509456249958e-09,-5.120414812154194806e-07,-6.538783736687037162e-08,-9.992737659558770247e-08,1.086205347888835604e-08,-3.035621887192974100e-08,-6.423162517421587836e-07,4.935019433105480857e-07,-4.260828916358150309e-07,-4.635282948584062979e-07,-7.658324108206215897e-08,2.746382278928649612e-06,1.296160689889802597e-06,-2.627387516440649051e-07,-1.016485895455332411e-09,8.811053220370013150e-09,-3.260546009187237360e-06,2.422940497126546688e-07,1.970888945379556390e-07,8.716578463463520166e-07,9.465821193543888512e-08,7.454722208422026597e-07,-8.936396511671773624e-07,-3.278297242559347069e-07,1.756216363446583273e-07,-3.271807145210914314e-07,6.380793848848043126e-08,-4.613012549725681311e-07,-2.125340259340191551e-08,-3.441524398795081652e-08,-3.416932941036066040e-07,1.857860709719716397e-08,-3.450731753673608182e-07,5.786982910649385303e-07,4.097164776339923264e-07,7.605977998537127860e-07,5.508615572580310982e-07,9.277009382913092850e-08,-6.549846034431539010e-07,-1.231443889082584064e-07,1.007542778097558767e-06,1.562580678182712290e-07,2.027079801791842328e-07,-2.062067352426311118e-07,1.582043296366464347e-07,2.059274066823491012e-07,5.361391686165006831e-07,2.815691289015376242e-07,9.652836752138682641e-08,1.065596620719588827e-06,-5.895346077977592358e-08,1.790600663298391737e-07
2.848667204380035400e-01,3.124383056274382398e-06,-1.007588070933707058e-05,1.528526991605758667e-01,-1.992373354732990265e-02,9.308008011430501938e-04,1.316480279456300195e-06,4.997479915618896484e-02,3.381038879979314515e-07,1.942428387701511383e-02,3.676303313113749027e-04,1.832219585776329041e-02,2.286919425387168303e-06,-2.988159283995628357e-02,1.638075900700641796e-06,-1.152479182928800583e-02,6.050144065739004873e-07,-4.693657444931886857e-07,6.182079346217506099e-07,1.823276281356811523e-02,3.653672290965914726e-03,-1.383429765701293945e-02,3.503412926875171252e-06,6.764783710241317749e-02,-6.091538071632385254e-02,7.854200134715938475e-07,-2.169938199222087860e-02,-1.466291564611310605e-06,-8.191258460283279419e-02,-9.914794936776161194e-03,-2.104307213812717237e-06,1.763420179486274719e-02,-2.648180164396762848e-02,5.052068084478378296e-02,-7.821292383596301079e-04,5.246858449936553370e-07,-5.971628525003325194e-07,-1.299360860684828367e-06,-2.094402225338853896e-05,-5.580349825322628021e-03,2.225317984994035214e-06,-5.647980856338108424e-07,-2.078614187439598027e-07,3.205379098653793335e-02,1.096073974622413516e-04,9.457752412345143966e-07,-2.872119657695293427e-02,-7.259302037709858268e-06,8.456455543637275696e-03,2.607369538054626901e-07,-5.337733775377273560e-02,2.456927404637099244e-06,1.357714179903268814e-03,2.431861311197280884e-02,-8.882001042366027832e-03,2.238744636997580528e-03,-4.942207131534814835e-03,9.079761298380617518e-07,3.640632030510460027e-06,-3.384241834282875061e-02,1.893075932457577437e-06,1.187955122441053391e-02,1.837622676248429343e-06,3.113398270215839148e-05
-4.555861055850982666e-01,3.137330395475146361e-06,1.421042717993259430e-02,-1.256409194320440292e-02,-6.914778798818588257e-02,-2.174186892807483673e-02,-3.986474439443554729e-06,5.448464653454720974e-04,-1.062630730075397878e-07,5.490232631564140320e-02,5.825901171192526817e-04,7.519159466028213501e-02,-6.329585175990359858e-07,-8.667567372322082520e-02,-2.055748382190358825e-06,9.184412658214569092e-02,-2.086905510623182636e-07,-2.579187093942891806e-05,3.594258741941303015e-04,8.906646072864532471e-02,2.402471750974655151e-02,-2.997729480266571045e-01,7.354909143941767979e-07,-1.074038296937942505e-01,-3.322683274745941162e-01,-9.790221611183369532e-07,-6.751962006092071533e-02,-1.667022502260806505e-06,-2.802781760692596436e-01,-2.676834762096405029e-01,2.166251838207244873e-02,3.752586245536804199e-02,-2.406358718872070312e-02,8.901906548999249935e-04,4.471450578421354294e-03,1.427336655979161151e-06,1.779918529791757464e-04,3.266077897023933474e-07,-1.004532212391495705e-03,-1.811226643621921539e-02,-1.335078775882720947e-01,3.655946102298912592e-06,-9.977920853998512030e-06,8.463079482316970825e-02,-3.172903880476951599e-02,-4.496358451433479786e-04,2.378590404987335205e-02,7.223085500299930573e-03,3.313366323709487915e-04,1.537734760859166272e-06,-1.589543186128139496e-03,-3.655590717244194821e-06,3.531845286488533020e-02,1.457060035318136215e-02,-5.129322782158851624e-02,-1.536948084831237793e-01,1.056819409132003784e-01,2.042704409177531488e-06,2.349356655031442642e-03,-2.538308873772621155e-02,-2.802624976538936608e-07,2.135349251329898834e-02,-8.227913826704025269e-02,6.303848326206207275e-02
-1.195262223482131958e-01,1.593253045939491130e-06,1.610621111467480659e-03,1.720333675621077418e-04,-1.422888226807117462e-02,-1.640921272337436676e-02,6.551991305059345905e-07,3.892855485901236534e-03,-9.495577160123502836e-07,6.312838196754455566e-02,1.436333637684583664e-02,2.492665313184261322e-02,-1.725247102513094433e-06,-4.760914295911788940e-02,1.206328647640475538e-06,-1.908965408802032471e-02,9.882031690722214989e-07,3.459780657522060210e-07,-1.186382942250929773e-04,-2.412201603874564171e-03,9.167217649519443512e-03,-1.217162003740668297e-03,-1.513323582003067713e-06,4.645281285047531128e-02,3.197320178151130676e-02,-1.112286213356128428e-06,1.042643561959266663e-01,-1.893996795843122527e-06,2.223033457994461060e-02,7.862491884225164540e-07,-1.538080596219515428e-06,1.392836496233940125e-02,-4.602381587028503418e-02,9.056804329156875610e-02,-2.016950212419033051e-02,3.156980266794562340e-03,1.413531435900949873e-06,6.824356546530907508e-07,-2.653512929100543261e-04,-3.752336278557777405e-02,2.234931848943233490e-02,1.303756448578496929e-06,-1.007434912025928497e-05,1.523004844784736633e-03,9.694604159449227154e-06,1.085185704141622409e-05,-4.105243831872940063e-02,3.678365796804428101e-02,7.416731212288141251e-03,2.271481434945599176e-06,-1.302695572376251221e-01,-1.208110234074410982e-06,6.226710230112075806e-02,4.682639986276626587e-02,-4.589099844451993704e-04,-3.111799806356430054e-02,1.734313438646495342e-03,5.896415586903458461e-07,1.092606224119663239e-03,-2.202843643317464739e-05,1.371853272758016828e-06,1.343375258147716522e-02,9.110390208661556244e-03,3.801517959800548851e-05
9.966693818569183350e-02,9.630126669435412623e-07,-2.765333010756876320e-05,4.667460871132789180e-07,3.389180172234773636e-03,7.867541853556758724e-07,1.527924524680202012e-07,-1.220828416990116239e-04,7.341132146621021093e-08,-2.924477867782115936e-02,-4.667941055913615855e-08,1.644733970351808239e-06,1.361074282613117248e-06,2.061830088496208191e-02,-7.254190563799056690e-07,3.783022748393705115e-07,-1.768621473274833988e-06,-2.196962896050536074e-06,1.663687612563080620e-06,7.447335869073867798e-03,-4.125558771193027496e-03,2.942173159681260586e-04,1.455673100281273946e-06,1.866579805209767073e-05,3.552748821675777435e-03,2.365015205896270345e-07,-5.974552477709949017e-04,8.216504738811636344e-07,-3.109154291450977325e-03,-5.213376539359160233e-07,-2.365113083158121299e-08,2.306535179741331376e-06,7.913994602859020233e-03,1.006003658403642476e-04,3.027414786629378796e-04,-4.146735363974585198e-07,-2.000166432480909862e-06,-1.621002411411609501e-06,-4.883605924987932667e-06,7.904727943241596222e-03,-1.926316826939000748e-06,-1.301300471823196858e-06,-2.380204705332289450e-06,-1.462063664803281426e-06,-4.606250968208769336e-06,2.883318188651173841e-07,6.461422424763441086e-03,-3.266093244747025892e-07,-5.876966315554454923e-05,-1.788656277312838938e-06,3.715653292601928115e-05,1.608861452950804960e-06,2.937707351520657539e-03,-2.861766552086919546e-04,-1.258278207387775183e-04,2.322721002201433294e-06,6.705356389284133911e-02,-1.327509949078375939e-06,4.013852048956323415e-06,1.995260268449783325e-02,-1.851249407991417684e-06,-1.273841235160944052e-06,-1.512552898930152878e-06,-1.321894160355441272e-06
-6.131312602519756183e-06,4.081666915567438991e-08,-2.255999106637318619e-06,-6.358501423164852895e-07,-5.458750251818855759e-07,-1.486903897784941364e-07,3.491311417747056112e-07,-1.531259954390407074e-07,1.531501254703471204e-07,-5.966693861410021782e-04,1.598179323991644196e-06,8.722777806724479888e-07,7.211149011254747165e-08,3.511651812004856765e-06,1.561137139560742071e-07,-8.805712923276587389e-07,-1.467322707782159341e-08,-3.168954947341262596e-07,3.445544507485465147e-07,5.392845636720267066e-08,-2.069527681669569574e-06,-1.114693191084370483e-06,3.511912041176401544e-07,3.753578425857995171e-07,-5.841841357323573902e-07,-1.491772962936011027e-07,1.196319203700113576e-06,-1.595655305663967738e-07,4.655508382711559534e-04,-4.848311530025739557e-09,-4.959505872648151126e-07,-2.482004219928057864e-07,5.891309911021380685e-07,3.688848437377600931e-06,-6.757917390132206492e-07,-4.365646475434914464e-07,-4.137100972911866847e-07,-5.430243987802896299e-08,5.001086833544832189e-07,3.761714140182448318e-07,-1.238204276887699962e-06,-9.073100493139918399e-09,3.055519357531011337e-07,2.463097189320251346e-06,-4.906555659545119852e-07,1.754715128754469333e-07,5.597328254225431010e-07,-1.001954728963028174e-06,-6.631314590777037665e-07,3.538272252967544773e-08,-1.863186014361417620e-07,6.254615527723217383e-07,6.454674235101265367e-07,-1.482429752286407165e-06,-1.422464833922276739e-06,-5.874360908819653559e-07,-8.480221254103526007e-07,4.980994283698692016e-09,2.161023303415277041e-06,6.021940066602837760e-07,-1.596461629560508300e-07,1.013650830827828031e-06,-8.604152981206425466e-07,5.865265606530556397e-08
-1.702244579792022705e-02,4.346140940469922498e-06,8.153886348009109497e-02,7.788221410010010004e-05,-9.131783992052078247e-02,-3.195213153958320618e-02,2.554975253588054329e-06,5.194078013300895691e-02,-1.647139697524835356e-06,6.584250181913375854e-02,4.718297161161899567e-03,5.256908480077981949e-03,1.598029339220374823e-04,-1.931550204753875732e-01,1.164522132057754789e-06,1.786971278488636017e-02,-5.162977686268277466e-05,4.838880158786196262e-07,2.526375055822427385e-06,1.313396543264389038e-01,-4.586170543916523457e-04,-6.236700341105461121e-02,4.161473952990490943e-06,2.244814671576023102e-02,1.630576141178607941e-02,1.437232839407442953e-07,-2.317633014172315598e-03,-1.130866962739673909e-06,-8.210999518632888794e-02,1.194964352180249989e-04,1.599386996531393379e-05,1.027953773736953735e-01,-1.225097011774778366e-02,1.508484780788421631e-02,-5.425985902547836304e-03,8.260708302259445190e-03,-1.535228534521593247e-06,-2.423038267806987278e-07,-2.731494532781653106e-06,-1.074590533971786499e-01,-9.252643212676048279e-03,3.233238203392829746e-06,-7.838123128749430180e-04,6.238490343093872070e-02,-2.475662156939506531e-03,-4.578842344926670194e-05,2.405575104057788849e-02,3.661127388477325439e-02,9.521536529064178467e-02,-1.352458525616384577e-06,-1.895017772912979126e-01,1.146285853792505804e-06,-6.279475055634975433e-03,4.637060686945915222e-02,1.067619541572639719e-05,-6.547804176807403564e-02,1.433765292167663574e-01,2.459516736053046770e-06,7.820697501301765442e-03,-5.271792815619846806e-06,-3.106044061951251933e-07,6.997815519571304321e-02,-2.028311137109994888e-03,4.381383303552865982e-03
1.280826702713966370e-02,9.302430044044740498e-07,-3.089661731792148203e-06,-2.115681618452072144e-01,3.547366068232804537e-04,4.592400044202804565e-03,9.633555464461096562e-07,-3.562593774404376745e-04,-2.123097431194764795e-07,-2.276122942566871643e-02,1.442180490585087682e-07,-2.201991155743598938e-02,5.054191092312976252e-07,2.418489940464496613e-02,5.072041275866467913e-08,9.393605432705953717e-05,-7.031451900729734916e-07,-1.494868570262042340e-06,1.069100107997655869e-06,1.535041860734054353e-06,-1.837979880292550661e-06,2.995658360305242240e-05,2.638770979501714464e-07,-7.708338648080825806e-02,-1.107371300458908081e-01,-8.696264153229549265e-09,-4.784115299116820097e-05,-5.306031880536465906e-07,2.566133141517639160e-01,-6.227193027734756470e-02,-1.791098611647612415e-06,-1.338844299425545614e-06,6.701942998915910721e-03,-1.698364826552278828e-06,6.575497536687180400e-05,-2.422497800580458716e-06,-7.598439992761996109e-07,-1.042498752212850377e-06,-1.127501764131011441e-05,8.815350942313671112e-03,1.221018465002998710e-06,-1.468722757635987364e-06,5.495650725606537890e-07,-1.868848130470723845e-06,-2.674047721029637614e-07,-3.534178816266830836e-08,2.145669668607297353e-06,-7.558878976851701736e-03,-1.275599352084100246e-03,7.806409598742902745e-07,6.230116356164216995e-03,8.270237117358192336e-07,-1.435747208233806305e-06,-5.429910743259824812e-05,-1.352871768176555634e-02,1.336542144417762756e-02,9.808401577174663544e-03,-5.769060749116761144e-07,-1.554582922835834324e-06,-1.549045089632272720e-02,-1.330517648057139013e-06,-5.544350715354084969e-04,5.492905188475560863e-07,-1.613194035599008203e-05
-1.929876208305358887e-01,-2.322392873566059279e-07,4.407075721246656030e-06,7.140287756919860840e-02,-5.424358416348695755e-03,-6.736771319992840290e-04,-9.437620974495075643e-06,-9.062149729288648814e-06,-5.861186309630284086e-07,-1.332993656396865845e-01,-5.775986239314079285e-03,-1.251022517681121826e-01,-5.590764544649573509e-07,7.285889238119125366e-02,-1.574343428956126445e-07,1.274684965610504150e-01,-5.857960331923095509e-06,1.125305061577819288e-06,-2.835503210008027963e-06,9.754764847457408905e-03,-2.334362454712390900e-02,-1.196277141571044922e-01,2.875519840017659590e-07,-3.320779651403427124e-02,-3.139651939272880554e-02,7.174531901910086162e-07,2.279878966510295868e-02,2.797599449877452571e-07,-2.490776032209396362e-02,2.210128679871559143e-02,2.781776629490195774e-06,-1.079235132783651352e-02,-3.588136658072471619e-02,-1.126501616090536118e-02,9.604630060493946075e-03,2.495705848559737206e-03,2.031356132192740915e-07,-1.240223627974046394e-05,1.087531168013811111e-02,4.648788645863533020e-02,-1.748749800026416779e-02,-1.260908447875408456e-06,-5.642815449391491711e-05,-1.841609552502632141e-02,8.946296929934760556e-07,2.818972279783338308e-04,3.004360478371381760e-03,9.845670092545333318e-07,-2.941099368035793304e-02,-2.088433120661647990e-06,5.566103383898735046e-02,4.078331699020054657e-07,2.253681421279907227e-02,-3.665818646550178528e-02,1.488898228853940964e-02,-1.079571433365345001e-02,2.225522845983505249e-01,-8.757181149121606722e-07,3.739941166713833809e-04,-2.216042391955852509e-02,-2.237422449979931116e-06,-7.276155054569244385e-02,5.615406553260982037e-05,6.468411535024642944e-02
1.637606918811798096e-01,2.887314167310250923e-06,-1.909791608341038227e-03,-6.505965441465377808e-02,-1.984353875741362572e-03,-4.733422247227281332e-05,-1.483463620388647541e-06,-8.777851471677422523e-04,-5.977386763333925046e-07,-1.363516896963119507e-01,1.362385810352861881e-04,-4.164640605449676514e-02,5.953768777544610202e-06,4.965226724743843079e-02,-3.203679455054952996e-07,6.147033418528735638e-04,-2.616640131236636080e-06,-3.686278432724066079e-06,4.343479304225184023e-06,-8.390834182500839233e-02,-1.562195131555199623e-03,-3.180335462093353271e-02,3.566200120985740796e-06,-7.689752965234220028e-04,-2.944833249785006046e-04,5.004395120522531215e-07,-4.929560795426368713e-02,1.602288079993741121e-06,-7.066841423511505127e-02,-2.705177851021289825e-02,1.190275725093670189e-06,6.976612494327127934e-04,3.084632568061351776e-02,3.622065763920545578e-03,6.303416937589645386e-02,-5.705784860765561461e-05,1.876316218840656802e-06,-3.338893293403089046e-06,-9.267628192901611328e-03,-2.020234707742929459e-03,-1.490693306550383568e-03,-2.986469098686939105e-06,-1.668543291089008562e-06,-3.279323436800041236e-06,-3.037243441212922335e-04,2.514443849577219225e-06,9.689936414361000061e-03,3.432322759181261063e-03,-5.228212103247642517e-04,-4.821084985451307148e-06,-2.099481225013732910e-02,2.609874172776471823e-06,2.098996890708804131e-03,-6.301357876509428024e-03,-4.397015646100044250e-02,1.113655598601326346e-04,8.744131773710250854e-03,-2.960043161692738067e-07,1.205252367071807384e-03,1.554924994707107544e-02,-2.503098585293628275e-06,1.570391468703746796e-02,1.824554201448336244e-04,-2.673626877367496490e-03
2.673480845987796783e-02,1.383749236083531287e-06,1.444754451513290405e-01,4.685113951563835144e-02,-3.146402165293693542e-02,-7.806810736656188965e-02,-6.387814413756132126e-03,2.148818224668502808e-01,1.385723066960053984e-06,1.612992435693740845e-01,2.570486962795257568e-01,-1.440349407494068146e-02,6.842229980975389481e-03,1.664707437157630920e-02,-2.296450475114397705e-06,-3.876289352774620056e-02,8.716632612049579620e-03,1.307794940657913685e-03,-5.108954384922981262e-02,5.457297712564468384e-02,3.970139473676681519e-02,-1.305232942104339600e-01,-2.244276765850372612e-05,2.004931271076202393e-01,1.360284537076950073e-02,1.727041876620205585e-06,2.076021730899810791e-01,-1.342748646493419074e-06,1.385489571839570999e-02,5.420891195535659790e-02,8.499400690197944641e-03,2.917628288269042969e-01,-2.714639008045196533e-01,2.948765754699707031e-01,-3.515653014183044434e-01,9.027566760778427124e-02,3.407859912840649486e-05,6.920686428202316165e-05,-6.308018695563077927e-03,-2.577621489763259888e-02,1.014868821948766708e-02,5.405842093750834465e-04,-9.233772754669189453e-03,1.464798301458358765e-01,7.068124250508844852e-05,4.197884816676378250e-03,-3.864465281367301941e-02,1.670765429735183716e-01,2.062923014163970947e-01,1.935177806444698945e-06,-3.090613782405853271e-01,-5.186677753954427317e-07,3.238140344619750977e-01,1.944697201251983643e-01,-1.341660390608012676e-03,-2.464035898447036743e-01,6.519129872322082520e-02,-3.569228397282131482e-07,8.448792994022369385e-02,-9.104598429985344410e-04,1.828294806182384491e-02,1.632001847028732300e-01,3.227008879184722900e-02,8.087844401597976685e-02
-3.480908572673797607e-01,1.590558713360223919e-05,2.577312989160418510e-03,3.250504657626152039e-02,4.934407304972410202e-03,-1.770307868719100952e-01,-2.977833901240956038e-06,4.524557292461395264e-02,5.973040515527827665e-07,-8.699378930032253265e-03,1.086777774617075920e-03,-5.599564686417579651e-02,-9.939816436599357985e-07,3.978370130062103271e-02,-2.149532065232051536e-06,5.133197903633117676e-01,1.854817615821957588e-03,-1.064695268869400024e-01,1.058036461472511292e-03,6.704004853963851929e-02,-5.118848010897636414e-02,-1.793820410966873169e-01,1.228450946655357257e-05,8.534328639507293701e-02,7.033988833427429199e-03,1.071442852662585210e-06,-1.696149706840515137e-01,2.442133791191736236e-06,-4.997979700565338135e-01,8.526878058910369873e-02,-1.012985967099666595e-02,-4.176656366325914860e-04,-1.674660593271255493e-01,1.091118007898330688e-01,2.694232203066349030e-02,-1.129822572693228722e-03,-3.676844760775566101e-02,4.700598594808980124e-07,4.831875115633010864e-02,2.640241291373968124e-03,-1.780147552490234375e-01,1.292329898205935024e-06,1.665358780883252621e-03,6.037310883402824402e-02,1.302919909358024597e-02,-3.573182038962841034e-04,1.566446423530578613e-01,2.284384220838546753e-01,1.651655882596969604e-01,3.650579601526260376e-03,-4.708656575530767441e-03,-1.983150104933883995e-05,3.466343283653259277e-01,2.997154183685779572e-02,2.001521363854408264e-02,-2.481129169464111328e-01,4.053931832313537598e-01,1.094657091016415507e-05,-7.465417962521314621e-03,1.588961631059646606e-01,-1.509367166363517754e-06,1.043237373232841492e-01,-1.885514706373214722e-01,2.036959230899810791e-01
3.053199052810668945e-01,3.983008209615945816e-03,-4.473642632365226746e-02,9.932504594326019287e-02,5.021939799189567566e-02,-1.500701755285263062e-01,1.138507295399904251e-02,4.089030027389526367e-01,-8.267579687526449561e-05,2.023633420467376709e-01,1.902717351913452148e-01,-1.655468791723251343e-01,-2.857547369785606861e-04,1.195465680211782455e-02,1.843095901676861104e-06,-1.331030298024415970e-02,-3.705938113853335381e-03,-4.540694411844015121e-03,-1.264881938695907593e-01,-9.496620297431945801e-02,8.032775670289993286e-02,-2.349288910627365112e-01,3.354381260578520596e-05,2.199639528989791870e-01,-2.008868157863616943e-01,-1.770166022652119864e-06,1.493795514106750488e-01,-6.043893517926335335e-04,-2.998706996440887451e-01,-2.105507068336009979e-02,-2.254237793385982513e-02,2.333628833293914795e-01,-1.609371155500411987e-01,2.952000312507152557e-02,-4.462266564369201660e-01,6.261375546455383301e-02,-3.173501463606953621e-03,4.297960174426407320e-07,-6.771692633628845215e-02,-1.090526394546031952e-02,5.569528415799140930e-02,-1.988319809242966585e-06,1.846128888428211212e-02,8.034055680036544800e-02,-8.297553868032991886e-04,-1.874708011746406555e-02,-1.695106029510498047e-01,1.723765581846237183e-02,3.720789849758148193e-01,1.767518185079097748e-02,-1.270134449005126953e-01,-8.358165621757507324e-03,1.493244618177413940e-01,8.064825832843780518e-02,-7.136747986078262329e-02,-1.246648132801055908e-01,4.778741598129272461e-01,4.608401504810899496e-04,-4.499346762895584106e-02,-3.549966588616371155e-02,-1.108852447941899300e-04,1.795108914375305176e-01,1.156316371634602547e-03,1.233942899852991104e-02
-1.238553300499916077e-01,-2.307002056056717265e-08,1.289527863264083862e-02,1.242477446794509888e-01,3.593663871288299561e-02,-1.424743235111236572e-01,1.334649510681629181e-02,2.280033230781555176e-01,-9.889088232739595696e-07,3.906389698386192322e-02,2.903414890170097351e-02,6.223373487591743469e-02,2.605251893328386359e-06,6.568634510040283203e-02,-8.235066388806444593e-07,1.802075505256652832e-01,4.262460038262361195e-07,-1.860916614532470703e-03,1.182491978397592902e-04,8.144114911556243896e-02,-3.784310072660446167e-02,-5.404514670372009277e-01,1.061290677171200514e-04,5.768112465739250183e-02,-5.206439271569252014e-02,6.747089287273411173e-08,-5.520785599946975708e-02,1.850587977969553322e-06,-1.980940401554107666e-01,6.678153574466705322e-02,-9.436644613742828369e-03,4.578199877869337797e-05,-2.208344340324401855e-01,1.282534301280975342e-01,-3.398767486214637756e-02,1.658845320343971252e-02,1.176450132334139198e-05,2.266047431476181373e-06,6.067346036434173584e-02,3.066714480519294739e-02,-2.204568386077880859e-01,1.769265622897364665e-06,6.016139872372150421e-03,2.661345303058624268e-01,-7.327572529902681708e-05,-1.714833267033100128e-02,7.100954651832580566e-02,5.433113500475883484e-02,1.191742420196533203e-01,6.199225026648491621e-07,2.369721187278628349e-03,1.293740638175222557e-06,2.653031349182128906e-01,8.239572495222091675e-02,9.632065892219543457e-02,-3.005574345588684082e-01,1.976422220468521118e-01,-1.080783931683981791e-06,-8.356099016964435577e-03,1.502512246370315552e-01,7.688696541663375683e-07,2.298832833766937256e-01,2.954457513988018036e-02,6.272096931934356689e-02
1.324621289968490601e-01,-1.504512283645453863e-06,2.027213668043259531e-06,-1.154039055109024048e-03,3.066544741159304976e-05,-1.155281788669526577e-03,-1.483668825130735058e-06,6.038883657311089337e-05,-1.808837168937316164e-07,6.191390752792358398e-02,-1.475622752877825405e-06,-1.326701417565345764e-02,7.782089284091853187e-08,1.928272843360900879e-02,-6.498691504930320662e-07,-1.330528175458312035e-04,3.048032493069285920e-09,1.046492570822010748e-06,2.458427559304254828e-07,-7.576127245556563139e-05,9.192410288960672915e-06,-3.466911986470222473e-02,3.249400890581455315e-07,1.423329347744584084e-03,4.924462176859378815e-03,7.166458999563474208e-07,-9.174447041004896164e-04,8.021727353479946032e-07,-2.166812494397163391e-02,-1.280095428228378296e-03,1.051889398695493583e-06,-1.489968042278633220e-07,-6.728728860616683960e-02,-1.488862835685722530e-06,-5.535983014851808548e-03,2.651708200573921204e-05,1.993589648918714374e-06,5.258109467831673101e-07,-3.623147204052656889e-04,1.523761329735862091e-05,-5.865903949597850442e-05,-1.128956483853471582e-07,2.779322869628231274e-07,5.327395629137754440e-04,3.502409242628345964e-07,5.572740064962999895e-07,9.260209594685875345e-07,5.513688665814697742e-04,5.398620851337909698e-05,-1.588784812156518456e-06,-2.101096808910369873e-01,-1.341095980933459941e-07,4.402545467019081116e-02,1.162907210527919233e-04,-6.833144580014050007e-04,-2.611307718325406313e-04,2.605167101137340069e-04,-6.558409495482919738e-07,-5.831924227095441893e-06,-6.461445009335875511e-04,-3.769068541714659659e-07,4.053108568768948317e-04,1.518514380904889549e-07,2.711157321755308658e-06
-2.006996282943873666e-06,1.723738449754819158e-07,-2.688757376745343208e-07,4.636938797375478316e-07,2.351503098907414824e-07,-3.472218566002993612e-07,1.785158865175162646e-08,5.122207369367970387e-08,1.554086850319436053e-07,-2.076306628850943525e-07,6.597135637775863870e-08,4.628415979368583066e-07,9.366358000306718168e-08,1.342899508927075658e-06,1.833256675354277832e-07,-2.735601754011440789e-07,2.846686264490472240e-08,-2.804509904308361001e-07,1.224262149435162428e-07,7.295956834241223987e-07,-8.763669256950379349e-07,3.262979078044736525e-07,7.439782478968481882e-08,1.065435981217888184e-06,5.453971994029416237e-07,-4.021746633497969015e-07,3.072253207392350305e-07,1.133310334466841596e-07,2.161944365752788144e-07,3.959733874125959119e-07,-4.605749381880741566e-07,1.781021410351968370e-07,-2.097857674243641668e-07,4.488100842081621522e-07,-8.925242696022905875e-07,-1.195403740439360263e-07,3.610908265727630351e-07,1.067780956987007812e-07,1.895689507591669098e-07,5.427440328276134096e-07,5.084962140244897455e-08,5.138396730330896389e-08,-2.508040779503062367e-07,-2.114770154548750725e-07,-2.338516402744517109e-08,1.430058347295926069e-07,-9.215985841137808166e-08,4.410418057432252681e-07,-1.938776676979614422e-07,3.319218322417327727e-08,1.072142822522437200e-06,1.216680516336055007e-07,5.064985657554643694e-07,3.992071810898778494e-07,8.000650382200547028e-07,-2.342816145528558991e-07,8.594414566687191837e-07,2.577758380084560486e-07,3.838357542917947285e-07,6.202440090419258922e-07,1.233420761082015815e-07,-3.501486034451772866e-08,4.658476484564744169e-07,4.863588287662423681e-07
-3.582466244697570801e-01,-1.178280058411473874e-06,2.157001569867134094e-02,1.030427590012550354e-01,-6.609119009226560593e-03,-1.923908945173025131e-03,1.827529558795504272e-06,1.476907283067703247e-01,-1.784537140281372558e-08,9.748458862304687500e-02,2.452247077599167824e-03,9.630661457777023315e-02,2.727436949498951435e-04,-2.960772439837455750e-02,-2.436856220811023377e-06,9.878139197826385498e-02,1.715259713819250464e-06,-1.225221058120951056e-04,8.882916091579318163e-08,1.561939570819959044e-04,3.840005397796630859e-02,-1.885897666215896606e-01,1.316103589488193393e-05,9.084977954626083374e-02,-3.101525604724884033e-01,9.249590537940832746e-10,-1.801764816045761108e-01,1.618052010599058121e-06,-3.879315555095672607e-01,4.730123328045010567e-05,-2.616420097183436155e-04,7.312555797398090363e-03,-3.511827439069747925e-02,1.797941476106643677e-01,-5.614955909550189972e-03,8.513913489878177643e-03,1.398434955626726151e-02,1.250214268111449201e-06,-1.070911716669797897e-02,-2.827478758990764618e-02,7.366803009063005447e-03,1.369588972011115402e-06,-2.752396540017798543e-06,5.102466046810150146e-02,3.632548730820417404e-03,-2.471945015713572502e-03,-3.784094750881195068e-02,4.893826320767402649e-03,1.132487058639526367e-01,-9.066786219591449481e-07,-1.093449741601943970e-01,-1.905862973217153922e-06,2.844125330448150635e-01,7.184490561485290527e-02,1.482162531465291977e-02,-1.529339402914047241e-01,5.030108150094747543e-03,2.034870931311161257e-06,-1.567639224231243134e-02,-3.919867426156997681e-02,4.953143957209249493e-07,3.278066962957382202e-02,5.317859817296266556e-03,5.020884796977043152e-02
-1.778737008571624756e-01,-1.057336021403898485e-06,-1.027303483169816900e-06,-2.291380241513252258e-02,7.295174896717071533e-02,-1.068244688212871552e-02,9.328675456345081329e-03,-2.718590758740901947e-02,-7.740939054201589897e-07,-1.089255958795547485e-01,-5.549966317630605772e-07,2.645170129835605621e-02,-8.531617368134902790e-07,1.257114708423614502e-01,-1.778032924448780250e-06,4.355411604046821594e-02,-6.195986088641802780e-07,-1.024884171783924103e-03,2.878229506313800812e-02,6.760459393262863159e-02,-4.629397764801979065e-02,1.539328135550022125e-02,-4.626989635880818241e-08,-8.995185792446136475e-02,2.168811112642288208e-02,-1.479982003615987196e-08,-3.446360304951667786e-02,1.873172777777654119e-06,7.171478867530822754e-02,1.708113355562090874e-03,1.489674559707054868e-06,-3.164707869291305542e-02,-1.748892478644847870e-02,1.530920621007680893e-03,6.922098994255065918e-02,-2.316734520718455315e-03,-2.461570547893643379e-04,2.437650891806697473e-06,7.833833224140107632e-04,7.312663644552230835e-02,-1.810121349990367889e-02,9.697040468381601386e-07,7.125311094569042325e-05,3.782423678785562515e-03,-8.879560977220535278e-03,-2.585482969880104065e-02,6.602002680301666260e-02,1.631241291761398315e-02,-4.022341966629028320e-02,-1.054730887517507654e-06,8.980398625135421753e-02,1.266559593204874545e-06,4.484840482473373413e-02,-2.624705992639064789e-02,-6.951068527996540070e-03,-2.366461604833602905e-02,1.028189361095428467e-01,-2.963731958516291343e-06,-5.805704290651192423e-07,5.450884625315666199e-02,-5.150862989466986619e-07,-2.121910639107227325e-02,9.723762559588067234e-07,5.304608494043350220e-04
6.565324217081069946e-02,5.756343714892864227e-03,-5.502115935087203979e-03,1.462336629629135132e-01,-5.335775204002857208e-03,-6.125751137733459473e-02,1.878585317172110081e-05,-5.365777295082807541e-03,-9.226408224094484467e-07,1.616642177104949951e-01,-5.068710818886756897e-02,3.100552037358283997e-02,-5.187057703733444214e-02,-1.007426679134368896e-01,-9.355439942737575620e-06,-5.378306657075881958e-02,-1.789894304238259792e-03,3.663780540227890015e-02,2.386414445936679840e-02,-1.064812093973159790e-01,9.522360563278198242e-02,-5.655762180685997009e-02,7.165205315686762333e-04,8.898963034152984619e-02,-6.382353603839874268e-02,-8.594101927883457392e-06,-1.865751892328262329e-01,-4.057499172631651163e-04,3.342025354504585266e-02,1.326047331094741821e-01,-2.545926719903945923e-03,-7.160320878028869629e-02,-2.154509071260690689e-03,-2.067428380250930786e-01,4.701112583279609680e-02,-1.241284143179655075e-02,4.266707226634025574e-02,-3.084804120589978993e-05,1.264771968126296997e-01,-5.640090256929397583e-02,1.061806529760360718e-01,1.307945240114349872e-06,-5.825114203616976738e-04,-1.255757361650466919e-01,5.344863608479499817e-02,-2.452220302075147629e-03,-1.108127310872077942e-01,7.206893712282180786e-02,-1.738921925425529480e-02,-1.263425074284896255e-04,1.263150721788406372e-01,7.801004103384912014e-04,1.666504442691802979e-01,-3.595591406337916851e-04,2.029402107000350952e-01,6.012223660945892334e-02,2.922864854335784912e-01,4.178897870588116348e-05,-2.735867798328399658e-01,-3.460487350821495056e-02,-8.409617468714714050e-03,1.700750738382339478e-02,3.774968534708023071e-02,-3.475308790802955627e-02
6.845586933195590973e-03,-3.501057506127835950e-07,-9.512671113043325022e-07,3.953721374273300171e-03,-3.171660006046295166e-03,-5.543940886855125427e-02,7.263950578817457426e-07,1.012736335396766663e-01,-1.749423432784169563e-07,1.068911701440811157e-01,3.825156454695388675e-05,-1.801938377320766449e-02,3.387872880011855159e-07,-4.173224791884422302e-03,-6.130252359071164392e-07,-3.405961615499109030e-04,2.121064653692883439e-06,1.928948023532939260e-07,2.694997931484977016e-07,1.595906727015972137e-02,-8.329086995217949152e-06,-1.324468702077865601e-01,2.186693109251791611e-06,7.940062321722507477e-03,3.399119595997035503e-04,2.783241086490306770e-07,4.055334627628326416e-02,2.203481244578142650e-06,-7.928479462862014771e-02,2.504715928807854652e-03,5.720337981074408162e-07,1.948565295606385916e-05,-1.226219981908798218e-01,1.297781409448361956e-06,-1.870000213384628296e-01,-1.901164978335145861e-06,-2.241903985122917220e-06,2.765928911685477942e-06,5.111993232276290655e-06,-5.293013993650674820e-03,2.410285378573462367e-04,2.279332420584978536e-07,-7.997069246812316123e-07,8.178609078868248616e-08,-1.996280161620234139e-06,-1.619419776943686884e-06,-8.797028567641973495e-05,7.032437622547149658e-02,9.710151702165603638e-03,-1.836007413658080623e-06,-1.270126849412918091e-01,1.944011501109343953e-06,2.330031096935272217e-01,6.584867951460182667e-04,-4.496910609304904938e-03,-1.374217122793197632e-01,5.646367743611335754e-02,-4.864319862463162281e-07,1.474166947446065024e-05,-3.912123065674677491e-05,-9.622411880627623759e-07,1.459111422300338745e-01,2.492521016392856836e-04,-1.647368044359609485e-04
3.053917083889245987e-03,4.288084554104898416e-08,-2.480702278262469918e-06,-4.496680503507377580e-06,6.436397370634949766e-07,1.237643573404056951e-06,-3.914055355380696710e-07,-1.223780373038607650e-06,1.487097591734709567e-07,-2.069523816317087039e-06,-7.395316288238973357e-07,1.539183472232252825e-06,-8.437535115035643685e-08,5.757182748311606701e-07,-4.710059542389899434e-08,-2.658512983089167392e-07,-2.697044294563966105e-07,2.977219821787002729e-07,2.054623280400846852e-07,1.350594924787174023e-08,-1.408975776939769275e-06,7.374286496997228824e-07,1.238139049064557184e-07,1.483432424720376730e-04,3.166038311519514536e-07,4.670870623613154748e-08,-1.219516434503020719e-06,1.009100625282144392e-08,4.560428205877542496e-04,-1.430146085112937726e-06,-3.222240607669846213e-08,-5.919052910030586645e-07,1.402890234203368891e-06,3.793052769651694689e-07,-9.651986232483977801e-08,-1.745155628896100097e-07,-6.984121370123830275e-08,-3.106930535068386234e-07,-6.610798664041794837e-07,7.326019613174139522e-07,-1.202184023441077443e-07,-3.268846739956643432e-07,-1.136101435150749239e-08,2.980787314754707040e-07,-5.913718155170499813e-07,-1.533877025394758675e-07,4.432953062405431410e-07,-1.686145992607634980e-06,-1.505349700892111287e-06,-6.443461870730970986e-07,-3.072701247219811194e-06,-4.097460646335093770e-07,-6.928918310222798027e-07,-1.372401129628997296e-06,-2.978825477839563973e-06,1.754700861056335270e-06,-3.685431920530390926e-06,-6.128208696054571192e-08,5.714701956094359048e-07,2.764925852716260124e-07,-1.140364105367552838e-07,-2.120768698432584642e-07,-7.907217991487414110e-07,-1.249820229531906080e-06
-2.739179432392120361e-01,2.517827851988840848e-06,4.999504424631595612e-03,2.503979392349720001e-02,-9.393887966871261597e-02,-3.689824044704437256e-02,-6.548105273395776749e-03,5.043229833245277405e-02,4.347847948338312563e-07,2.423273399472236633e-02,1.501057669520378113e-02,-8.806469850242137909e-03,-1.968385276995832101e-06,-8.021502196788787842e-02,-3.865048256557201967e-06,1.855721697211265564e-02,3.939188318327069283e-04,-2.949468092992901802e-03,-6.953457370400428772e-03,1.941999495029449463e-01,-5.959701165556907654e-02,-2.349707782268524170e-01,5.214862994762370363e-06,1.027084812521934509e-01,7.158325752243399620e-04,8.377207336707215291e-07,-1.123084947466850281e-01,8.632940193820104469e-07,-1.753357052803039551e-01,3.193784505128860474e-02,3.291428089141845703e-02,6.308734416961669922e-02,-7.992221042513847351e-03,5.701409280300140381e-02,-2.006250806152820587e-02,-2.412361279129981995e-02,4.790401144418865442e-04,-1.132488932853448205e-06,3.087393566966056824e-02,-1.456252783536911011e-01,-1.880432218313217163e-01,3.095554575338610448e-06,-1.013302430510520935e-02,1.803825497627258301e-01,-6.911665201187133789e-02,1.472274214029312134e-02,1.241499036550521851e-01,2.788963727653026581e-03,2.452151291072368622e-02,-4.822176415473222733e-03,-9.144452959299087524e-02,-3.071211176575161517e-05,2.394610494375228882e-01,6.103745847940444946e-02,3.813030570745468140e-02,-9.600519388914108276e-02,3.004517853260040283e-01,4.409212124301120639e-06,8.195501565933227539e-02,2.060041576623916626e-01,5.112075740498767118e-08,2.047536522150039673e-01,-6.681923568248748779e-02,-9.942405857145786285e-03
5.789621546864509583e-02,3.112853619313682429e-06,5.030062794685363770e-02,6.841950863599777222e-02,-2.053571864962577820e-03,-7.205364294350147247e-03,4.376508400127931964e-07,2.469384819269180298e-01,4.944535589856968727e-07,2.431374788284301758e-01,9.133068670053035021e-05,-5.207235924899578094e-03,1.550823185425542761e-06,-7.582824677228927612e-02,2.582750994406524114e-06,1.251346319913864136e-01,-1.503487169429718051e-06,-2.757572474365588278e-06,1.763304112500918563e-06,-2.946536405943334103e-04,1.057221293449401855e-01,-2.175822407007217407e-01,-1.827164055612229276e-06,-3.186184214428067207e-03,-2.683186158537864685e-02,3.675139907954871887e-07,-8.654207340441644192e-04,-1.627239157642179634e-06,-2.133233547210693359e-01,3.352808207273483276e-02,-1.717302211545757018e-06,-1.895859327305515762e-06,-2.096175104379653931e-01,3.744296962395310402e-03,-1.706468462944030762e-01,1.554932823637500405e-04,2.076681812468450516e-05,-1.772427253854402807e-06,-3.316917282063513994e-04,-1.401136815547943115e-02,-2.030335599556565285e-03,-2.190781742683611810e-06,3.042441221623448655e-06,9.882357716560363770e-02,-2.143816345778759569e-06,-3.337886482768226415e-06,-1.963821705430746078e-04,1.981245167553424835e-02,6.046036258339881897e-02,2.688077529455767944e-07,-2.104647085070610046e-02,2.938894340331899002e-06,1.319353431463241577e-01,7.431105524301528931e-02,8.203363046050071716e-03,-2.749101221561431885e-01,2.047558575868606567e-01,-3.316423317301087081e-06,4.060714218212524429e-07,1.338791844318620861e-05,-1.549654257360089105e-06,4.619194567203521729e-02,-2.665508873178623617e-06,1.944022253155708313e-02
2.798621952533721924e-01,1.285257553718111012e-06,5.820369324283092283e-07,2.829105826094746590e-03,-5.052848719060420990e-04,-4.196072040940634906e-06,7.987806043274758849e-07,-4.878597792412620038e-07,7.803924972904496826e-08,2.056248858571052551e-02,-3.294859709512820700e-07,-2.616877736727474257e-06,1.636663910176139325e-06,-3.440570551902055740e-03,-9.451031246499042027e-08,1.644317080717883073e-06,-1.127560608438216150e-06,-6.200438633641169872e-07,1.311560708927572705e-06,1.089972670342831407e-06,4.702804610133171082e-03,-2.495797351002693176e-02,1.748966383274819236e-06,1.253777649253606796e-03,-1.661987043917179108e-02,1.237695244071801426e-07,3.000418473675381392e-07,-9.050967264556675218e-08,-4.567908868193626404e-02,8.689305104780942202e-05,-1.165903881883423310e-06,-2.786749519145814702e-06,-8.917568251490592957e-03,-7.779036532156169415e-04,-1.078397268429398537e-03,-2.343250343983527273e-06,-1.413957534168730490e-06,-1.881185994534462225e-06,1.279252614949655253e-06,-1.263837562873959541e-03,-3.277471023466205224e-06,-7.870081049077271018e-07,-4.287144861336855683e-08,-8.818876153782184701e-07,-1.821171053961734287e-06,-4.015564343262667535e-07,7.505606731683656108e-07,6.785269761167000979e-06,6.682682396785821766e-06,3.648268602773896419e-07,2.620678287712507881e-06,1.456210952710534912e-06,3.761830972507596016e-03,1.661160844378173351e-03,1.369097153656184673e-03,-2.140733613487100229e-06,5.110070575028657913e-03,6.308562205958878621e-07,2.280564558532205410e-06,2.156434106836968567e-07,-2.037506732222027495e-07,7.225659210234880447e-04,-9.473509408053359948e-07,9.635107289795996621e-07
-7.770782709121704102e-01,1.040987763553857803e-02,3.055997192859649658e-02,-8.166535198688507080e-02,-1.640393733978271484e-01,8.065251633524894714e-03,1.262876950204372406e-02,-1.066453754901885986e-02,-1.148902697423181962e-06,3.269046917557716370e-02,5.301475524902343750e-02,3.020734488964080811e-01,1.358265150338411331e-02,-1.392415761947631836e-01,-7.087872945703566074e-04,4.605679586529731750e-02,3.925550263375043869e-03,-4.718798771500587463e-02,1.732709445059299469e-02,4.143452644348144531e-01,7.286018878221511841e-02,-5.390236154198646545e-03,-5.412459746003150940e-02,1.100346911698579788e-02,-2.456700354814529419e-01,-1.904601231217384338e-04,-1.647426252020522952e-04,-2.110949480993440375e-06,-1.518334448337554932e-01,-2.268859744071960449e-01,1.045945808291435242e-01,1.637878119945526123e-01,2.614926695823669434e-01,1.867263466119766235e-01,5.172197148203849792e-02,3.026888472959399223e-03,-4.625259712338447571e-02,2.075423486530780792e-03,-1.556193232536315918e-01,-2.021423727273941040e-01,-3.278487920761108398e-02,7.775411009788513184e-03,1.076876372098922729e-02,2.333116233348846436e-01,-3.245314657688140869e-01,-3.826972097158432007e-02,3.030447065830230713e-01,1.226831506937742233e-02,2.890830859541893005e-02,2.849188633263111115e-03,-1.826037913560867310e-01,4.775207024067640305e-03,-2.355958335101604462e-02,6.441724486649036407e-03,-1.278261691331863403e-01,-2.464492432773113251e-02,2.378323487937450409e-02,-6.328149027012841543e-08,3.755201995372772217e-01,7.180993258953094482e-02,-2.048666588962078094e-03,1.768061071634292603e-01,-2.618822269141674042e-02,-2.904576016589999199e-03
2.368413954973220825e-01,-1.324884010500682052e-06,-8.176667615771293640e-03,-2.174431830644607544e-01,-1.339024864137172699e-02,-3.193162381649017334e-02,-8.072760829236358404e-05,-9.956501889973878860e-05,1.137034701059747022e-06,-4.158602654933929443e-02,-1.802117377519607544e-02,-2.520278841257095337e-02,-1.577995135448873043e-06,-1.088890209794044495e-01,1.815715904740500264e-06,4.142644628882408142e-02,-1.397313826601020992e-05,-1.472815824854478706e-06,2.312436117790639400e-05,6.033713929355144501e-03,-1.687354445457458496e-01,7.597205694764852524e-04,4.512071318458765745e-04,-7.845212519168853760e-02,1.333902478218078613e-01,-3.165217492551164469e-07,-1.194590795785188675e-02,5.997262633172795177e-07,1.720086634159088135e-01,-1.997122317552566528e-01,-6.280742468334210571e-07,-1.295347511768341064e-02,8.160915225744247437e-02,-2.008853666484355927e-02,-3.057456947863101959e-02,-5.077052488923072815e-02,1.559423864819109440e-03,-2.452998654916882515e-03,2.999224886298179626e-02,-4.436930641531944275e-02,-1.483991276472806931e-02,-2.203998974437126890e-07,-5.849794484674930573e-03,-3.191094845533370972e-02,-1.073229941539466381e-05,1.120544224977493286e-02,3.663740307092666626e-02,-8.924697525799274445e-03,-3.620163988671265543e-05,1.622281047275464516e-06,3.167518228292465210e-02,8.672835178913373966e-07,3.522964566946029663e-02,-1.255834707990288734e-03,-1.268095076084136963e-01,-9.489105083048343658e-03,2.709833681583404541e-01,-1.002807380245940294e-06,-7.492905016988515854e-03,5.516500398516654968e-02,9.593061349733034149e-07,8.309978246688842773e-02,1.162978423963068053e-05,-1.322747790254652500e-03
2.834091782569885254e-01,2.259204393340041861e-06,6.835803674221097026e-07,1.367721823044121265e-03,-2.647428800628404133e-06,-4.535226707957917824e-06,1.906393549688800704e-06,-1.302761461374757346e-06,-9.670756071500363760e-07,1.778633333742618561e-02,-1.247272507498564664e-06,2.189518454542849213e-06,2.056783841908327304e-06,-1.524508232250809669e-03,-2.070923699193372158e-07,-1.703326404094696045e-02,-9.743027931108372286e-07,-9.072981015378900338e-07,2.312829565198626369e-06,-1.891891088234842755e-07,1.610195380635559559e-03,-6.992602720856666565e-03,2.578112798801157624e-06,2.448349259793758392e-03,1.288400562771130353e-05,6.350725101356147206e-08,3.328755265101790428e-04,-9.780655574331831303e-08,7.811347488313913345e-03,1.463265925849555060e-05,-2.048974465651554056e-06,-1.714473228275892325e-06,4.265434399712830782e-04,-1.109889353756443597e-06,-9.027586318552494049e-03,-8.536073892173590139e-07,-2.793788098642835394e-06,-1.571272491673880722e-06,-1.722658225844497792e-06,-6.069685914553701878e-04,-3.963237134030350717e-07,-1.353948618998401798e-06,3.711214048962574452e-06,1.077514525604783557e-06,-2.670319872777326964e-06,-1.807171656764694490e-06,-1.480315695516765118e-04,7.831101356714498252e-06,5.922287868997955229e-07,-2.573640131231513806e-06,-7.268413901329040527e-02,3.028209903277456760e-06,2.285615308210253716e-03,1.066154451109468937e-03,6.414098315872251987e-04,2.873098710551857948e-04,2.201883820816874504e-03,-1.740087554935598746e-06,2.487546225893311203e-06,-8.439124561846256256e-03,-1.598984113115875516e-06,1.179111422970890999e-03,-2.924673481174977496e-06,-1.849870443493273342e-07
-2.435152232646942139e-01,-2.013533048739191145e-06,1.887856610119342804e-02,2.148774266242980957e-01,1.287363376468420029e-02,-4.162168875336647034e-02,1.891027636702347081e-07,3.144471906125545502e-03,-3.145842697449552361e-07,7.196370512247085571e-02,2.115955576300621033e-02,9.064599126577377319e-02,1.103905788113479502e-06,3.978497162461280823e-02,-1.083380539057543501e-06,3.920198976993560791e-02,4.700978593064064626e-07,-1.389599638059735298e-04,-1.806872387533076108e-05,3.412145003676414490e-02,-8.057489991188049316e-03,-1.572790890932083130e-01,-9.916518592945067212e-07,1.254315208643674850e-02,-2.645317278802394867e-02,-3.237764190089365002e-07,-7.119541522115468979e-03,1.079168100659444463e-06,2.834328822791576385e-02,1.418513357639312744e-01,1.340328822152514476e-06,7.706429809331893921e-03,-6.748409569263458252e-02,3.378613293170928955e-02,-3.131662309169769287e-02,1.628039591014385223e-02,-2.510318211079720641e-07,2.653307547006988898e-06,2.908678026869893074e-03,7.890886627137660980e-03,3.367104000062681735e-06,-5.618024943032651208e-07,-1.203866446530810208e-07,3.031527623534202576e-02,-1.942219387274235487e-04,-1.095255929976701736e-02,4.778588772751390934e-04,7.109611481428146362e-02,4.187874030321836472e-03,-2.619300630612997338e-06,1.449882797896862030e-02,8.293819178106787149e-07,4.473926499485969543e-02,5.020897090435028076e-02,1.430346667766571045e-01,-6.526795774698257446e-02,5.485786497592926025e-02,-1.085894950847432483e-06,1.941338814503978938e-05,5.070247128605842590e-02,3.200739683961728588e-06,7.315004244446754456e-03,8.132120128720998764e-04,2.956287004053592682e-02
-1.005577519536018372e-01,9.331668261438608170e-04,7.831383496522903442e-02,-1.934723705053329468e-01,2.634600922465324402e-02,-1.292210817337036133e-02,6.506565026938915253e-03,1.992747038602828979e-01,-1.571813186274084728e-06,2.155482620000839233e-01,-1.063287927536293864e-04,1.368460827507078648e-03,3.169879200868308544e-04,8.109311014413833618e-02,-1.121060577702337469e-07,2.156131155788898468e-02,-5.651995074003934860e-03,-2.611104026436805725e-02,2.420509420335292816e-02,-1.566687524318695068e-01,1.728595606982707977e-02,-6.043906807899475098e-01,3.130427614905784139e-07,6.717817485332489014e-02,-5.920653790235519409e-02,-2.852656734830816276e-06,-6.064722687005996704e-02,-6.684846312055015005e-07,-2.049774080514907837e-01,-4.392504692077636719e-02,1.307177240960299969e-03,-1.663940958678722382e-02,-2.090018242597579956e-01,1.475567743182182312e-02,-8.885628730058670044e-02,5.740178676205687225e-05,-8.002478629350662231e-03,-9.247071943718765397e-07,-1.787555962800979614e-02,4.278326034545898438e-02,-1.955160871148109436e-02,-9.147343371296301484e-05,6.125984247773885727e-03,4.256440326571464539e-02,-9.519546292722225189e-03,-4.458698630332946777e-02,-1.164223812520503998e-02,7.719251443631947041e-04,7.852058112621307373e-02,-1.582910408615134656e-05,1.430481392890214920e-02,1.915926077344920486e-06,2.643199265003204346e-01,9.219662100076675415e-02,-5.029751360416412354e-02,-1.783438026905059814e-01,1.379160135984420776e-01,6.422114438464632258e-06,3.644860116764903069e-04,-2.786381728947162628e-02,-3.447296990088943858e-07,-1.163087710738182068e-01,-1.389909442514181137e-02,1.329722106456756592e-01
-1.159546524286270142e-02,-1.983760142820756300e-07,5.277413947624154389e-05,-1.426254361867904663e-01,-4.015351805719546974e-06,-1.459996914491057396e-03,-3.502385197862167843e-06,-4.467313920031301677e-05,1.004160822049016133e-06,6.826412677764892578e-02,-9.263293350159074180e-07,2.411509677767753601e-02,1.430167344551591668e-06,1.334972213953733444e-03,2.129824991925488575e-07,-5.891631008125841618e-05,-5.410290032159537077e-05,7.838909965585116879e-08,-3.400672540010418743e-06,-1.188258156180381775e-01,-4.735538270324468613e-03,-5.919175967574119568e-02,-2.794808324324549176e-06,-2.701452560722827911e-02,6.681865546852350235e-03,1.155964810095611028e-06,-6.656302511692047119e-02,-1.560464255589977256e-07,-3.720638900995254517e-02,-3.128494024276733398e-01,2.958918048534542322e-04,1.224725419888272882e-04,-2.622116124257445335e-03,3.728713840246200562e-03,2.710503898561000824e-02,5.786757101304829121e-04,6.690629561489913613e-07,-1.051787876349408180e-06,-9.811343625187873840e-04,-6.712278263876214623e-05,4.519121721386909485e-04,-1.080492779692576732e-06,-6.043151643098099157e-06,1.325006363913416862e-03,-2.550710632931441069e-06,4.591396418618387543e-07,-4.292167432140558958e-06,2.959757344797253609e-03,4.779378068633377552e-04,-2.036758360191015527e-06,-2.140194737876299769e-05,4.056922762174508534e-07,-3.461518790572881699e-04,3.413944737985730171e-03,-2.077766656875610352e-01,-2.426118357107043266e-03,7.574398536235094070e-03,1.035501099977409467e-06,4.129066073801368475e-04,-1.161628812551498413e-01,1.406597561981470790e-06,-6.967493146657943726e-02,-2.616204801597632468e-05,5.140244611538946629e-04
3.008535802364349365e-01,-6.082390768824552651e-07,-5.032074637711048126e-03,-2.006155401468276978e-01,-6.999916513450443745e-05,2.379962941631674767e-03,-2.484684728187858127e-06,-3.453570650890469551e-03,2.778102441425289726e-07,-1.879571378231048584e-02,-1.506866396994155366e-06,3.788420697674155235e-03,-7.376830239991249982e-07,-8.899282664060592651e-03,-5.969691869722737465e-07,-6.535249296575784683e-03,1.118688373935583513e-06,5.448584033729275689e-06,4.708755909632600378e-07,-8.648385293781757355e-03,-9.387810714542865753e-03,3.825293108820915222e-02,2.600073912617517635e-06,-2.161703556776046753e-01,-1.084466278553009033e-01,8.630429420009022579e-07,4.566903226077556610e-05,1.528175971543532796e-06,1.330211609601974487e-01,-9.961225092411041260e-02,-6.518123427667887881e-06,-1.539385038995533250e-06,1.931055739987641573e-04,3.354738291818648577e-04,1.553122047334909439e-02,-5.889997701160609722e-04,6.890465556352864951e-06,-2.583356717877904885e-06,-9.877158328890800476e-03,-3.518225566949695349e-04,1.515217684209346771e-02,-1.835812895478738938e-06,-2.052990930678788573e-05,-7.538727368228137493e-04,-3.546539346643839963e-06,1.009050993161508814e-05,1.299345312872901559e-04,-7.840633884370618034e-07,-7.063878001645207405e-06,8.328152034664526582e-07,6.289371103048324585e-02,-1.253641471521405037e-06,-4.412967711687088013e-02,-9.901670739054679871e-03,-2.009129524230957031e-01,1.722734305076301098e-03,-4.320856928825378418e-02,6.645954044870450161e-07,3.217543126083910465e-04,-1.764569059014320374e-02,-2.855971388271427713e-06,-4.813443124294281006e-02,7.814667333150282502e-05,-5.012764595448970795e-04
1.722458750009536743e-01,4.354697466624202207e-06,2.753594517707824707e-02,-2.220304869115352631e-02,-3.204742213711142540e-03,-1.175222219899296761e-03,4.017247647425392643e-06,7.741712033748626709e-02,-1.713406504677550402e-06,2.827078402042388916e-01,1.572195174048829358e-06,1.550335087813436985e-03,2.660462541825836524e-06,-6.717348471283912659e-03,-1.110700964090938214e-06,-5.647652316838502884e-03,-4.296646523016534047e-07,-3.619641347540891729e-06,1.930783497527954751e-07,4.283113405108451843e-03,2.600759267807006836e-03,-6.321031600236892700e-03,2.506695182091789320e-06,2.079572714865207672e-02,2.735571004450321198e-02,-4.687938996994489571e-07,-5.701840855181217194e-03,1.868574258878652472e-06,-2.632013522088527679e-02,-2.135982867912389338e-06,-2.253454340461757965e-06,8.870235644280910492e-03,-2.380293011665344238e-01,3.742546687135472894e-05,-1.933693438768386841e-01,-1.284828840653062798e-06,-1.502526970398321282e-06,-1.137092453973309603e-06,-1.026134588755667210e-03,-1.067927759140729904e-02,4.344910919940048188e-08,-2.270826144012971781e-06,-8.435538489948157803e-08,8.792565608928271104e-07,-2.744361836448661052e-06,-3.225747605029027909e-06,-4.696605727076530457e-02,2.581780403852462769e-02,-3.465603640506742522e-06,8.333094569934473839e-07,-3.780016601085662842e-01,1.730532289911934640e-06,9.304244071245193481e-02,6.710392981767654419e-02,1.502144004916772246e-04,-1.157398447394371033e-01,-2.234343253076076508e-02,-1.213011842082778458e-06,1.754490654093388002e-06,5.578912350756581873e-06,-4.303036575947771780e-07,1.363735273480415344e-02,1.781312562343373429e-06,5.403305749496212229e-07
-2.951220571994781494e-01,4.224214933401526650e-07,-3.400258952751755714e-03,4.309505596756935120e-02,1.948237419128417969e-02,5.268882960081100464e-03,6.813518120907247066e-05,-3.344916924834251404e-02,-2.912439867941429839e-06,-2.792294621467590332e-01,-1.539314724504947662e-02,-1.190622821450233459e-01,-2.388449956924887374e-06,2.130064517259597778e-01,-1.861757937149377540e-06,2.689488977193832397e-02,-3.316956805065274239e-03,1.328307203948497772e-02,9.004185699268418830e-07,7.113699615001678467e-02,-3.444097191095352173e-02,-4.356915131211280823e-02,5.305463446347857825e-07,-4.091142863035202026e-02,-3.724898397922515869e-02,1.134154558712907601e-06,8.707954734563827515e-02,-2.074958729281206615e-06,7.117355465888977051e-01,2.962488867342472076e-02,-2.300610685779247433e-05,-3.618097864091396332e-03,-8.010516315698623657e-02,-5.330223962664604187e-02,-4.910163115710020065e-03,1.655225446484109852e-06,1.285655540414154530e-03,-6.428754568332806230e-05,1.480502635240554810e-02,5.257242918014526367e-02,-1.596067845821380615e-02,-2.563658199505880475e-05,1.678896660450845957e-05,-1.463746838271617889e-02,-2.633358538150787354e-02,-1.164511900242359843e-06,3.382813930511474609e-02,6.585131864994764328e-03,-9.116753935813903809e-02,1.020800141304789577e-06,2.681111395359039307e-01,8.781187716522254050e-06,1.798366196453571320e-02,-1.015481818467378616e-02,5.852814763784408569e-03,5.373461637645959854e-03,2.145819514989852905e-01,-7.332565292017534375e-05,-6.985147483646869659e-04,2.951503358781337738e-02,7.527580123678490054e-07,-6.682270206511020660e-03,-3.229495996492914855e-05,2.605896675959229469e-03
-1.635076850652694702e-02,2.921657596743898466e-06,-9.253256575902923942e-05,-1.990229636430740356e-02,-2.994846727233380079e-04,8.892640471458435059e-05,2.276186933158896863e-06,6.953552365303039551e-02,-8.292815323329705279e-07,-3.053747303783893585e-02,7.770903494019876234e-07,-5.116330925375223160e-03,2.755869645625352859e-04,3.202666342258453369e-02,-8.294339863823552150e-07,4.271214827895164490e-02,8.506309256972599542e-08,-5.222398249316029251e-05,2.599421422928571701e-04,6.947391480207443237e-02,-2.422298491001129150e-02,-3.488070070743560791e-01,2.668254182935925201e-06,-1.973908022046089172e-02,-1.205453053116798401e-01,1.341956878952998977e-09,-2.446403540670871735e-02,-1.270065922653884627e-06,-1.302134394645690918e-01,-6.218411494046449661e-03,1.434221871932095382e-06,-8.754159323871135712e-03,-1.861250959336757660e-02,6.388805923052132130e-04,7.290196139365434647e-03,-1.282784523937152699e-06,-1.334041712652833667e-06,4.267110398359363899e-07,-1.952579710632562637e-03,1.819462701678276062e-02,-3.008865937590599060e-02,-3.022761916326999199e-07,-4.300005400637019193e-07,1.581013388931751251e-02,-1.445809495635330677e-03,-4.447162609721999615e-06,5.124566704034805298e-02,1.131742010329617187e-05,-2.126068435609340668e-02,-2.036628757196012884e-06,-1.355027663521468639e-03,1.509642061137128621e-06,7.029168045846745372e-05,-9.888974949717521667e-03,-1.469977013766765594e-02,-2.556369453668594360e-02,1.295461356639862061e-01,-1.015865564113482833e-06,1.631116261705756187e-03,3.034474700689315796e-02,6.080544494579953607e-07,1.163538359105587006e-02,-2.279341220855712891e-02,4.540313407778739929e-02
1.055002734065055847e-01,4.138050258006842341e-07,-4.069412127137184143e-03,-1.981837302446365356e-02,1.743632182478904724e-02,-1.643656007945537567e-02,2.159137220587581396e-04,-3.116070874966681004e-04,1.394872128912538756e-06,-3.585917875170707703e-02,1.073019157047383487e-04,-2.016954123973846436e-01,1.504923261563817505e-07,4.461846873164176941e-02,-4.533714275112288306e-07,-1.824571983888745308e-03,-1.315533040724403691e-06,5.842105679221276660e-07,1.659553845456684940e-06,-3.578563919290900230e-03,-1.556417089886963367e-03,-2.792218513786792755e-02,2.390283498243661597e-06,-2.858837542589753866e-04,2.270725555717945099e-02,1.354667205077930703e-07,7.488533388823270798e-03,8.515044100931845605e-07,-1.884816773235797882e-02,-1.292990148067474365e-02,-6.473754998296499252e-03,-2.030535106314346194e-04,-3.785958141088485718e-02,-1.739055733196437359e-03,-3.511444083414971828e-04,2.089836561935953796e-05,1.097678250516764820e-07,-8.261243920060223900e-07,-1.222811170009663329e-05,1.541251875460147858e-02,-5.249978229403495789e-02,1.869547986643738113e-06,2.230345126008614898e-04,9.418144822120666504e-03,2.743971708696335554e-04,-1.148683736573730130e-06,-7.154094055294990540e-05,2.039469778537750244e-02,-5.860760342329740524e-03,2.903387212427332997e-06,-2.772371284663677216e-02,-2.207667876064078882e-06,3.827369958162307739e-02,-4.426124040037393570e-03,-1.088811922818422318e-02,-3.134124353528022766e-02,2.473087981343269348e-02,3.557999889380880632e-06,-2.264488284708932042e-05,1.600372418761253357e-02,-2.405244231340475380e-06,1.390050514601171017e-03,-4.433641675859689713e-03,-1.145817921496927738e-03
-1.484057605266571045e-01,6.451386411754356232e-07,6.201871857047080994e-02,1.473242789506912231e-01,1.502625830471515656e-02,-7.015793584287166595e-03,6.692044436931610107e-03,-5.673248320817947388e-03,9.276764671994897071e-07,6.655050814151763916e-02,-1.738649047911167145e-02,4.613092914223670959e-02,-1.677314634434878826e-03,3.974165767431259155e-02,4.759442049362405669e-07,2.201332002878189087e-01,-1.869517518571228720e-07,2.001998509513214231e-04,-9.284158295486122370e-07,-2.256833389401435852e-02,9.526363573968410492e-03,-3.184516727924346924e-01,1.113073381020512898e-06,1.045573800802230835e-01,-2.651953399181365967e-01,-2.552166051827953197e-07,3.794257296249270439e-03,-1.621656110728508793e-06,-7.129904031753540039e-01,4.215561598539352417e-02,-3.473296761512756348e-03,-2.202226221561431885e-02,-6.221210956573486328e-02,-5.402325838804244995e-02,-8.382328087463974953e-05,2.508554025553166866e-04,1.146261813119053841e-03,-1.866025058916420676e-06,5.405080690979957581e-02,5.068572610616683960e-02,-1.194808445870876312e-02,4.515604530297423480e-07,2.261311374604701996e-02,-1.215914636850357056e-02,1.185395194625016302e-05,-2.066710405051708221e-02,-4.948502406477928162e-02,-2.223626943305134773e-03,-1.270786207169294357e-02,1.797623699530959129e-04,2.209078148007392883e-02,-3.802006176556460559e-06,2.719086110591888428e-01,-9.665468707680702209e-03,3.239061683416366577e-02,-1.580568701028823853e-01,-1.445436757057905197e-02,-2.698612320273241494e-07,-3.600167855620384216e-02,-3.969834744930267334e-02,3.292287146905437112e-06,-1.085416972637176514e-01,5.649908416671678424e-05,3.473573178052902222e-02
