3.509575128555297852e-01
-2.106048725545406342e-02
-1.061486229300498962e-01
-2.428198046982288361e-02
-1.218311488628387451e-01
1.043586507439613342e-01
1.584881991147994995e-01
6.052690744400024414e-02
-4.712853580713272095e-03
-1.608972623944282532e-02
-9.606801904737949371e-03
1.511388123035430908e-01
3.435458987951278687e-02
2.324896752834320068e-01
6.308764964342117310e-02
6.106451153755187988e-02
-8.465862274169921875e-02
1.525362730026245117e-01
-1.249263621866703033e-02
4.577146843075752258e-02
1.653393954038619995e-01
5.337503552436828613e-02
1.656598746776580811e-01
2.358098328113555908e-01
1.826723217964172363e-01
1.628221124410629272e-01
2.515581995248794556e-02
2.713549733161926270e-01
5.679572373628616333e-02
8.033896237611770630e-02
1.742358505725860596e-01
1.767796874046325684e-01
2.741670906543731689e-01
4.052715376019477844e-02
1.464322209358215332e-01
4.507272541522979736e-01
6.539447307586669922e-01
4.517138004302978516e-01
1.040664780884981155e-02
4.557278379797935486e-02
-3.881724178791046143e-02
-9.729709476232528687e-03
-5.317733436822891235e-02
2.902602218091487885e-02
-2.986536733806133270e-02
-5.940986797213554382e-02
1.064474955201148987e-01
5.112539604306221008e-02
-5.868249014019966125e-02
-5.411108210682868958e-02
-2.048580534756183624e-02
-8.064451813697814941e-02
1.231419593095779419e-01
1.298651657998561859e-02
-7.395077496767044067e-02
7.495783735066652298e-03
-1.818049140274524689e-02
4.164119064807891846e-01
3.259027004241943359e-01
5.124192684888839722e-02
1.231129374355077744e-02
2.785508334636688232e-01
3.223128020763397217e-01
4.079764783382415771e-01
2.318551838397979736e-01
1.015407368540763855e-01
1.902670264244079590e-01
-3.386287763714790344e-02
2.156572937965393066e-01
1.187763214111328125e-01
1.813103556632995605e-01
4.330584406852722168e-02
2.503845393657684326e-01
6.940596550703048706e-02
1.597730666399002075e-01
-3.041892079636454582e-03
