-1.827938854694366455e-01
7.951465249061584473e-02
8.973425626754760742e-02
-1.034471392631530762e-01
-1.138113066554069519e-01
-9.507265686988830566e-02
-9.156192094087600708e-02
-1.142890751361846924e-02
2.650629580020904541e-01
-8.991521596908569336e-02
-2.981570549309253693e-02
7.007727771997451782e-02
-2.767724916338920593e-02
4.007598757743835449e-02
1.358944922685623169e-01
-4.453723132610321045e-02
-1.107997354120016098e-02
4.775438457727432251e-02
-5.010096728801727295e-02
-5.550224334001541138e-02
4.700772464275360107e-02
-8.912519365549087524e-02
5.820941179990768433e-02
3.435340896248817444e-02
-1.742026656866073608e-01
8.150118589401245117e-02
-1.467111259698867798e-01
-4.278486222028732300e-02
-1.188223715871572495e-02
8.648661524057388306e-02
-1.721660047769546509e-01
1.414993405342102051e-02
1.160982772707939148e-01
6.400629132986068726e-02
4.015960544347763062e-02
-2.836927771568298340e-02
-4.720947891473770142e-02
-1.256986707448959351e-02
-1.080919429659843445e-01
1.375261396169662476e-01
9.750650078058242798e-02
1.580495834350585938e-01
-2.041610330343246460e-01
3.634401410818099976e-02
5.328000523149967194e-03
-3.785420209169387817e-03
3.466176986694335938e-02
6.088136881589889526e-02
1.430531740188598633e-01
1.808074861764907837e-01
1.057626865804195404e-02
-1.302456706762313843e-01
4.132880643010139465e-02
-3.360387384891510010e-01
-4.094629734754562378e-02
3.083259239792823792e-02
1.348368264734745026e-02
4.579387232661247253e-02
4.303189739584922791e-02
1.127280108630657196e-02
-3.052718006074428558e-02
-1.417042911052703857e-01
7.831896841526031494e-02
-1.252494007349014282e-01
