3.055876791477203369e-01
-4.955288022756576538e-02
-9.720326960086822510e-02
1.281238719820976257e-02
-1.487739533185958862e-01
1.236432120203971863e-01
1.953935474157333374e-01
8.932428807020187378e-02
3.002483281306922436e-04
-6.927105784416198730e-02
-1.127093192189931870e-02
1.270779669284820557e-01
4.259055107831954956e-02
2.681268453598022461e-01
4.563289508223533630e-02
5.298897624015808105e-02
-1.034720167517662048e-01
2.136135548353195190e-01
-5.647813901305198669e-03
-1.275981869548559189e-02
1.445405334234237671e-01
9.520445764064788818e-02
1.289065480232238770e-01
2.677928805351257324e-01
2.232072353363037109e-01
1.737583279609680176e-01
5.307815968990325928e-03
3.085547685623168945e-01
4.539589211344718933e-02
7.988593727350234985e-02
1.893614232540130615e-01
1.648692041635513306e-01
2.798478007316589355e-01
7.847538590431213379e-02
1.482547968626022339e-01
4.294856488704681396e-01
6.305419802665710449e-01
4.635351300239562988e-01
-4.024254530668258667e-02
1.003900989890098572e-01
-2.470171637833118439e-02
1.219371985644102097e-02
-7.605747878551483154e-02
1.135646458715200424e-02
-7.248864322900772095e-02
-2.553562261164188385e-02
9.993708878755569458e-02
-1.659687422215938568e-02
-5.199707299470901489e-02
-7.096816599369049072e-02
2.848204458132386208e-03
-5.220555514097213745e-02
1.401926726102828979e-01
3.650626540184020996e-02
-3.705774992704391479e-02
2.621438354253768921e-02
-5.462354980409145355e-03
4.265566170215606689e-01
3.079901337623596191e-01
1.224711388349533081e-01
1.755593158304691315e-02
2.794247567653656006e-01
3.019262552261352539e-01
4.219792485237121582e-01
2.506230771541595459e-01
5.493260920047760010e-02
1.828715950250625610e-01
-8.969206362962722778e-03
3.068318665027618408e-01
1.214118972420692444e-01
1.974211037158966064e-01
8.900824934244155884e-02
2.028219401836395264e-01
3.296563401818275452e-02
1.444613933563232422e-01
3.214875236153602600e-02
