-4.066958650946617126e-02,4.563322756439447403e-03,4.249403625726699829e-02,-1.217616838403046131e-03,3.712680423632264137e-03,-1.545065827667713165e-02,2.422217978164553642e-03,-2.170871943235397339e-03,-2.885908447206020355e-02,-8.766678161919116974e-03,-7.843763381242752075e-02,-1.928729563951492310e-02,3.664128715172410011e-03,1.836520433425903320e-02,3.021404892206192017e-02,3.951934352517127991e-02
-2.402913989499211311e-03,1.821025973185896873e-03,-4.330748226493597031e-03,7.827592082321643829e-03,9.878166951239109039e-03,-7.119929417967796326e-03,-3.920887410640716553e-02,-5.020490498282015324e-04,1.491741393692791462e-03,6.678267847746610641e-03,-2.965760068036615849e-04,2.703808061778545380e-02,-9.393942542374134064e-03,-1.667900243774056435e-03,-4.567711730487644672e-04,3.378011519089341164e-03
-7.100525498390197754e-01,8.327259123325347900e-02,1.113244175910949707e+00,-1.096133980900049210e-02,1.454376727342605591e-01,-5.223405361175537109e-01,3.102939724922180176e-01,-1.530321594327688217e-02,-7.588998675346374512e-01,-4.059335291385650635e-01,-1.973994255065917969e+00,-1.034649685025215149e-01,8.008300513029098511e-02,5.094661116600036621e-01,6.758496165275573730e-01,9.689421653747558594e-01
-2.239217422902584076e-02,6.561971455812454224e-02,-1.183643937110900879e-02,1.097045540809631348e-01,1.363959014415740967e-01,-9.691090136766433716e-02,6.273294091224670410e-01,4.315152019262313843e-02,1.162826083600521088e-02,8.148555457592010498e-02,-4.259761422872543335e-03,2.763591706752777100e-01,-2.492951154708862305e-01,1.926885801367461681e-03,-3.540874272584915161e-02,1.752221770584583282e-02
