-6.398816592991352081e-03,1.221786066889762878e-01,2.303335368633270264e-01,-3.204871201887726784e-03,2.696523070335388184e-01,1.177579909563064575e-01,1.702649742364883423e-01,9.349974803626537323e-03,6.844336539506912231e-02,-2.407689839601516724e-01,-6.932205054908990860e-03,2.072019279003143311e-01,2.076073884963989258e-01,-1.730785146355628967e-02,1.882236078381538391e-02,1.018609255552291870e-01
3.336672782897949219e-01,6.392556242644786835e-03,-3.841066658496856689e-01,2.857339754700660706e-02,-8.185246586799621582e-02,1.318262051790952682e-02,2.232228033244609833e-02,4.117436707019805908e-02,3.136969357728958130e-02,8.604559302330017090e-02,1.081995740532875061e-01,1.742656081914901733e-01,-3.946904540061950684e-01,-1.349697709083557129e-01,-3.612889647483825684e-01,-1.614979840815067291e-02
-1.720095723867416382e-01,-7.772337198257446289e-01,4.369903504848480225e-01,4.136100038886070251e-02,-8.839054405689239502e-02,-1.277265250682830811e-01,4.003852140158414841e-03,-1.428699959069490433e-02,3.464412987232208252e-01,3.750354424118995667e-02,-3.478291258215904236e-02,-3.983335569500923157e-03,2.707886993885040283e-01,-4.967049956321716309e-01,4.749733954668045044e-03,-6.222097277641296387e-01
2.808322906494140625e-01,1.978825777769088745e-01,1.556022763252258301e-01,-5.831266641616821289e-01,6.626132875680923462e-02,9.547854214906692505e-02,6.769101321697235107e-02,8.700954169034957886e-02,-7.297781854867935181e-02,2.892512269318103790e-02,1.942018568515777588e-01,9.896838665008544922e-01,1.036764532327651978e-01,1.548417806625366211e-01,1.903202384710311890e-02,9.759229421615600586e-02
2.818854153156280518e-01,-3.785458579659461975e-02,2.303572744131088257e-01,1.317844837903976440e-01,-7.923974841833114624e-02,7.483130693435668945e-02,-1.086237356066703796e-01,-2.514972090721130371e-01,-6.740728020668029785e-02,-2.528041601181030273e-01,3.037963621318340302e-02,-4.783755913376808167e-02,-2.964901030063629150e-01,-1.824727058410644531e-01,5.118604898452758789e-01,4.508597776293754578e-02
-1.939514577388763428e-01,1.956348270177841187e-01,-4.467609524726867676e-01,7.815864868462085724e-03,-1.464116126298904419e-01,-1.044241525232791901e-02,1.228622049093246460e-01,-5.022621750831604004e-01,6.050602719187736511e-02,5.698326602578163147e-02,1.475736349821090698e-01,-7.022155076265335083e-02,1.622919291257858276e-01,1.480712592601776123e-01,-1.073892340064048767e-01,-3.785131499171257019e-02
2.328232675790786743e-01,-2.952051758766174316e-01,1.579693704843521118e-01,1.228401139378547668e-01,2.162134647369384766e-02,1.166199073195457458e-01,-4.783797264099121094e-02,-3.409565389156341553e-01,-2.392417192459106445e-01,1.483039706945419312e-01,-1.833187043666839600e-01,-5.296796932816505432e-02,1.698313653469085693e-01,-1.189187839627265930e-01,-4.387781322002410889e-01,2.953390032052993774e-02
1.050387248396873474e-01,-2.408750057220458984e-01,3.222394883632659912e-01,-2.812958508729934692e-02,4.919775575399398804e-02,-9.918677061796188354e-02,-1.397971436381340027e-02,-1.491231769323348999e-01,1.354968994855880737e-01,1.738182455301284790e-02,1.841088756918907166e-02,3.530152142047882080e-02,9.714321233332157135e-03,1.899086982011795044e-01,7.381914556026458740e-02,-2.388546764850616455e-01
