-2.795818075537681580e-02,8.763705263845622540e-04,2.803019247949123383e-02,3.195562399923801422e-03,-1.545702293515205383e-02,-1.508933678269386292e-02,-2.732430817559361458e-03,-3.306439146399497986e-02,-2.340057864785194397e-02,-2.511610649526119232e-02,-2.291482500731945038e-02,-1.147886738181114197e-02,3.661462338641285896e-03,2.858863770961761475e-02,2.715521259233355522e-04,1.334202010184526443e-03
1.275556534528732300e-02,5.198836326599121094e-03,-3.017745213583111763e-03,-3.641854505985975266e-03,5.500832106918096542e-03,-1.012997794896364212e-02,-3.964497242122888565e-03,4.772474057972431183e-03,-8.657110854983329773e-03,-1.017880626022815704e-02,2.147048944607377052e-03,5.856533534824848175e-03,1.098649390041828156e-02,3.682822920382022858e-03,-1.328629814088344574e-02,-6.761652417480945587e-03
-6.876976490020751953e-01,1.235477328300476074e-01,7.290412783622741699e-01,7.142125070095062256e-02,-4.009177684783935547e-01,-3.893626630306243896e-01,-1.157257854938507080e-01,-8.592073321342468262e-01,-5.212573409080505371e-01,-7.125179767608642578e-01,-4.791562557220458984e-01,-2.085058763623237610e-02,1.483746059238910675e-02,6.667219400405883789e-01,-2.977656759321689606e-02,1.136026903986930847e-02
4.319991916418075562e-03,3.600112721323966980e-02,9.881876409053802490e-03,-4.622273519635200500e-02,-2.905160561203956604e-02,2.023878134787082672e-02,-4.516376554965972900e-02,-8.747221902012825012e-03,-4.147751629352569580e-02,6.407606415450572968e-04,5.279989540576934814e-02,-1.504070311784744263e-01,1.390949785709381104e-01,-1.077101845294237137e-02,-1.986206322908401489e-01,-1.174842342734336853e-01
