3.511206507682800293e-01
-2.124907076358795166e-02
-1.060303822159767151e-01
-2.455658838152885437e-02
-1.218589395284652710e-01
1.046677976846694946e-01
1.588830053806304932e-01
6.072964891791343689e-02
-5.347274709492921829e-03
-1.623379625380039215e-02
-9.093086235225200653e-03
1.514351665973663330e-01
3.415224328637123108e-02
2.316484749317169189e-01
6.351038068532943726e-02
6.124501302838325500e-02
-8.446277678012847900e-02
1.525589674711227417e-01
-1.254930533468723297e-02
4.602386057376861572e-02
1.651283949613571167e-01
5.394077301025390625e-02
1.653923541307449341e-01
2.356106787919998169e-01
1.830593049526214600e-01
1.634162068367004395e-01
2.568352967500686646e-02
2.705917954444885254e-01
5.659048259258270264e-02
8.069828152656555176e-02
1.745853275060653687e-01
1.764733940362930298e-01
2.736799716949462891e-01
4.100256413221359253e-02
1.465707868337631226e-01
4.509382843971252441e-01
6.539466381072998047e-01
4.515266716480255127e-01
1.016095466911792755e-02
4.505235329270362854e-02
-3.865006193518638611e-02
-9.495998732745647430e-03
-5.329449102282524109e-02
2.918423525989055634e-02
-2.989822253584861755e-02
-5.920828506350517273e-02
1.062797456979751587e-01
5.115619674324989319e-02
-5.861705541610717773e-02
-5.407951027154922485e-02
-2.012473903596401215e-02
-8.021786808967590332e-02
1.231784671545028687e-01
1.285275816917419434e-02
-7.395185530185699463e-02
7.883447222411632538e-03
-1.856473274528980255e-02
4.160664379596710205e-01
3.255202770233154297e-01
5.135795101523399353e-02
1.218997873365879059e-02
2.784395217895507812e-01
3.224404156208038330e-01
4.079389870166778564e-01
2.318725585937500000e-01
1.010793447494506836e-01
1.900493651628494263e-01
-3.363975137472152710e-02
2.158430516719818115e-01
1.187757626175880432e-01
1.810962408781051636e-01
4.372027143836021423e-02
2.505700886249542236e-01
6.975834816694259644e-02
1.597233712673187256e-01
-2.872116630896925926e-03
