-3.837195411324501038e-02,2.256889045238494873e-01,-3.959503769874572754e-01,-5.076376199722290039e-01,-4.189381599426269531e-01,-3.462474346160888672e-01,-2.983668446540832520e-01,-2.461705803871154785e-01,-1.833654791116714478e-01,-2.117782235145568848e-01,-1.315675824880599976e-01,-8.199217170476913452e-02,-4.177585616707801819e-02,-1.525305863469839096e-02,1.318259444087743759e-02,3.804334625601768494e-02,2.203233540058135986e-02,3.064770624041557312e-02,6.297552585601806641e-02,1.287429034709930420e-01
-3.273949027061462402e-01,4.070119187235832214e-02,-1.201408077031373978e-02,-2.305590361356735229e-02,-8.521481417119503021e-03,-1.028857193887233734e-02,-6.942598702153190970e-05,-7.206587586551904678e-03,-6.730840075761079788e-03,-4.106785170733928680e-03,-2.957985736429691315e-02,1.187080796808004379e-02,-1.028357073664665222e-02,1.948535442352294922e-02,3.367837890982627869e-02,2.749031782150268555e-02,8.407394401729106903e-03,1.293530222028493881e-03,4.669988527894020081e-02,5.845250561833381653e-02
-6.442586779594421387e-01,7.710251025855541229e-03,4.618592560291290283e-03,6.053206045180559158e-03,2.737944945693016052e-03,1.272078603506088257e-02,1.151981856673955917e-02,1.406475901603698730e-02,9.374189190566539764e-03,5.253972858190536499e-02,4.952008277177810669e-02,5.468005686998367310e-02,6.063158810138702393e-02,9.847182780504226685e-02,6.023106351494789124e-02,7.066493481397628784e-02,1.246818676590919495e-01,1.370141953229904175e-01,1.585893630981445312e-01,1.934953331947326660e-01
-4.852464422583580017e-02,-3.908538073301315308e-02,-6.728420406579971313e-02,-5.592699628323316574e-03,-8.777395635843276978e-02,-1.100576519966125488e-01,-4.296402260661125183e-02,-5.362667515873908997e-02,-7.676746696233749390e-02,-9.542663395404815674e-02,-8.686285465955734253e-02,-1.897317543625831604e-02,-1.181474775075912476e-01,-1.247967258095741272e-01,-5.950702726840972900e-02,-8.227482438087463379e-02,-9.072152525186538696e-02,-1.376591436564922333e-02,-4.680275171995162964e-02,-5.089167878031730652e-02
-1.341567784547805786e-01,2.732118666172027588e-01,-3.184057474136352539e-01,-2.306831628084182739e-01,-2.147298753261566162e-01,-1.579714566469192505e-01,-1.393849551677703857e-01,-1.255233883857727051e-01,-8.873819559812545776e-02,-3.554381802678108215e-02,-4.493099451065063477e-02,-2.707630954682826996e-02,-3.086992073804140091e-03,1.010090298950672150e-02,5.887862294912338257e-02,1.026136800646781921e-01,1.902552247047424316e-01,1.968088597059249878e-01,2.465003728866577148e-01,2.824725508689880371e-01
7.188536692410707474e-03,1.065456867218017578e+00,-4.486926794052124023e-01,-5.143494009971618652e-01,-3.768602311611175537e-01,-3.936642408370971680e-01,-2.791949212551116943e-01,-2.600318789482116699e-01,-1.623084843158721924e-01,-1.856474727392196655e-01,-6.284200400114059448e-02,-1.013178825378417969e-01,-1.016808953136205673e-02,4.275954514741897583e-02,5.779714137315750122e-02,1.270690709352493286e-01,1.816798448562622070e-01,2.515202164649963379e-01,2.143492847681045532e-01,2.766540348529815674e-01
-1.754769086837768555e-01,-3.111274838447570801e-01,-6.970788538455963135e-02,-8.276589214801788330e-02,-1.239376049488782883e-02,-1.461302209645509720e-02,-5.876229703426361084e-02,-3.774447739124298096e-02,-1.037021167576313019e-03,-4.244050011038780212e-02,-2.836256101727485657e-02,-3.435095772147178650e-02,-3.279887512326240540e-02,7.503315806388854980e-03,6.293409969657659531e-03,-2.306192740797996521e-02,-2.663077972829341888e-02,3.484507324174046516e-03,1.769147202139720321e-04,3.431804105639457703e-02
-3.172663971781730652e-02,-5.902693793177604675e-02,1.667345017194747925e-01,1.775639504194259644e-01,1.251886188983917236e-01,7.443794608116149902e-02,1.652197092771530151e-01,6.924031674861907959e-02,3.724899142980575562e-02,1.128266006708145142e-01,9.863725304603576660e-02,1.818173564970493317e-02,4.928444046527147293e-03,-1.341886818408966064e-02,1.753653399646282196e-02,-1.882600714452564716e-03,-5.617450457066297531e-03,-1.511227805167436600e-02,-8.396276831626892090e-02,-2.781399339437484741e-02
-6.845648400485515594e-03,-6.681336164474487305e-01,3.214384615421295166e-02,4.567869752645492554e-02,4.267610609531402588e-02,3.089857287704944611e-02,2.452541515231132507e-02,2.322903089225292206e-02,4.566016048192977905e-02,3.535274788737297058e-02,3.403185866773128510e-03,6.387279368937015533e-03,-4.590671509504318237e-03,1.974847167730331421e-02,-3.231320763006806374e-03,-1.576334983110427856e-02,-6.744061131030321121e-03,-4.193879663944244385e-02,1.364066265523433685e-02,-3.403328731656074524e-02
-5.498329177498817444e-02,2.016385197639465332e-01,3.819982409477233887e-01,4.240774810314178467e-01,3.102605938911437988e-01,2.586368024349212646e-01,1.722277253866195679e-01,1.342330724000930786e-01,5.812370404601097107e-02,3.275725245475769043e-02,-3.178286552429199219e-02,-3.000156953930854797e-02,-1.210277900099754333e-01,-1.647408157587051392e-01,-1.659354120492935181e-01,-2.082471549510955811e-01,-2.365157753229141235e-01,-3.247340023517608643e-01,-3.932242393493652344e-01,-4.275254905223846436e-01
-7.312529087066650391e-01,1.485541909933090210e-01,-2.466520294547080994e-02,-4.393791407346725464e-02,-2.745168656110763550e-02,-2.934665791690349579e-02,-3.831223770976066589e-02,-3.307776153087615967e-02,-3.498532995581626892e-02,-4.773421213030815125e-02,-6.653065234422683716e-02,-7.821305096149444580e-02,-5.873029679059982300e-02,-8.378140628337860107e-02,-1.129704415798187256e-01,-1.086857840418815613e-01,-9.377727657556533813e-02,-1.429854333400726318e-01,-1.442973762750625610e-01,-1.374684274196624756e-01
-2.388212680816650391e-01,1.452949047088623047e-01,1.110738366842269897e-01,1.407511383295059204e-01,1.176199391484260559e-01,1.248826980590820312e-01,1.746555864810943604e-01,8.173541724681854248e-02,7.751198112964630127e-02,8.546757698059082031e-02,1.115919202566146851e-01,8.094810694456100464e-02,1.007463261485099792e-01,1.157630011439323425e-01,1.081777811050415039e-01,2.997523173689842224e-02,7.259729504585266113e-02,9.329403936862945557e-02,5.443404987454414368e-02,2.413886599242687225e-02
-2.652356028556823730e-01,2.423221170902252197e-01,-9.988334029912948608e-02,-1.766354292631149292e-01,-1.017118692398071289e-01,-1.392436027526855469e-01,-1.276629567146301270e-01,-1.341692954301834106e-01,-1.739034354686737061e-01,-9.831724315881729126e-02,-1.578195244073867798e-01,-1.423998922109603882e-01,-8.848427236080169678e-02,-1.623644977807998657e-01,-1.353920400142669678e-01,-9.659238159656524658e-02,-1.362666338682174683e-01,-1.609630584716796875e-01,-1.564850062131881714e-01,-1.524874418973922729e-01
-2.655439972877502441e-01,-1.079528406262397766e-01,1.948997825384140015e-01,1.467691361904144287e-01,1.332771480083465576e-01,1.499227881431579590e-01,1.389723122119903564e-01,7.865998893976211548e-02,1.174229905009269714e-01,7.336666435003280640e-02,4.358347132802009583e-02,1.698708347976207733e-02,5.383254960179328918e-02,8.228078484535217285e-02,8.039253205060958862e-02,4.794959351420402527e-02,8.419110625982284546e-02,5.146412551403045654e-02,1.476989500224590302e-02,1.855469681322574615e-02
3.991611767560243607e-03,1.557836532592773438e+00,-4.659993350505828857e-01,-4.299400150775909424e-01,-4.048204421997070312e-01,-3.512075543403625488e-01,-3.220027685165405273e-01,-2.060934156179428101e-01,-2.228757590055465698e-01,-8.662788569927215576e-02,-7.992523908615112305e-02,-1.301008649170398712e-02,-2.350165881216526031e-02,2.198791503906250000e-02,5.336453393101692200e-02,1.039767041802406311e-01,1.107493937015533447e-01,2.011231333017349243e-01,2.678761780261993408e-01,2.570061683654785156e-01
-4.876539856195449829e-02,-5.626740679144859314e-02,-1.662737280130386353e-01,-1.370424330234527588e-01,-1.846304088830947876e-01,-1.469343900680541992e-01,-1.312256604433059692e-01,-1.397416591644287109e-01,-1.566705256700515747e-01,-1.798823922872543335e-01,-1.681569218635559082e-01,-1.647209227085113525e-01,-9.838979691267013550e-02,-1.483526229858398438e-01,-1.772895753383636475e-01,-2.029726356267929077e-01,-1.899704784154891968e-01,-1.793120056390762329e-01,-1.894420087337493896e-01,-1.818543672561645508e-01
