4.002041742205619812e-02,-7.416696101427078247e-02,1.038466095924377441e-01,-1.145966053009033203e-01,1.549720168113708496e-01,1.777054518461227417e-01,1.704238913953304291e-02,-7.814770936965942383e-02,3.000098168849945068e-01,-4.016083180904388428e-01,-5.554377436637878418e-01,1.988648250699043274e-02,2.617009580135345459e-01,2.241582870483398438e-01,2.322019636631011963e-01,1.184154674410820007e-01,-4.979811012744903564e-01,5.045532062649726868e-02,-6.541125178337097168e-01
-1.457442194223403931e-01,-7.247761636972427368e-02,-6.779516488313674927e-02,1.846009194850921631e-01,-6.457430869340896606e-02,-5.092185735702514648e-02,-5.986143276095390320e-02,9.542696923017501831e-02,-9.076664596796035767e-02,-8.714235574007034302e-02,1.673832386732101440e-01,1.687999516725540161e-01,-2.505420446395874023e-01,-2.180095911026000977e-01,1.314100343734025955e-02,-7.556684780865907669e-03,-7.924336008727550507e-03,-6.328149139881134033e-02,1.277121156454086304e-01
-2.093416079878807068e-02,-4.557074606418609619e-02,2.044186182320117950e-02,1.062902510166168213e-01,-6.543159484863281250e-03,-1.748667955398559570e-01,3.177236765623092651e-02,-1.073576509952545166e-01,-7.185629103332757950e-03,2.006263285875320435e-01,-3.746243566274642944e-02,-2.539674043655395508e-01,-8.256521075963973999e-02,-6.484582275152206421e-02,3.274616599082946777e-01,-1.439568251371383667e-01,2.872611284255981445e-01,2.505804039537906647e-02,1.097788289189338684e-01
-4.611572250723838806e-02,1.067486405372619629e-01,-7.226779125630855560e-03,3.277177363634109497e-02,1.530139520764350891e-02,5.758094415068626404e-02,1.805832725949585438e-03,-1.759734302759170532e-01,-2.523233294486999512e-01,8.115040510892868042e-02,7.774245459586381912e-03,5.284100398421287537e-02,1.940598189830780029e-01,9.781017899513244629e-03,5.115657448768615723e-01,-1.855919696390628815e-02,3.950927853584289551e-01,3.260499238967895508e-02,-1.571749523282051086e-02
4.157211259007453918e-02,-1.156414393335580826e-02,7.777315564453601837e-03,5.304375081323087215e-04,9.937638789415359497e-02,-4.608357325196266174e-02,-5.582817271351814270e-02,-1.438079774379730225e-01,-1.981081366539001465e-01,-6.398972123861312866e-02,4.242869094014167786e-02,-2.356922477483749390e-01,-1.204075068235397339e-01,1.995804347097873688e-02,-1.536140143871307373e-01,-5.634101107716560364e-02,-1.140277534723281860e-01,2.120246365666389465e-02,-3.882521018385887146e-02
2.797292917966842651e-02,2.019714415073394775e-01,1.006205081939697266e-01,-1.067782938480377197e-01,2.788296043872833252e-01,3.198806047439575195e-01,1.638900339603424072e-01,1.056413725018501282e-01,1.507781147956848145e-01,-1.615895330905914307e-01,4.680224955081939697e-01,1.177992448210716248e-01,1.139241605997085571e-01,-1.745917946100234985e-01,-5.673012137413024902e-01,6.545908451080322266e-01,-6.874334216117858887e-01,5.210182070732116699e-02,-1.002853736281394958e-02
1.145336255431175232e-01,5.281240865588188171e-02,8.739163726568222046e-02,-1.885553263127803802e-02,2.933985292911529541e-01,2.000136375427246094e-01,6.878291815519332886e-02,1.554323732852935791e-01,1.783136427402496338e-01,1.545741409063339233e-01,-6.194941326975822449e-02,-4.033760130405426025e-01,-1.679932773113250732e-01,-1.420184671878814697e-01,-3.481758534908294678e-01,-4.136479496955871582e-01,2.557987906038761139e-02,-1.335337199270725250e-02,1.624741256237030029e-01
3.969144821166992188e-02,1.050645578652620316e-02,1.692180335521697998e-01,9.417036175727844238e-02,6.641720235347747803e-02,-6.306158006191253662e-02,-2.282531559467315674e-02,6.761121004819869995e-02,1.314748227596282959e-01,-2.018761262297630310e-02,1.303995102643966675e-01,1.022679731249809265e-02,5.615932750515639782e-04,1.033027917146682739e-01,6.594070047140121460e-02,-1.849482357501983643e-01,4.384347796440124512e-01,-9.522102773189544678e-02,-1.554502546787261963e-02
-1.300006806850433350e-01,-1.025802642107009888e-01,-1.447810381650924683e-01,1.356780081987380981e-01,-9.590169787406921387e-02,-1.193832159042358398e-01,1.363790482282638550e-01,-1.630996763706207275e-01,2.980007790029048920e-02,-7.680755853652954102e-02,4.028892144560813904e-02,-8.489639312028884888e-02,-1.590843051671981812e-01,-3.876432031393051147e-02,1.439239364117383957e-02,1.135529130697250366e-01,-7.226104289293289185e-02,-4.020692408084869385e-02,-5.054575577378273010e-02
-2.550048567354679108e-02,-2.951164357364177704e-02,3.198255971074104309e-02,1.848671883344650269e-01,-2.721950039267539978e-02,-7.801229506731033325e-02,-1.103255897760391235e-01,-1.278296671807765961e-02,4.564395931083709002e-04,-8.526135236024856567e-03,1.342329978942871094e-01,-3.270716592669487000e-02,-2.770089805126190186e-01,1.737366430461406708e-03,3.609771132469177246e-01,8.349801599979400635e-02,1.555097848176956177e-01,-1.447616964578628540e-01,-3.804351985454559326e-01
1.836869865655899048e-02,1.459530144929885864e-01,-7.836769334971904755e-03,3.552888706326484680e-02,5.526606924831867218e-03,-9.007460623979568481e-02,1.305405050516128540e-02,-8.010760881006717682e-03,5.225646123290061951e-02,-1.731486618518829346e-01,-8.125630766153335571e-02,4.953559860587120056e-02,-1.468276605010032654e-02,-1.467709392309188843e-01,5.967658385634422302e-02,-1.779377609491348267e-01,-9.432838112115859985e-02,-3.000895380973815918e-01,-1.908075809478759766e-02
4.155464097857475281e-02,1.131070181727409363e-01,4.479830339550971985e-02,-9.153279243037104607e-04,3.379982337355613708e-02,-5.443848669528961182e-02,5.395324528217315674e-02,7.493100315332412720e-02,4.695167243480682373e-01,3.537308890372514725e-03,5.527262389659881592e-02,1.105690523982048035e-01,3.297451511025428772e-02,-1.923418492078781128e-01,3.643782576546072960e-03,2.709452807903289795e-01,-1.487805135548114777e-02,-2.065852843225002289e-02,-1.143067143857479095e-02
4.855056479573249817e-02,-2.761211246252059937e-03,-5.688010714948177338e-03,8.080604672431945801e-02,-3.859686851501464844e-02,-1.474531590938568115e-01,3.001233004033565521e-02,-5.602532625198364258e-02,-8.971656113862991333e-02,-1.573358774185180664e-01,9.589688479900360107e-02,2.854305207729339600e-01,1.619503460824489594e-02,-2.609340846538543701e-02,-2.552041411399841309e-01,1.705519109964370728e-01,-2.351840287446975708e-01,7.360992580652236938e-02,1.522399950772523880e-02
1.619665175676345825e-01,-5.091718398034572601e-03,5.523480847477912903e-02,-1.707959361374378204e-02,-8.164297789335250854e-03,1.016619950532913208e-01,-1.597271114587783813e-02,-1.569457724690437317e-02,-9.124387986958026886e-03,-1.077643930912017822e-01,-3.473152592778205872e-02,-1.129999309778213501e-01,-3.042248636484146118e-02,-1.102487593889236450e-01,-2.703071236610412598e-01,5.311909317970275879e-02,-1.344555914402008057e-01,2.481843084096908569e-01,-7.435043342411518097e-03
-2.939661405980587006e-02,6.168841198086738586e-02,8.682834915816783905e-03,9.896205365657806396e-02,9.950602054595947266e-02,2.335858158767223358e-02,1.410697698593139648e-01,1.000686138868331909e-01,7.003231346607208252e-02,1.467622071504592896e-01,1.440250780433416367e-02,8.719360455870628357e-03,-8.760777860879898071e-02,-1.056815981864929199e-01,-8.277829736471176147e-02,-8.227553218603134155e-02,3.374205827713012695e-01,1.802350976504385471e-03,2.397479303181171417e-02
6.414730846881866455e-02,-2.070031873881816864e-02,1.607374101877212524e-02,1.711027622222900391e-01,-1.161385886371135712e-02,-7.151407748460769653e-02,7.329361140727996826e-02,-1.104939132928848267e-01,-3.881738185882568359e-01,2.755026221275329590e-01,-3.388301935046911240e-03,-7.710492610931396484e-02,-2.675348818302154541e-01,-4.060598611831665039e-01,2.653845958411693573e-02,2.496399171650409698e-02,-3.548558801412582397e-02,2.453873008489608765e-01,1.047482527792453766e-02
-9.199774265289306641e-02,-2.850489020347595215e-01,-2.835455536842346191e-01,-8.668963611125946045e-02,-8.508338779211044312e-02,-2.639613747596740723e-01,-3.060399293899536133e-01,-1.541808843612670898e-01,-6.164018437266349792e-02,-6.442856974899768829e-03,-4.829354584217071533e-02,-1.735040098428726196e-01,3.735229745507240295e-02,1.637623608112335205e-01,6.429571658372879028e-02,2.064843922853469849e-01,-1.346911191940307617e-01,-7.674366235733032227e-02,1.530811074189841747e-03
-1.512651294469833374e-01,-2.750582993030548096e-01,-2.616122961044311523e-01,3.298721611499786377e-01,-3.124979734420776367e-01,-3.952080905437469482e-01,-3.611359596252441406e-01,-6.245470643043518066e-01,-4.752062633633613586e-02,-6.317821890115737915e-02,-6.551927328109741211e-01,-9.642822146415710449e-01,-1.874102950096130371e-01,-3.497189879417419434e-01,-1.163339391350746155e-01,-1.280249953269958496e+00,5.899661779403686523e-01,-2.924114838242530823e-02,1.434943526983261108e-01
-7.947964221239089966e-02,-2.724497616291046143e-01,-1.207978799939155579e-01,-5.747201852500438690e-03,-7.392586022615432739e-02,-1.005750074982643127e-01,9.058584272861480713e-02,-2.230860441923141479e-01,3.038760423660278320e-01,-6.916879415512084961e-01,-4.863985478878021240e-01,-4.973927140235900879e-01,-4.188948273658752441e-01,-6.611194610595703125e-01,-1.194296717643737793e+00,6.397644877433776855e-01,-8.186126947402954102e-01,-5.974518135190010071e-02,2.082340233027935028e-02
3.592004254460334778e-02,-8.420136757194995880e-03,4.852321371436119080e-02,2.267688140273094177e-02,2.176195196807384491e-02,-2.504174709320068359e-01,2.509367465972900391e-02,-3.800379037857055664e-01,3.951163589954376221e-02,-4.997445344924926758e-01,-4.760351479053497314e-01,1.825325540266931057e-03,-2.778512239456176758e-01,-1.611716002225875854e-01,-7.792358100414276123e-02,-4.250256717205047607e-01,-3.634941577911376953e-01,7.256423123180866241e-03,2.834350161720067263e-04
1.123363524675369263e-01,6.463292054831981659e-03,9.491413831710815430e-02,1.458811461925506592e-01,9.565304964780807495e-02,5.437956377863883972e-02,1.156866177916526794e-01,2.482257485389709473e-01,-1.418339759111404419e-01,-2.365334704518318176e-02,2.168164104223251343e-01,2.403946816921234131e-01,-5.689385160803794861e-02,-6.000473164021968842e-03,6.539399921894073486e-02,3.584831357002258301e-01,1.393513530492782593e-01,-6.751027703285217285e-02,3.536017145961523056e-03
-9.835970588028430939e-03,-9.872928261756896973e-02,-8.244497328996658325e-02,9.830708801746368408e-02,1.914475113153457642e-02,1.228391192853450775e-02,3.181859850883483887e-02,-5.464671645313501358e-03,7.739677093923091888e-03,2.393797636032104492e-01,3.292364478111267090e-01,-2.675736844539642334e-01,-3.821232542395591736e-02,2.692773751914501190e-02,1.125797703862190247e-01,-3.056409396231174469e-02,1.523393392562866211e-01,-1.067334134131669998e-02,7.333041727542877197e-02
5.564552545547485352e-02,1.012225151062011719e-01,-1.228386815637350082e-02,1.544869989156723022e-01,4.778658598661422729e-02,1.134994849562644958e-01,2.982311137020587921e-02,-8.107326924800872803e-02,-3.706560134887695312e-01,6.375572085380554199e-02,1.479646861553192139e-01,3.951343521475791931e-02,1.084761619567871094e-01,2.562907636165618896e-01,4.106020629405975342e-01,6.865699589252471924e-02,3.588179945945739746e-01,5.249908193945884705e-02,-4.913488030433654785e-02
1.997978426516056061e-03,-3.118381090462207794e-02,-3.237013518810272217e-02,8.096802979707717896e-02,-8.220829069614410400e-03,1.659379899501800537e-01,4.358598217368125916e-02,-8.084048330783843994e-02,-8.900730311870574951e-02,1.919772848486900330e-02,1.477034240961074829e-01,-1.646464876830577850e-02,-2.396962046623229980e-01,-6.979650259017944336e-02,-2.823652029037475586e-01,1.124690473079681396e-01,-4.737177863717079163e-02,6.441085040569305420e-02,-1.084000170230865479e-01
4.358913004398345947e-02,9.253963083028793335e-02,-2.407422289252281189e-02,-1.630137711763381958e-01,8.199069648981094360e-02,2.939925789833068848e-01,2.882013618946075439e-01,7.054079324007034302e-02,-6.211827322840690613e-02,-1.839006394147872925e-01,3.072397708892822266e-01,-8.248024433851242065e-02,7.987666130065917969e-02,6.121810898184776306e-02,-7.601181417703628540e-02,6.806665062904357910e-01,-5.920704603195190430e-01,-2.663586661219596863e-02,-9.211724251508712769e-02
3.620709851384162903e-02,1.727810502052307129e-01,4.093319922685623169e-02,-5.557979922741651535e-03,-3.659003376960754395e-01,6.565772742033004761e-02,1.546788513660430908e-01,-2.628687024116516113e-01,1.101442947983741760e-01,-4.076381027698516846e-02,-1.366154700517654419e-01,-2.293631136417388916e-01,-7.984729409217834473e-01,-3.504168391227722168e-01,-1.089886724948883057e-01,-6.868460178375244141e-01,4.030113294720649719e-02,1.150671858340501785e-02,3.659649193286895752e-02
1.778943091630935669e-02,1.606365665793418884e-02,1.412798464298248291e-01,1.565309166908264160e-01,2.494869567453861237e-02,-1.107879951596260071e-01,-3.590780124068260193e-02,1.116135641932487488e-01,1.098929792642593384e-01,7.643231004476547241e-02,4.189445078372955322e-02,-8.291473239660263062e-02,-1.795166544616222382e-02,1.435710638761520386e-01,1.234449818730354309e-01,-2.031474262475967407e-01,6.962560415267944336e-01,6.405242532491683960e-02,-1.384175419807434082e-01
7.636515051126480103e-02,-3.119587153196334839e-02,-5.060170218348503113e-02,1.339172273874282837e-01,4.562117904424667358e-02,2.618901804089546204e-02,2.631688117980957031e-01,-4.359367117285728455e-02,2.566948235034942627e-01,1.281324774026870728e-01,2.157782465219497681e-01,-1.125535219907760620e-01,1.219981908798217773e-01,3.081040084362030029e-01,8.420768380165100098e-02,2.880694270133972168e-01,-2.117077857255935669e-01,3.910445049405097961e-02,-2.630875073373317719e-02
1.205339748412370682e-02,-9.839412756264209747e-03,1.622975319623947144e-01,1.643121540546417236e-01,9.352198988199234009e-02,2.725882083177566528e-02,9.638321399688720703e-02,8.656713366508483887e-02,-6.188400462269783020e-02,-1.859940439462661743e-01,-2.382061779499053955e-01,4.265923425555229187e-02,-1.133940517902374268e-01,1.802785694599151611e-01,6.723675131797790527e-01,6.366813182830810547e-02,2.259267568588256836e-01,6.382863223552703857e-02,-4.255021810531616211e-01
7.624052464962005615e-02,2.141511738300323486e-01,-5.301697179675102234e-03,2.357013076543807983e-01,1.939092427492141724e-01,-1.937426161020994186e-03,6.972993165254592896e-02,-3.415008308365941048e-03,2.375645637512207031e-01,-5.240957066416740417e-02,4.417826235294342041e-02,1.371851414442062378e-01,1.806664466857910156e-01,-2.003160491585731506e-02,1.187442466616630554e-01,-5.133616179227828979e-02,2.022685483098030090e-02,6.606949865818023682e-02,-1.119872182607650757e-02
-2.462961710989475250e-02,-4.851993639022111893e-03,8.140844106674194336e-02,6.662505865097045898e-02,-9.138585627079010010e-02,-1.551202684640884399e-01,4.630487412214279175e-02,1.017236709594726562e-01,5.598182678222656250e-01,-5.347379297018051147e-02,-1.999359428882598877e-01,4.434970393776893616e-02,1.636721193790435791e-02,7.553056348115205765e-03,1.167822107672691345e-01,2.845985889434814453e-01,2.999401884153485298e-03,1.047575324773788452e-01,-3.188130632042884827e-02
-4.746086895465850830e-03,1.279193311929702759e-01,6.011150777339935303e-02,1.177782192826271057e-01,-4.729098454117774963e-02,-2.629385329782962799e-02,4.894953593611717224e-02,-1.316594332456588745e-01,-1.557875424623489380e-01,4.532933607697486877e-02,2.949900627136230469e-01,3.974133133888244629e-01,8.180705457925796509e-02,-5.856955796480178833e-02,-6.172565743327140808e-02,1.545265167951583862e-01,-2.074450552463531494e-01,6.826110184192657471e-02,2.396997213363647461e-01
-3.292789682745933533e-03,-9.616240113973617554e-02,-2.709286659955978394e-02,-2.152510918676853180e-02,-1.473832875490188599e-02,1.829569488763809204e-01,-1.169454492628574371e-02,-1.093736961483955383e-01,9.362733364105224609e-02,-4.936018958687782288e-02,1.019086193991824985e-04,-9.805046021938323975e-02,7.505723834037780762e-02,2.416613250970840454e-01,2.396217882633209229e-01,7.161618769168853760e-02,-2.925172448158264160e-02,-9.956788271665573120e-02,2.437072098255157471e-01
-5.312201566994190216e-03,1.306136325001716614e-02,-3.134769946336746216e-02,1.262192875146865845e-01,3.176442906260490417e-02,9.186493232846260071e-03,1.388194561004638672e-01,1.671388596296310425e-01,-2.553866943344473839e-03,1.232395097613334656e-01,5.019986629486083984e-02,-1.337124849669635296e-03,-5.774892494082450867e-02,-9.220711886882781982e-02,-5.925646051764488220e-02,-1.199922189116477966e-01,1.104831397533416748e-01,8.200386166572570801e-02,3.023959323763847351e-02
-5.308464169502258301e-02,-2.214187569916248322e-02,8.553661406040191650e-03,6.487673521041870117e-02,-4.787337034940719604e-02,-1.148284506052732468e-02,6.893707066774368286e-02,-1.936623007059097290e-01,-8.794387429952621460e-02,1.427312493324279785e-01,-2.634281814098358154e-01,-3.379245996475219727e-01,2.199605479836463928e-02,-5.989244673401117325e-04,2.371246926486492157e-02,9.606957435607910156e-02,-1.366534531116485596e-01,-1.443718671798706055e-01,1.231330726295709610e-02
1.473423987627029419e-01,3.031041622161865234e-01,5.778741091489791870e-02,4.388461410999298096e-01,4.451682269573211670e-01,1.592095941305160522e-01,1.476083695888519287e-01,-2.309360653162002563e-01,3.565797805786132812e-01,1.640661358833312988e-01,9.050762653350830078e-02,7.190151512622833252e-02,7.556914538145065308e-02,8.027359098196029663e-02,3.406161442399024963e-02,3.072056770324707031e-01,1.966208219528198242e-03,2.242996543645858765e-01,-3.079788759350776672e-03
6.153902783989906311e-02,2.229364123195409775e-03,1.644398421049118042e-01,6.002888455986976624e-02,1.983822435140609741e-01,-1.148118521086871624e-03,3.026172220706939697e-01,-3.095042891800403595e-02,-1.063079237937927246e-01,2.599292695522308350e-01,6.281568109989166260e-02,-1.548569500446319580e-01,2.777566909790039062e-01,-2.737300936132669449e-03,-4.158955216407775879e-01,5.317335724830627441e-01,2.391743212938308716e-01,5.402650311589241028e-02,8.736945688724517822e-02
7.952453941106796265e-02,-1.749450266361236572e-01,2.667367225512862206e-04,5.610080361366271973e-01,1.751262396574020386e-01,7.658602297306060791e-02,6.739652752876281738e-01,-6.600292772054672241e-02,1.512351334095001221e-01,-2.719594538211822510e-02,1.349472403526306152e-01,-2.975777685642242432e-01,1.458873152732849121e-01,-4.068052023649215698e-02,-2.180092930793762207e-01,4.989637434482574463e-01,3.710931539535522461e-01,1.699796877801418304e-02,6.771304458379745483e-02
-1.330765802413225174e-02,7.631222158670425415e-02,-1.753335297107696533e-01,1.036109589040279388e-02,6.772323697805404663e-02,-5.333425477147102356e-02,-5.404772982001304626e-02,1.461567431688308716e-01,-4.412122443318367004e-02,4.454293847084045410e-02,-1.172415241599082947e-01,4.433305934071540833e-02,2.858852781355381012e-02,2.268047817051410675e-02,3.326087892055511475e-01,1.004303768277168274e-01,2.903459072113037109e-01,1.381288375705480576e-02,6.255751132965087891e+00
2.371345274150371552e-02,-1.405788958072662354e-02,-5.778327211737632751e-02,5.415789783000946045e-02,-1.194456517696380615e-01,-1.100933551788330078e-01,1.786495558917522430e-02,2.348040789365768433e-01,-4.482933320105075836e-03,-6.084445118904113770e-02,6.360113620758056641e-02,3.497806787490844727e-01,4.382892251014709473e-01,-4.382201656699180603e-02,-4.467152804136276245e-02,6.416437029838562012e-02,-1.054347828030586243e-01,-6.391885876655578613e-02,5.369683504104614258e-01
6.473160814493894577e-03,4.771545156836509705e-02,-3.840775042772293091e-02,2.250804007053375244e-02,7.492794189602136612e-03,1.455562114715576172e-01,-9.038098156452178955e-02,-1.070234738290309906e-02,-1.718986593186855316e-02,9.128603339195251465e-02,-1.456998586654663086e-01,9.522001445293426514e-02,2.875591255724430084e-02,8.510803803801536560e-03,2.127766907215118408e-01,5.955322831869125366e-02,1.364248394966125488e-01,9.836291894316673279e-03,8.194018602371215820e-01
1.850891043432056904e-03,-7.409416139125823975e-02,-2.180686406791210175e-02,1.653307303786277771e-02,1.374874822795391083e-02,-1.537764444947242737e-02,5.233947932720184326e-02,-1.055698245763778687e-01,-6.020568311214447021e-02,-8.179241791367530823e-03,2.236815989017486572e-01,-2.019878774881362915e-01,-2.356894910335540771e-01,2.107641249895095825e-01,-2.646965682506561279e-01,-1.532566100358963013e-01,-2.387841790914535522e-01,-1.402788516134023666e-02,1.095361948013305664e+00
2.441369928419589996e-02,6.161958351731300354e-02,-1.197841390967369080e-01,-3.943144530057907104e-02,1.260836329311132431e-02,1.668298617005348206e-02,-4.629835113883018494e-02,-7.510589808225631714e-02,9.145202487707138062e-02,6.385593209415674210e-03,5.003800392150878906e-01,2.528651356697082520e-01,-2.126054167747497559e-01,-3.176462054252624512e-01,2.435130998492240906e-03,6.817852146923542023e-03,-8.290900290012359619e-02,-2.839503809809684753e-02,1.058031439781188965e+00
4.845203075092285872e-04,-1.757441461086273193e-02,1.691974699497222900e-01,5.227946862578392029e-02,-5.831146612763404846e-02,9.065841138362884521e-02,1.066595390439033508e-01,1.007832121104001999e-02,4.373190179467201233e-02,-1.061384826898574829e-01,9.879782050848007202e-02,2.675716578960418701e-01,1.847321353852748871e-02,-2.274736762046813965e-02,-1.093065857887268066e+00,-1.453809719532728195e-02,-6.314502954483032227e-01,6.959891412407159805e-03,-1.189275145530700684e+00
8.262192714028060436e-04,2.498982066754251719e-04,4.323026537895202637e-02,3.215260803699493408e-03,5.323559045791625977e-02,7.499606162309646606e-02,-5.665666237473487854e-02,3.391836211085319519e-02,-2.459330484271049500e-02,2.964614331722259521e-02,1.748409122228622437e-01,-1.132032871246337891e-01,-7.055419683456420898e-02,-2.218756973743438721e-01,6.308823823928833008e-02,-1.261038035154342651e-01,1.065345481038093567e-01,1.003590691834688187e-02,-5.828949928283691406e+00
1.678322814404964447e-02,-1.646309494972229004e-01,-6.713531911373138428e-02,1.387082599103450775e-02,-2.257108129560947418e-02,3.121960908174514771e-02,3.841011598706245422e-02,-2.516544610261917114e-02,4.430790990591049194e-02,-8.768227696418762207e-02,-5.609634146094322205e-02,5.391099676489830017e-02,2.588351070880889893e-02,-5.714614316821098328e-02,-3.281162381172180176e-01,4.998959600925445557e-02,-3.715863525867462158e-01,6.266658008098602295e-02,-4.839523434638977051e-01
-1.768678613007068634e-02,-1.576000601053237915e-01,4.293994046747684479e-03,-7.197367399930953979e-02,-1.151540875434875488e-01,-5.487855151295661926e-02,-4.690582677721977234e-02,9.007887542247772217e-02,6.717391312122344971e-02,2.929079532623291016e-02,-7.985322922468185425e-02,-1.374071240425109863e-01,1.843564212322235107e-02,7.320277392864227295e-02,2.605167925357818604e-01,3.464687324594706297e-04,-3.904158249497413635e-02,-1.280694454908370972e-01,2.029231935739517212e-01
9.281882084906101227e-03,4.965940117835998535e-02,1.973286457359790802e-02,-6.218470167368650436e-03,2.159275300800800323e-02,2.705010212957859039e-02,1.011756584048271179e-01,1.330868303775787354e-01,-1.851671375334262848e-02,-1.532620787620544434e-01,-1.715841889381408691e-01,1.207427829504013062e-01,3.987868130207061768e-01,-6.822670996189117432e-02,2.901352047920227051e-01,9.307052940130233765e-02,1.458923220634460449e-01,-3.431113436818122864e-02,-1.446267127990722656e+00
4.619038477540016174e-02,1.259754505008459091e-02,5.189356580376625061e-02,5.946479365229606628e-02,-1.096580252051353455e-01,-1.702433079481124878e-01,1.291919946670532227e-01,-7.256222516298294067e-02,4.349149018526077271e-02,1.929629035294055939e-02,-2.666321210563182831e-02,-6.487949192523956299e-02,4.183278977870941162e-02,-1.707471965346485376e-04,2.226660102605819702e-01,-9.029127657413482666e-02,2.710471749305725098e-01,-7.345443591475486755e-03,-2.952997982501983643e-01
2.651158906519412994e-02,-4.032389074563980103e-02,4.360321909189224243e-02,-7.767276465892791748e-02,8.596232533454895020e-02,-8.210700750350952148e-02,1.634819507598876953e-01,1.409515589475631714e-01,1.934369094669818878e-02,3.471703454852104187e-02,-2.025662362575531006e-01,-2.346854656934738159e-01,-1.166115999221801758e-01,1.391608417034149170e-01,-1.731700450181961060e-01,-2.426846176385879517e-01,2.668724358081817627e-01,9.491462260484695435e-03,1.456327080726623535e+00
8.285584859549999237e-03,-1.153286360204219818e-02,1.280381530523300171e-02,-3.156723827123641968e-02,7.297344505786895752e-02,1.327646672725677490e-01,2.697910740971565247e-02,-1.023906990885734558e-01,1.463863253593444824e-02,8.733034878969192505e-02,-2.013604193925857544e-01,-3.131406605243682861e-01,-8.651812374591827393e-02,1.102488860487937927e-01,-2.945087254047393799e-01,-1.806049197912216187e-01,-1.994815617799758911e-01,3.554977104067802429e-02,7.638506293296813965e-01
2.401547692716121674e-02,9.688621014356613159e-02,-6.100331619381904602e-02,5.367991328239440918e-02,1.289176475256681442e-02,1.320480704307556152e-01,-1.126932427287101746e-01,-4.029149562120437622e-02,-6.570285558700561523e-02,6.546702235937118530e-03,-1.223925873637199402e-01,-2.557089552283287048e-02,1.162762865424156189e-01,2.098563462495803833e-01,-4.947126209735870361e-01,1.731133647263050079e-02,-1.372881531715393066e-01,-7.468581199645996094e-02,-1.223258450627326965e-01
-5.546092242002487183e-02,2.759442664682865143e-02,1.149079799652099609e-01,-4.054998233914375305e-02,8.564531803131103516e-02,8.503932505846023560e-02,8.769650943577289581e-03,2.185432314872741699e-01,-1.546109616756439209e-01,6.378517299890518188e-02,5.046477541327476501e-02,4.140006378293037415e-02,-1.748324334621429443e-01,6.823243200778961182e-02,3.148599267005920410e-01,-2.924448251724243164e-01,2.167683541774749756e-01,1.237704828381538391e-01,2.292286902666091919e-01
-1.349605340510606766e-02,6.821214407682418823e-02,-1.720946468412876129e-02,-1.066054925322532654e-01,3.617233037948608398e-02,-5.196863785386085510e-02,-8.642612397670745850e-02,1.141155138611793518e-01,-2.104081958532333374e-02,-1.376876682043075562e-01,1.057666018605232239e-01,5.816789716482162476e-02,-3.024419210851192474e-02,3.642847388982772827e-02,-6.850669533014297485e-02,1.101956889033317566e-01,-6.070081517100334167e-02,8.425625041127204895e-03,2.482747793197631836e+00
1.246263086795806885e-02,-2.832262963056564331e-02,-9.644843637943267822e-02,-3.582849204540252686e-01,-3.782989382743835449e-01,-3.774662734940648079e-03,-3.644848763942718506e-01,-2.940975725650787354e-01,4.327451437711715698e-02,1.205805875360965729e-02,-8.471649140119552612e-02,-4.248448088765144348e-02,-4.035687819123268127e-02,-6.588055193424224854e-02,1.523298174142837524e-01,7.930692285299301147e-02,4.633624851703643799e-02,9.137298911809921265e-02,-2.356952130794525146e-01
-2.191219944506883621e-03,-6.845954922027885914e-04,-1.222995221614837646e-01,1.593302004039287567e-02,-1.512008160352706909e-02,-1.704388856887817383e-02,3.694462776184082031e-02,1.923183538019657135e-02,-2.459617890417575836e-02,8.502876758575439453e-02,4.921541735529899597e-02,2.123574167490005493e-02,-1.737371981143951416e-01,3.920633345842361450e-02,-1.075830534100532532e-01,-1.067191734910011292e-01,9.710693359375000000e-02,-4.591689445078372955e-03,3.657876968383789062e+00
1.584366708993911743e-02,6.512891501188278198e-02,-1.463792622089385986e-01,-2.908819122239947319e-03,4.196551814675331116e-02,1.243954375386238098e-01,-3.078913874924182892e-02,-3.706917539238929749e-02,-1.400291323661804199e-01,9.400343894958496094e-02,-2.455296367406845093e-02,-1.209621876478195190e-01,-4.639730602502822876e-02,-7.354014366865158081e-02,2.869674265384674072e-01,-1.694702655076980591e-01,-1.298789530992507935e-01,-9.138873778283596039e-03,2.203231573104858398e+00
4.832903146743774414e-01,3.937262296676635742e-02,1.794534362852573395e-02,-1.487569999881088734e-03,8.988492190837860107e-02,1.585293561220169067e-02,3.076205588877201080e-02,3.221202641725540161e-04,3.964116051793098450e-02,2.793693840503692627e-01,1.109900921583175659e-01,9.943087399005889893e-02,2.145952433347702026e-01,2.437386363744735718e-01,7.112185657024383545e-02,2.094382941722869873e-01,1.876163482666015625e-01,2.880193479359149933e-02,6.853499799035489559e-04
1.386847794055938721e-01,5.508182197809219360e-02,2.738889120519161224e-02,-5.477938801050186157e-03,1.548856198787689209e-01,2.869104268029332161e-03,6.771467626094818115e-02,5.181335657835006714e-02,-6.425832863897085190e-03,2.344387210905551910e-02,6.324388980865478516e-01,2.908002436161041260e-01,-7.773946970701217651e-02,2.110522426664829254e-02,-2.328234314918518066e-01,1.892987787723541260e-01,-2.689014077186584473e-01,1.058088243007659912e-02,4.016004968434572220e-03
7.093758881092071533e-02,3.392651677131652832e-02,3.313640831038355827e-03,1.155998706817626953e-01,1.698050051927566528e-01,-7.317555695772171021e-02,6.679295003414154053e-02,4.455292597413063049e-02,7.557668536901473999e-02,4.615966379642486572e-01,4.056217670440673828e-01,3.136108443140983582e-02,-1.477315872907638550e-01,-1.951154768466949463e-01,9.987057745456695557e-02,-9.926205873489379883e-02,3.132071793079376221e-01,6.134832650423049927e-02,1.202947460114955902e-02
1.214028447866439819e-01,1.051546335220336914e-01,-2.834166772663593292e-02,2.690713405609130859e-01,-1.488130539655685425e-02,7.790679484605789185e-02,1.417861692607402802e-02,-4.912469536066055298e-02,-3.446879982948303223e-01,9.005308896303176880e-02,8.392901159822940826e-03,-1.315106153488159180e-01,-1.594735682010650635e-02,1.763163506984710693e-01,1.246645674109458923e-01,-5.465997382998466492e-02,3.347237706184387207e-01,1.724058762192726135e-02,-1.298317462205886841e-01
4.713029786944389343e-02,-1.651934813708066940e-03,1.804034342058002949e-03,-5.229970905929803848e-03,1.533736884593963623e-01,1.109526841901242733e-03,1.139569878578186035e-01,-1.368940174579620361e-01,-6.355958431959152222e-02,6.611037254333496094e-02,2.844447791576385498e-01,1.341514438390731812e-01,2.221828792244195938e-03,1.707008630037307739e-01,-9.715634584426879883e-02,1.565892100334167480e-01,-1.098215654492378235e-01,-3.961706161499023438e-02,-6.768236053176224232e-04
1.009679362177848816e-01,1.514828354120254517e-01,3.803326934576034546e-02,3.091287426650524139e-02,2.815156579017639160e-01,2.791251242160797119e-01,1.853868514299392700e-01,5.505522713065147400e-02,6.605535745620727539e-02,-4.162619709968566895e-01,-7.099824398756027222e-02,5.471587926149368286e-02,2.559910416603088379e-01,1.098383665084838867e-01,-5.095076560974121094e-01,7.566643953323364258e-01,-1.007974982261657715e+00,1.473786681890487671e-01,-1.198524609208106995e-02
5.340073704719543457e-01,1.838973723351955414e-02,-2.707072906196117401e-02,-7.113890632126640412e-08,-2.531567402184009552e-02,3.692517578601837158e-01,8.150814473628997803e-02,-4.748749304894772649e-08,7.012333255261182785e-03,2.404801547527313232e-01,1.775972247123718262e-01,1.027169823646545410e-01,-5.308461934328079224e-02,-1.406901143491268158e-02,-1.387051790952682495e-01,2.625613845884799957e-02,-1.353804022073745728e-02,1.110113933682441711e-01,3.971889964304864407e-04
-4.150700941681861877e-02,1.044884547591209412e-01,1.203666701912879944e-01,1.543994396924972534e-01,1.851774752140045166e-01,8.011031895875930786e-02,7.412162423133850098e-02,7.235532160848379135e-03,2.136129140853881836e-01,3.529029339551925659e-02,7.950823754072189331e-02,-1.671844394877552986e-03,-1.754370704293251038e-02,3.372540771961212158e-01,2.620972096920013428e-01,-4.644269123673439026e-02,4.779404699802398682e-01,-2.388492040336132050e-02,5.164757370948791504e-03
-2.139452286064624786e-02,-1.718936711549758911e-01,-1.135948672890663147e-01,1.104740872979164124e-01,-1.708127930760383606e-02,-9.702368080615997314e-02,1.503134965896606445e-01,-3.967121988534927368e-02,-9.964017570018768311e-02,4.081480577588081360e-02,9.302330762147903442e-02,-9.082692861557006836e-02,-8.033075183629989624e-02,-2.046166732907295227e-02,1.129836514592170715e-01,3.013948500156402588e-01,-3.818912804126739502e-02,4.088365007191896439e-03,-1.509171165525913239e-02
5.922838300466537476e-02,7.725232094526290894e-02,2.630035020411014557e-02,1.964440010488033295e-02,7.871565222740173340e-02,2.113064527511596680e-01,1.255428511649370193e-02,7.688864716328680515e-04,1.968310922384262085e-01,-4.646766558289527893e-02,-1.686366200447082520e-01,1.880454458296298981e-02,1.548877507448196411e-01,2.867208123207092285e-01,8.869791030883789062e-02,5.012522935867309570e-01,2.537422478199005127e-01,-9.945645928382873535e-02,1.464920933358371258e-03
-8.884976804256439209e-02,-8.877181261777877808e-02,1.173608819954097271e-03,-2.198235504329204559e-02,-1.914158016443252563e-01,-1.212856397032737732e-01,-2.684237621724605560e-02,6.778021156787872314e-02,1.313389688730239868e-01,2.674240171909332275e-01,2.258915081620216370e-02,-1.872579902410507202e-01,3.509591817855834961e-01,3.385996520519256592e-01,1.884494721889495850e-01,-2.911410629749298096e-01,8.648234605789184570e-02,-6.397457420825958252e-02,2.099663484841585159e-03
1.131336111575365067e-02,-1.056667533703148365e-03,1.484446600079536438e-02,-4.070303475600667298e-06,1.814265921711921692e-02,-2.663584309630095959e-04,1.746555417776107788e-02,7.659971714019775391e-02,5.193023681640625000e-01,3.616583049297332764e-01,6.463913321495056152e-01,2.675823271274566650e-01,4.905523732304573059e-02,-8.384092897176742554e-02,-1.281751543283462524e-01,3.154907524585723877e-01,1.543210744857788086e-01,-1.035917922854423523e-01,-4.910406190901994705e-03
3.230503760278224945e-03,1.808383911848068237e-01,5.744997039437294006e-02,-1.923089921474456787e-01,2.387439012527465820e-01,6.487157195806503296e-02,1.541399061679840088e-01,3.549072518944740295e-02,-4.590247292071580887e-03,-4.063841700553894043e-02,1.314286142587661743e-01,3.063203096389770508e-01,5.213074088096618652e-01,7.831578850746154785e-01,4.600677788257598877e-01,2.784100174903869629e-01,-1.649450361728668213e-01,-1.070497650653123856e-02,-1.498176604509353638e-01
-6.560364365577697754e-02,-1.332507878541946411e-01,-2.446221746504306793e-02,1.116673722863197327e-01,6.918448209762573242e-02,3.517152667045593262e-01,5.279722809791564941e-02,1.178812012076377869e-01,2.019788080360740423e-04,-7.283896207809448242e-03,1.154878661036491394e-01,-1.045506969094276428e-01,5.403392761945724487e-02,6.915804743766784668e-02,-9.355699270963668823e-02,-1.118593439459800720e-01,-2.919589281082153320e-01,3.323338925838470459e-01,1.310711205005645752e-01
3.608135133981704712e-02,3.849355131387710571e-02,-4.876855760812759399e-02,-5.737623199820518494e-03,-1.754643321037292480e-01,-2.353069931268692017e-02,2.057984471321105957e-01,1.068070679903030396e-01,2.954588644206523895e-02,3.846248984336853027e-01,2.129614055156707764e-01,5.396630614995956421e-02,-7.462625857442617416e-03,-2.992395777255296707e-03,-1.762767285108566284e-01,-4.147110041230916977e-03,3.445021510124206543e-01,-1.000363454222679138e-01,5.807265988551080227e-04
2.520531415939331055e-01,-1.017752569168806076e-03,1.526295673102140427e-02,-4.912276193499565125e-02,1.348108947277069092e-01,-3.315046196803450584e-03,5.701653286814689636e-02,9.832774288952350616e-03,-7.511863857507705688e-02,6.711471825838088989e-02,-1.462549529969692230e-02,4.509660229086875916e-02,-3.339143842458724976e-02,-9.293683618307113647e-02,8.313598809763789177e-04,1.865272372961044312e-01,-2.016856893897056580e-02,-2.169348001480102539e-01,1.013572514057159424e-02
3.193236142396926880e-02,6.695883721113204956e-02,-7.608013600111007690e-02,3.060589730739593506e-01,-3.265741094946861267e-02,-1.408719867467880249e-01,-3.989214450120925903e-02,-4.134022593498229980e-01,1.647740453481674194e-01,-5.026218295097351074e-02,-2.928628958761692047e-02,-1.049096584320068359e-01,-1.537624448537826538e-01,-2.690081596374511719e-01,2.090279608964920044e-01,8.009872585535049438e-02,3.257149457931518555e-02,-5.394147709012031555e-02,-7.158047053962945938e-03
5.930785089731216431e-02,8.854927495121955872e-03,8.637201786041259766e-02,-3.493112921714782715e-01,1.845687180757522583e-01,-7.823616266250610352e-03,8.412282913923263550e-02,4.885196685791015625e-03,7.025946862995624542e-03,2.546899616718292236e-01,1.030440926551818848e-01,4.603418335318565369e-02,1.257573366165161133e-01,-2.130754142999649048e-01,-2.535427734255790710e-02,-5.470619201660156250e-01,-1.199657246470451355e-01,-3.665486816316843033e-03,7.700379490852355957e-01
-5.447197239845991135e-03,-1.757026165723800659e-01,-1.305033862590789795e-01,3.224468231201171875e-02,1.482821851968765259e-01,-7.495322078466415405e-02,2.588042616844177246e-01,-8.072522282600402832e-02,1.129114702343940735e-01,-5.140216350555419922e-01,-8.416837453842163086e-02,-1.449356079101562500e-01,6.891253590583801270e-02,-3.833566606044769287e-02,4.364498257637023926e-01,2.900269329547882080e-01,-2.064501792192459106e-01,5.263411439955234528e-04,1.071708127856254578e-01
