-2.799598500132560730e-02,1.088005024939775467e-03,2.775644138455390930e-02,3.083974355831742287e-03,-1.553470082581043243e-02,-1.525033265352249146e-02,-2.883037785068154335e-03,-3.314468264579772949e-02,-2.326507680118083954e-02,-2.517136558890342712e-02,-2.292141504585742950e-02,-1.144777983427047729e-02,3.626591293141245842e-03,2.833430841565132141e-02,6.081203900976106524e-05,1.423959853127598763e-03
1.277357991784811020e-02,5.213947501033544540e-03,-3.081599948927760124e-03,-3.708436852321028709e-03,5.493366159498691559e-03,-1.040825340896844864e-02,-3.974911756813526154e-03,4.745666403323411942e-03,-8.564790710806846619e-03,-1.027987711131572723e-02,2.142513636499643326e-03,5.709927529096603394e-03,1.112460624426603317e-02,3.644117619842290878e-03,-1.348436530679464340e-02,-6.711346097290515900e-03
-6.878588199615478516e-01,1.235946789383888245e-01,7.287166118621826172e-01,7.127114385366439819e-02,-4.010788798332214355e-01,-3.895272910594940186e-01,-1.158545538783073425e-01,-8.593719601631164551e-01,-5.214152336120605469e-01,-7.126766443252563477e-01,-4.792608916759490967e-01,-2.073296345770359039e-02,1.474818401038646698e-02,6.664012074470520020e-01,-2.992919273674488068e-02,1.127936225384473801e-02
4.262752365320920944e-03,3.577594459056854248e-02,9.816411882638931274e-03,-4.588938876986503601e-02,-2.899815514683723450e-02,2.000148966908454895e-02,-4.536324366927146912e-02,-8.814761415123939514e-03,-4.140059649944305420e-02,5.776448524557054043e-04,5.264862626791000366e-02,-1.504226326942443848e-01,1.390073895454406738e-01,-1.081657968461513519e-02,-1.988047659397125244e-01,-1.171723082661628723e-01
