-1.835767626762390137e-01
7.940448820590972900e-02
9.014005213975906372e-02
-1.030943468213081360e-01
-1.141711249947547913e-01
-9.599632769823074341e-02
-9.181530028581619263e-02
-1.129398774355649948e-02
2.647458016872406006e-01
-9.023505449295043945e-02
-2.931909076869487762e-02
6.984396278858184814e-02
-2.808156050741672516e-02
3.988131135702133179e-02
1.354357153177261353e-01
-4.460067674517631531e-02
-1.117209810763597488e-02
4.853103682398796082e-02
-4.961271956562995911e-02
-5.548980087041854858e-02
4.713878408074378967e-02
-8.923193812370300293e-02
5.727094411849975586e-02
3.430747240781784058e-02
-1.743929088115692139e-01
8.132956922054290771e-02
-1.468308418989181519e-01
-4.320571571588516235e-02
-1.204230822622776031e-02
8.708990365266799927e-02
-1.717867553234100342e-01
1.364732440561056137e-02
1.151071935892105103e-01
6.369181722402572632e-02
4.028477519750595093e-02
-2.840113639831542969e-02
-4.721337929368019104e-02
-1.236930117011070251e-02
-1.068549379706382751e-01
1.383363902568817139e-01
9.751189500093460083e-02
1.581634283065795898e-01
-2.038744240999221802e-01
3.644792363047599792e-02
5.012392997741699219e-03
-4.139896947890520096e-03
3.420797362923622131e-02
6.155625358223915100e-02
1.430595815181732178e-01
1.809063255786895752e-01
1.059023570269346237e-02
-1.304368227720260620e-01
4.107844084501266479e-02
-3.367544412612915039e-01
-4.127002507448196411e-02
3.179779276251792908e-02
1.329517178237438202e-02
4.569027945399284363e-02
4.338259622454643250e-02
1.144534349441528320e-02
-3.042864985764026642e-02
-1.415272653102874756e-01
7.736995071172714233e-02
-1.255718916654586792e-01
