-2.806826122105121613e-02,1.140354434028267860e-03,2.778246812522411346e-02,3.092292463406920433e-03,-1.558661181479692459e-02,-1.536012813448905945e-02,-2.894377801567316055e-03,-3.325976058840751648e-02,-2.331046760082244873e-02,-2.523384243249893188e-02,-2.296122349798679352e-02,-1.147390715777873993e-02,3.647072240710258484e-03,2.836446464061737061e-02,1.173064811155200005e-05,1.429641852155327797e-03
1.277793850749731064e-02,5.230882205069065094e-03,-3.090931568294763565e-03,-3.722548251971602440e-03,5.503994412720203400e-03,-1.040218397974967957e-02,-3.952361177653074265e-03,4.811776336282491684e-03,-8.564285002648830414e-03,-1.029185485094785690e-02,2.145988633856177330e-03,5.939770024269819260e-03,1.113465055823326111e-02,3.637254470959305763e-03,-1.350495312362909317e-02,-6.711427122354507446e-03
-6.879284381866455078e-01,1.236465722322463989e-01,7.287720441818237305e-01,7.126113772392272949e-02,-4.011441171169281006e-01,-3.896212577819824219e-01,-1.158581599593162537e-01,-8.594595193862915039e-01,-5.214685201644897461e-01,-7.127413153648376465e-01,-4.793238937854766846e-01,-2.069700136780738831e-02,1.476509217172861099e-02,6.664611697196960449e-01,-2.998483180999755859e-02,1.128075364977121353e-02
4.285843111574649811e-03,3.592999279499053955e-02,9.799528867006301880e-03,-4.599058628082275391e-02,-2.899402007460594177e-02,2.004142105579376221e-02,-4.540779441595077515e-02,-8.762997575104236603e-03,-4.141418263316154480e-02,5.937610985711216927e-04,5.265926942229270935e-02,-1.504426151514053345e-01,1.389075815677642822e-01,-1.083429716527462006e-02,-1.987679451704025269e-01,-1.172834932804107666e-01
