-4.012220203876495361e-01,-2.292206436395645142e-01,-4.914929270744323730e-01,3.403786420822143555e-01,8.146096765995025635e-02,1.053048729896545410e+00,4.396117627620697021e-01,2.117868661880493164e-01,-3.844136595726013184e-01,-1.939304172992706299e-01,-4.297325909137725830e-01,-9.554163217544555664e-01,-1.743876188993453979e-01,3.010897934436798096e-01,-1.636878401041030884e-01,-5.105902552604675293e-01,-5.181129276752471924e-02,-2.071602493524551392e-01,-7.964634895324707031e-01
3.246189951896667480e-01,1.954548433423042297e-02,5.079307593405246735e-03,-9.168074280023574829e-02,5.238140746951103210e-02,7.291296124458312988e-02,1.564759016036987305e-02,-1.700898073613643646e-02,-1.372945010662078857e-01,4.947820678353309631e-02,-2.405983954668045044e-01,-1.249646469950675964e-01,8.704309165477752686e-02,-5.039479583501815796e-02,-1.265454944223165512e-02,-9.201847761869430542e-02,1.866000145673751831e-02,-2.206579148769378662e-01,2.349640429019927979e-01
1.095173582434654236e-01,-1.127549484372138977e-01,-1.605685055255889893e-02,5.485627055168151855e-02,-1.646721214056015015e-01,-2.493685036897659302e-01,-5.464857071638107300e-02,1.926152594387531281e-02,1.120796725153923035e-01,3.680115193128585815e-02,5.479202419519424438e-02,1.792483031749725342e-01,2.750602662563323975e-01,6.202742457389831543e-02,-2.024291604757308960e-01,-5.199213325977325439e-02,1.452677510678768158e-02,2.328224778175354004e-01,2.439371645450592041e-01
5.899012088775634766e-02,3.562951460480690002e-02,1.235152706503868103e-01,-1.504951566457748413e-01,6.739696115255355835e-02,2.196937203407287598e-01,3.505807137116789818e-03,1.178029030561447144e-01,-1.893511414527893066e-01,2.429657727479934692e-01,-9.650249779224395752e-02,2.979920804500579834e-02,-4.719752818346023560e-02,9.403078258037567139e-02,-3.239062428474426270e-02,8.500503748655319214e-02,3.228306397795677185e-02,-5.902896448969841003e-02,-8.847048878669738770e-02
-4.417766928672790527e-01,-3.727624714374542236e-01,-2.234911173582077026e-01,3.689811825752258301e-01,-5.299507081508636475e-02,-4.103650152683258057e-01,2.551769018173217773e-01,2.804073095321655273e-01,1.004422232508659363e-01,-1.169638857245445251e-01,-6.419836729764938354e-02,-1.256842017173767090e-01,3.865607380867004395e-01,-6.586898863315582275e-02,-3.429492115974426270e-01,1.797421462833881378e-02,1.964725740253925323e-02,2.419087290763854980e-01,5.883181840181350708e-02
-4.502845406532287598e-01,-2.943558096885681152e-01,-2.502119243144989014e-01,2.490099519491195679e-01,1.085571870207786560e-01,1.854333281517028809e-01,-5.270799994468688965e-01,3.633782565593719482e-01,-2.061356455087661743e-01,-2.095184326171875000e-01,-2.991312146186828613e-01,-5.403584837913513184e-01,1.056143343448638916e-01,3.825794756412506104e-01,-9.871014952659606934e-02,2.831304371356964111e-01,-2.641396820545196533e-01,4.981273412704467773e-01,-2.536567747592926025e-01
8.166625350713729858e-02,-1.483916044235229492e-01,-7.838015258312225342e-02,1.358436346054077148e-01,-3.265099227428436279e-01,-2.401247918605804443e-01,2.676650881767272949e-01,-7.254685461521148682e-02,-2.490360885858535767e-01,8.015620708465576172e-02,-4.506042897701263428e-01,-2.116794437170028687e-01,2.000249773263931274e-01,2.690760493278503418e-01,6.060568690299987793e-01,-7.018910050392150879e-01,1.065892726182937622e-01,1.375488281250000000e+00,-9.520115852355957031e-01
-4.579150676727294922e-02,-5.090156942605972290e-02,8.467280119657516479e-02,-5.539644509553909302e-02,-3.464670479297637939e-02,7.701302319765090942e-02,-1.568101942539215088e-01,7.154886424541473389e-02,4.237961489707231522e-03,3.809712082147598267e-02,-1.558913588523864746e-01,-3.816209360957145691e-02,5.489969253540039062e-02,3.687242045998573303e-02,-4.623516276478767395e-02,4.130028486251831055e-01,-7.318214979022741318e-03,1.252070814371109009e-01,2.653976343572139740e-02
8.325238525867462158e-02,-7.177998870611190796e-02,-2.566225081682205200e-02,1.716212630271911621e-01,-6.972213834524154663e-02,1.693246662616729736e-01,1.644256711006164551e-01,6.841147691011428833e-02,2.715913765132427216e-02,-1.984781324863433838e-01,7.665304094552993774e-02,3.291693329811096191e-02,1.520502865314483643e-01,-3.729663416743278503e-02,-2.103791534900665283e-01,-3.816934227943420410e-01,-2.610586285591125488e-01,5.413766577839851379e-02,2.209088802337646484e-01
-3.459796905517578125e-01,8.090004324913024902e-03,-1.469786651432514191e-02,-1.547268778085708618e-01,3.581577241420745850e-01,-1.441730260848999023e-01,-1.386836469173431396e-01,1.532788295298814774e-02,-2.455346286296844482e-01,4.010997712612152100e-02,-1.118971705436706543e-01,-3.867267668247222900e-01,5.385980755090713501e-02,-5.768937058746814728e-03,-2.238043025135993958e-02,4.165345728397369385e-01,1.574257463216781616e-01,-4.179683327674865723e-01,-3.965991735458374023e-01
4.459358006715774536e-02,-1.689973026514053345e-01,7.948119193315505981e-03,-3.722991049289703369e-02,-1.797241717576980591e-02,-9.811162948608398438e-02,-2.364616990089416504e-01,1.617566049098968506e-01,-3.545594215393066406e-01,-1.393095701932907104e-01,-8.102823793888092041e-02,-2.408803999423980713e-01,3.195359604433178902e-03,5.863784253597259521e-02,4.248356074094772339e-02,1.132580800913274288e-03,-7.037635445594787598e-01,1.611076146364212036e-01,-2.564435005187988281e-01
-3.300457298755645752e-01,5.110085941851139069e-03,-8.282440900802612305e-02,2.040426582098007202e-01,4.348734393715858459e-02,5.165038704872131348e-01,-2.141427844762802124e-01,5.026211962103843689e-02,2.146409302949905396e-01,-3.364084661006927490e-02,2.795890346169471741e-02,-9.168523550033569336e-02,-1.764772459864616394e-02,-4.692899286746978760e-01,-1.377444118261337280e-01,-4.238283261656761169e-02,-1.573277115821838379e-01,-1.982026174664497375e-02,-4.043056070804595947e-02
-3.993324190378189087e-02,2.406232655048370361e-01,1.802377998828887939e-01,-1.104870289564132690e-01,-6.887471675872802734e-02,8.312927931547164917e-02,-2.593276500701904297e-01,3.874287754297256470e-02,7.075850735418498516e-04,-1.370591521263122559e-01,-2.153730578720569611e-02,2.394626438617706299e-01,-7.073350995779037476e-02,5.029402673244476318e-02,6.435452401638031006e-02,6.595546007156372070e-02,2.281713671982288361e-02,3.415364399552345276e-02,1.522702164947986603e-02
-3.315202891826629639e-01,3.122469037771224976e-02,-1.248597651720046997e-01,6.379505991935729980e-02,-6.138514727354049683e-03,2.200088091194629669e-02,-3.671958446502685547e-01,1.838932931423187256e-01,1.739207804203033447e-01,-9.635151922702789307e-02,-1.335783600807189941e-01,-6.671420484781265259e-02,-1.557946950197219849e-02,4.898605123162269592e-02,-1.387324333190917969e-01,3.784775035455822945e-04,-8.797743357717990875e-03,6.070351228117942810e-02,6.329773366451263428e-02
-3.334510698914527893e-02,9.482210129499435425e-02,-3.891769796609878540e-02,3.685889020562171936e-02,4.317425563931465149e-02,1.305823922157287598e-01,-1.490499973297119141e-01,1.992268301546573639e-02,-1.360327601432800293e-01,2.222747653722763062e-01,-3.369585052132606506e-02,-8.775306493043899536e-02,-5.716498941183090210e-02,2.667584456503391266e-03,-1.063974052667617798e-01,-2.784472405910491943e-01,1.437573283910751343e-01,3.366719931364059448e-02,-2.808627299964427948e-02
5.449786186218261719e-01,-1.130422055721282959e-01,-8.299674838781356812e-02,9.172593057155609131e-02,4.036647379398345947e-01,6.501068472862243652e-01,-1.953890621662139893e-01,1.783756315708160400e-01,-1.159311905503273010e-01,-4.225012063980102539e-01,-3.132965043187141418e-02,-2.258060276508331299e-01,-1.824710518121719360e-02,5.664969086647033691e-01,3.297351896762847900e-01,6.856293766759335995e-04,-1.754092751070857048e-03,8.448888063430786133e-01,-2.587518393993377686e-01
3.570809215307235718e-02,-3.688888251781463623e-01,-7.431073486804962158e-02,3.279439508914947510e-01,5.708733573555946350e-02,-4.225318729877471924e-01,2.257391959428787231e-01,3.649066686630249023e-01,2.470765709877014160e-01,-2.034129351377487183e-01,-1.813849657773971558e-01,-4.500031173229217529e-01,4.582841396331787109e-01,3.812805116176605225e-01,-5.500156283378601074e-01,3.599064797163009644e-02,9.065847843885421753e-02,8.828423172235488892e-02,5.998608469963073730e-02
-1.989360153675079346e-01,-2.772005200386047363e-01,-6.311603784561157227e-01,-9.975444525480270386e-02,-2.427128106355667114e-01,-1.522252321243286133e+00,7.747353911399841309e-01,6.347829848527908325e-02,4.096521139144897461e-01,1.650783605873584747e-02,2.881760597229003906e-01,9.227097630500793457e-01,7.428134679794311523e-01,-4.212917685508728027e-01,-5.345000028610229492e-01,-3.323754966259002686e-01,3.974134325981140137e-01,2.367562800645828247e-01,3.493518754839897156e-02
-6.555385887622833252e-02,2.596732694655656815e-03,-2.434775680303573608e-01,-1.238982826471328735e-01,-4.994977638125419617e-02,2.345996052026748657e-01,-1.248846054077148438e+00,5.618129372596740723e-01,-8.000247180461883545e-02,-7.571457624435424805e-01,-4.682219028472900391e-01,-1.743355244398117065e-01,1.346232742071151733e-01,6.314397454261779785e-01,-4.102947413921356201e-01,-3.867941796779632568e-01,5.737553909420967102e-02,1.976968646049499512e-01,7.874945551156997681e-02
-4.000378549098968506e-01,-3.316570222377777100e-01,-2.303382605314254761e-01,3.596301376819610596e-01,1.053539291024208069e-01,2.967825531959533691e-01,4.085004031658172607e-01,2.706612944602966309e-01,-9.645847231149673462e-02,-1.860934346914291382e-01,-1.950792968273162842e-01,1.618521213531494141e-01,6.866230815649032593e-02,1.425790041685104370e-01,-2.955819070339202881e-01,1.450806409120559692e-01,6.698388606309890747e-02,2.326323390007019043e-01,-6.518864035606384277e-01
4.793256223201751709e-01,1.413823217153549194e-01,8.984337747097015381e-02,-2.115999907255172729e-01,-1.265992969274520874e-01,1.480699628591537476e-01,9.900542907416820526e-03,-1.760359108448028564e-01,-1.118993610143661499e-01,5.907584354281425476e-02,-1.431436985731124878e-01,-1.129707470536231995e-01,-1.756289787590503693e-02,2.335363440215587616e-02,2.471647858619689941e-01,-2.383332513272762299e-02,-3.603099286556243896e-02,-1.726803481578826904e-01,4.032712578773498535e-01
4.668823778629302979e-01,6.849531829357147217e-02,7.208152860403060913e-02,-1.565504074096679688e-01,-8.906994760036468506e-02,-4.122901260852813721e-01,3.100425004959106445e-02,-7.018455862998962402e-02,1.642165035009384155e-01,2.164984047412872314e-01,4.401870071887969971e-02,1.578625589609146118e-01,1.363135278224945068e-01,2.359031438827514648e-01,1.064983103424310684e-02,-3.762226551771163940e-02,-3.232178986072540283e-01,3.484499156475067139e-01,5.183380842208862305e-02
1.520608663558959961e-01,1.153406798839569092e-01,1.588094234466552734e-01,-1.979229599237442017e-01,7.973609119653701782e-02,1.863178312778472900e-01,-2.977679967880249023e-01,-5.568667501211166382e-02,1.444202810525894165e-01,1.537062674760818481e-01,-1.315685361623764038e-01,8.208984136581420898e-02,-1.244912147521972656e-01,2.357022017240524292e-01,-3.059562668204307556e-02,3.018885850906372070e-01,-8.170946687459945679e-02,1.805065572261810303e-01,3.648849949240684509e-02
5.413922667503356934e-01,2.335490882396697998e-01,2.758890092372894287e-01,-1.854723691940307617e-01,-2.859925329685211182e-01,-1.735353097319602966e-02,-2.348526008427143097e-02,-2.287738472223281860e-01,-4.502844810485839844e-02,1.783109307289123535e-01,-2.208390384912490845e-01,-4.427430406212806702e-02,-1.218950152397155762e-01,3.358198702335357666e-01,4.573837816715240479e-01,-4.155214428901672363e-01,-1.159718111157417297e-01,8.016787767410278320e-01,-8.257780075073242188e-01
-5.601107478141784668e-01,-1.873448491096496582e-01,2.404175400733947754e-01,-3.328833729028701782e-02,-1.945120692253112793e-01,2.458707988262176514e-02,2.232687473297119141e-01,-1.311562955379486084e-01,-8.743946254253387451e-02,-4.936937615275382996e-02,-1.378338038921356201e-01,-2.766063809394836426e-02,-9.562303870916366577e-02,3.908019065856933594e-01,1.012599691748619080e-01,2.089881151914596558e-01,-1.066884696483612061e-01,-1.842421889305114746e-01,-2.290078550577163696e-01
-1.093804538249969482e-01,-5.008012652397155762e-01,-1.248411238193511963e-01,6.894373297691345215e-01,2.223730683326721191e-01,-9.907189756631851196e-03,-1.629557311534881592e-01,-1.011124812066555023e-02,-3.441313048824667931e-03,-3.623773157596588135e-01,-1.309754103422164917e-01,6.498360037803649902e-01,2.779835164546966553e-01,-4.576080013066530228e-03,1.069193258881568909e-01,-1.314887404441833496e-01,1.547118127346038818e-01,1.910399436950683594e+00,-1.135906577110290527e+00
2.176725305616855621e-02,-2.354789152741432190e-02,1.848742365837097168e-01,-1.965763419866561890e-01,-3.578308224678039551e-01,-1.589714288711547852e-01,9.247485548257827759e-02,7.806434482336044312e-02,5.695838853716850281e-02,1.393688768148422241e-01,-1.578125357627868652e-01,1.135983392596244812e-01,7.030110806226730347e-02,7.411161065101623535e-02,3.664570674300193787e-02,3.877123445272445679e-02,7.303314656019210815e-02,1.306148469448089600e-01,-1.121164020150899887e-02
-3.186545521020889282e-02,2.227087318897247314e-01,2.422091178596019745e-02,-2.759554982185363770e-02,-2.525549829006195068e-01,5.711270570755004883e-01,-1.336157508194446564e-02,-1.883145421743392944e-01,7.277462631464004517e-02,-2.166342735290527344e-02,1.312517374753952026e-01,-1.009258534759283066e-02,-1.325956881046295166e-01,-2.630835175514221191e-01,2.974850125610828400e-02,-5.014898180961608887e-01,-1.257922053337097168e-01,-4.897862672805786133e-02,1.270785480737686157e-01
-1.862076371908187866e-01,1.395612359046936035e-01,8.654280751943588257e-02,-2.872465252876281738e-01,1.415785700082778931e-01,-6.471496820449829102e-02,-2.772307097911834717e-01,-8.333754539489746094e-02,-9.081992506980895996e-02,1.234073638916015625e-01,-4.363628476858139038e-02,-3.864083290100097656e-01,1.678647845983505249e-02,-6.043682247400283813e-02,1.463557630777359009e-01,6.133511066436767578e-01,3.547694161534309387e-02,-5.546803772449493408e-02,-1.287715733051300049e-01
-8.353491127490997314e-02,1.901966147124767303e-02,1.919866055250167847e-01,-2.942036986351013184e-01,-2.168211638927459717e-01,-2.684098668396472931e-02,-4.189967811107635498e-01,3.314194083213806152e-02,-2.211953550577163696e-01,3.884472884237766266e-03,-3.039042465388774872e-02,-8.361422270536422729e-02,-9.036653488874435425e-02,-1.734555959701538086e-01,2.932494580745697021e-01,1.329746991395950317e-01,-5.174270272254943848e-01,9.739714860916137695e-02,-1.567379683256149292e-01
-2.498811930418014526e-01,3.659676015377044678e-02,-1.219503395259380341e-02,1.317505538463592529e-01,1.462625060230493546e-02,1.728407591581344604e-01,-5.543861985206604004e-01,6.869965046644210815e-02,1.378285139799118042e-01,-6.076060980558395386e-02,3.638931736350059509e-02,-1.362478286027908325e-01,-2.196257701143622398e-03,-6.034293025732040405e-02,-1.265351921319961548e-01,6.947483867406845093e-03,-2.302104383707046509e-01,-1.424129470251500607e-03,-7.428598403930664062e-02
-3.320289552211761475e-01,3.988203704357147217e-01,2.576990723609924316e-01,4.006458446383476257e-02,3.616466000676155090e-02,1.315636187791824341e-01,6.986753549426794052e-03,-1.171537414193153381e-01,2.003611475229263306e-01,-8.881380409002304077e-02,-1.033848226070404053e-01,1.210859343409538269e-01,-3.480439633131027222e-02,-1.824703183956444263e-03,-4.767989739775657654e-02,6.425360590219497681e-02,-6.097064167261123657e-02,8.606240153312683105e-02,4.921688884496688843e-02
3.119141459465026855e-01,1.144496425986289978e-01,-5.339224636554718018e-02,-2.251649349927902222e-01,-3.974801301956176758e-01,-3.319801092147827148e-01,-8.113365620374679565e-02,-4.359604790806770325e-03,8.031113743782043457e-01,9.291567839682102203e-03,-8.122334629297256470e-02,7.181324809789657593e-02,-1.002991795539855957e-01,6.070440635085105896e-03,-2.036647871136665344e-02,-1.440931707620620728e-01,-4.005889296531677246e-01,-4.012453258037567139e-01,1.302099972963333130e-01
1.446495205163955688e-02,1.980906166136264801e-02,5.181709304451942444e-03,5.487108975648880005e-02,3.851256519556045532e-02,1.049293205142021179e-01,-1.466867029666900635e-01,3.058210760354995728e-02,-1.222155466675758362e-01,2.088351547718048096e-01,-3.952989727258682251e-02,-1.567157208919525146e-01,-1.865007914602756500e-02,-2.900412864983081818e-02,-1.493307650089263916e-01,-1.961707919836044312e-01,2.662469446659088135e-02,1.584619283676147461e-01,3.461234644055366516e-02
3.606343865394592285e-01,-4.710358381271362305e-02,-5.417703837156295776e-02,3.898885846138000488e-02,-1.429178118705749512e-01,2.474581450223922729e-01,-2.202213108539581299e-01,1.120467949658632278e-02,1.529477685689926147e-01,-1.995360404253005981e-01,6.612231582403182983e-02,3.175984323024749756e-01,-1.279919315129518509e-02,6.392648220062255859e-01,1.439323574304580688e-01,-6.469967775046825409e-03,-1.982694119215011597e-02,5.007267594337463379e-01,-3.267288506031036377e-01
6.565313786268234253e-02,3.806593120098114014e-01,3.336068093776702881e-01,-2.380101382732391357e-01,-2.485753744840621948e-01,1.081393286585807800e-01,-3.868957236409187317e-02,-3.712739646434783936e-01,2.579759359359741211e-01,8.155740797519683838e-02,-1.141950041055679321e-01,-2.598452270030975342e-01,-1.186038404703140259e-01,-9.653519839048385620e-02,2.236907929182052612e-01,1.616623699665069580e-01,4.831728339195251465e-02,-1.297250837087631226e-01,1.026976108551025391e-01
3.327495157718658447e-01,5.592079758644104004e-01,-5.565685033798217773e-01,-5.202028155326843262e-01,6.408236026763916016e-01,-8.818407058715820312e-01,-1.322999238967895508e+00,-9.333433955907821655e-02,1.800998672842979431e-02,-1.647795587778091431e-01,-4.511565715074539185e-02,-4.403067827224731445e-01,2.244296520948410034e-01,-2.067154496908187866e-01,3.687195479869842529e-01,2.197709679603576660e-01,1.208302471786737442e-02,5.595045685768127441e-01,5.072072148323059082e-01
2.373195439577102661e-01,2.587462067604064941e-01,4.046778678894042969e-01,-4.966416060924530029e-01,-1.409771889448165894e-01,-1.224424466490745544e-01,-2.570600509643554688e-01,-3.151468634605407715e-01,3.249815404415130615e-01,-7.868447303771972656e-01,5.761721357703208923e-02,-2.688070386648178101e-02,-3.602450788021087646e-01,4.823807775974273682e-01,6.646169424057006836e-01,-5.001034736633300781e-01,-3.940069675445556641e-02,7.379580736160278320e-01,4.752825200557708740e-01
2.208187282085418701e-01,1.605178564786911011e-01,2.060978859663009644e-01,4.477506875991821289e-02,6.953867524862289429e-02,6.566364318132400513e-02,4.339682683348655701e-02,2.502009086310863495e-02,-1.404203325510025024e-01,1.601102501153945923e-01,-1.581312343478202820e-02,-2.809838019311428070e-02,-2.543399855494499207e-02,2.453235089778900146e-01,8.227816224098205566e-02,-1.699304282665252686e-01,-7.761256396770477295e-02,1.324127987027168274e-02,-2.273482680320739746e-01
3.362100422382354736e-01,1.726066321134567261e-01,3.415617942810058594e-01,-2.242593467235565186e-01,1.486041117459535599e-03,1.184908375144004822e-01,-7.220150530338287354e-02,-1.079707369208335876e-01,-6.187423318624496460e-02,-6.694681011140346527e-03,-7.115387916564941406e-02,1.321807038038969040e-02,-1.854137331247329712e-02,-1.401199847459793091e-01,2.530813217163085938e-02,8.272567391395568848e-02,-1.761452481150627136e-02,-2.432293817400932312e-02,1.525048166513442993e-01
5.107211470603942871e-01,-6.418944150209426880e-02,1.953444927930831909e-01,-1.155948862433433533e-01,-2.424924671649932861e-01,4.290444031357765198e-02,-3.784407377243041992e-01,-2.443301118910312653e-02,8.655484765768051147e-02,-5.342665687203407288e-02,-8.646893501281738281e-02,1.195820122957229614e-01,-4.884774610400199890e-02,-1.888841837644577026e-01,-2.825272269546985626e-02,-6.500329822301864624e-02,2.479949221014976501e-02,9.618129581212997437e-02,-1.910343184135854244e-03
-8.972688764333724976e-02,-2.530194222927093506e-01,-4.558636844158172607e-01,2.964673936367034912e-01,-6.407576054334640503e-02,-1.350900232791900635e-01,-5.509159341454505920e-02,1.237160637974739075e-01,1.710676471702754498e-03,-1.642447561025619507e-01,-2.182182855904102325e-02,1.359078735113143921e-01,2.248908728361129761e-01,3.611791506409645081e-02,-2.962823584675788879e-02,1.418394502252340317e-02,-2.862874418497085571e-02,4.825622588396072388e-02,-5.665891245007514954e-02
1.946003139019012451e-01,-1.455002874135971069e-01,7.920973747968673706e-02,-9.894837439060211182e-02,1.417263150215148926e-01,-9.714265167713165283e-02,6.739374995231628418e-02,-1.961884088814258575e-03,1.509857922792434692e-01,-1.499161869287490845e-01,-6.822417676448822021e-02,1.818996965885162354e-01,3.261669352650642395e-02,-6.967650353908538818e-02,1.294367164373397827e-01,3.438639342784881592e-01,-1.067433878779411316e-01,2.153116464614868164e-02,2.609530389308929443e-01
-5.103984475135803223e-01,1.129833757877349854e-01,1.285368651151657104e-01,-5.793778225779533386e-02,1.720896661281585693e-01,2.528477907180786133e-01,6.362134218215942383e-02,2.300932258367538452e-02,-1.587202996015548706e-01,1.308607496321201324e-02,-2.568871974945068359e-01,-7.429589331150054932e-02,-3.071858361363410950e-02,-5.776402074843645096e-03,-6.196486204862594604e-02,3.378789126873016357e-02,2.053444832563400269e-02,1.972413063049316406e-01,-2.239400595426559448e-01
-2.013088911771774292e-01,-1.368559300899505615e-01,1.114818006753921509e-01,-9.497389197349548340e-02,-3.222905397415161133e-01,-2.480742186307907104e-01,1.734988838434219360e-01,-1.683028638362884521e-01,1.356182694435119629e-01,1.011481136083602905e-01,2.408400326967239380e-01,1.701917350292205811e-01,3.679331019520759583e-02,1.866310387849807739e-01,1.590716242790222168e-01,-4.274418950080871582e-02,-3.401338681578636169e-02,4.268889129161834717e-01,-3.645047172904014587e-02
-4.031102061271667480e-01,2.769709192216396332e-02,-1.869631260633468628e-01,3.278882801532745361e-01,3.375856280326843262e-01,2.532605826854705811e-01,6.950162649154663086e-01,7.568896561861038208e-02,-8.210440725088119507e-02,-9.555930644273757935e-02,-9.414095431566238403e-02,5.225193127989768982e-02,5.497938767075538635e-02,1.235460415482521057e-01,-1.594623625278472900e-01,-2.131026387214660645e-01,-2.284830249845981598e-02,7.563538849353790283e-02,-1.848028898239135742e-01
-2.235486358404159546e-01,1.350218653678894043e-01,-2.362799793481826782e-01,1.093623638153076172e-01,-6.697042286396026611e-02,4.412530455738306046e-03,-4.105866253376007080e-01,7.414584606885910034e-02,3.243860974907875061e-02,-1.416375786066055298e-01,2.551423013210296631e-01,3.887378424406051636e-02,9.126115590333938599e-02,-6.745773553848266602e-02,-1.515881866216659546e-01,-2.265612483024597168e-01,-1.139105707406997681e-01,-7.395108044147491455e-02,1.120627149939537048e-01
-2.735050618648529053e-01,-1.231945585459470749e-02,5.478408932685852051e-02,-3.053597807884216309e-01,3.870586864650249481e-03,-1.741988807916641235e-01,4.920000731945037842e-01,-4.168910160660743713e-02,1.619491912424564362e-02,2.776906490325927734e-01,-6.418815255165100098e-02,-3.985996544361114502e-01,-1.178137362003326416e-01,1.627184450626373291e-02,4.701714590191841125e-02,-2.758840285241603851e-02,9.524466097354888916e-02,-3.260292410850524902e-01,-2.839644253253936768e-01
-8.461179584264755249e-02,-1.903411597013473511e-01,2.396022714674472809e-02,-1.785314083099365234e-01,-1.297901570796966553e-01,-1.232922896742820740e-01,-5.076411962509155273e-01,1.633986830711364746e-02,-1.479109972715377808e-01,-2.251041382551193237e-01,5.110234394669532776e-02,-1.313460320234298706e-01,-1.464178040623664856e-02,-1.019137278199195862e-01,1.804925203323364258e-01,7.588365674018859863e-02,-1.611563116312026978e-01,-1.426805835217237473e-02,-7.900087162852287292e-03
5.470051765441894531e-01,-1.273980885744094849e-01,1.136572659015655518e-01,-1.102090924978256226e-01,-2.936677634716033936e-01,-3.247946500778198242e-01,-5.815944671630859375e-01,2.772495709359645844e-02,2.770984768867492676e-01,3.012622334063053131e-02,1.037012487649917603e-01,3.245130926370620728e-02,-4.344558715820312500e-02,2.192210704088211060e-01,8.924148976802825928e-02,-8.348594605922698975e-02,3.260062634944915771e-02,-1.965960115194320679e-01,3.666388690471649170e-01
3.809211254119873047e-01,-3.397580981254577637e-01,-8.193733543157577515e-02,2.248703688383102417e-02,-1.990794092416763306e-01,-3.601898849010467529e-01,-4.526267945766448975e-01,1.916550472378730774e-02,1.471235007047653198e-01,-5.031447112560272217e-02,4.195897653698921204e-02,3.376754000782966614e-02,2.394227236509323120e-01,1.044576764106750488e-01,-7.659559696912765503e-02,2.931323051452636719e-01,9.324574843049049377e-03,8.567018061876296997e-02,-8.222040534019470215e-02
-4.844769835472106934e-01,-1.214972510933876038e-01,9.432046115398406982e-02,-1.677969694137573242e-01,-3.748514950275421143e-01,2.367696017026901245e-01,-2.287910729646682739e-01,2.368052899837493896e-01,1.499390006065368652e-01,-1.379593163728713989e-01,-8.760798722505569458e-02,-4.755641520023345947e-01,-3.719460591673851013e-02,2.591144144535064697e-01,1.215962618589401245e-01,-3.065469264984130859e-01,-1.638022623956203461e-02,3.987480700016021729e-01,-6.254764199256896973e-01
2.903689742088317871e-01,1.897883564233779907e-01,2.085580676794052124e-01,-2.895857691764831543e-01,-1.971259526908397675e-02,4.287343472242355347e-02,-4.409649074077606201e-01,8.093553478829562664e-04,1.656804233789443970e-02,1.690132468938827515e-01,-1.107359975576400757e-01,-1.816902905702590942e-01,-1.513497903943061829e-02,1.988870501518249512e-01,1.959841102361679077e-01,2.689643576741218567e-02,2.650846540927886963e-01,3.820087313652038574e-01,-2.676591575145721436e-01
2.161501497030258179e-01,1.690328004769980907e-03,2.160164266824722290e-01,4.739252850413322449e-02,3.174846470355987549e-01,-9.942719340324401855e-02,-7.122766375541687012e-01,-1.317897439002990723e-01,1.076968153938651085e-03,-2.055172994732856750e-02,8.082131296396255493e-02,3.182980418205261230e-02,1.945389062166213989e-02,6.736266613006591797e-02,-1.899555884301662445e-02,3.132393062114715576e-01,1.581126749515533447e-01,-8.207157254219055176e-02,1.669201999902725220e-01
1.457024663686752319e-01,5.201343819499015808e-02,6.012371554970741272e-02,8.589467965066432953e-03,1.350372284650802612e-01,7.308439165353775024e-02,-6.045899912714958191e-02,1.138658728450536728e-02,3.353163301944732666e-01,1.431572530418634415e-02,2.388235926628112793e-02,3.647064045071601868e-02,-8.402837812900543213e-02,-3.037202730774879456e-02,6.998748332262039185e-02,6.765889376401901245e-02,3.653182387351989746e-01,-5.377300456166267395e-02,-9.907710552215576172e-02
4.798430204391479492e-01,-2.787638641893863678e-02,1.901002079248428345e-01,9.042242169380187988e-02,5.873637273907661438e-02,-7.714453339576721191e-02,-5.090325474739074707e-01,-5.111037939786911011e-02,-6.847752723842859268e-03,1.771241240203380585e-02,8.680538274347782135e-03,2.585754692554473877e-01,1.527074426412582397e-01,1.150306761264801025e-01,1.220759078860282898e-01,8.523401618003845215e-02,3.598102554678916931e-02,4.264507889747619629e-01,-6.164753064513206482e-02
7.121902704238891602e-01,-8.768062293529510498e-02,1.771666482090950012e-02,1.863689720630645752e-01,-1.827967315912246704e-01,-2.681848406791687012e-01,-1.069580793380737305e+00,-1.270940452814102173e-01,2.901758849620819092e-01,-2.108718901872634888e-01,1.905311085283756256e-02,1.048253849148750305e-01,-9.664335101842880249e-02,-2.710473239421844482e-01,1.004414632916450500e-01,2.662101089954376221e-01,1.702063530683517456e-01,-3.419476449489593506e-01,6.577017903327941895e-01
6.456648558378219604e-02,9.002557396888732910e-02,7.631924934685230255e-03,-1.679427623748779297e-01,1.004317253828048706e-01,1.719391047954559326e-01,-6.704656872898340225e-03,-2.210697717964649200e-02,-1.265693157911300659e-01,4.444838315248489380e-02,1.800690032541751862e-02,-8.598715066909790039e-02,-1.571447849273681641e-01,-8.554169908165931702e-03,7.039793580770492554e-02,2.405321970582008362e-02,2.565236389636993408e-02,-1.969927456229925156e-03,4.862726852297782898e-02
1.500861719250679016e-02,3.933038115501403809e-01,1.925286054611206055e-01,-2.867159247398376465e-01,5.426266696304082870e-03,3.687832355499267578e-01,-4.982752259820699692e-03,-1.736309975385665894e-01,2.313162200152873993e-03,2.213647514581680298e-01,-2.708179317414760590e-02,4.729484673589468002e-03,-4.129206240177154541e-01,1.099383085966110229e-01,2.708469033241271973e-01,6.190308183431625366e-02,5.527763813734054565e-02,-2.077903002500534058e-01,1.101536080241203308e-01
1.302836239337921143e-01,8.814486861228942871e-02,2.758082449436187744e-01,-2.764056622982025146e-01,-1.933999955654144287e-01,-1.592993550002574921e-02,-8.194656111299991608e-03,-1.561694294214248657e-01,2.491740323603153229e-02,2.530403137207031250e-01,3.569586575031280518e-01,2.454908639192581177e-01,3.213422372937202454e-02,-5.525468662381172180e-02,1.593343764543533325e-01,-6.166132912039756775e-02,6.668636947870254517e-02,4.786274954676628113e-02,1.206640526652336121e-01
1.859318017959594727e-01,9.354289621114730835e-02,1.881698668003082275e-01,-1.456900238990783691e-01,1.549493670463562012e-01,1.326127201318740845e-01,-1.241882741451263428e-01,-1.691577490419149399e-03,-4.103931784629821777e-02,1.306494325399398804e-01,-1.346052438020706177e-01,-2.704848051071166992e-01,-1.086945012211799622e-01,1.981740295886993408e-01,1.066655293107032776e-01,4.813636839389801025e-01,-6.685382127761840820e-02,1.387796103954315186e-01,-4.142826795578002930e-02
1.126129850745201111e-01,7.749851793050765991e-02,-2.916389331221580505e-02,-7.291355729103088379e-02,1.193265393376350403e-01,6.375049054622650146e-02,-1.011444091796875000e+00,-1.278647780418395996e-01,3.045926988124847412e-01,6.755348760634660721e-03,-6.636482197791337967e-03,5.772515665739774704e-03,-3.328890539705753326e-03,-1.522708237171173096e-01,-2.154453471302986145e-02,7.332781553268432617e-01,-1.593679934740066528e-01,2.462604939937591553e-01,-3.083465807139873505e-02
-6.840856671333312988e-01,-3.115712478756904602e-02,-4.702250659465789795e-02,8.360182493925094604e-02,-2.289799302816390991e-01,2.264255434274673462e-01,-3.149601519107818604e-01,1.086178347468376160e-01,1.814285069704055786e-01,5.771609488874673843e-03,-8.311911672353744507e-02,-2.276212424039840698e-01,-1.447683665901422501e-02,3.368912339210510254e-01,-1.677614897489547729e-01,5.321942567825317383e-01,-2.397605776786804199e-01,1.023616641759872437e-01,-1.838414222002029419e-01
1.224391236901283264e-01,1.272727400064468384e-01,-3.950816392898559570e-02,-8.521865308284759521e-02,1.643271371722221375e-02,2.905386090278625488e-01,-1.424226611852645874e-01,-1.120358034968376160e-01,8.321359753608703613e-02,5.779066123068332672e-03,-3.000502847135066986e-02,-9.376694262027740479e-02,-6.752198189496994019e-02,-4.450268670916557312e-02,2.377349883317947388e-01,3.249262645840644836e-02,-3.035253286361694336e-02,3.508722484111785889e-01,3.101104870438575745e-03
-1.483355313539505005e-01,7.192771881818771362e-02,2.045736461877822876e-01,-2.152297198772430420e-01,-2.645985782146453857e-01,4.247963894158601761e-03,1.026146635413169861e-01,-1.759564876556396484e-01,6.702832132577896118e-02,2.423291206359863281e-01,4.281020723283290863e-03,2.439955770969390869e-01,-7.043684273958206177e-02,-1.328054666519165039e-01,1.558283120393753052e-01,-1.044844239950180054e-01,4.278616979718208313e-02,-4.853461310267448425e-02,3.417664393782615662e-02
2.173410207033157349e-01,1.235149502754211426e-01,1.547871232032775879e-01,7.491506170481443405e-03,-1.591959446668624878e-01,1.124860644340515137e-01,3.338682949542999268e-01,-6.141204386949539185e-03,-6.204309873282909393e-03,-4.815689846873283386e-02,1.480292528867721558e-01,4.089970141649246216e-02,-3.218450397253036499e-02,-3.020300567150115967e-01,4.223618656396865845e-02,-4.541112184524536133e-01,6.469983607530593872e-02,-7.677096873521804810e-02,-2.310545183718204498e-03
-1.408665534108877182e-02,9.029232710599899292e-02,1.388518065214157104e-01,-8.530745655298233032e-02,2.616579830646514893e-01,5.240062624216079712e-02,-3.145971298217773438e-01,-1.754975020885467529e-01,1.011487618088722229e-01,3.905333206057548523e-02,1.296215876936912537e-02,-8.803938329219818115e-02,-6.146446987986564636e-02,-1.525681018829345703e-01,1.109513919800519943e-02,5.666449666023254395e-01,-2.053154632449150085e-02,-7.105340808629989624e-02,5.933304876089096069e-02
-1.217697188258171082e-01,-6.769333966076374054e-03,-8.480217307806015015e-02,-1.428496092557907104e-01,-3.946390468627214432e-03,9.259419888257980347e-02,-5.045730471611022949e-01,1.852459013462066650e-01,-1.026425287127494812e-01,-6.786014884710311890e-02,9.512897580862045288e-02,-3.573464453220367432e-01,-3.312879055738449097e-02,8.244144171476364136e-02,1.595917940139770508e-01,1.082018204033374786e-02,-8.367397636175155640e-02,2.968521714210510254e-01,-2.257364988327026367e-01
-1.981776058673858643e-01,1.181581988930702209e-01,-2.738582901656627655e-02,-2.631013281643390656e-02,1.499930322170257568e-01,6.076896786689758301e-01,-8.301974087953567505e-02,3.231603652238845825e-02,1.031024679541587830e-01,5.707990005612373352e-02,1.505165593698620796e-03,-2.345487922430038452e-01,-2.005840986967086792e-01,-1.604040414094924927e-01,1.637074351310729980e-02,-1.718295970931649208e-03,-8.041701465845108032e-02,2.424135804176330566e-03,-2.479112520813941956e-02
-1.651422530412673950e-01,2.142976075410842896e-01,2.234338782727718353e-03,-9.130600839853286743e-02,-5.455712229013442993e-02,6.939895153045654297e-01,1.878432780504226685e-01,-1.107111275196075439e-01,-3.633300215005874634e-02,1.582281440496444702e-01,-1.339746415615081787e-01,-6.478962898254394531e-01,-2.198057025671005249e-01,-1.871916837990283966e-02,7.005022466182708740e-02,-2.319969683885574341e-01,-2.324958592653274536e-01,-2.629134654998779297e-01,3.471136987209320068e-01
-2.738756835460662842e-01,1.117459908127784729e-01,-1.714583188295364380e-01,5.082342773675918579e-02,-1.390482336282730103e-01,-1.493736058473587036e-01,-1.407656818628311157e-01,8.059007674455642700e-02,5.812677145004272461e-01,-1.660767793655395508e-01,-4.904536064714193344e-03,-1.745986938476562500e-01,-7.714334875345230103e-03,-2.832580208778381348e-01,-1.103272289037704468e-01,-4.657804667949676514e-01,-1.555201113224029541e-01,-2.360714226961135864e-01,8.542901277542114258e-02
5.152580738067626953e-01,2.908238768577575684e-01,1.438832730054855347e-01,-2.925033271312713623e-01,5.843896884471178055e-03,3.949063718318939209e-01,-5.325432419776916504e-01,-1.196901546791195869e-03,4.705908894538879395e-02,2.998279333114624023e-01,2.458518184721469879e-02,-2.403906434774398804e-01,-1.164246127009391785e-01,1.192916780710220337e-01,1.206525117158889771e-01,6.751193851232528687e-02,-1.696640402078628540e-01,1.389414519071578979e-01,-1.986406296491622925e-01
3.441721498966217041e-01,9.614159911870956421e-02,-1.360184978693723679e-02,1.379576791077852249e-02,5.972891300916671753e-02,2.441660463809967041e-01,-2.445668578147888184e-01,5.531192570924758911e-02,9.265364706516265869e-02,6.604325771331787109e-02,-9.395612776279449463e-02,-6.285076588392257690e-02,-2.058715745806694031e-02,2.181685417890548706e-01,3.228997439146041870e-02,-1.214986041304655373e-04,-6.010857596993446350e-02,4.025045931339263916e-01,-1.237249467521905899e-02
2.298146188259124756e-01,-2.259289473295211792e-02,-1.445448398590087891e-02,1.358029246330261230e-01,1.576776653528213501e-01,-2.032303661108016968e-01,1.446176022291183472e-01,7.040887139737606049e-03,3.387421965599060059e-01,-1.515838354825973511e-01,1.854198426008224487e-01,-6.305199861526489258e-02,1.601494252681732178e-01,2.218263000249862671e-01,-3.582912981510162354e-01,1.739615350961685181e-01,1.654900424182415009e-02,-3.845242857933044434e-01,2.432543337345123291e-01
-1.163526892662048340e+00,-3.775801658630371094e-01,-5.365718007087707520e-01,5.426469445228576660e-01,5.006794929504394531e-01,-8.189714550971984863e-01,-4.010504186153411865e-01,2.607979811728000641e-03,1.692363023757934570e-01,-5.640268698334693909e-02,3.263185918331146240e-01,-2.417588233947753906e-01,3.302578032016754150e-01,-2.586027085781097412e-01,-3.268353641033172607e-01,2.113403230905532837e-01,-2.622971236705780029e-01,5.763882994651794434e-01,-2.609425485134124756e-01
-3.750856518745422363e-01,-4.734168350696563721e-01,1.245590578764677048e-02,1.866918653249740601e-01,-1.460517793893814087e-01,-4.489952921867370605e-01,-3.696143925189971924e-01,2.068581879138946533e-01,2.831295132637023926e-01,-1.077106475830078125e+00,2.673765085637569427e-02,-3.720217570662498474e-02,1.082912161946296692e-01,3.165478110313415527e-01,-6.737048923969268799e-02,-7.471569180488586426e-01,-1.550989747047424316e-01,1.290147423744201660e+00,8.869104981422424316e-01
