3.971859812736511230e-02,-7.359381020069122314e-02,1.043488904833793640e-01,-1.151364222168922424e-01,1.554393321275711060e-01,1.780462414026260376e-01,1.741503365337848663e-02,-7.860472053289413452e-02,3.005944788455963135e-01,-4.018138647079467773e-01,-5.547413825988769531e-01,1.947315223515033722e-02,2.607944309711456299e-01,2.228140085935592651e-01,2.314669936895370483e-01,1.176026314496994019e-01,-4.985215067863464355e-01,4.941120743751525879e-02,-6.539263129234313965e-01
-1.452822387218475342e-01,-7.237815856933593750e-02,-6.760846823453903198e-02,1.854139268398284912e-01,-6.456466019153594971e-02,-5.052803829312324524e-02,-6.011198833584785461e-02,9.580059349536895752e-02,-9.038044512271881104e-02,-8.778629451990127563e-02,1.671478599309921265e-01,1.695915162563323975e-01,-2.490040957927703857e-01,-2.171470075845718384e-01,1.329005602747201920e-02,-6.919474340975284576e-03,-7.469842676073312759e-03,-6.313686072826385498e-02,1.265371739864349365e-01
-2.099885977804660797e-02,-4.636068642139434814e-02,2.064361609518527985e-02,1.060250625014305115e-01,-6.938938051462173462e-03,-1.754400879144668579e-01,3.180878981947898865e-02,-1.071927249431610107e-01,-8.253159932792186737e-03,1.994236260652542114e-01,-3.791621699929237366e-02,-2.534041404724121094e-01,-8.202412724494934082e-02,-6.441333889961242676e-02,3.263616859912872314e-01,-1.437889337539672852e-01,2.863183617591857910e-01,2.450828254222869873e-02,1.092510521411895752e-01
-4.613371938467025757e-02,1.062667518854141235e-01,-5.962918512523174286e-03,3.305840864777565002e-02,1.553066354244947433e-02,5.724118649959564209e-02,1.590756350196897984e-03,-1.753192692995071411e-01,-2.524876296520233154e-01,8.061595261096954346e-02,8.286011405289173126e-03,5.407400429248809814e-02,1.933404505252838135e-01,8.951393887400627136e-03,5.106095075607299805e-01,-1.880190148949623108e-02,3.948555886745452881e-01,3.292477130889892578e-02,-1.633777469396591187e-02
4.131241887807846069e-02,-1.167663000524044037e-02,7.340703159570693970e-03,-8.504005381837487221e-05,9.901271015405654907e-02,-4.644311964511871338e-02,-5.605018511414527893e-02,-1.436300128698348999e-01,-1.984688192605972290e-01,-6.399257481098175049e-02,4.217211157083511353e-02,-2.367216646671295166e-01,-1.218068972229957581e-01,1.881932839751243591e-02,-1.528424471616744995e-01,-5.772725865244865417e-02,-1.136922165751457214e-01,2.076995559036731720e-02,-3.690730407834053040e-02
2.737542614340782166e-02,2.006738930940628052e-01,9.954228252172470093e-02,-1.077281758189201355e-01,2.779569029808044434e-01,3.192050755023956299e-01,1.624437719583511353e-01,1.046229228377342224e-01,1.504737883806228638e-01,-1.606943309307098389e-01,4.678315818309783936e-01,1.174741908907890320e-01,1.132750213146209717e-01,-1.752710044384002686e-01,-5.676147341728210449e-01,6.543344259262084961e-01,-6.879405379295349121e-01,5.071781575679779053e-02,-8.848304860293865204e-03
1.139942556619644165e-01,5.273910611867904663e-02,8.679694682359695435e-02,-1.914269104599952698e-02,2.931093871593475342e-01,1.990785002708435059e-01,6.897609680891036987e-02,1.548296213150024414e-01,1.777104288339614868e-01,1.540890932083129883e-01,-6.256195157766342163e-02,-4.035587310791015625e-01,-1.676776260137557983e-01,-1.417647898197174072e-01,-3.485215008258819580e-01,-4.136494994163513184e-01,2.494159527122974396e-02,-1.332277338951826096e-02,1.622680723667144775e-01
3.914429247379302979e-02,9.725941345095634460e-03,1.686702072620391846e-01,9.471810609102249146e-02,6.579598784446716309e-02,-6.304700672626495361e-02,-2.367722429335117340e-02,6.779922544956207275e-02,1.307731866836547852e-01,-2.091638185083866119e-02,1.301713585853576660e-01,1.069611497223377228e-02,1.281272270716726780e-03,1.038608029484748840e-01,6.529490649700164795e-02,-1.841889172792434692e-01,4.376730918884277344e-01,-9.419305622577667236e-02,-1.642744243144989014e-02
-1.301837116479873657e-01,-1.023237928748130798e-01,-1.445951014757156372e-01,1.350921094417572021e-01,-9.554736316204071045e-02,-1.191677972674369812e-01,1.367657929658889771e-01,-1.632595211267471313e-01,2.955188415944576263e-02,-7.664397358894348145e-02,4.049987345933914185e-02,-8.473838120698928833e-02,-1.592835038900375366e-01,-3.881732374429702759e-02,1.494613662362098694e-02,1.137896254658699036e-01,-7.185563445091247559e-02,-4.163667187094688416e-02,-5.129650607705116272e-02
-2.563782408833503723e-02,-2.947883680462837219e-02,3.382511064410209656e-02,1.854691654443740845e-01,-2.657720260322093964e-02,-7.800631970167160034e-02,-1.105332896113395691e-01,-1.255533657968044281e-02,4.774647532030940056e-04,-9.483511559665203094e-03,1.341969668865203857e-01,-3.230145946145057678e-02,-2.763349115848541260e-01,2.406947081908583641e-03,3.608762025833129883e-01,8.368255198001861572e-02,1.555749773979187012e-01,-1.444186717271804810e-01,-3.823945820331573486e-01
1.794100180268287659e-02,1.460730284452438354e-01,-7.309441920369863510e-03,3.484890237450599670e-02,6.116916425526142120e-03,-9.024620801210403442e-02,1.349579636007547379e-02,-8.063755929470062256e-03,5.143370851874351501e-02,-1.736164838075637817e-01,-8.075161278247833252e-02,5.029998347163200378e-02,-1.495306100696325302e-02,-1.465360820293426514e-01,5.923344194889068604e-02,-1.771560013294219971e-01,-9.493002295494079590e-02,-3.003363609313964844e-01,-1.958874985575675964e-02
4.186880961060523987e-02,1.123976558446884155e-01,4.526487737894058228e-02,-2.053602365776896477e-03,3.380517289042472839e-02,-5.353601649403572083e-02,5.411409586668014526e-02,7.535681128501892090e-02,4.686814248561859131e-01,3.278420306742191315e-03,5.579635873436927795e-02,1.110166385769844055e-01,3.314466029405593872e-02,-1.923731118440628052e-01,3.506791545078158379e-03,2.714161574840545654e-01,-1.491847820580005646e-02,-2.081546746194362640e-02,-1.206787489354610443e-02
4.797376692295074463e-02,-2.713979454711079597e-03,-5.682073533535003662e-03,8.153075724840164185e-02,-3.860868513584136963e-02,-1.478209197521209717e-01,3.014040924608707428e-02,-5.631602928042411804e-02,-9.088856726884841919e-02,-1.576935052871704102e-01,9.547130018472671509e-02,2.850883305072784424e-01,1.556923892349004745e-02,-2.642529085278511047e-02,-2.552158534526824951e-01,1.702324002981185913e-01,-2.354507893323898315e-01,7.513544708490371704e-02,1.515709608793258667e-02
1.621205806732177734e-01,-4.425677005201578140e-03,5.353624373674392700e-02,-1.603772118687629700e-02,-9.096427820622920990e-03,1.022433713078498840e-01,-1.558773498982191086e-02,-1.562303584069013596e-02,-8.184510283172130585e-03,-1.061152964830398560e-01,-3.423208370804786682e-02,-1.136000454425811768e-01,-3.041268140077590942e-02,-1.099624782800674438e-01,-2.698946595191955566e-01,5.352509021759033203e-02,-1.341769248247146606e-01,2.497341036796569824e-01,-6.612479686737060547e-03
-2.979488298296928406e-02,6.275464594364166260e-02,1.067816279828548431e-02,9.911080449819564819e-02,1.010541692376136780e-01,2.311027608811855316e-02,1.411625444889068604e-01,9.963919222354888916e-02,7.007358968257904053e-02,1.457441449165344238e-01,1.406449265778064728e-02,9.516283869743347168e-03,-8.622816205024719238e-02,-1.045840904116630554e-01,-8.228130638599395752e-02,-8.173572272062301636e-02,3.377031981945037842e-01,3.391066275071352720e-04,2.333871088922023773e-02
6.409369409084320068e-02,-2.087983116507530212e-02,1.587969623506069183e-02,1.698854416608810425e-01,-1.175284665077924728e-02,-7.160386443138122559e-02,7.320492714643478394e-02,-1.090660393238067627e-01,-3.887329697608947754e-01,2.758294641971588135e-01,-3.600008087232708931e-03,-7.755616307258605957e-02,-2.679004967212677002e-01,-4.061733484268188477e-01,2.695758454501628876e-02,2.484724111855030060e-02,-3.505726531147956848e-02,2.454266101121902466e-01,1.136764045804738998e-02
-9.161886572837829590e-02,-2.851150929927825928e-01,-2.839627265930175781e-01,-8.630962669849395752e-02,-8.529195934534072876e-02,-2.643834352493286133e-01,-3.057662248611450195e-01,-1.545061767101287842e-01,-6.101750954985618591e-02,-5.611461121588945389e-03,-4.788184911012649536e-02,-1.738891899585723877e-01,3.584481030702590942e-02,1.626272797584533691e-01,6.343084573745727539e-02,2.063088715076446533e-01,-1.348686516284942627e-01,-7.633624225854873657e-02,2.124976832419633865e-03
-1.506574004888534546e-01,-2.746413350105285645e-01,-2.612518668174743652e-01,3.297295272350311279e-01,-3.120891749858856201e-01,-3.951343894004821777e-01,-3.618199229240417480e-01,-6.248701214790344238e-01,-4.647922888398170471e-02,-6.248965114355087280e-02,-6.551251411437988281e-01,-9.631837010383605957e-01,-1.877851337194442749e-01,-3.506388962268829346e-01,-1.159167066216468811e-01,-1.280621051788330078e+00,5.904887318611145020e-01,-2.950534597039222717e-02,1.438308358192443848e-01
-7.881235331296920776e-02,-2.721351385116577148e-01,-1.216312497854232788e-01,-6.107215769588947296e-03,-7.390258461236953735e-02,-9.967665374279022217e-02,9.188353270292282104e-02,-2.229570299386978149e-01,3.041980266571044922e-01,-6.904693841934204102e-01,-4.858926534652709961e-01,-4.978792369365692139e-01,-4.190928041934967041e-01,-6.609209179878234863e-01,-1.192756056785583496e+00,6.402027606964111328e-01,-8.180195689201354980e-01,-5.958745256066322327e-02,2.170242369174957275e-02
3.490750491619110107e-02,-7.192277815192937851e-03,4.953563958406448364e-02,2.246410027146339417e-02,2.287173084914684296e-02,-2.502860128879547119e-01,2.580193802714347839e-02,-3.806104958057403564e-01,4.035672545433044434e-02,-4.987467527389526367e-01,-4.759223759174346924e-01,9.135626605711877346e-04,-2.776431143283843994e-01,-1.619009971618652344e-01,-7.749457657337188721e-02,-4.261130690574645996e-01,-3.637445271015167236e-01,6.298941560089588165e-03,1.348963705822825432e-03
1.127208769321441650e-01,6.846746895462274551e-03,9.526298940181732178e-02,1.467630565166473389e-01,9.586928039789199829e-02,5.480187386274337769e-02,1.157109439373016357e-01,2.484027445316314697e-01,-1.413644999265670776e-01,-2.425828762352466583e-02,2.166919410228729248e-01,2.413794547319412231e-01,-5.530340969562530518e-02,-4.816439934074878693e-03,6.561577320098876953e-02,3.593410253524780273e-01,1.397713273763656616e-01,-6.710940599441528320e-02,2.125230617821216583e-03
-1.003229618072509766e-02,-1.000730916857719421e-01,-8.281062543392181396e-02,9.793825447559356689e-02,1.809868216514587402e-02,1.133068557828664780e-02,3.142314031720161438e-02,-5.323716439306735992e-03,6.491313688457012177e-03,2.380606234073638916e-01,3.284572064876556396e-01,-2.671779394149780273e-01,-3.789639100432395935e-02,2.710815891623497009e-02,1.113223284482955933e-01,-3.072488866746425629e-02,1.511891186237335205e-01,-1.108443178236484528e-02,7.267939299345016479e-02
5.562483519315719604e-02,1.007054522633552551e-01,-1.106384675949811935e-02,1.548178941011428833e-01,4.811580106616020203e-02,1.132853999733924866e-01,2.977902442216873169e-02,-8.041300624608993530e-02,-3.708440363407135010e-01,6.340160220861434937e-02,1.485793143510818481e-01,4.077928513288497925e-02,1.077404022216796875e-01,2.553247809410095215e-01,4.098346233367919922e-01,6.846215575933456421e-02,3.585432469844818115e-01,5.281320214271545410e-02,-4.963716119527816772e-02
1.784186344593763351e-03,-3.120387718081474304e-02,-3.281714394688606262e-02,8.082825690507888794e-02,-8.566113188862800598e-03,1.657245457172393799e-01,4.334693029522895813e-02,-8.123015612363815308e-02,-8.903477340936660767e-02,1.920941472053527832e-02,1.475454270839691162e-01,-1.706148497760295868e-02,-2.411818802356719971e-01,-7.093607634305953979e-02,-2.816045880317687988e-01,1.117306277155876160e-01,-4.706375673413276672e-02,6.443882733583450317e-02,-1.065976545214653015e-01
4.306238144636154175e-02,9.128449112176895142e-02,-2.468946576118469238e-02,-1.640277504920959473e-01,8.136225491762161255e-02,2.932761311531066895e-01,2.870222330093383789e-01,6.932480633258819580e-02,-6.257303804159164429e-02,-1.830160319805145264e-01,3.069821298122406006e-01,-8.280601352453231812e-02,7.959200441837310791e-02,6.092699989676475525e-02,-7.628256827592849731e-02,6.805928945541381836e-01,-5.927357077598571777e-01,-2.776894345879554749e-02,-9.095774590969085693e-02
3.533039987087249756e-02,1.723412126302719116e-01,4.004859551787376404e-02,-5.952252540737390518e-03,-3.666133284568786621e-01,6.451768428087234497e-02,1.544265002012252808e-01,-2.636077404022216797e-01,1.090888008475303650e-01,-4.130150377750396729e-02,-1.377599388360977173e-01,-2.300778478384017944e-01,-7.981101870536804199e-01,-3.498476743698120117e-01,-1.094141155481338501e-01,-6.871065497398376465e-01,3.959419950842857361e-02,1.202748715877532959e-02,3.587171807885169983e-02
1.696372218430042267e-02,1.476735807955265045e-02,1.404269784688949585e-01,1.569575816392898560e-01,2.404759079217910767e-02,-1.112307235598564148e-01,-3.713149204850196838e-02,1.117680147290229797e-01,1.090765669941902161e-01,7.559372484683990479e-02,4.152868688106536865e-02,-8.242895454168319702e-02,-1.751274801790714264e-02,1.438510715961456299e-01,1.226822286844253540e-01,-2.025135606527328491e-01,6.953426599502563477e-01,6.527891010046005249e-02,-1.393956393003463745e-01
7.642795145511627197e-02,-3.108080103993415833e-02,-5.043581873178482056e-02,1.332841515541076660e-01,4.602519050240516663e-02,2.647026814520359039e-02,2.636277377605438232e-01,-4.370298236608505249e-02,2.566178441047668457e-01,1.282429099082946777e-01,2.160674780607223511e-01,-1.122485622763633728e-01,1.220568791031837463e-01,3.082102239131927490e-01,8.470433205366134644e-02,2.883730530738830566e-01,-2.113357037305831909e-01,3.767337277531623840e-02,-2.675182186067104340e-02
1.198338717222213745e-02,-9.656032547354698181e-03,1.643040776252746582e-01,1.649962067604064941e-01,9.438648074865341187e-02,2.740862406790256500e-02,9.636351466178894043e-02,8.681817352771759033e-02,-6.194585189223289490e-02,-1.868875175714492798e-01,-2.382389307022094727e-01,4.299931600689888000e-02,-1.126835346221923828e-01,1.810216158628463745e-01,6.723985075950622559e-01,6.391374766826629639e-02,2.261457294225692749e-01,6.423731893301010132e-02,-4.274176955223083496e-01
7.597095519304275513e-02,2.146618068218231201e-01,-4.445107653737068176e-03,2.350047528743743896e-01,1.949310749769210815e-01,-1.888622762635350227e-03,7.046514004468917847e-02,-3.517625387758016586e-03,2.367787808179855347e-01,-5.269057303667068481e-02,4.488740116357803345e-02,1.381261050701141357e-01,1.806364208459854126e-01,-1.968413963913917542e-02,1.183595806360244751e-01,-5.035787448287010193e-02,1.972270011901855469e-02,6.570341438055038452e-02,-1.177130732685327530e-02
-2.442264370620250702e-02,-5.710648838430643082e-03,8.196538686752319336e-02,6.575608253479003906e-02,-9.147400408983230591e-02,-1.540291607379913330e-01,4.632588475942611694e-02,1.021057441830635071e-01,5.591431260108947754e-01,-5.387371033430099487e-02,-1.995192468166351318e-01,4.471109807491302490e-02,1.716219633817672729e-02,8.453308604657649994e-03,1.165869161486625671e-01,2.850825488567352295e-01,2.820949535816907883e-03,1.046620383858680725e-01,-3.305186331272125244e-02
-5.264280829578638077e-03,1.278825998306274414e-01,6.008979305624961853e-02,1.183890625834465027e-01,-4.734081029891967773e-02,-2.682123519480228424e-02,4.903036355972290039e-02,-1.319295316934585571e-01,-1.569565981626510620e-01,4.506312683224678040e-02,2.946581542491912842e-01,3.969466984272003174e-01,8.119972050189971924e-02,-5.900608748197555542e-02,-6.173673644661903381e-02,1.541517972946166992e-01,-2.076770663261413574e-01,6.986108422279357910e-02,2.398779839277267456e-01
-2.952245529741048813e-03,-9.528651088476181030e-02,-2.879711426794528961e-02,-2.057275362312793732e-02,-1.516410708427429199e-02,1.839236319065093994e-01,-1.084693241864442825e-02,-1.092382222414016724e-01,9.422209113836288452e-02,-4.750834032893180847e-02,1.078850822523236275e-03,-9.843567758798599243e-02,7.469243556261062622e-02,2.418785542249679565e-01,2.398699074983596802e-01,7.229171693325042725e-02,-2.902799658477306366e-02,-9.824775904417037964e-02,2.443364858627319336e-01
-5.632630083709955215e-03,1.409941352903842926e-02,-2.944316342473030090e-02,1.265069842338562012e-01,3.322025388479232788e-02,8.945579640567302704e-03,1.390766650438308716e-01,1.669239252805709839e-01,-2.567088697105646133e-03,1.222231835126876831e-01,4.996980354189872742e-02,-4.037417529616504908e-04,-5.635678023099899292e-02,-9.107949584722518921e-02,-5.882858857512474060e-02,-1.193319335579872131e-01,1.107531487941741943e-01,8.072774857282638550e-02,2.945801429450511932e-02
-5.322498083114624023e-02,-2.245714701712131500e-02,8.271090686321258545e-03,6.357260793447494507e-02,-4.807545244693756104e-02,-1.163555402308702469e-02,6.882599741220474243e-02,-1.925808340311050415e-01,-8.869160711765289307e-02,1.427896916866302490e-01,-2.636175453662872314e-01,-3.383518159389495850e-01,2.108087390661239624e-02,-1.272175228223204613e-03,2.386952750384807587e-02,9.576579928398132324e-02,-1.365113407373428345e-01,-1.443949192762374878e-01,1.334606111049652100e-02
1.473085284233093262e-01,3.030553162097930908e-01,5.727470293641090393e-02,4.380631446838378906e-01,4.449819326400756836e-01,1.588439643383026123e-01,1.478255540132522583e-01,-2.312812209129333496e-01,3.567931950092315674e-01,1.648038476705551147e-01,9.073251485824584961e-02,7.157623767852783203e-02,7.439509779214859009e-02,7.963667064905166626e-02,3.344136849045753479e-02,3.070745766162872314e-01,1.587948296219110489e-03,2.240731865167617798e-01,-2.012308454141020775e-03
6.183616071939468384e-02,1.731220167130231857e-03,1.639158725738525391e-01,5.974674224853515625e-02,1.980322599411010742e-01,-1.170322531834244728e-03,3.016067147254943848e-01,-3.139718621969223022e-02,-1.051818802952766418e-01,2.605806291103363037e-01,6.327164918184280396e-02,-1.541798561811447144e-01,2.774284780025482178e-01,-3.906750120222568512e-03,-4.154995977878570557e-01,5.318197607994079590e-01,2.395578324794769287e-01,5.339278280735015869e-02,8.764866739511489868e-02
8.034194260835647583e-02,-1.747711151838302612e-01,-5.794713506475090981e-04,5.609961152076721191e-01,1.749949455261230469e-01,7.745905965566635132e-02,6.750328540802001953e-01,-6.592596322298049927e-02,1.516817957162857056e-01,-2.613274753093719482e-02,1.355462968349456787e-01,-2.978836596012115479e-01,1.456647515296936035e-01,-4.072904214262962341e-02,-2.169730961322784424e-01,4.994299709796905518e-01,3.719723522663116455e-01,1.737060956656932831e-02,6.900060176849365234e-02
-1.312491390854120255e-02,7.613353431224822998e-02,-1.753006726503372192e-01,1.166044920682907104e-02,6.736121326684951782e-02,-5.342042073607444763e-02,-5.481718853116035461e-02,1.452627182006835938e-01,-4.308045282959938049e-02,4.435382410883903503e-02,-1.178532540798187256e-01,4.422007873654365540e-02,2.990082465112209320e-02,2.333325892686843872e-02,3.331228494644165039e-01,1.001403853297233582e-01,2.914373874664306641e-01,1.403991319239139557e-02,6.254922866821289062e+00
2.378045022487640381e-02,-1.397947687655687332e-02,-5.803402885794639587e-02,5.512497946619987488e-02,-1.196557879447937012e-01,-1.095805242657661438e-01,1.745383068919181824e-02,2.351632714271545410e-01,-3.751632757484912872e-03,-6.112804636359214783e-02,6.350927799940109253e-02,3.505018949508666992e-01,4.390368759632110596e-01,-4.361548647284507751e-02,-4.436342418193817139e-02,6.445770710706710815e-02,-1.050959154963493347e-01,-6.337942928075790405e-02,5.358480215072631836e-01
6.402862258255481720e-03,4.718386009335517883e-02,-3.788888081908226013e-02,2.254431322216987610e-02,6.982970982789993286e-03,1.447809487581253052e-01,-9.126215428113937378e-02,-1.071488577872514725e-02,-1.733876951038837433e-02,8.988764137029647827e-02,-1.465176641941070557e-01,9.617727994918823242e-02,2.946376800537109375e-02,8.481762371957302094e-03,2.119510173797607422e-01,5.891096219420433044e-02,1.362674087285995483e-01,1.001953333616256714e-02,8.184679746627807617e-01
1.807579421438276768e-03,-7.351979613304138184e-02,-2.224369719624519348e-02,1.649021543562412262e-02,1.398888789117336273e-02,-1.471907552331686020e-02,5.299759656190872192e-02,-1.062346622347831726e-01,-6.031078845262527466e-02,-7.218642625957727432e-03,2.236953675746917725e-01,-2.033688127994537354e-01,-2.347775995731353760e-01,2.116970270872116089e-01,-2.633728086948394775e-01,-1.526914387941360474e-01,-2.387003302574157715e-01,-1.426426600664854050e-02,1.095804452896118164e+00
2.418074011802673340e-02,6.164788454771041870e-02,-1.193842068314552307e-01,-3.830913081765174866e-02,1.262585539370775223e-02,1.726992614567279816e-02,-4.764988273382186890e-02,-7.526522129774093628e-02,9.327375143766403198e-02,6.511947140097618103e-03,5.003517270088195801e-01,2.527402043342590332e-01,-2.114321589469909668e-01,-3.174242377281188965e-01,3.769612638279795647e-03,6.482821423560380936e-03,-8.155578374862670898e-02,-2.945073507726192474e-02,1.057677030563354492e+00
1.266985927941277623e-04,-1.848327927291393280e-02,1.688841283321380615e-01,5.225505307316780090e-02,-5.912332609295845032e-02,9.029556810855865479e-02,1.059535220265388489e-01,1.020753663033246994e-02,4.369323328137397766e-02,-1.071873381733894348e-01,9.845395386219024658e-02,2.676572799682617188e-01,1.905645057559013367e-02,-2.281319350004196167e-02,-1.093436360359191895e+00,-1.498327590525150299e-02,-6.316318511962890625e-01,7.180478423833847046e-03,-1.187631845474243164e+00
6.327657029032707214e-04,1.674206869211047888e-04,4.366938397288322449e-02,3.111755009740591049e-03,5.361746996641159058e-02,7.458724081516265869e-02,-5.603069812059402466e-02,3.534996509552001953e-02,-2.548870071768760681e-02,2.970594912767410278e-02,1.753388941287994385e-01,-1.125215217471122742e-01,-7.165697216987609863e-02,-2.224736362695693970e-01,6.238970533013343811e-02,-1.261796057224273682e-01,1.057376191020011902e-01,1.059635914862155914e-02,-5.829534053802490234e+00
1.704468205571174622e-02,-1.644441783428192139e-01,-6.669406592845916748e-02,1.320731081068515778e-02,-2.232763357460498810e-02,3.108235821127891541e-02,3.886889293789863586e-02,-2.504740655422210693e-02,4.468188807368278503e-02,-8.800822496414184570e-02,-5.618906021118164062e-02,5.325623601675033569e-02,2.453860454261302948e-02,-5.774892866611480713e-02,-3.275081217288970947e-01,4.934016987681388855e-02,-3.711104691028594971e-01,6.225204840302467346e-02,-4.826178848743438721e-01
-1.746412925422191620e-02,-1.570951044559478760e-01,3.082592971622943878e-03,-7.166322320699691772e-02,-1.151711121201515198e-01,-5.499734729528427124e-02,-4.608624428510665894e-02,8.997427672147750854e-02,6.655876338481903076e-02,3.025120496749877930e-02,-7.981225103139877319e-02,-1.385661363601684570e-01,1.729798689484596252e-02,7.227340340614318848e-02,2.600443065166473389e-01,-1.245049497811123729e-04,-3.918091952800750732e-02,-1.272720694541931152e-01,2.039673775434494019e-01
9.000085294246673584e-03,4.925133287906646729e-02,2.081168442964553833e-02,-5.968060344457626343e-03,2.155051939189434052e-02,2.640633657574653625e-02,1.002397611737251282e-01,1.335333138704299927e-01,-1.864104531705379486e-02,-1.544571518898010254e-01,-1.719358116388320923e-01,1.212752386927604675e-01,3.991798460483551025e-01,-6.833600997924804688e-02,2.890650928020477295e-01,9.266570955514907837e-02,1.456858813762664795e-01,-3.426901251077651978e-02,-1.446579933166503906e+00
4.640540853142738342e-02,1.274019852280616760e-02,5.180484056472778320e-02,5.874307081103324890e-02,-1.093996465206146240e-01,-1.699042916297912598e-01,1.297727525234222412e-01,-7.228717952966690063e-02,4.318056628108024597e-02,1.976268365979194641e-02,-2.617533504962921143e-02,-6.477916240692138672e-02,4.183900356292724609e-02,2.967455948237329721e-04,2.223115116357803345e-01,-8.983015269041061401e-02,2.707443237304687500e-01,-7.504420820623636246e-03,-2.950288355350494385e-01
2.671263925731182098e-02,-3.996275737881660461e-02,4.290916398167610168e-02,-7.833274453878402710e-02,8.579012751579284668e-02,-8.231509476900100708e-02,1.635716855525970459e-01,1.397518813610076904e-01,1.950161345303058624e-02,3.398506343364715576e-02,-2.030686587095260620e-01,-2.349781543016433716e-01,-1.174063682556152344e-01,1.382681727409362793e-01,-1.731493175029754639e-01,-2.431187033653259277e-01,2.672898471355438232e-01,8.945399895310401917e-03,1.456542253494262695e+00
8.095977827906608582e-03,-1.180514227598905563e-02,1.341756340116262436e-02,-3.255648165941238403e-02,7.319582253694534302e-02,1.317174136638641357e-01,2.657232992351055145e-02,-1.028007566928863525e-01,1.496541779488325119e-02,8.652301877737045288e-02,-2.016092091798782349e-01,-3.130670189857482910e-01,-8.718010783195495605e-02,1.095166429877281189e-01,-2.949869632720947266e-01,-1.811694502830505371e-01,-1.995436549186706543e-01,3.398507460951805115e-02,7.637147307395935059e-01
2.411923930048942566e-02,9.592892974615097046e-02,-5.988157168030738831e-02,5.241119489073753357e-02,1.293930411338806152e-02,1.309435814619064331e-01,-1.132888719439506531e-01,-3.944754600524902344e-02,-6.576756387948989868e-02,5.278802942484617233e-03,-1.227159276604652405e-01,-2.547232806682586670e-02,1.159974560141563416e-01,2.093148827552795410e-01,-4.955236315727233887e-01,1.658872887492179871e-02,-1.372226327657699585e-01,-7.612077891826629639e-02,-1.213134825229644775e-01
-5.512027442455291748e-02,2.743364311754703522e-02,1.160224452614784241e-01,-3.989749401807785034e-02,8.567310869693756104e-02,8.454681187868118286e-02,8.198661729693412781e-03,2.189588844776153564e-01,-1.540889292955398560e-01,6.260077655315399170e-02,5.008716881275177002e-02,4.246779903769493103e-02,-1.732519716024398804e-01,6.870567053556442261e-02,3.153843879699707031e-01,-2.927131950855255127e-01,2.173288464546203613e-01,1.233055517077445984e-01,2.278868108987808228e-01
-1.421110611408948898e-02,6.837215274572372437e-02,-1.697275042533874512e-02,-1.055743992328643799e-01,3.627506271004676819e-02,-5.193208903074264526e-02,-8.752501755952835083e-02,1.136908903717994690e-01,-2.082008123397827148e-02,-1.379639059305191040e-01,1.054141148924827576e-01,5.823628231883049011e-02,-2.867822535336017609e-02,3.794807940721511841e-02,-6.720628589391708374e-02,1.103209778666496277e-01,-6.119190156459808350e-02,8.520768024027347565e-03,2.481729984283447266e+00
1.270414609462022781e-02,-2.873299829661846161e-02,-9.596553444862365723e-02,-3.576451838016510010e-01,-3.785090148448944092e-01,-4.404468461871147156e-03,-3.649961352348327637e-01,-2.940094470977783203e-01,4.278564825654029846e-02,1.113467756658792496e-02,-8.517505973577499390e-02,-4.188176244497299194e-02,-4.063894227147102356e-02,-6.652006506919860840e-02,1.514706313610076904e-01,7.924755662679672241e-02,4.617358744144439697e-02,9.139216691255569458e-02,-2.369871586561203003e-01
-2.148203551769256592e-03,-1.758113503456115723e-03,-1.214500144124031067e-01,1.484737638384103775e-02,-1.546993292868137360e-02,-1.809352636337280273e-02,3.605121374130249023e-02,1.949755288660526276e-02,-2.433831617236137390e-02,8.417832851409912109e-02,4.891820996999740601e-02,2.156905271112918854e-02,-1.743821948766708374e-01,3.826108202338218689e-02,-1.080269068479537964e-01,-1.076983660459518433e-01,9.723562002182006836e-02,-5.584896076470613480e-03,3.658821105957031250e+00
1.598764397203922272e-02,6.617262959480285645e-02,-1.471931785345077515e-01,-1.945156720466911793e-03,4.205392673611640930e-02,1.253984123468399048e-01,-3.006851673126220703e-02,-3.761443868279457092e-02,-1.399517804384231567e-01,9.511306136846542358e-02,-2.422784455120563507e-02,-1.212571859359741211e-01,-4.544763639569282532e-02,-7.266295701265335083e-02,2.883490025997161865e-01,-1.687870174646377563e-01,-1.297224611043930054e-01,-8.491621352732181549e-03,2.203104257583618164e+00
4.841339886188507080e-01,4.013299942016601562e-02,1.877448894083499908e-02,-1.823672209866344929e-03,9.076105803251266479e-02,1.709853857755661011e-02,3.208632022142410278e-02,1.297076778428163379e-06,3.999737277626991272e-02,2.798778712749481201e-01,1.123551279306411743e-01,9.990039467811584473e-02,2.146465480327606201e-01,2.436317354440689087e-01,7.064709812402725220e-02,2.096785306930541992e-01,1.874968111515045166e-01,2.742734178900718689e-02,1.173911314822362328e-07
1.386609077453613281e-01,5.521888285875320435e-02,2.749678678810596466e-02,-4.662823863327503204e-03,1.548356264829635620e-01,3.292914945632219315e-03,6.759028136730194092e-02,5.186987295746803284e-02,-6.283756345510482788e-03,2.279850095510482788e-02,6.321542859077453613e-01,2.910436987876892090e-01,-7.604526728391647339e-02,2.267955429852008820e-02,-2.325850278139114380e-01,1.901800632476806641e-01,-2.687904536724090576e-01,1.079429872334003448e-02,3.543125931173563004e-03
7.076919078826904297e-02,3.327060490846633911e-02,3.767656860873103142e-03,1.152916029095649719e-01,1.697703301906585693e-01,-7.376018166542053223e-02,6.704338639974594116e-02,4.474170878529548645e-02,7.448836416006088257e-02,4.603858590126037598e-01,4.051467180252075195e-01,3.185985982418060303e-02,-1.472860723733901978e-01,-1.947295069694519043e-01,9.906559437513351440e-02,-9.927049279212951660e-02,3.124698698520660400e-01,6.063874065876007080e-02,1.150082144886255264e-02
1.213463917374610901e-01,1.047271788120269775e-01,-2.681673876941204071e-02,2.695209681987762451e-01,-1.421136688441038132e-02,7.812327146530151367e-02,1.425584312528371811e-02,-4.841213673353195190e-02,-3.450968861579895020e-01,8.916708827018737793e-02,8.809273131191730499e-03,-1.303817927837371826e-01,-1.522937975823879242e-02,1.771605014801025391e-01,1.238504946231842041e-01,-5.422292277216911316e-02,3.344070315361022949e-01,1.760840602219104767e-02,-1.309588849544525146e-01
4.695590585470199585e-02,-1.763219828717410564e-03,1.289966050535440445e-03,-5.649788770824670792e-03,1.529054194688796997e-01,8.701552287675440311e-04,1.138214021921157837e-01,-1.367876976728439331e-01,-6.371185183525085449e-02,6.614162027835845947e-02,2.842561900615692139e-01,1.332305371761322021e-01,5.972890066914260387e-04,1.693587899208068848e-01,-9.612020105123519897e-02,1.554885506629943848e-01,-1.093463525176048279e-01,-4.015707224607467651e-02,8.395111071877181530e-04
1.004637777805328369e-01,1.506330221891403198e-01,3.767208382487297058e-02,3.028616495430469513e-02,2.812312841415405273e-01,2.786895334720611572e-01,1.843868046998977661e-01,5.388209968805313110e-02,6.573808938264846802e-02,-4.153645336627960205e-01,-7.105854898691177368e-02,5.474330484867095947e-02,2.557457089424133301e-01,1.095081344246864319e-01,-5.096749663352966309e-01,7.567818760871887207e-01,-1.008276581764221191e+00,1.465978622436523438e-01,-1.119831204414367676e-02
5.322924852371215820e-01,1.762758940458297729e-02,-2.848610095679759979e-02,1.567371668897976633e-06,-2.658396959304809570e-02,3.681080341339111328e-01,8.015625923871994019e-02,-1.438442035578191280e-03,6.842131260782480240e-03,2.398672848939895630e-01,1.760490089654922485e-01,1.017654836177825928e-01,-5.295477807521820068e-02,-1.402777712792158127e-02,-1.391324251890182495e-01,2.606613561511039734e-02,-1.420590467751026154e-02,1.116010025143623352e-01,-1.225795198678270026e-08
-4.219583421945571899e-02,1.042561084032058716e-01,1.203824281692504883e-01,1.548441797494888306e-01,1.849697083234786987e-01,7.970884442329406738e-02,7.366083562374114990e-02,7.614200934767723083e-03,2.126133888959884644e-01,3.469786420464515686e-02,7.898833602666854858e-02,-1.466652727685868740e-03,-1.666975207626819611e-02,3.384222388267517090e-01,2.614240646362304688e-01,-4.623065516352653503e-02,4.771284759044647217e-01,-2.352170087397098541e-02,4.353355616331100464e-03
-2.155293524265289307e-02,-1.716740280389785767e-01,-1.135114207863807678e-01,1.098300218582153320e-01,-1.684651896357536316e-02,-9.683144837617874146e-02,1.507011204957962036e-01,-3.968466073274612427e-02,-1.000913158059120178e-01,4.076974466443061829e-02,9.317786991596221924e-02,-9.077262133359909058e-02,-8.035720139741897583e-02,-2.047928608953952789e-02,1.130924597382545471e-01,3.016513288021087646e-01,-3.813295438885688782e-02,2.692593028768897057e-03,-1.523360237479209900e-02
5.921887606382369995e-02,7.765220105648040771e-02,2.855089865624904633e-02,2.017649635672569275e-02,8.012836426496505737e-02,2.115750312805175781e-01,1.293602958321571350e-02,1.008212449960410595e-03,1.969782561063766479e-01,-4.743650928139686584e-02,-1.682996749877929688e-01,1.963613741099834442e-02,1.559288054704666138e-01,2.877064943313598633e-01,8.848547190427780151e-02,5.018005371093750000e-01,2.537293136119842529e-01,-9.917629510164260864e-02,-3.623613565650884993e-06
-8.888188004493713379e-02,-8.814710378646850586e-02,2.014949917793273926e-03,-2.194290235638618469e-02,-1.903068423271179199e-01,-1.207971870899200439e-01,-2.598764188587665558e-02,6.753386557102203369e-02,1.305834650993347168e-01,2.673812210559844971e-01,2.355248481035232544e-02,-1.863431334495544434e-01,3.511537909507751465e-01,3.390834927558898926e-01,1.879316270351409912e-01,-2.899549007415771484e-01,8.594873547554016113e-02,-6.400115042924880981e-02,1.409308286383748055e-03
1.160213444381952286e-02,-1.393235987052321434e-03,1.520557422190904617e-02,-9.922905592247843742e-04,1.824440434575080872e-02,2.526046591810882092e-04,1.764433830976486206e-02,7.706227153539657593e-02,5.182636380195617676e-01,3.608661890029907227e-01,6.468561887741088867e-01,2.680536210536956787e-01,4.936596751213073730e-02,-8.381912857294082642e-02,-1.283925175666809082e-01,3.162445724010467529e-01,1.543169170618057251e-01,-1.037780642509460449e-01,-5.117163527756929398e-03
2.760571194812655449e-03,1.811622679233551025e-01,5.736691504716873169e-02,-1.918862909078598022e-01,2.387325465679168701e-01,6.464056670665740967e-02,1.544183939695358276e-01,3.505287691950798035e-02,-5.448141600936651230e-03,-4.112351685762405396e-02,1.307347267866134644e-01,3.061163425445556641e-01,5.231151580810546875e-01,7.847060561180114746e-01,4.597745835781097412e-01,2.788400948047637939e-01,-1.653655618429183960e-01,-9.737686254084110260e-03,-1.508964449167251587e-01
-6.568719446659088135e-02,-1.331660002470016479e-01,-2.627466805279254913e-02,1.123300194740295410e-01,6.835749000310897827e-02,3.520744144916534424e-01,5.317948386073112488e-02,1.180473789572715759e-01,1.931583392433822155e-04,-6.225346121937036514e-03,1.159436777234077454e-01,-1.056289225816726685e-01,5.262259393930435181e-02,6.825042515993118286e-02,-9.374760091304779053e-02,-1.123995184898376465e-01,-2.920746207237243652e-01,3.336064517498016357e-01,1.320339590311050415e-01
3.596780821681022644e-02,3.782707080245018005e-02,-4.724061116576194763e-02,-6.400665733963251114e-03,-1.744351238012313843e-01,-2.442624047398567200e-02,2.053015679121017456e-01,1.069261282682418823e-01,2.849702723324298859e-02,3.833309412002563477e-01,2.121696770191192627e-01,5.506368353962898254e-02,-6.464120000600814819e-03,-2.267676405608654022e-03,-1.765139251947402954e-01,-3.998992498964071274e-03,3.442960977554321289e-01,-1.013570949435234070e-01,-1.492111186962574720e-04
2.519771456718444824e-01,-1.203848747536540031e-03,1.500597503036260605e-02,-4.983581975102424622e-02,1.346268802881240845e-01,-3.394177882000803947e-03,5.694530904293060303e-02,9.972237050533294678e-03,-7.567692548036575317e-02,6.702344119548797607e-02,-1.477261912077665329e-02,4.470109567046165466e-02,-3.410692512989044189e-02,-9.334254264831542969e-02,9.986344957724213600e-04,1.863587349653244019e-01,-2.004412934184074402e-02,-2.168441712856292725e-01,1.102370023727416992e-02
3.252983093261718750e-02,6.687410920858383179e-02,-7.661686092615127563e-02,3.054869771003723145e-01,-3.291290998458862305e-02,-1.411029845476150513e-01,-3.964905813336372375e-02,-4.135619103908538818e-01,1.647543758153915405e-01,-4.958871752023696899e-02,-2.895445190370082855e-02,-1.051177754998207092e-01,-1.554355770349502563e-01,-2.702956795692443848e-01,2.084609270095825195e-01,8.023685961961746216e-02,3.240600228309631348e-02,-5.431862920522689819e-02,-6.313375197350978851e-03
5.987791344523429871e-02,9.633752517402172089e-03,8.695701509714126587e-02,-3.495696485042572021e-01,1.855631917715072632e-01,-7.222088053822517395e-03,8.407206833362579346e-02,4.581208340823650360e-03,8.160885423421859741e-03,2.557081580162048340e-01,1.038738787174224854e-01,4.640294238924980164e-02,1.258258819580078125e-01,-2.134097069501876831e-01,-2.438069507479667664e-02,-5.466405749320983887e-01,-1.191249042749404907e-01,-4.184163641184568405e-03,7.703005075454711914e-01
-4.974924027919769287e-03,-1.758615225553512573e-01,-1.319987028837203979e-01,3.137956932187080383e-02,1.478777974843978882e-01,-7.500004768371582031e-02,2.594373822212219238e-01,-8.075875043869018555e-02,1.121946424245834351e-01,-5.130525827407836914e-01,-8.428921550512313843e-02,-1.452437788248062134e-01,6.742943823337554932e-02,-3.980356827378273010e-02,4.364258646965026855e-01,2.894749343395233154e-01,-2.061664909124374390e-01,8.537667454220354557e-04,1.077481582760810852e-01
