-3.148904401117924579e-11,-7.087609610323397646e-09,4.564557176678363248e-09,4.627376259946913706e-09,4.196328562411366647e-10,-4.408550413614875652e-09,-6.469343727388832122e-09,-6.456326584469707086e-09,1.032914465071144150e-08,-7.094082654646172159e-09,1.259943882558900441e-08,2.265055165651119751e-08,7.118930334115702863e-09,-2.336298043914553091e-09,-5.303190331318319295e-09,-5.613836950857375996e-09,-1.453459352873665011e-09
-1.568823071451674878e-09,4.190534586001604112e-09,-4.474396408937764136e-09,1.174455865893264672e-09,-2.823679068342244136e-09,7.818825586980437947e-09,-2.288155442897732428e-08,1.417214567922542301e-09,2.237639185054263180e-09,1.426407525428885492e-08,1.230247015371332964e-08,2.313041980173125012e-09,-1.845769648234352189e-09,-4.184253388217484826e-09,-1.415118466852050005e-09,-2.359166195731177140e-08,2.699971579644966369e-09
3.008721861988306046e-03,1.023810636269217866e-08,2.278254029874915432e-09,-4.452028523616036182e-09,7.592150019775090186e-09,-1.309851893616098550e-09,-1.423638007480576562e-08,-1.957117357065385477e-09,-1.223737666755653208e-09,2.007138677484476830e-09,-1.539271488049109848e-09,7.282040748179952061e-09,-2.519897179809049703e-09,5.425588797680624964e-12,-7.012469271927557202e-09,7.251479861025700302e-09,3.559731620583761469e-09
2.845954583108323277e-09,2.301603529986095964e-08,1.504426583309736998e-09,-7.251375500061385537e-09,-2.391272735380312042e-09,-7.164120852110045234e-09,-4.397068043004992433e-09,7.024155479484761599e-09,4.584317370159851635e-09,-4.387532559491091888e-09,-5.220884613521548090e-09,-1.902572099865551536e-09,-5.280112791439250941e-09,1.035709029650888624e-08,4.438705847320534303e-09,-5.678430614608487303e-09,-1.959883144664331667e-09
1.412489458729737635e-09,-4.585724244776656633e-09,-1.175152197774309570e-09,2.087515715842869213e-09,2.315244662653981322e-09,4.624931992935898961e-09,2.146306021799659902e-09,1.184144959864852353e-08,2.688472534873032060e-11,-1.880836375534045146e-09,2.277656951932272023e-09,7.600010398789436294e-09,7.316896422082663776e-09,-4.561771849154183656e-09,4.387155971841139035e-09,-5.262536628691805163e-09,5.697089466849547534e-09
2.027374490509714633e-09,-1.322221665489564657e-09,1.452606701590752891e-09,7.146428337989618740e-09,-1.182922826359344981e-08,3.434460715823206556e-09,-7.229915333084591111e-09,-4.462331393284557635e-09,-6.049445389066931966e-09,-6.085606685246602865e-09,-1.266331572935541772e-08,-3.444053042755967908e-09,4.575009260321394322e-09,-1.397497007005199521e-09,-1.584597120185549102e-09,-6.469230040551110505e-09,4.394652197703408092e-09
-7.710369231972435955e-09,-7.316953265501524584e-09,-7.316953265501524584e-09,9.475903617328640394e-09,5.773620248561428525e-09,-1.016247086482735540e-08,2.191411274665711062e-09,-2.299740620159695936e-09,1.026973439621770012e-08,4.507145323628947153e-09,2.311244307051651958e-09,9.450078941597439552e-09,-1.426714479890733855e-08,1.541346383859831803e-09,-5.609467113032451380e-09,-2.338884419472719856e-09,4.641004469618792427e-09
-2.265577725424350319e-09,-2.356179784612777439e-08,2.259027631623666821e-08,-1.245941572136644027e-08,-2.124662890068407251e-09,2.266798126981939276e-08,-2.307637636533854675e-08,-9.637452613731056772e-09,-1.044126118898702771e-08,-1.424434348251679694e-08,1.529409265899062120e-09,-4.384882235086706714e-09,6.225009396843006471e-09,-1.584497977269450075e-09,4.561317101803297192e-09,4.480762871850174633e-09,-1.186331655134154062e-08
1.995552884181961417e-04,7.588274897329938540e-09,9.641349940636700921e-09,1.172734531706964844e-08,3.998053887954711172e-09,1.424995321741562293e-08,2.274333388285754154e-09,-7.139402846689790749e-09,5.705663941313332543e-09,4.548092125133962327e-09,1.457940768112564456e-09,-2.338278681790484370e-09,7.727863682305269322e-09,-2.332411241923182388e-08,-1.422861028999022892e-08,-1.032749086249395987e-08,-1.266018179180150582e-09
-1.212440814413184853e-08,-4.435465772445468247e-09,-3.559073036285553826e-09,-5.255523571889852974e-09,5.262458468990871552e-09,-2.174432855994723468e-09,4.201867742636977709e-09,7.746964847399340215e-09,-2.239870289244549895e-09,4.001559972266477416e-09,2.343042382335625007e-08,-1.044203923328268502e-08,-1.879912892022161941e-09,-1.023813300804476967e-08,2.117148012459324491e-09,2.094780127137596537e-09,-1.512559411054326119e-09
-5.248496304233185583e-09,5.207654307781695024e-09,1.869528309939028077e-09,-7.086359055108459870e-09,-2.285318778660894168e-08,7.779667576812698826e-09,3.985103802506273496e-09,-4.561658162316462040e-09,-4.639242323634107379e-09,-9.635349407233206875e-09,4.744220571950563681e-09,-4.465663838715272504e-09,1.226929446929148071e-09,7.016652148195134941e-09,-1.540145566636397234e-09,-4.520034568855635371e-09,1.187185727502537702e-08
-4.374266726614450818e-09,2.264440857047134159e-09,-4.530323227669441621e-09,2.845819579988528858e-09,-2.317546865526765032e-08,-7.594631590279732336e-09,2.105086549519796790e-09,2.604878446277325565e-08,-4.485473770188264098e-09,-4.640777095943349195e-09,5.678835623967870561e-09,7.016154768280102871e-09,2.306867363799369741e-09,3.935628711815297720e-09,7.104087096365674370e-09,2.283563560467882780e-08,4.159513178336737838e-09
5.763558963423065507e-09,-4.497823002935774639e-09,2.274843202698662026e-09,1.035120700265679261e-08,2.297459777977906015e-09,-7.024134163202688796e-09,-1.296990737031933349e-09,-1.424906148628224400e-08,2.338742310925567836e-09,1.407203020775682489e-09,-7.102097576705546089e-09,7.102722854313014977e-09,-2.303962887140187377e-08,2.293928380581178317e-09,-1.422088891089856588e-09,-4.587131119393461631e-09,1.457211018518478340e-09
2.272619203935732912e-09,2.269613608163467688e-09,2.316301994653713336e-08,-1.033918461956773172e-08,1.490187306885104590e-09,-3.450540297933457623e-09,5.742208930570313896e-09,4.379254736619486721e-09,1.032620833285591289e-08,-2.281010713645059695e-09,-2.359007034158366878e-08,-2.843275836994507699e-09,-1.123610626763138498e-08,-1.028278706627361316e-08,7.204875807076405181e-09,-3.475565613086928352e-09,-5.690197202312674563e-09
-5.205735842395142754e-09,7.316839578663802968e-09,-1.183793951753386864e-08,2.072822580245770041e-09,5.214745524284580824e-09,2.302752122318452166e-08,2.287227118813461857e-08,6.320662659931031158e-09,2.936292986532862415e-09,-1.386881498532943624e-09,-1.265881799383805628e-08,-1.389098391868515137e-09,-1.543449590357681700e-09,-2.318385261546040965e-09,9.695294345135607728e-09,-2.332617432543315772e-09,7.536503865424037940e-09
-6.933045693102712903e-09,-7.105444232990976161e-09,-1.255465331695404529e-08,-1.922926040620609456e-09,1.133404392561487839e-08,2.179587843542662995e-09,-1.422373108184160628e-09,-7.600060136780939501e-09,2.299157664253925759e-08,-4.558183608338595150e-09,-9.647769694254293427e-09,2.312011693206272867e-09,-1.312385977669805470e-09,-2.285313094319008087e-08,2.383744757139538706e-08,-6.039917010980389023e-09,5.680306447430893968e-09
-6.076291469980787951e-09,1.505996882755766819e-09,-2.307521063116269033e-09,-1.028552265580628955e-08,2.605590410098557186e-08,7.162294757279141777e-09,-4.406198517159509720e-09,4.423585497903559371e-09,4.163890121589020055e-09,-4.548754706235058620e-09,5.676384251529498215e-09,2.302668056231027549e-09,2.283035760441975981e-09,-4.382040064143666314e-09,-7.088519105025170575e-09,2.285460354300994368e-08,1.187195675100838343e-08
2.075692062675216221e-09,-1.043942088330140905e-08,2.119194375538313579e-09,2.122552578143199753e-09,1.184781606156093403e-08,-4.524006502748534331e-09,-1.445167319147344642e-09,-1.554072204257295198e-09,2.319586078769475535e-09,-2.309303148706476350e-08,-1.182524922427319325e-08,-7.246598876520238264e-09,1.184451914326700717e-08,2.921016317714020261e-09,-1.033099916725177536e-08,6.082501613491331227e-09,-7.136494950543692539e-09
7.319681749606843368e-09,-4.191778035789184287e-09,3.007506396701664642e-11,-4.631973471447281554e-09,5.653089107937603330e-09,-1.259273307852026846e-08,4.453406976523410776e-09,-1.354965828426202279e-08,6.188032752874050857e-09,7.132075374727264716e-09,1.171069552441394990e-08,-2.072739091474318229e-09,1.042383868110619005e-08,1.520918280206728923e-09,2.283771216582408670e-08,-4.435963152360500317e-09,4.583606827424091534e-09
-3.438660023391548748e-09,-4.436147893471797943e-09,1.256158821405506387e-08,1.423661277755172705e-08,-2.354468797705067118e-08,-4.546765186574930340e-09,9.634992359508487425e-09,2.606708804364643584e-08,1.869698840195610501e-09,-4.513234674874411212e-09,3.460288944268086198e-09,4.439217438090281576e-09,-2.299119294946194714e-08,7.824359826713589428e-09,-7.543012436883600458e-09,1.483877687391554900e-09,-2.308494506664260371e-09
2.839659174469488789e-09,-2.272803945047030538e-09,2.421772782312814343e-09,-2.055973835624058665e-09,-2.286018840891301807e-08,-1.171434771407575681e-08,-1.187081988263116727e-08,-1.188048326383750464e-08,-4.566347744372478701e-09,-2.603053594896209688e-08,-1.425063889115563143e-08,2.422231082377379607e-09,-2.276917987487081518e-09,-7.214517872000669740e-09,-1.582060482618885544e-09,1.465567001091017119e-09,-3.942293602676727460e-09
1.133352522941777352e-08,4.418644269921223611e-11,-4.368355011052926784e-09,-1.172033758933821446e-08,-4.587259017085898449e-09,-7.100456222985940258e-09,1.440115360296090330e-09,1.122748738424661497e-08,2.274509247612854779e-09,7.167041182754019246e-09,-1.184945030985318226e-08,4.514428386670488180e-09,2.323870651466108939e-09,1.120587977965215032e-08,-1.033909935443944050e-08,1.183029407769708996e-08,1.355658607593568377e-08
1.948807504959404469e-03,-7.135441570937928191e-09,7.027793014202643462e-09,1.940905436370599091e-09,4.406475628826456159e-09,1.584930076070634186e-09,-4.550451127016685859e-09,-3.100481649198627565e-09,2.291868472781288801e-09,9.637248332694525743e-09,-4.560311683832196650e-09,9.635038544786311832e-09,-5.609118058913509230e-09,2.270333254728029715e-08,2.180579716792863110e-09,-2.400393661616817553e-09,-7.114070221803103777e-09
4.575037682030824726e-09,-4.597519254190274296e-09,4.543461162853645874e-09,-5.616963338894720437e-09,-7.591022033182071027e-09,9.491798458327593835e-09,1.186325970792267981e-08,-6.069811320230655838e-09,-7.152922698594466056e-09,-1.034103203068070798e-08,-2.329945791856857795e-09,1.502863389291064777e-09,1.584320008518602663e-09,-7.012751268575811991e-09,-4.517945573212500676e-09,-1.545723327112114021e-09,-2.359554152064902155e-08
7.083573727584280277e-09,1.186694920107811413e-08,-9.637850517663082428e-09,4.172246104161558833e-09,1.186604503544685940e-08,2.316537850433064705e-09,-4.491008898099835278e-09,2.121908648788917162e-09,4.371140338577106377e-09,2.306401114537948160e-08,6.069356572879769374e-09,5.688491899746850322e-09,1.185769260558799942e-08,-1.475130906314348067e-09,2.769474406749683482e-11,2.336539628444711525e-09,-1.119154102724451150e-08
-4.566752753731861958e-09,4.527253683050957989e-09,1.183649001035291803e-08,5.757251120286355217e-09,2.312061431197776074e-09,-1.042771113901608260e-08,1.998901044686363093e-09,7.250238631684169377e-09,-5.217076104457873953e-09,-1.327692844554917428e-09,4.424040245254445836e-09,-9.471505357794285374e-09,-2.305196389329466911e-08,1.484097955639640531e-09,-2.236331786420464596e-09,-4.461535585420506322e-09,2.358942374769412709e-08
4.426754518505049418e-09,-4.540633202765320675e-09,1.026984808305542174e-08,1.187360521015534687e-08,-4.385159346753653153e-09,4.604304937316783253e-09,-1.170611252376829725e-08,1.354562950695026302e-08,2.304620139170765469e-08,-6.075438818697875831e-09,2.309723790006046329e-08,2.309517688203754915e-09,4.191607505532601863e-09,-1.453970943643412284e-09,-1.509606439853428128e-09,4.372717743450493799e-09,-1.265728322152881447e-08
-1.425627393913941887e-09,5.206503228549763662e-09,3.476432475224555674e-09,-2.308309765552962745e-09,4.511017781538839699e-09,-2.304042467926592508e-08,2.413670818768309800e-09,1.439639296663131063e-09,1.454425690994298748e-09,-1.162611118488143802e-09,-4.594414182435002658e-09,-4.200617187422039933e-09,5.704095418224142122e-09,1.390803694434339377e-09,2.084232120225237850e-09,3.921922342442485387e-09,-5.662390112348703042e-09
1.342131072945562664e-09,4.593391000895508114e-09,2.827025724627674208e-09,2.261020703997473902e-08,-1.045734787652463638e-08,-5.258870228175283046e-09,2.289369582797462499e-08,9.643733811515176058e-09,-9.466961436999099533e-09,2.332720860920289851e-08,1.523618342602617304e-09,2.074391769468775237e-09,-2.307803903534022538e-08,1.182091491358505664e-08,2.240239771467145147e-09,-2.338117033318098947e-09,6.059911683564678242e-09
7.112329392100491532e-09,7.316953265501524584e-09,-1.249347070242379232e-09,1.183796793924329904e-08,-2.279569955021543137e-08,1.323870124636528089e-09,7.316953265501524584e-09,-7.109089317225425475e-09,-4.538707631951410804e-09,-1.171081631667902911e-08,1.959691298125676440e-09,-7.316839578663802968e-09,5.225432087030412731e-09,-2.268371446234596078e-08,-4.484535853777060765e-09,-1.023689311097086829e-08,3.211432161864813395e-11
-5.767481159324461260e-09,2.304087942661681154e-08,2.264157750175854744e-08,-6.428086507526131754e-09,1.537829197317819308e-09,-4.491790495109171388e-09,-7.100910970336826722e-09,-1.718713726894804950e-09,-1.953067263471552906e-09,-7.778711008654681791e-09,-4.740191794638803913e-09,6.028672672186985437e-09,4.551646615169602228e-09,-5.370722089281798617e-09,7.016616621058346936e-09,2.839772861307210405e-09,3.890711017251469173e-11
1.463350107755445606e-09,1.529501636454710933e-09,1.912900282619034442e-09,-2.328638393223059211e-09,-2.306899204995715991e-08,3.937184800406612339e-09,1.026238738432994069e-08,1.536457849837802314e-09,-3.464267983588342759e-09,2.283357680710196291e-08,-1.498202228944478520e-09,-1.721285891598256512e-09,7.140836366659186751e-09,7.190004147616946284e-09,1.480573663670270435e-09,1.132494897859714911e-08,6.071907421301148133e-09
-1.260211268672151164e-09,-2.260028786338352802e-08,-1.044942532502091126e-08,-1.029211382785888418e-08,-2.932079468109805021e-09,-1.132412474902366739e-08,-1.415743744459518894e-09,2.327366521726048632e-09,2.271667076669814378e-09,7.013362335328565678e-09,-4.461187419479983873e-09,3.655280522707471391e-09,-2.320658998300473286e-09,4.374590620304097399e-11,-1.851603204094942612e-09,4.433810207871147213e-09,7.180511296667191345e-09
6.318459977450174847e-09,-7.588002226555090601e-09,-2.300648382913550449e-08,-3.027320616411088849e-09,-4.524653096638076022e-09,-9.579053106278934138e-09,-1.720831144247370048e-09,-2.939192000894763623e-09,-2.303940149772643053e-08,7.798539591874487087e-09,-2.126008480374252940e-09,-1.434828922342035185e-09,-2.309035984637830552e-08,1.523703607730908516e-09,1.230819712816355604e-08,-1.172281738348601721e-08,-7.231838683452451733e-09
1.311963074840605259e-03,4.438739598100482908e-09,4.565779310183870621e-09,5.641689782009962073e-09,2.076960603503152925e-09,2.602322091149744665e-08,2.240120755558905330e-09,-5.667355917893246442e-09,1.224665036048122602e-09,7.193672324490307801e-09,-9.645877874220332160e-09,9.690409363827257039e-09,-2.296230317000436116e-09,-7.165818605159302024e-09,1.417937212089270815e-09,2.106080421171441230e-09,-6.782365780111376807e-09
4.466367276023675004e-09,-9.452921112540479953e-09,-4.594208125041632229e-09,4.556897525986869368e-09,7.011081493146775756e-09,1.046177988683894000e-08,-5.634698485579292537e-09,1.183137410265544531e-08,-5.243515399655507281e-09,1.572006302907880126e-09,6.075090652757353382e-09,1.045341857519588302e-08,2.288158995611411228e-08,-1.718386877236355303e-09,1.524300463628947000e-09,7.024532067134714453e-09,4.485409821342045689e-09
-4.641004469618792427e-09,4.557885180389575908e-09,-7.403415658302492375e-09,-4.594357339016141850e-09,-1.494422141590234787e-09,2.290250655789805023e-08,-2.325007519843325099e-09,1.043360864372289143e-08,1.188360254644749148e-08,5.279440440375537946e-09,4.543716958238519510e-09,-7.102204158115910104e-09,-1.216619471833269017e-09,4.480968929243545062e-09,2.390306397259678306e-09,-1.252025816356194809e-09,4.434655753726701732e-09
6.662046025951440242e-09,7.149362879488307954e-09,-1.133218940907454453e-08,2.133246246316389261e-09,4.494575822633350981e-09,4.554510102394715432e-09,1.173528740849860696e-08,2.287007694334874941e-09,-2.315087321846931445e-08,-2.833278500702363090e-09,-3.110951496410052641e-09,-1.424027917806824917e-08,-2.073028637639140470e-09,2.248574437757611122e-09,-4.540405829089877443e-09,5.647724510282614574e-09,-2.302211754567906610e-08
-4.592545455039953595e-09,7.354622688637846295e-09,2.265790888245078349e-09,-4.737491732242915532e-09,2.244325392197765723e-09,-2.330556858609611481e-09,2.305355550902277173e-08,-6.058932910946168704e-09,-1.246699721235700054e-08,-1.173943875443228535e-08,-1.029765961391149176e-08,4.617272342244405081e-09,-4.437178180438650088e-09,1.171253583009956856e-08,1.183961639839026248e-08,-7.147828107179066137e-09,1.183489839462481541e-08
-5.700514282835911217e-09,1.185156772720574736e-08,1.039720043394254390e-08,-1.033505636627296553e-08,2.291377532159799557e-09,-2.322037451207847880e-09,-2.290648559721830679e-08,-2.289864120541551529e-08,2.110051466885920490e-09,1.471706090327984384e-09,2.259556985961808095e-08,7.101244925422633969e-09,2.306959734355018554e-09,1.571203389616471213e-09,4.396883301893694806e-09,-4.596425018377203742e-09,-2.288172984421521505e-09
-1.401414010615553707e-05,-2.275466703949291514e-09,1.308738707683776425e-12,-5.209700670860684113e-09,2.303730717301277764e-08,1.180149200585844937e-09,-2.337900317783692117e-09,-4.551396148855246793e-09,1.924446602075136070e-09,-4.408465148486584440e-09,3.101154888440760260e-09,2.315461955504360958e-08,3.428946904193708178e-09,-2.306116719807960180e-08,4.596584890492749764e-09,1.517296399633494275e-09,7.817850367075607210e-09
5.328479435462440961e-09,-1.170789953874873390e-08,4.743584636202058391e-09,-2.291482337213324172e-09,-6.076875891380950634e-09,1.183376863167495685e-08,-2.173457636089892731e-09,-2.918362440595956286e-09,2.200651882944271165e-09,-3.955095806418285065e-09,4.186905488978709400e-09,-1.585036213391788351e-09,-2.110977836977667721e-09,7.586947070592486853e-09,6.933267737707637934e-09,1.203803901006494925e-08,7.205318119929415843e-09
-1.266044513670294691e-08,2.117588548955495753e-09,1.043370811970589784e-08,-5.224295218653196571e-09,3.922384195220729453e-09,-1.247927894354461387e-08,-4.486802485104135485e-09,4.473430070817130400e-09,5.668106428657893048e-09,-1.265848403875224903e-08,2.835829349123741849e-09,9.571954784348690737e-09,-4.609129522492594333e-09,-4.465152247945525232e-09,-1.478640987429002962e-09,2.270395205172803799e-09,2.942709131925624888e-10
-3.436784190569142083e-09,-1.453686726549108243e-09,1.515972902765838626e-09,-1.149153439072847505e-09,1.850899766786540113e-09,4.272272466354642972e-11,9.477928664125556679e-09,-5.700080851767097556e-09,2.316097313936893443e-09,-1.410499939069609354e-09,-2.289602640814791812e-08,-1.428974050199371959e-09,2.311961955214769660e-09,2.303786672541718872e-08,-2.285764244547294766e-09,2.306298929610761661e-09,-3.632457890034856973e-09
-1.494706358684538827e-09,-4.522876739798675771e-09,2.325604375741363583e-09,3.926384550823058817e-09,-7.601424378833598894e-09,-4.561409472358946005e-09,-4.382850082862432828e-09,-1.543904337708568164e-09,2.305395341295479739e-08,-2.281819888594327495e-08,1.184457598668586797e-08,5.192427376954356077e-09,-3.934669479122021585e-09,7.236459431680941634e-09,-2.332986914765911024e-09,1.186526521479436269e-08,3.437295781338889356e-09
1.489675716115357318e-09,7.585899020057240705e-09,-2.292464662545512510e-09,-2.290739509192007972e-08,1.174008223969735809e-09,4.568458056297686198e-09,-2.294098910837760741e-09,2.304468793568048568e-08,-1.266869720240038077e-08,3.909864432216636487e-09,2.276420607572049448e-09,4.540777531758521945e-09,-4.543077469776335420e-09,-5.216393983431544257e-09,2.273614541081769858e-08,7.134327795199624234e-09,-1.519099290803183067e-09
1.264901250408456690e-08,-6.088541129600777424e-13,-4.593597058288878543e-09,-1.034191310367305050e-08,5.701366934118823337e-09,1.454880438345185212e-09,-1.201861499211531736e-09,-1.045562125767673933e-08,-6.079986292206740472e-09,1.045746156336235799e-08,7.595057915921188396e-09,-4.489850713440546315e-09,-2.126595566309674723e-09,7.816999492149534490e-09,2.284684219588939413e-09,-5.743857389717277329e-09,1.134124172352812820e-08
-2.064905357812563125e-09,1.535832572230333426e-09,-6.056131596210434509e-09,1.265655136251098156e-08,-4.397401998090799680e-09,-1.534248061929588403e-09,-2.300421009238107217e-08,-4.599295611029674546e-09,-2.846864077810096205e-09,7.743381047475850210e-09,6.930580109809625355e-09,-1.045016428946610176e-08,1.185638520695420084e-08,2.312189328890212892e-09,7.028909010386996670e-09,-5.277611681009375388e-09,1.272818073161374741e-09
9.638411846424332907e-09,-1.020813744645465704e-08,-4.573929235363038970e-09,2.115670083568943483e-09,-1.426092044454208008e-08,5.226227894894464043e-09,-4.604553627274299288e-09,1.030136864699215948e-08,7.588059069973951409e-09,-1.534475435605031635e-09,-1.559927076399958423e-09,1.032800600597738594e-08,-1.571146546197610405e-09,1.266550420098155882e-08,-1.532535653936406561e-09,-2.287469547113119006e-09,-5.668404856606912290e-09
1.165794349944349051e-09,-1.029891727455378714e-08,5.360071053672754715e-09,2.143009103505733037e-09,-4.613279092069433318e-09,1.255630177610100873e-08,5.207540620943973408e-09,3.958813721283149789e-09,-7.323149198157352657e-09,1.463577481430888838e-09,6.050717260563942546e-09,2.310448499187600646e-09,2.270210464061506173e-09,-1.123562309857106811e-08,-4.599871150645640228e-09,-2.308210289569956331e-09,-1.172907726498806369e-08
7.591654416216897516e-09,6.084093229219433852e-09,-2.306423851905492484e-08,-2.327643633392995071e-09,-4.542381137895290522e-09,-7.162756610057385842e-09,-2.332176896047144510e-09,-4.413645005030275570e-09,2.291887746252996294e-08,-3.998589903631000197e-09,-1.085562750802182563e-08,4.488379889977522907e-09,-4.581358556410286553e-11,-2.268760956880555568e-09,-1.476480937512292257e-09,-1.268297911138915879e-08,4.367104455837989008e-09
2.302285651012425660e-08,9.636017317404821370e-09,-1.031185536959355886e-08,-1.229902402144489315e-08,4.464860925423863591e-09,-2.113168973139067930e-09,5.759034582553113069e-09,-5.609957387520125849e-09,7.110624089534667291e-09,1.171872465732803903e-08,-7.552846348346520244e-09,2.292728673580768373e-08,2.266370735526379576e-08,1.033918461956773172e-08,-6.463318324989586472e-09,-4.622779048446545858e-09,2.304889434867618547e-08
7.588577766171056282e-09,-1.555848561096695448e-09,-2.166400170366955535e-09,-6.080952630327374209e-09,-2.175026159179083152e-09,-2.315649672013364579e-09,-2.297036694187681860e-08,-4.580736234771620730e-09,-1.187604947716636161e-08,5.207370090687390984e-09,4.587713764436784913e-09,3.479978083475998574e-09,2.083244465822531311e-09,-1.423438167336144033e-08,-4.517320295605031788e-09,6.086195991628073898e-09,2.942709131925624888e-10
-4.535972042418734418e-09,7.776988830698883248e-09,-1.314034436816768903e-09,-1.023734785832175476e-08,-2.360246931232268253e-08,-5.667211144810835322e-09,1.902572099865551536e-09,-5.610078179785205066e-09,5.767594846162182876e-09,9.491457397814428987e-09,-1.266035987157465570e-08,2.103296870004101038e-09,5.663592705928977011e-09,-4.742330528273441814e-09,2.309497837416074617e-08,1.255982606807037882e-08,2.283059252761177049e-08
1.097930711694061756e-03,-6.210317149424326999e-09,4.554764121422749668e-09,-1.121870774056787923e-08,2.257129372296162728e-09,5.647728062996293374e-09,7.671960844390923739e-09,1.246693503986762153e-08,1.872002330927102776e-09,-4.444542955894803526e-09,-7.589409101171895600e-09,2.287253231259001041e-08,3.443287432958186400e-09,6.065345559136403608e-09,3.905560319594769680e-09,-1.487457823579063643e-09,5.692672999657588662e-09
2.843425050969017320e-09,-2.271887344917900009e-09,-1.122715342916080772e-08,2.073446747630214304e-09,1.034591345927537986e-08,4.368923445241534864e-09,2.273867494295700453e-08,-2.305927182533196174e-08,-9.634423925319879345e-09,1.125379878175181148e-08,-2.289051259651841974e-08,1.572418417694620985e-09,-5.305861972004777272e-09,2.039332924752557119e-09,2.300887125272765843e-08,-7.818250047364472266e-09,-7.403074597789327527e-09
-4.596972136283739019e-09,-1.163016127847527059e-09,9.640408471511818789e-09,2.174940894050791940e-09,7.599122220369736169e-09,-4.605832604198667468e-09,-2.273654331474972423e-08,-1.044138198125210693e-08,-4.441938816768242759e-09,-1.026817830762638550e-08,4.556954369405730176e-09,-2.094365347815596579e-09,-1.325468845791988315e-09,-1.571658136967357677e-09,-1.509570912716640123e-09,-2.309482161066966910e-09,3.932580483478886890e-09
-1.878459832127532536e-09,-2.275404531459912505e-09,-7.316953265501524584e-09,-1.326712295579568490e-09,-2.383599806421443645e-08,5.687191606540409339e-09,-1.448059228081888250e-09,2.172150104229331191e-08,5.770685707062739311e-09,-9.635562570053934905e-09,-1.025201346038784322e-08,2.333583770663949508e-09,-1.220825884828968810e-09,-2.310258118143337924e-08,-1.021804951761851044e-08,-1.540607419414641299e-09,1.212093314606477179e-09
-2.273700516752796830e-08,1.021515050325660923e-08,-4.198059233573303572e-09,-4.549962628885850791e-09,2.302803059350821968e-09,-2.266494325553480849e-09,4.542217713066065699e-09,-7.800578849526118574e-09,2.302604107384809140e-09,4.377286533241431243e-09,-1.029845719813238247e-08,2.337150695197465211e-09,-1.230476520674983476e-08,2.328972348308866458e-09,-1.537999727574401732e-09,2.288903466762803873e-08,-2.278204069838807300e-09
-1.869045140878711209e-09,4.668460729106982399e-09,-2.389737963071070226e-09,-7.157185955009026657e-09,1.478129396659255690e-09,1.255465331695404529e-08,-1.516228698150712262e-09,5.626157761895456133e-09,1.504426583309736998e-09,7.552789504927659436e-09,1.959201023638001971e-09,-5.655568902085406080e-09,-2.325512005185714770e-09,-2.495204910746284810e-11,-1.042054886823962079e-08,5.636972222333724858e-09,-5.755226073489438932e-09
4.578817769385068459e-09,4.440880108091960210e-09,2.296256695899501210e-08,-7.315361649773421959e-09,1.022835949271438949e-08,1.471819777165706000e-09,-7.193585283005177189e-09,-1.407102878658861300e-09,2.276775878939929498e-09,1.532706184192988985e-09,1.171940677835436873e-08,1.997657594898782918e-09,-6.065056012971581367e-09,-2.302564894307579380e-08,2.088999861982188122e-09,2.259317843922303837e-09,-6.032026433899773110e-09
7.087780140579980070e-09,-2.121112840924865850e-09,-1.869180143998505628e-09,-1.264241822340750332e-09,-7.543239810559043690e-09,2.264243015304145956e-08,-5.216521881123981075e-09,7.097500365205178241e-09,-5.222646759506233138e-09,-5.693010951546284559e-09,-1.185971765238491571e-08,-2.313631730643805895e-09,4.559981281460068203e-09,-3.457539143880694610e-09,1.165262286662027691e-08,2.258657438858335809e-08,1.034037833136380868e-08
1.253747949903072367e-08,2.304646429251988593e-08,-4.404066888952229419e-09,-2.264833476317562599e-08,-1.461872178865064598e-09,7.777955168819516985e-09,4.570760214761548923e-09,2.512257936404527214e-11,-1.185951159499154528e-08,4.439288492363857586e-09,-7.322694450806466193e-09,-2.238491836337175300e-09,-2.318018665903309738e-08,5.194189522939041126e-09,4.558020183509370327e-09,2.310022173546144586e-09,-4.551021337562133340e-09
-4.451211399469912067e-09,1.265893168067577790e-08,-1.122757975480226378e-08,-2.103808460773848310e-09,1.184501652318203924e-08,2.264083143188599934e-08,-7.100626753242522682e-09,1.507808766731955075e-09,2.299227297442030249e-08,1.213287026402554147e-09,2.824823042146817897e-09,-3.431668282871669362e-09,-2.343310967489742325e-08,-9.496452513246822491e-09,-7.143486691063571925e-09,-2.290102862900766922e-08,-7.171403915151586261e-09
-2.216503958152316045e-08,-2.843048463319064467e-09,1.187730713780865699e-08,-2.223591755168285999e-09,-1.454198317318855516e-09,-1.187292308912901717e-08,-2.115257968782202624e-09,4.478823090181549560e-09,-1.186718190382407556e-08,-4.542537457297157744e-09,7.403529345140213991e-09,4.600439584834248308e-09,-1.317501885367278192e-09,-3.909658374823266058e-09,-7.023473358458431903e-09,-4.446095491772439345e-09,-5.300637706540101135e-09
-1.160850748860298154e-09,-4.375396489564309377e-09,1.252878467639106930e-09,5.271810099571894170e-09,-6.036460220570916135e-09,-2.263050014050804748e-08,2.279916699876594066e-08,-4.455225965926956633e-09,4.587031643410455217e-09,-4.393856389839356780e-09,-2.289022837942411570e-08,5.706859429466248912e-09,-1.481142097858878515e-09,3.920849422911487636e-09,1.182929221243966822e-08,-7.601260954004374071e-09,-1.869236987417366436e-09
2.420864552259445190e-01,-1.084314860122503887e-09,2.597603376841561840e-08,1.536881732988604199e-08,7.973477877953882853e-09,-1.003486715944745811e-08,1.435677798866663579e-08,-1.011753969493156546e-08,4.458838187559877042e-09,2.040384305956877142e-09,-1.336081023595170336e-09,-4.360328098584886902e-09,2.300683421552207619e-09,4.930414743142819134e-09,5.446693318589268529e-09,-2.285751676822656009e-08,5.355819343577650216e-09
-2.964637646485357436e-09,-1.186490283799912504e-08,-1.265336102562741871e-08,-2.458130810012448819e-09,1.452890918685056931e-09,7.254786105193034018e-09,1.851070297043122537e-09,4.398787556425531875e-09,-7.149362879488307954e-09,4.167982847746998232e-09,-6.930715112929419774e-09,2.296091139442069107e-08,2.272810206704889424e-08,4.180956469923557961e-09,6.442808953011081030e-09,4.371936146441157689e-09,1.184905240592115661e-08
2.103885421433915326e-08,-2.119535436051478428e-09,4.602599634750959012e-09,2.290783562841625098e-08,2.325348580356489947e-09,-1.504128155360717756e-09,2.290597400644855952e-08,-2.283459998864145746e-08,-1.253667170075800641e-09,2.262628973070945904e-09,2.146171018679865483e-09,-2.843901114601976587e-09,-1.134179594686202108e-08,4.601178549279438812e-09,-1.990848597088756833e-09,-6.931205387417094244e-09,2.306661173179236357e-08
-7.707700255821237079e-09,2.270189147779433370e-09,-2.302547308374869317e-08,-4.363700956133698128e-09,1.186990328250203675e-08,2.278765398600057779e-09,-1.229520130152650381e-08,-4.464711711449353970e-09,2.278708555181196971e-09,-4.540888998150194311e-09,2.263133458413335575e-09,-5.311178608025102221e-09,-4.520858798429117087e-09,-2.212564131909289245e-09,-2.304508583961251134e-08,7.023110981663194252e-09,5.612799558463166250e-09
2.133133447657087345e-09,-7.104996591067447298e-09,-2.276662192102207882e-09,4.592197289099431146e-09,1.535214400050222139e-09,6.061688040404078492e-09,-2.303551482896182279e-08,2.308508761927896558e-08,-4.402539222070345204e-09,2.301177204344639904e-08,4.625827845772256808e-11,2.316907332655659957e-09,-1.727034182330555723e-09,3.964782280263534631e-09,-2.510611857298172822e-11,2.116210096048121159e-09,-1.012935246791357713e-08
4.510698758952713661e-10,7.583291328217001137e-09,-1.042043518140189917e-08,-2.285801414814159216e-08,-1.543051686425656044e-09,-1.218175560424583637e-09,-7.585444272706354241e-09,7.319340689093678520e-09,3.442830909250460536e-09,2.279652377978891309e-08,-1.520882753069940918e-09,-2.177598323882534714e-09,3.092868183784958092e-09,1.202054544791053559e-08,-6.244414318956614807e-09,7.180745775769992179e-09,-2.345215355248342348e-09
6.636854261159896851e-02,-3.241192425562644530e-09,-1.269580551799265322e-09,1.530153337370165900e-09,-4.149756094307122112e-09,-3.448929586369331446e-09,2.152765610219375958e-08,2.198579762691110773e-09,6.944457453528229962e-09,1.196600685204884940e-08,5.466840757861746170e-09,1.209970168503105015e-08,2.425506462344628744e-09,4.642497497542308338e-09,-7.164369986156771120e-09,-2.277546595763624282e-09,-4.144379561754618635e-10
-3.320821747183799744e-02,2.129292075991884303e-09,2.350961381125671323e-08,9.380107357515043986e-09,7.744594299197160581e-09,4.360568794936625636e-09,2.101180029967508744e-08,-7.262893841897266611e-09,1.018182960166313933e-08,6.248322304003295358e-09,-2.320047487458509750e-09,4.420599442056527550e-09,-2.153508482649613143e-09,4.530936958957454408e-09,-1.550190753540903188e-09,-7.480025487893726677e-10,2.302685508936974657e-08
3.381051660866774000e-09,-7.320022810120008216e-09,1.033771379610470831e-08,-2.298376378107036544e-09,1.392310045034150789e-09,-5.651355383662348686e-09,-6.425894039097101995e-09,7.541591351412080257e-09,1.297878338135660670e-08,-4.417247456700579278e-09,1.395493276490356038e-09,-7.319113315418235288e-09,4.597917158122299952e-09,4.423883925852578614e-09,-2.299966261887220753e-08,-1.183258202530623748e-08,-1.033582375242758644e-08
1.281554240506466158e-08,2.306718149824860120e-09,-1.188281384401079777e-08,-2.321461911591882199e-09,6.082146342123451177e-09,-2.306662594264707877e-08,9.472343798222482292e-09,3.951061700036007096e-09,-4.433980738127729637e-09,-7.178535987861778267e-09,1.548508654636293613e-09,-2.080132288639902072e-09,1.182888720308028496e-08,7.320363870633173065e-09,-4.517583196417263025e-09,-1.162554275069282994e-09,2.356519424040470767e-08
5.569860572762763695e-09,2.302854440472401620e-08,5.665470315108223076e-09,2.108674790335385296e-09,-2.176219870975160120e-09,4.451381929726494491e-09,-6.212461212129483101e-09,-2.271141275045351904e-09,1.265254390148129460e-08,2.115063457708288297e-09,-2.334521687075152840e-09,-7.240481103565343801e-09,2.332660464787750243e-08,3.850448848652376910e-09,-2.306706647914325004e-08,-7.595235551605128421e-09,3.938783521562072565e-09
-3.634914813588352445e-09,-2.309176627690590067e-09,3.482148944189411566e-11,-1.539022909113896276e-09,-1.133491789317986331e-08,1.424059181687198361e-08,-2.252240838274133239e-09,-2.086016470670415401e-09,4.425894761794779697e-09,5.651213275115196666e-09,-4.421290444867054248e-09,2.302103752072071075e-08,-1.435454199949504073e-09,2.189876502356469246e-09,1.449252939877965218e-09,-2.331977944081131682e-09,1.899161494733903055e-09
-1.256926207560127295e-08,4.466850445083991872e-09,1.872764610055810408e-09,-4.590229085721375668e-09,3.435348894242906681e-09,-3.462711894997028139e-09,5.719805518111797937e-09,-1.044953901185863288e-08,-8.154048991571016813e-09,-1.445657593635019111e-09,9.655962251997607382e-09,-1.219006895425422954e-09,1.035694818796173422e-08,-3.458718644822056376e-09,-2.925315101265368867e-09,5.621226595309281038e-09,-4.760648320001337197e-09
-1.733742038823038456e-10,-2.064848514393702317e-09,4.437846090610264582e-09,-2.383120900617541338e-08,-2.292245859791819385e-08,-3.959780059403783525e-09,-2.329704207326699361e-09,2.002716659177394831e-09,-4.496757188832134489e-09,4.318595703267646968e-09,2.308559921004871285e-08,-2.357703188238247094e-08,-4.535716247033860782e-09,2.307745639029690210e-08,-4.642748852035083473e-09,-1.495900070480615796e-09,2.075302774073861656e-08
-5.966717342431593352e-09,-1.505193969464357906e-09,2.304116364371111558e-08,2.288727207755414383e-09,-5.761455756925215610e-09,3.433949125053459284e-09,-2.283732847274677624e-08,1.558733364603881455e-09,-2.304515467344003810e-09,-9.657902033666232455e-09,-3.934058412369267899e-09,-6.024587051456364861e-09,-4.546985454823015971e-09,-7.723386374891560990e-09,2.315472036329424554e-09,-2.270068355514354153e-09,2.281422828431800554e-09
-1.482280431730487180e-08,1.182360076512622982e-08,1.246949832278687609e-08,1.481717637474844196e-09,-4.517647145263481434e-09,-2.081702588085931893e-09,7.020339864993729861e-09,-1.455505715952654100e-09,-1.510963576478729919e-09,-2.317404712570692027e-09,-2.400310838979180517e-09,-4.636115935596762938e-09,-2.071115501323106400e-09,-1.999071574942945517e-09,-1.936504956390194820e-09,-2.402508192389518626e-09,1.526233139870214472e-09
-1.848383135438780300e-08,-4.451211399469912067e-09,2.296012979741135496e-08,-4.559036259621507270e-09,-4.494689509471072597e-09,7.097386678367456625e-09,4.407278542117865072e-09,-2.299882728706847956e-09,2.150576383641578104e-09,1.491324175262320750e-09,-2.840717883145771339e-09,2.120278841388767432e-09,-3.898097844512449228e-09,-1.186900799865497902e-08,-7.105565025256055378e-09,-7.582062089284136164e-09,-2.256141717893456189e-09
-3.070780740799250452e-09,4.581503620926241638e-09,-2.301303814178368157e-09,5.647625034299608160e-09,1.043038277970254057e-08,5.690360627141899386e-09,-4.498867500757341986e-09,1.027359974870023507e-08,-3.634220036019542022e-09,4.571641287753891447e-09,7.165769311257008667e-09,4.004487408337809029e-09,-2.300915546982196247e-08,4.412650245200211430e-09,-2.319237912828953085e-09,7.080909192325179902e-09,-7.753956587919219601e-09
2.150670042055935482e-08,7.096590870503405313e-09,1.422084050517469223e-08,5.672632585884684886e-09,-1.028608398456754003e-08,-2.240808205655753227e-09,-4.517760832101203050e-09,1.022835949271438949e-08,-6.046745326671043586e-09,-2.306945523500303352e-09,-1.440513264228115986e-09,-1.264963778169203579e-08,-7.550856828686391964e-09,1.240458291640322841e-10,-2.308267132988817139e-09,-2.267304344272247363e-09,-1.464202759038357726e-09
-3.360249856143582292e-09,-2.146362865218520710e-09,7.552448444414494588e-09,4.594272073887850638e-09,-7.180511296667191345e-09,-1.184207487625599242e-08,1.541801131210718268e-09,-2.000833720927630566e-09,1.524918635809058287e-09,-2.358314965533736540e-08,1.196255317026384546e-09,-1.186999565305768556e-08,-2.075456251304785837e-08,-4.364596239980755854e-09,4.537840769813783481e-09,1.183376152624759925e-08,6.230916227423222153e-09
1.908269375562667847e-01,-6.096299021152162823e-09,1.449149156229623259e-08,1.585400255521562940e-09,1.129903615115779303e-09,-4.159930622193996896e-09,1.611189848205185626e-09,2.299712864584080307e-09,-1.448195452447009757e-09,3.668110704069249550e-09,2.359363149295745643e-09,-6.020713705368052615e-09,2.675192734002962425e-09,-2.264586296263360055e-09,-9.359622410443080298e-09,-1.894973733485016965e-09,-1.427114315610822359e-09
-2.946050514651687990e-09,-4.593049940382343266e-09,1.257710158242275611e-09,-1.255613124584442630e-08,-1.457942877536311244e-09,-7.016708991613995750e-09,-7.321841799523554073e-09,2.289494638318956277e-08,-2.308417812457719265e-08,6.022625953505666985e-09,-2.301852930486347759e-08,-1.132080651444766772e-08,-2.356115835766559030e-08,2.149944000606751615e-09,-1.556289097592866710e-09,5.766742194879270755e-09,2.306389745854175999e-08
-1.283532391482822277e-08,7.184994821329837578e-09,2.340660776312120106e-09,-1.012935246791357713e-08,-6.022228049573641329e-09,1.202362920338373442e-08,2.028632151152010010e-09,-1.422032047670995780e-09,2.300586166015250456e-09,5.617645459921050133e-09,-6.768119398259386799e-09,-2.109094898727903455e-09,-1.408297256588753044e-09,-4.418476695633444251e-09,-4.441803813648448340e-09,-2.404568766323222917e-09,5.299531036229154779e-09
5.076171483153757436e-09,9.631972552881506999e-09,-4.413701848449136378e-09,1.041864461370778372e-08,4.607992654115378173e-09,1.183779740898671662e-08,-2.107864771616618782e-09,2.303638879652680771e-08,4.626694138920584010e-09,-2.343202964993906789e-08,2.144032285045227582e-09,-2.287758782415494352e-08,-7.239294497196624434e-09,-1.026018470184908438e-08,-1.118209791428625977e-08,-7.318431194391905592e-09,-5.194752628057131005e-09
-5.085933896253891362e-09,-4.468882597308265758e-09,2.113375030532438359e-09,1.865197551964570266e-09,7.212052288707582193e-09,-2.383392327942601696e-08,-2.261938725212075951e-08,-2.332930071347050216e-09,-7.125296797028113360e-09,-4.602940695264123860e-09,-2.831445300444102031e-09,-1.167016483449856423e-09,7.753444997149472329e-09,-7.298205595418494340e-09,-1.257425941147971571e-09,7.774770161006472335e-09,3.477732768430996657e-09
-1.363990254077407371e-08,1.021196727180040398e-08,1.034324892401627949e-08,-2.266734533407088747e-08,2.286098199633102013e-09,-1.132148153004663982e-08,6.778408057073193049e-09,-6.876883063000605034e-09,5.718944873223108516e-09,1.261843163291587189e-08,2.317362080006546421e-09,5.369528377485721649e-09,2.834415369079579250e-09,2.205337912286609026e-09,1.316194486733479607e-09,-4.437533451806530138e-09,3.453418884191705729e-09
1.061943422087097133e-09,-4.563164512916273452e-09,4.365917849469269640e-09,5.642848410758460886e-09,-5.210709641545463455e-09,3.995790365252105403e-09,2.299534562766325507e-09,1.425154838585740436e-08,-9.499713904403961351e-09,9.460822347762132267e-09,-2.283903377531260048e-08,-1.496496926378654280e-09,-1.335444865802060121e-09,-1.389496295800540793e-09,2.343289784434432477e-09,-2.415084798812472400e-09,-1.123491255583530801e-08
-1.000896965308584186e-08,-4.541002684987915927e-09,1.463918541944053686e-09,2.284931710505588853e-08,-2.316758118681150336e-09,-4.422739952048004852e-09,4.520126939411284184e-09,-5.205885056369652375e-09,-1.186335207847832862e-08,2.092168882583678169e-09,-1.161133189597762794e-09,-2.125617681869584885e-09,2.532153133005810020e-11,-1.029734697510775732e-08,1.229689239323761285e-08,7.320477557470894681e-09,4.558091237782946337e-09
1.915560154941431392e-08,1.450219277998598955e-09,4.427894162439827141e-10,2.070554838695670696e-09,4.373115647382519455e-09,4.063372902041173518e-11,1.437912677815234019e-09,-7.141781388497747685e-09,-5.191020502337551079e-09,1.530496396284775074e-09,-2.069836524398738220e-09,7.237255239544992946e-09,2.308326862987541972e-08,-6.085585368964530062e-09,2.331963733226416480e-09,-2.317518399408413643e-09,-4.386409901968590930e-09
-1.968803786667194800e-09,4.507251905039311168e-09,-6.071687153053062502e-09,-7.317692229946715088e-09,1.425456108705702718e-08,6.122114371009956812e-09,-1.752224809692393137e-09,-7.319454375931400136e-09,2.190785997058242174e-09,-4.487498816985180383e-09,-7.146343072861327528e-09,3.453568098166215350e-09,-1.229690660409232805e-08,2.095920548228491498e-09,-2.401769227944328122e-09,-7.157605175223125116e-09,2.146192334961938286e-09
