-6.225053220987319946e-03,1.212406605482101440e-01,2.303490638732910156e-01,-3.979057539254426956e-03,2.696589827537536621e-01,1.168163716793060303e-01,1.694690883159637451e-01,8.499437943100929260e-03,6.758482754230499268e-02,-2.414668351411819458e-01,-7.869248278439044952e-03,2.065858840942382812e-01,2.067997008562088013e-01,-1.817116886377334595e-02,1.797094754874706268e-02,1.010284572839736938e-01
3.343866169452667236e-01,6.266268435865640640e-03,-3.843596279621124268e-01,2.993270568549633026e-02,-8.228714764118194580e-02,1.354922074824571609e-02,2.279538847506046295e-02,4.089047759771347046e-02,3.117722272872924805e-02,8.701204508543014526e-02,1.078871861100196838e-01,1.728279739618301392e-01,-3.946436941623687744e-01,-1.342421174049377441e-01,-3.605739474296569824e-01,-1.535644102841615677e-02
-1.717680245637893677e-01,-7.776001691818237305e-01,4.367646574974060059e-01,4.158250242471694946e-02,-8.821849524974822998e-02,-1.283769905567169189e-01,2.972354879602789879e-03,-1.391111966222524643e-02,3.460255563259124756e-01,3.773894533514976501e-02,-3.499757498502731323e-02,-3.415024373680353165e-03,2.711387872695922852e-01,-4.962393641471862793e-01,5.119035951793193817e-03,-6.225922107696533203e-01
2.809933722019195557e-01,1.985254436731338501e-01,1.557672172784805298e-01,-5.825930237770080566e-01,6.685921549797058105e-02,9.577538818120956421e-02,6.767254322767257690e-02,8.794461190700531006e-02,-7.252050936222076416e-02,2.899865061044692993e-02,1.949846297502517700e-01,9.905017018318176270e-01,1.046124473214149475e-01,1.557486057281494141e-01,1.991855353116989136e-02,9.727250039577484131e-02
2.821813523769378662e-01,-3.857871145009994507e-02,2.294887751340866089e-01,1.317165344953536987e-01,-7.932787388563156128e-02,7.416573911905288696e-02,-1.092693954706192017e-01,-2.514276504516601562e-01,-6.825083494186401367e-02,-2.528370022773742676e-01,2.954374812543392181e-02,-4.873101785778999329e-02,-2.963963449001312256e-01,-1.823778450489044189e-01,5.118986964225769043e-01,4.473110660910606384e-02
-1.947042495012283325e-01,1.966658085584640503e-01,-4.470119774341583252e-01,7.970505394041538239e-03,-1.475853472948074341e-01,-9.554310701787471771e-03,1.234937533736228943e-01,-5.018436908721923828e-01,6.142156943678855896e-02,5.708706006407737732e-02,1.486128419637680054e-01,-6.972222775220870972e-02,1.619624644517898560e-01,1.483319103717803955e-01,-1.072654202580451965e-01,-3.725431486964225769e-02
2.332945615053176880e-01,-2.948023974895477295e-01,1.578414589166641235e-01,1.235579550266265869e-01,2.170160971581935883e-02,1.172798499464988708e-01,-4.707242175936698914e-02,-3.404898345470428467e-01,-2.395026981830596924e-01,1.490209847688674927e-01,-1.831609606742858887e-01,-5.227803438901901245e-02,1.701644062995910645e-01,-1.182889714837074280e-01,-4.380303919315338135e-01,3.030331991612911224e-02
1.057132631540298462e-01,-2.417979389429092407e-01,3.212164640426635742e-01,-2.802245505154132843e-02,4.964169859886169434e-02,-1.000693738460540771e-01,-1.555776409804821014e-02,-1.487643867731094360e-01,1.348069608211517334e-01,1.748595200479030609e-02,1.784798130393028259e-02,3.482727706432342529e-02,1.004516519606113434e-02,1.904298216104507446e-01,7.419851422309875488e-02,-2.397673279047012329e-01
