3.500951230525970459e-01
-2.146450616419315338e-02
-1.066761538386344910e-01
-2.489203214645385742e-02
-1.203389912843704224e-01
1.043872609734535217e-01
1.584278047084808350e-01
6.109550595283508301e-02
-5.292554385960102081e-03
-1.614958234131336212e-02
-9.436140768229961395e-03
1.514006853103637695e-01
3.420588001608848572e-02
2.330540865659713745e-01
6.267492473125457764e-02
6.231133639812469482e-02
-8.495760709047317505e-02
1.527352035045623779e-01
-1.256936788558959961e-02
4.541961476206779480e-02
1.649768799543380737e-01
5.281325429677963257e-02
1.650180220603942871e-01
2.370953410863876343e-01
1.829662173986434937e-01
1.628173589706420898e-01
2.581680938601493835e-02
2.706961631774902344e-01
5.667911842465400696e-02
8.058958500623703003e-02
1.746797263622283936e-01
1.764546781778335571e-01
2.749737799167633057e-01
4.016201570630073547e-02
1.480125039815902710e-01
4.503067731857299805e-01
6.541956067085266113e-01
4.516611695289611816e-01
1.004175003618001938e-02
4.528308287262916565e-02
-3.864781558513641357e-02
-9.372543543577194214e-03
-5.300363525748252869e-02
2.873392775654792786e-02
-3.027801215648651123e-02
-5.910614877939224243e-02
1.068674921989440918e-01
5.107302591204643250e-02
-5.826129019260406494e-02
-5.368089675903320312e-02
-2.028248645365238190e-02
-8.088848739862442017e-02
1.231052353978157043e-01
1.311810594052076340e-02
-7.386343926191329956e-02
7.369776256382465363e-03
-1.801536791026592255e-02
4.173633158206939697e-01
3.257566690444946289e-01
5.057856068015098572e-02
1.178306899964809418e-02
2.800839841365814209e-01
3.219572901725769043e-01
4.083198606967926025e-01
2.323011606931686401e-01
1.010883748531341553e-01
1.899341940879821777e-01
-3.373925760388374329e-02
2.157850265502929688e-01
1.185279190540313721e-01
1.819172054529190063e-01
4.258532449603080750e-02
2.521792650222778320e-01
6.898349523544311523e-02
1.602751314640045166e-01
-2.839840948581695557e-03
