-2.802111022174358368e-02,9.560668258927762508e-04,2.801555767655372620e-02,3.186591900885105133e-03,-1.551104988902807236e-02,-1.500468887388706207e-02,-2.581641776487231255e-03,-3.304195031523704529e-02,-2.347612008452415466e-02,-2.518507093191146851e-02,-2.292536944150924683e-02,-1.133845653384923935e-02,3.781600389629602432e-03,2.855894342064857483e-02,4.262692527845501900e-04,1.323327654972672462e-03
1.272286288440227509e-02,5.335364025086164474e-03,-3.056977875530719757e-03,-3.708016825839877129e-03,5.488227121531963348e-03,-1.013539731502532959e-02,-3.868848085403442383e-03,4.691172391176223755e-03,-8.676324971020221710e-03,-1.019933540374040604e-02,2.158464398235082626e-03,5.722820293158292770e-03,1.105392724275588989e-02,3.653345163911581039e-03,-1.338093448430299759e-02,-6.789898965507745743e-03
-6.877159476280212402e-01,1.236228495836257935e-01,7.291448712348937988e-01,7.149043679237365723e-02,-4.009314179420471191e-01,-3.892809748649597168e-01,-1.156194433569908142e-01,-8.591887354850769043e-01,-5.212537050247192383e-01,-7.125399708747863770e-01,-4.791250228881835938e-01,-2.086298912763595581e-02,1.492208614945411682e-02,6.668245792388916016e-01,-2.967089042067527771e-02,1.140310335904359818e-02
4.292606841772794724e-03,3.596622869372367859e-02,9.828148409724235535e-03,-4.609917104244232178e-02,-2.905214764177799225e-02,2.017916738986968994e-02,-4.509907215833663940e-02,-8.778470568358898163e-03,-4.146526753902435303e-02,5.989540368318557739e-04,5.281013250350952148e-02,-1.502819657325744629e-01,1.392177641391754150e-01,-1.082094199955463409e-02,-1.987434923648834229e-01,-1.173558309674263000e-01
