2.315753810933074419e-09,-2.769638225436210632e-02,-7.574382898667408881e-09,-2.383813324513539555e-08,6.841698763082604273e-09,-7.330353657408750223e-09,-2.258961728784925072e-08,1.906025409698486328e-02,-2.365910312107644131e-08,5.662100122094670951e-09,1.179590292110788141e-08,3.454941055469618050e-10,-5.969194322824478149e-02,1.651054335525259376e-04,-1.563517426639293717e-09,2.647008656708749186e-08,-2.125720932610875025e-08,-1.764596090652048588e-04,-6.216932302294253532e-09,5.979080125689506531e-02,-9.363946062990180508e-09,2.353905292906688373e-09,-1.843681675381958485e-04,-2.931917153503604823e-09,1.832523022216037134e-09,-3.974838236331379449e-09,7.270686719351715510e-09,6.429783372396968844e-09,-1.052750456254081257e-10,-2.362284590162744280e-08,-4.412889609284320613e-09,4.168148937111482155e-09,-1.051892787218093872e-01,1.457756249045871755e-09,-1.181846087661142519e-08,2.277297994623950217e-08,4.979362255852493035e-09,-1.627558813197538257e-04,7.869757290279721929e-09,-7.051546013769893761e-09,-7.674221706110984087e-05,4.462382463543690392e-09,7.081266240049899352e-09,-2.279403155114323454e-08,-1.929216814460232854e-04,2.314487712595791891e-09,4.269463196396827698e-02,2.001172116905536313e-09,-9.600289452293964132e-09,-6.430874499585570447e-09,-1.942618288452990782e-09,4.643654349933967751e-09,-1.236504143520278376e-08,-7.564067594501011627e-09,1.283039630095572647e-08,-1.280520756097303092e-08,-1.491464840519540758e-09,-1.255715975645443905e-08,5.061976615650110034e-09,-6.182374168162141359e-09,2.294640388811330922e-08,-6.980333477258682251e-02,1.858120102227189818e-09,1.651827042223885655e-04,-1.919507340062409639e-04,-1.197592158774796189e-08,-4.016263766004612989e-09,1.369110513849136623e-08,-2.185559111467227922e-08,-1.948579301824793220e-04,3.932027592412623562e-09,4.582192403290719085e-09,2.310946101147237641e-08,1.134091043297758006e-08,1.148745010226548402e-08,4.262497466100967358e-09,-7.015800440601793753e-11,-7.353790465458587278e-09,-1.211265665546079617e-08,1.986796727138084862e-09,3.765889822204826487e-10,7.570281624794006348e-02,8.138012930203331052e-09,-5.574749410152435303e-02,-2.113950259285957145e-08,1.429952600773276572e-08,-2.300817847356029233e-08,5.448354212234107763e-09,3.756297495272065134e-09,1.646630262257531285e-04,3.541575744748115540e-02,1.165155263151973486e-04,1.800189775025273775e-09,-1.272231386906241823e-08,5.381395329351335022e-09,2.285731248719002906e-08,-1.201313537535497744e-08,6.122542917097462123e-09,-1.927883567987009883e-04,1.186544640319198152e-08,-2.112619412741878477e-09,7.746768559968586487e-09,7.069447693908159636e-09,1.179799014039417671e-08,-2.463577342126654912e-09,5.327075225380895063e-09,-4.249140594936307025e-09,-1.021598006190060914e-08,-4.447247459182790408e-09,1.642366260057315230e-04,-7.866480800089448167e-10,4.378791551573613106e-09,-7.202307195086632419e-09,-1.647720737629754240e-09,-1.102229774119223293e-08,6.415056041930711217e-09,1.918356720125302672e-04,-2.081316896607177114e-09,1.698931795544922352e-03,-1.109732838955324041e-08,1.923831732710823417e-04,-8.340542763471603394e-02,4.468488690179128753e-09,1.502713566878810525e-04,7.148542646717714888e-09,1.217714817869364197e-08,6.724484524767149196e-09,-2.542359656132475720e-09
1.506059721378960603e-09,-4.590667039155960083e-02,-2.279349331502089626e-08,-2.303911728063212649e-08,-6.965811927273080073e-09,-3.448306085118701958e-09,-1.288029150003922041e-08,3.106938488781452179e-02,-4.971490774607900676e-09,1.364412138826764931e-08,2.382213004636923870e-08,1.271144789427580690e-08,-2.570359222590923309e-02,-8.714658906683325768e-04,1.283100115045954226e-08,-3.505476131593354694e-09,-6.142055752889064024e-09,8.492990164086222649e-04,-3.839367046509778447e-09,1.854087784886360168e-02,2.343165483864595444e-08,-2.125710985012574383e-08,7.524791872128844261e-04,2.235628748792350962e-08,-9.836625736170390155e-09,2.043448965594052424e-09,1.584004927224214043e-09,7.288259773474692338e-09,2.708463231471114341e-09,3.565613360123620623e-09,3.320312913501766161e-09,-3.815809002105652326e-09,-4.440879449248313904e-03,4.963422561843344738e-09,-3.756936539645039375e-09,2.727602144148022489e-09,-7.267935586696694372e-09,8.889323798939585686e-04,7.236361732054774620e-09,7.708599980560393305e-09,3.014747519046068192e-03,-4.484029592077831694e-09,4.316867974196725299e-10,-1.270781258000397429e-08,8.024101844057440758e-04,-7.143746039162124362e-09,2.045433595776557922e-02,3.329824638242939727e-09,2.099664442312132451e-08,2.375113261621208949e-08,1.092946089187307734e-08,6.295479693108063657e-09,7.095426024505968599e-09,-1.715952158143352335e-09,-1.261340454306036918e-08,-7.018964964800034068e-09,7.821769898441743862e-09,1.019135709157126257e-08,1.533116744667495368e-08,1.209206734742451772e-09,1.478460998072250732e-08,-2.862098813056945801e-02,-3.538523696278161879e-09,-8.708712994121015072e-04,7.944901008158922195e-04,-1.034692242996015921e-08,-1.019533435453467973e-08,1.190482645796464567e-08,1.078207301219435976e-08,8.114763768389821053e-04,2.272109789203113905e-08,-1.021441597970351722e-08,-5.845814943228333505e-09,1.262113791256069817e-08,-6.215910453022388538e-09,7.929737755318910786e-09,-4.095441319407200353e-09,1.132644733559118322e-08,1.187568088312218606e-08,1.212623956803327019e-08,7.229407295028522640e-09,6.023107096552848816e-03,9.810530166021180776e-09,-1.555594801902770996e-02,1.262217974584700642e-08,-3.795667335992902736e-09,1.855590681110186324e-09,-1.228102064487757161e-08,1.369314550636602235e-09,-8.785796817392110825e-04,1.226587314158678055e-02,-2.117395342793315649e-04,2.326781789463439054e-08,4.561877785247414607e-12,3.436323225969317718e-09,-3.146512161933401330e-09,-2.527742681834865834e-09,4.316865087616861274e-09,8.040660177357494831e-04,6.629862880913606205e-09,1.831952034514472416e-09,5.653716730891211739e-11,3.054914099465122490e-09,-4.869110004079857390e-09,-2.263712239880533161e-08,2.479944249955678970e-09,-3.759886180176863490e-09,-4.288504662497416575e-09,-1.370735791539345882e-08,-8.771920693106949329e-04,-9.713191140292565251e-09,2.345835881101265841e-08,1.141328187515000536e-08,2.117261566070283152e-08,-2.132907628293878588e-09,3.547764304556721981e-09,-8.011509780772030354e-04,6.901745841503270640e-09,3.827217500656843185e-03,-1.450484510279181904e-09,-8.166143670678138733e-04,-4.874424485024064779e-04,2.375899654794011440e-08,-9.396933019161224365e-04,5.350246468083241780e-09,9.894608687943673431e-09,-6.017707665506577541e-09,-1.356171397404182244e-09
8.032300158333782747e-09,-9.501834958791732788e-02,2.716657121482057846e-09,2.908688012670523904e-10,6.052375933762732529e-09,6.516502892850439821e-09,6.120687845445615949e-10,7.708010822534561157e-02,-6.825742193683481673e-09,-2.331810833311465103e-08,1.039800778812605131e-08,6.986764056193806027e-09,-7.038528472185134888e-02,-2.207605168223381042e-03,3.558504602096945746e-09,-4.050841440061958565e-09,2.185114089670037174e-09,2.078518737107515335e-03,5.142204884123202646e-09,3.909863531589508057e-02,1.216581413387984867e-08,6.060750123992875160e-09,1.873745000921189785e-03,7.146760960807796437e-09,-2.186448577745636612e-09,-6.257811158150161646e-09,1.042627495451142750e-08,-2.224947115436748390e-09,1.134663207835728826e-08,6.767546079089470368e-09,1.350770872932116617e-08,1.051567455334634360e-08,-4.445584490895271301e-02,2.297643675319704926e-08,-4.877593440255623136e-09,-2.593958292607112526e-08,6.187389711698187966e-09,2.138390904292464256e-03,9.169990100588165660e-09,-2.662270182085535453e-09,2.770421840250492096e-02,-1.373475777555199784e-09,9.900942288254555024e-09,3.407696125279358057e-09,2.013732213526964188e-03,1.174470920517478589e-08,1.172700077295303345e-01,1.622148526614353159e-09,5.432405192351552614e-09,4.985705626125991330e-09,-1.528531079486583621e-08,-7.999133799785340670e-09,-2.682573940759880315e-09,-2.207065463721846754e-08,1.259304571732400291e-08,-4.060096703284443720e-09,6.243911609971064536e-09,1.505578661742390523e-09,-3.269038373332477931e-09,-1.339679212009059484e-08,2.186742698029320309e-08,-9.483526647090911865e-02,-5.536354930057996171e-09,-2.308388939127326012e-03,1.875177607871592045e-03,-1.243647762549926483e-08,2.191718628807848290e-08,-1.719490105855925322e-09,1.231018575964526462e-08,2.039921004325151443e-03,-1.221737822021395914e-08,1.485213640961546844e-08,4.918184526303548409e-09,-1.461123932955388227e-08,-3.015543814655075039e-09,2.310086344436967920e-08,-7.618569775047490111e-09,-3.739367926414161047e-09,-2.369663798518217845e-09,6.908488447976424141e-09,1.903503576983212042e-09,2.782514505088329315e-02,6.963139842497412246e-09,-6.201347708702087402e-02,-1.135421268116942883e-08,6.234447180730740001e-09,-4.417789689625806204e-09,-4.478518889072802267e-09,-2.026224965590017746e-09,-2.423578407615423203e-03,7.845482230186462402e-02,2.651480957865715027e-03,1.387024939347725194e-10,7.293285086973355646e-09,-2.212306249305129313e-08,-9.831290448403251503e-09,-3.948093407757369278e-09,1.166881258285457079e-08,2.097327262163162231e-03,4.567435318847401504e-09,-2.254034470183796657e-08,1.229155266457837570e-08,-8.059691802841939534e-10,3.249293889506787991e-10,1.018167328226127211e-08,-5.396149305170183652e-09,-4.290116262239962452e-09,-6.958703391291010121e-09,-1.469078858562511414e-09,-2.430749824270606041e-03,-1.295451745875197958e-08,-2.287920825017053517e-10,-1.917742409318634600e-08,-4.314615331679760857e-09,-2.320744130202001543e-08,1.044068920208474083e-08,-2.226134762167930603e-03,-3.240903767576241989e-09,1.692701503634452820e-02,-2.376888552646505559e-08,-2.109951106831431389e-03,-4.490470886230468750e-02,2.689789724286129058e-09,-2.635723445564508438e-03,-6.428786392120855453e-09,-2.559451850459026900e-08,-6.676564634489068339e-09,7.691570935719482804e-09
-6.160389087739304159e-09,4.547359049320220947e-02,2.432825330078713932e-10,1.750716571713439862e-09,-1.004176208851959018e-08,-1.349681166828986534e-08,2.374427410245516512e-08,-1.412891596555709839e-02,7.931794776538936276e-09,1.311069119935837080e-08,-8.286160646520102091e-10,-1.446104569424733199e-08,4.104230180382728577e-02,4.047488910146057606e-04,1.254393833249878298e-08,6.580630262931208563e-09,-1.505812918800586431e-09,-3.967337543144822121e-04,-7.828936610110304173e-09,-1.914783939719200134e-02,6.819811382285934087e-09,1.007203209724139015e-08,-3.792089701164513826e-04,2.213120708915994328e-08,-6.324057277851125036e-09,9.321801996975409565e-09,-6.979972599907569020e-09,2.320062186811355787e-08,1.422823814323237457e-08,-1.750813050094279788e-09,3.079521304627519385e-09,1.480497835437688536e-09,6.151606887578964233e-02,5.817544224129278518e-09,4.235847672617865101e-09,9.963943448099144007e-09,7.638502275142400322e-09,-4.062929074279963970e-04,4.960285959754173746e-09,-1.802488047708550312e-09,-5.023824796080589294e-02,6.210255865113367690e-09,-1.699720586501030084e-09,-4.274583353947036812e-09,-3.857247065752744675e-04,8.147220675880362251e-09,-5.991904065012931824e-02,2.106997420980860625e-08,5.221759469264952713e-09,-2.211096195026129863e-08,-7.155959380611420784e-09,-1.561505813540975396e-09,-7.533524915004363720e-09,-9.953135204909813183e-09,1.526876403090682288e-08,-1.416609052284911741e-08,-1.524694326349163020e-08,-2.369037943594776152e-08,2.285231026633027795e-08,8.456950140178776110e-10,-7.968925963552919711e-09,2.045221859589219093e-03,3.526692493593941435e-09,4.037144244648516178e-04,-3.851595974992960691e-04,8.609548074467454626e-10,-5.150698978440004794e-09,3.762438804955081650e-09,6.187425238834975971e-09,-3.848822962027043104e-04,3.714152985168084342e-09,1.751077505218745500e-09,2.267492682506144774e-08,-6.913386751961070331e-09,-1.950230865688240556e-09,1.000812499540870704e-08,1.909713942538360243e-09,4.316329071940572248e-09,-6.612051794974149743e-09,1.558306816917820470e-10,1.091996382207582883e-09,-1.907068863511085510e-02,-6.407355535031911131e-09,-9.235196746885776520e-03,7.078726049769556994e-09,1.221546530594252999e-09,-1.345652034245858886e-09,-3.995482167340469459e-09,-4.452244795061233162e-09,4.047876864206045866e-04,-1.426140964031219482e-02,-2.395324222743511200e-02,2.842458490803778659e-10,7.053112316413034932e-09,2.300731871685002261e-08,9.510006115931446402e-09,-3.116135793845842272e-09,1.114545167268943260e-08,-3.859008138533681631e-04,1.448232089806822387e-09,-5.677762260347662959e-09,-7.150113834342164409e-09,2.078349758960484905e-08,1.027447193990838059e-08,1.333974153361339177e-09,6.916939909729080682e-09,7.716629113474482438e-09,3.447733876171810152e-09,6.553139364484650287e-09,4.049911221954971552e-04,4.411417009464457806e-09,-2.289657352605445340e-08,3.461429143314376233e-09,1.504188107404047514e-09,-2.382567032555016340e-09,-1.855331305256058272e-10,3.857430128846317530e-04,7.812060331957582093e-09,-5.321214441210031509e-03,9.543272838641314593e-09,3.863020974677056074e-04,3.489662706851959229e-02,-3.973567697101998419e-09,4.087167326360940933e-04,7.128021284330543494e-09,-2.921787034537715044e-09,-2.319245018256310686e-09,-1.604362087626043376e-09
-9.541272216750940061e-10,3.572231624275445938e-03,-2.110306240865611471e-08,-6.873868141354932959e-09,1.258852466712312435e-09,-4.696591116015724765e-09,2.344415683808165340e-08,2.874641446396708488e-03,-1.751336076161180699e-09,-2.199999471486080438e-08,1.663599746848376526e-08,-6.400948660001404278e-09,2.220525965094566345e-02,-6.155238370411098003e-04,-2.389389486268100882e-08,4.894055161130950182e-10,-7.841992055723778776e-10,6.139472825452685356e-04,-4.361901062566175824e-09,3.672157181426882744e-03,-9.265040401551516425e-10,1.287312478837066010e-09,6.059867446310818195e-04,7.035256821552593465e-09,-1.056654874709295200e-09,4.661606212152946682e-09,2.295190704160177120e-08,-3.844713436507163351e-09,-1.657377901587153701e-09,2.392908760029399673e-09,-6.749843795006427172e-09,-2.297371626269750777e-09,3.792087733745574951e-02,-1.409931060791791424e-09,6.650916262174177973e-09,5.126433499924587522e-09,-1.261455917500597934e-08,6.175223970785737038e-04,-2.265746923413303193e-09,-1.027825646815472282e-08,-5.281361518427729607e-05,4.162228783854970970e-09,1.682552985826646363e-09,1.895195556045337071e-09,6.106676300987601280e-04,-1.263358484493437572e-08,-4.466683138161897659e-03,4.197024061625143077e-09,2.202137139306614699e-08,2.216790084830222440e-09,7.699461512800098717e-09,-1.004849536911933683e-08,-5.651593859568038170e-09,4.443843071300079828e-09,4.694048705289333157e-09,-1.159222384750080437e-09,1.006429162231370356e-08,3.251597879838641347e-09,7.155445569395624261e-09,-2.106711605165401124e-08,1.361041146452635076e-08,1.485452055931091309e-02,2.088233141961381989e-09,-6.147891399450600147e-04,6.101473118178546429e-04,-7.398448964579529274e-09,-3.991637242961587617e-09,-5.252623225260322215e-09,-1.238828239991107694e-08,6.108536617830395699e-04,9.623769336997156643e-09,-1.390060289097050372e-09,6.810831898462765821e-09,1.020659201600437882e-08,2.765072615318331373e-09,6.200029378788940448e-09,-2.263186971163122507e-08,3.908962931120640860e-09,-1.267205451682684725e-09,2.579296332072544828e-09,-6.824342424494034276e-09,-1.311286445707082748e-02,-4.270515940874020089e-09,2.138443849980831146e-02,-9.647595611284032202e-09,1.053361620151349598e-09,-1.014126027598649671e-08,4.481014670432159619e-09,1.177905328830775034e-08,-6.158898468129336834e-04,4.602425731718540192e-03,-4.958648933097720146e-04,-5.653295609420183609e-09,-6.924197659685660255e-09,-2.060329906683477930e-09,1.527964310632512479e-09,-2.528481424235451414e-09,-7.331206308691662343e-09,6.107038934715092182e-04,2.240454399782265682e-08,-5.249969792231468091e-09,-5.497542421295520398e-10,-1.164576080014967374e-08,-7.228661225155974535e-09,-4.401803810338833500e-09,-1.197851062784138776e-08,-1.573044916547416960e-09,6.620644588117841067e-10,6.756410098063270198e-09,-6.157621974125504494e-04,-1.773419078254789838e-09,1.194451648700578517e-08,1.101334312636481627e-08,2.120731812382814496e-09,5.818047155159433714e-10,-9.361348363157162566e-10,-6.103650084696710110e-04,1.530678517269734584e-08,5.505166482180356979e-04,-7.589824768672315258e-09,-6.118263117969036102e-04,6.713707931339740753e-03,-1.021387330268908045e-08,-6.215059547685086727e-04,-3.496053002649546215e-09,7.192455075966108780e-09,1.247524394898391620e-08,-2.171665514083542803e-08
4.387874508182676436e-09,2.159914001822471619e-03,4.363417183128603938e-09,3.648270130440778303e-09,-1.238487801202836636e-08,-1.558589368677587572e-09,6.143045183648609964e-09,-1.842622994445264339e-03,2.334979543050508255e-09,4.472242132180781482e-09,7.027828097250221617e-09,-2.389920084056029737e-08,2.715713111683726311e-03,5.717460880987346172e-04,-2.240056318214556086e-08,4.409363985047320966e-09,-1.333686272531053874e-09,-5.663359188474714756e-04,5.483288934016172789e-09,-2.399147488176822662e-03,1.011174521892144185e-08,-2.433744317187347406e-09,-5.472778575494885445e-04,1.101665780822713714e-08,5.603994601699469058e-09,-7.033166493641829220e-09,6.595352708416157839e-09,-5.320982321421752204e-09,9.670564793395897141e-09,2.076979699339176477e-09,1.945645644596538659e-09,-1.152955686478662756e-08,2.498558722436428070e-03,5.641940248324317508e-09,-5.562237337386477520e-09,-1.714032693556077902e-09,-1.020735584944532093e-08,-5.768800037913024426e-04,4.482369586611412160e-09,1.250405445851754394e-09,6.690983427688479424e-04,-3.595504782794023413e-09,4.683542442762700375e-10,6.878994263104232232e-09,-5.571254296228289604e-04,-7.217361819300549541e-09,-2.632568823173642159e-03,-1.018528728025103192e-08,-3.383347157992488974e-09,2.284122757600925979e-08,4.238293715985719246e-09,-3.239572388125111502e-09,1.096797674904337327e-08,7.292629611299616954e-09,2.524316311536267676e-09,-2.585655911602202650e-09,-1.822830997255664442e-09,-7.136292889953210761e-09,1.510553904182643237e-09,4.456917501727275521e-09,1.819099981759109141e-09,1.870513428002595901e-03,6.952716180563811577e-09,5.704510840587317944e-04,-5.555074312724173069e-04,1.232660640226868054e-08,-2.170552626523658546e-08,-1.482351130732695310e-09,1.816772843277192351e-09,-5.576965049840509892e-04,-1.113904257721287649e-08,1.179796260686316600e-08,-5.414945825066297402e-09,-4.147983734270610512e-09,1.039100094857303702e-08,1.116242831500358079e-08,-2.275637278614794923e-08,1.397188698071261115e-09,1.423181039683640847e-08,-4.752612969838310164e-09,1.202365051966580722e-08,-2.916509052738547325e-03,-6.232499405456337627e-09,-2.562519162893295288e-02,2.007432442496792646e-09,3.543138227257713879e-09,-4.263313702068671773e-09,2.289468348237733153e-08,-4.235273021180319120e-09,5.733186262659728527e-04,-1.942977192811667919e-03,6.347220623865723610e-04,-1.886517830840261922e-09,1.425783491271204184e-09,-2.287760025865281932e-08,1.755562584193626208e-09,1.037817742854940661e-08,4.032667533238054602e-09,-5.573236267082393169e-04,-1.007457406387857191e-08,-2.420780464973404378e-09,-6.129657226239260126e-09,-7.692497305811230035e-09,-1.172845287555901450e-08,4.881010706725419368e-09,6.790753293017814940e-09,7.206300889350814032e-09,-4.151724741774387439e-09,1.018470108249402983e-08,5.725130322389304638e-04,5.430111915671886891e-09,-1.027589213720148109e-08,-9.779918208607796259e-09,4.791371743806394079e-09,2.110827734824738400e-09,-2.267591447946415428e-08,5.563890445046126842e-04,-7.587925843210996391e-09,-1.454897574149072170e-03,-7.319243877645931207e-09,5.604461184702813625e-04,-1.561058033257722855e-02,2.355478123661214340e-08,5.843798862770199776e-04,3.552430127840011664e-09,4.306722090063885844e-09,-1.340071520417041029e-08,-9.650599430699458026e-09
1.499870450061280280e-09,-1.099760383367538452e-01,2.168676793701251881e-09,1.982428665669999646e-09,-1.119748560540756444e-08,-2.579008340219957063e-09,-2.040127400348978881e-09,1.141791716217994690e-01,2.563185219628394407e-09,6.535628926940262318e-09,-5.295185179221562066e-09,5.637302624705853304e-09,-2.118371874094009399e-01,6.497330614365637302e-04,7.557456882523183594e-09,6.303471522528525384e-09,-2.211710814492562349e-09,-6.152333226054906845e-04,4.445255274987403027e-09,1.488311141729354858e-01,-3.802254511242608714e-09,3.064204889824395650e-09,-4.539665824268013239e-04,1.317044584503435090e-09,-1.121436188356028651e-08,-2.195700066209838042e-09,2.289504585917256918e-08,1.148134298745162596e-08,-2.299396406613141153e-08,7.840451843321716296e-09,1.495601198442386703e-09,4.472400672028697954e-09,-2.473560422658920288e-01,-7.721054018361428462e-09,-4.482004545280915409e-09,4.453734714360280122e-09,2.322499748075301795e-09,-6.881942972540855408e-04,-2.270035359686062293e-08,-6.207573566285873312e-09,1.009037601761519909e-03,3.882337562544080356e-09,5.232852817727007277e-09,1.032519669763587444e-08,-5.410180892795324326e-04,4.395483976793457259e-09,1.573096513748168945e-01,-3.936296621986912214e-09,1.981782737914272730e-09,-2.758540951219856652e-09,7.244960187335891533e-09,1.124190962542570560e-08,-1.722941456172577546e-09,-2.296709711302469259e-09,-2.069571847229667583e-09,-6.502814287046021491e-09,-1.425759399431569818e-09,2.197280801752299340e-09,4.517636487122445033e-09,-4.482384241555337212e-09,3.785235180853163683e-10,-1.048725247383117676e-01,2.451000513659096214e-09,6.425151950679719448e-04,-5.268353270366787910e-04,1.835745222500406726e-09,-4.605578585170633232e-09,1.019444351157972051e-08,2.094490625381695281e-08,-5.529673071578145027e-04,9.595119365712889703e-09,-2.237037444174916345e-09,-4.607369152864748685e-09,2.106294694215193886e-09,1.167709484661827446e-08,1.341550981415196020e-09,2.271544907728184626e-08,-1.421662787493005453e-09,4.682717769100008809e-09,-9.584486093672239804e-09,2.348853023192987166e-08,1.968792378902435303e-01,-1.142597305658910045e-08,-2.452886998653411865e-01,-7.248290412320557152e-09,-2.365931095482665114e-08,-6.015631992539738349e-09,4.373425621650994799e-09,1.373313573971302048e-09,6.621542852371931076e-04,1.128853932023048401e-01,1.186367357149720192e-03,2.270044596741627174e-08,-1.262490734177390550e-08,-1.022325957222847137e-08,-6.963550625016523554e-09,-9.555208180245244876e-09,2.076626426372740752e-09,-5.402684328146278858e-04,-2.278139987765825936e-08,2.067952697970554254e-09,-4.520578578137701697e-09,-4.535431141761137042e-09,-4.571377942852450360e-09,4.496419236943438591e-09,-6.263694007913045425e-09,9.704566039658857335e-09,4.263713382357536830e-09,-9.542038270637931419e-09,6.582962232641875744e-04,-1.875690269770302621e-09,-1.143393024705119387e-08,1.389011661245831419e-08,-4.390665608866584080e-09,-1.440911390204746567e-09,2.309525903854137141e-08,5.353192682377994061e-04,2.174714097691321513e-08,-1.235386938787996769e-03,1.082683720454724607e-09,5.680198082700371742e-04,-2.016511112451553345e-01,-3.953556593216944748e-09,7.641465053893625736e-04,2.159840750692865186e-09,9.690626079361663869e-09,4.607318970784035628e-09,-5.735563135544907709e-09
6.386550399639645548e-09,-3.303069621324539185e-02,1.465316579185582668e-08,7.170677829293481409e-09,-5.591787033409900687e-10,-2.348551397801657004e-08,1.792785697674048606e-09,3.565833717584609985e-02,1.100946622756282522e-08,9.553354551883330714e-09,2.268321885878776811e-08,6.165592481011117343e-09,-5.532868951559066772e-02,1.052570529282093048e-03,-6.411875475009765069e-09,-1.014669770427190088e-08,6.711395883485238301e-10,-1.041458221152424812e-03,5.082293697000750399e-09,5.931684747338294983e-02,1.218034384464772302e-08,-2.515769459421335341e-08,-9.934291010722517967e-04,-5.924155832559563351e-09,-1.215447187341567314e-09,-2.158110667949131312e-08,6.927397766531839807e-09,-2.406656651743332986e-09,1.099752466870995704e-08,-5.997787599909543133e-09,-2.241492680354895128e-08,3.877214105330040184e-09,-2.184502221643924713e-02,-2.233710549859324601e-09,2.026279588562829304e-08,1.281532746588709415e-08,-4.268288389397412175e-09,-1.066373661160469055e-03,2.245504049369628774e-08,-1.643698399611537297e-09,1.808233372867107391e-02,1.974525432046903006e-09,-1.900559265521906127e-09,1.774250746322536543e-09,-1.017854665406048298e-03,-2.180983216248932877e-08,1.090195029973983765e-02,1.187468257057844312e-08,3.382491176040502978e-09,2.387816167015444080e-08,4.147179488711572048e-09,5.634379629526620192e-09,-2.321321884712901351e-10,-3.011876525960133222e-09,2.760548900582193710e-09,1.748173938942443328e-09,-2.148619948627583653e-09,-6.580500144792722494e-09,-2.484727423812671532e-10,2.714882096910287146e-09,3.811961024613452764e-10,-3.157838433980941772e-02,2.603977300452697818e-08,1.051848987117409706e-03,-1.014648936688899994e-03,-1.151185191616832526e-08,-4.773287876069787217e-10,2.386927633324376075e-08,-1.206180266777323595e-09,-1.022856682538986206e-03,6.201995361720946676e-09,6.108986649877579111e-09,-7.095138254697985758e-09,-1.021642059839678041e-08,-4.972094291844086911e-09,-6.971593524696118038e-09,-1.162949381239286595e-08,1.243242842008385196e-08,6.316254630434059436e-09,-1.255592851912012975e-09,3.507907742061888712e-09,5.612730607390403748e-02,1.317983144843992704e-08,-2.687709778547286987e-02,1.235944568911406805e-09,7.169100868509303837e-09,-1.216513823010245687e-08,2.105519669726163556e-08,-7.342644825492072869e-10,1.056547393091022968e-03,3.681514412164688110e-02,1.145139150321483612e-02,6.587091760934526974e-09,-1.068791100067301159e-08,-8.015909713776636636e-09,-1.198021060133669380e-08,2.713557156752699484e-09,1.869060461956451036e-09,-1.019707880914211273e-03,6.148383135951007716e-09,-6.391851048448415895e-09,2.408236277062769659e-08,-7.520756462042754720e-09,-1.044457054177883037e-08,-1.174853814234211313e-08,-5.890805176989033498e-09,-6.860763068772257611e-09,-2.893870976183876564e-10,2.076289140617859630e-09,1.056140987202525139e-03,-2.647005725719964175e-09,-1.038287678056803998e-08,-4.832244826502574142e-09,-2.648533836691058241e-09,-1.232886148727629916e-08,2.830811585141645992e-09,1.016440568491816521e-03,-2.356805861580824057e-09,-5.530258058570325375e-04,-1.248638348272379517e-08,1.028192811645567417e-03,-5.033046007156372070e-02,-7.196256923691635166e-09,1.089634839445352554e-03,4.421541799359829383e-09,2.363097273416769895e-08,2.359183781663887203e-08,-1.410774830290506543e-09
9.610172213569967425e-09,1.727542025037109852e-03,1.429179885548137463e-09,9.667502354204771109e-09,9.434645953376730176e-09,-7.199027596271889706e-09,2.274906485411065660e-08,-2.667346037924289703e-03,-1.373827940298610883e-09,-4.513168505582143553e-09,7.566785420465294010e-09,6.380773243108706083e-09,-2.275134436786174774e-03,2.077524986816570163e-04,-9.453945182258394198e-09,4.455287694327125791e-09,-2.085086991954199220e-09,-2.035573706962168217e-04,6.087586434944114444e-09,-1.870852196589112282e-03,4.340746873054968091e-09,3.951730498386041290e-09,-1.861751079559326172e-04,-1.350361933383226187e-09,5.792274437865785330e-10,6.295951759938134273e-09,-1.036953722888256380e-08,1.027882223780807180e-08,-1.336940447238532670e-09,2.296752299457693880e-08,-1.211257849575986256e-08,-4.297828759547428490e-09,1.262259786017239094e-03,-4.466344627473972650e-09,2.167126567087507283e-08,7.275628016722990310e-11,9.777208376249291177e-09,-2.126728068105876446e-04,-1.545207517494873173e-09,-1.013620209988630450e-08,2.061525301542133093e-04,4.528364350164792995e-09,7.459486361938161281e-09,2.384212827166720672e-08,-1.958369539352133870e-04,-2.166557599991847383e-08,1.657223561778664589e-03,-1.098160584689367170e-08,2.294600065511076536e-08,-3.405756565655337909e-09,-2.761967543563059735e-09,1.004840832763420622e-08,9.341422746445005032e-09,-1.371059710209010518e-09,-1.934527871227942342e-09,4.260557684432342285e-09,4.594402636115546557e-09,-9.414421242581738625e-09,7.020677372793215909e-09,-1.064122900906738778e-09,-7.814686675544635364e-09,2.117799362167716026e-03,-2.676986277094783873e-08,2.064049185719341040e-04,-1.941935479408130050e-04,4.565631428476990550e-09,-7.088434283986089213e-09,-5.623202792293113816e-09,-7.354008513260623658e-09,-1.964026159839704633e-04,1.782880509892947885e-09,7.206206298349115968e-09,1.112559289140335750e-08,6.244511130404362120e-09,-1.222069645478995881e-08,7.333814000531901911e-09,-1.428397733427289040e-09,5.309380046725209468e-09,-1.927881188024116454e-09,-3.634148093567546312e-09,2.032709334187643435e-09,1.012242049910128117e-03,-4.056833535770465460e-09,-5.131833720952272415e-03,-1.205743616061738521e-09,-1.021518425403655783e-08,-3.675828308402628863e-09,-9.430721981118495023e-09,1.013673944783022307e-08,2.088573091896250844e-04,-1.977661391720175743e-03,2.236151631223037839e-04,6.839844690631480262e-09,-3.915129109799408980e-09,3.792228475685277544e-10,5.246140410974931001e-09,2.076437688458554476e-09,1.026917928470538754e-08,-1.960078516276553273e-04,6.390170170789133408e-09,-4.194036229421271855e-09,5.622012633210715649e-09,-1.214700562357506897e-09,2.272236443445763143e-08,-1.145537797953011250e-08,7.283714964501086797e-09,-6.037355504417973862e-09,1.397751803189350994e-09,-4.455663393798658944e-09,2.087126631522551179e-04,1.988591513679693890e-09,-2.427229528478846987e-09,3.843849238904795129e-09,-2.261891118848780025e-08,1.021482098906290048e-08,1.234428026464229333e-08,1.950443402165547013e-04,-5.209628728408688403e-09,-1.429303199984133244e-03,-9.345893836609775462e-09,1.992878242162987590e-04,2.044378546997904778e-03,2.290218681366695819e-08,2.202207251684740186e-04,2.203752291762839377e-09,1.167531760160045451e-08,7.525242651240660052e-09,5.218476761825741050e-09
-2.293945478015757544e-09,6.710832566022872925e-02,2.166943513515207087e-09,2.043770291892954560e-10,-2.245205088513557712e-08,1.224917500763922362e-08,-8.446839672160422197e-09,-5.348141863942146301e-02,-1.980922981204003008e-09,-1.111995295843826170e-08,-1.007695438204336824e-08,2.142386357206760295e-08,7.071432191878557205e-03,4.364848718978464603e-04,-1.411739752876783882e-10,-6.817006958925730942e-09,1.230524482309647283e-08,-4.316609993111342192e-04,1.724556830673407148e-09,-5.766015034168958664e-03,-1.574029973028245877e-08,-1.446493036461049542e-09,-4.074016178492456675e-04,-2.703704593542965995e-09,4.595016367403559343e-09,-2.217560179929023434e-08,1.002167060448755365e-08,6.770204841188842693e-09,1.311626807165566788e-09,-2.077751126705607021e-08,1.289631601508745007e-08,1.334175614431387658e-08,5.216622352600097656e-02,-8.123002714910398936e-09,-8.036942666933555302e-09,-1.200350752128542808e-08,6.455165735275159022e-09,-4.399025347083806992e-04,7.709473948125378229e-09,-4.524439933817347992e-09,-4.125671833753585815e-02,1.431113338945522173e-09,2.498930129490872787e-08,-1.803000082567507434e-09,-4.219211405143141747e-04,2.207332094883440732e-08,-9.091465920209884644e-02,-3.263793235674938842e-09,2.338156868120222498e-08,-1.275063343797455673e-08,-6.444588862564160081e-09,-9.984973958765408497e-11,2.182258596050701271e-09,-1.078240274843267343e-09,6.891504700234918346e-09,-1.227050283603148273e-08,-1.141344707633606959e-08,-9.531263778228549199e-09,1.680868111364475226e-09,1.254578385623261738e-10,-9.919810528558059559e-10,4.816716909408569336e-02,2.143211830230029591e-08,4.341230669524520636e-04,-4.192267660982906818e-04,-2.568140811121111255e-09,1.057242826618676190e-08,5.090885046854509710e-09,-6.444952127537817432e-09,-4.221317067276686430e-04,-6.343757963378493514e-09,1.221934287087833582e-08,-1.138442495829394829e-08,-1.081061684615747254e-09,-3.011838556332691041e-09,7.444307836834695991e-09,-1.198061760909752138e-09,1.374894154082539899e-08,7.979612526298751618e-09,-6.376771999327957019e-09,-4.265105602030416776e-09,-4.753917455673217773e-02,6.459196288943758191e-09,2.646659500896930695e-02,2.133868726161836094e-08,1.076775824060405284e-08,-1.555524775653793768e-08,1.953411654653791629e-09,1.163184304431297278e-08,4.376315046101808548e-04,-5.149133503437042236e-02,-1.967106759548187256e-02,-1.006017491533839348e-08,1.172539398908156727e-08,2.287258915600887121e-08,7.664390899719819572e-09,2.350790495597721019e-08,7.229023157862002336e-09,-4.209077742416411638e-04,-6.162450549851428150e-09,1.905087643194747216e-09,-4.144623533264280013e-10,4.452524571263438702e-09,-2.472036797485088755e-08,2.388934028374478657e-08,3.582736551877019338e-09,1.209274014257744057e-08,-7.988395722691166156e-09,-2.102788165814217791e-09,4.369550733827054501e-04,2.306189728074059531e-08,1.707074925860752046e-09,5.661576096827047877e-09,6.850361167209939595e-09,-1.809453836765229084e-10,2.060476012033518600e-09,4.211147897876799107e-04,-3.886918786832893602e-09,-4.694617819041013718e-03,1.663280846386783196e-09,4.241443821229040623e-04,7.751000113785266876e-03,-2.117282171809620195e-08,4.503733653109520674e-04,-5.480955689307620560e-09,6.316549505669399878e-09,2.549143829355671187e-08,1.163917495716759731e-08
2.696444845184942096e-09,-3.054682863876223564e-03,7.306161453612958212e-09,2.210495564369807653e-09,-2.315412750419909571e-08,-2.533874443599870574e-09,-2.270464527498461393e-08,1.140404120087623596e-02,-4.177682644268543299e-09,-2.005766663870645061e-09,3.697967043692074185e-09,-1.202959154511518136e-08,-3.216135874390602112e-02,-2.565041068010032177e-04,-1.232121338290426138e-08,3.429211359318173891e-09,-1.504888658132585988e-09,2.552147780079394579e-04,2.069189619646749634e-08,1.573242433369159698e-02,-2.398931719937991147e-09,9.775682485724246362e-09,2.498642716091126204e-04,-1.043429609381973933e-08,3.711670970574232342e-09,-2.348375538474556379e-08,-2.292335921083576977e-08,1.908663005423250070e-09,-4.208472237365867841e-09,2.268260246296449623e-08,-3.535446380098505870e-09,-4.500103845117564560e-09,-2.664790255948901176e-03,6.547609121554387457e-10,-2.011006028368456100e-09,-2.256341247175441822e-08,-1.851710562661423864e-09,2.571124641690403223e-04,1.241437797006028632e-08,2.274735599883115356e-08,-1.062851748429238796e-03,4.340056758422861094e-09,6.209821989955344179e-09,1.115877434898493448e-08,2.525429008528590202e-04,-1.107415403822642475e-08,2.378652803599834442e-03,-2.002313870264060824e-09,2.006848909275049664e-09,4.498590389090395547e-09,-4.432922473540656938e-09,3.308796125978119562e-09,9.490219277097367012e-09,-4.198537073563102240e-09,6.273400132705830856e-10,6.741306624036269568e-09,2.292821044136417186e-08,-4.376477402701084429e-09,-1.044016872953079655e-08,2.284739863966933626e-08,6.303801480811443980e-09,-2.264405367895960808e-03,4.439656642318823287e-09,-2.570710203144699335e-04,2.516853564884513617e-04,2.283435307504078082e-08,1.979636898852277227e-09,1.481242573042607091e-09,-1.769093316283942841e-09,2.531619393266737461e-04,2.037104707142134430e-09,-1.963135609628352540e-08,-3.472398368842277705e-09,-1.666429105817712752e-09,6.808236197031192205e-10,6.128246798908776327e-09,6.724826029369523894e-09,-2.128323473016280332e-08,-4.419563826019157204e-09,-1.189673515256117753e-08,1.243359282199207883e-08,3.623939678072929382e-02,-5.313486872715600384e-10,-3.730541840195655823e-02,-7.244164379471840221e-09,-4.539745024345620550e-09,-1.025184825920177900e-08,4.347272319904504911e-09,2.125075937442488794e-08,-2.570613578427582979e-04,1.239982713013887405e-02,-1.135481797973625362e-04,2.244027008657667466e-08,-7.189439710231226854e-09,-1.228703250255591684e-09,1.972575658371056306e-09,7.238165622425185575e-09,7.027011417193307352e-09,2.526265161577612162e-04,1.287929540794152672e-09,2.315947611464252986e-08,2.165332801951080910e-09,7.949690683517474099e-09,4.583483370623753217e-09,-3.926401426213033119e-09,7.740021956692544336e-09,4.275668707975910365e-09,8.019360286937171622e-09,-3.684270444281878554e-09,-2.571466320659965277e-04,-6.859264267689013650e-09,-1.078495182049721279e-09,3.641370316387337880e-09,-1.020719153643767640e-08,-1.891662160247165048e-09,-1.040625630110980637e-08,-2.522260474506765604e-04,7.199144835823290123e-09,3.562657802831381559e-04,1.973384788911403120e-09,-2.542897709645330906e-04,-3.960050642490386963e-02,9.357679076060776424e-09,-2.580427972134202719e-04,-1.390627879516159737e-08,-3.387111258135178105e-09,-7.013481351236805494e-09,2.070117188779363460e-09
-2.883840943823656744e-09,7.515542092733085155e-04,-6.155006282426711550e-09,3.004625437341701399e-09,-1.586534570385822462e-09,-7.891149955696619145e-10,-5.595211405307054520e-09,-8.020930108614265919e-04,4.208988269027713613e-09,-2.521702846536300058e-09,3.144789983977602787e-09,1.160309981429463733e-08,6.695597898215055466e-03,3.060425224248319864e-04,5.263080193884661639e-09,4.302076028750434489e-09,1.872955568416045935e-09,-3.042305761482566595e-04,4.582492163507367877e-09,-1.673954888246953487e-03,-9.627308727999661642e-09,-1.232167168296882664e-08,-2.946719760075211525e-04,-1.244016445411944005e-08,-1.165611873688021660e-08,3.455053354528558884e-09,-7.234582266590905419e-09,7.193852624709506927e-09,1.175581232359945716e-08,-5.215782916678790571e-09,-7.146299552118762222e-09,-9.885274820931044815e-09,2.756472676992416382e-03,7.754246134084041842e-09,-1.488434264729221468e-08,8.070527024450768749e-10,1.950497763303360443e-09,-3.078362205997109413e-04,2.855447434058078215e-09,5.544726455752879701e-09,-1.881528063677251339e-03,1.115329517631380440e-08,-2.712868596432826962e-09,3.157579087087469816e-09,-2.992301888298243284e-04,-8.025932141109137774e-10,-9.386750170961022377e-04,-5.904643440857171299e-09,4.603668557479068113e-09,2.267672982725343900e-08,-7.815065039551427617e-09,-2.522973652219206997e-08,-2.005146448880168464e-08,-9.870185779803364312e-10,-1.909211011508205047e-09,5.506880729200247515e-09,-9.363937181205983507e-09,-2.948049360185223122e-09,-2.888091987784946468e-09,-6.110652872592936546e-09,6.482391068374226961e-09,8.469042950309813023e-04,4.032707501266941108e-09,3.063656913582235575e-04,-2.984876628033816814e-04,4.131116337902085434e-09,5.578932871230790624e-09,-2.286982692112360382e-08,1.307569608144376616e-08,-3.009893407579511404e-04,-6.954732789665740711e-09,9.547972190659947955e-09,6.184384560015132593e-09,1.509615654704532517e-09,-6.582403511146139863e-09,-1.268427446410314019e-10,-7.708842592046849518e-11,2.278294708446537697e-08,5.389035884206805349e-09,-2.356812522918971808e-08,2.360826734104648494e-08,-3.191266953945159912e-02,-1.048428988070781998e-08,-5.743370950222015381e-02,9.653629895467474853e-09,-1.108671021654572542e-08,1.921893977296917910e-09,7.204709051578106482e-11,-4.563869726581515351e-09,3.071909595746546984e-04,-8.475956856273114681e-04,2.606322523206472397e-04,-1.171384322873336714e-08,1.791182618893216727e-10,1.252800352347094304e-08,5.856167106799148314e-09,-2.622586059430886962e-08,-1.213611611206033558e-08,-2.985734608955681324e-04,1.041248864908084215e-08,-4.441982781600017915e-09,2.289071293626321335e-10,-1.370526447885822563e-08,3.682516958036785581e-09,6.296721810628014282e-09,1.165755136867119290e-08,4.368330586146385031e-09,1.943250449443212347e-09,-5.211238107705185030e-10,3.064229968003928661e-04,2.637126428339797712e-08,-3.268948722823239450e-10,9.509634857352011750e-09,-3.392222280851342475e-09,1.844343677781523638e-09,5.917973222580030779e-09,2.988053311128169298e-04,2.342694926937838318e-08,-5.809977883473038673e-04,2.287981004656103323e-08,3.001852892339229584e-04,-1.134691201150417328e-02,2.597582593466540857e-08,3.130430413875728846e-04,-3.574796014760295293e-09,-7.900840870433967211e-09,-3.272222937056312730e-09,3.892746125444546124e-09
1.192249743375839444e-09,2.441815333440899849e-03,2.107334751144662732e-08,-3.567754758293517625e-09,4.806400610846139898e-09,9.660984012782591890e-09,2.291212197746972379e-08,-2.052714116871356964e-03,3.520072233698101627e-09,4.151788246531395998e-09,6.939480101664230460e-09,-3.979431006939648796e-09,1.113578770309686661e-02,-1.209783018566668034e-03,-1.092428991711358321e-08,-1.118650519438268987e-10,-2.714021674066202650e-09,1.194689422845840454e-03,2.217650418856464967e-08,-3.149606054648756981e-03,4.555551047502603979e-09,-1.177481223635368224e-08,1.127368886955082417e-03,1.307001396000373461e-09,-1.437326702102836862e-09,-8.085840330629423534e-10,6.901739624254332739e-09,-2.274231825083461445e-08,7.802697155057103373e-09,-2.090749262606550474e-08,-1.426006424054548916e-09,2.341500993097156424e-09,2.720094751566648483e-03,-6.463715340743192428e-09,-2.197582782414997382e-09,1.456168657876233397e-10,-4.148155596794822486e-09,1.226321095600724220e-03,-4.375658946287330764e-09,2.388171616019008070e-08,-6.029862561263144016e-04,2.210544858272101010e-09,-1.033058527610819510e-08,-2.099695528556821955e-09,1.164190471172332764e-03,-1.582435182889696534e-09,1.940636709332466125e-02,-2.289387524001540442e-08,-2.674575405592349853e-08,-4.444934198488681432e-09,-4.042444157192903731e-10,-7.273355251413704536e-09,-4.148634769052250704e-09,-3.556645644664513384e-09,-2.100504215007958919e-09,6.555731957291754952e-09,-1.491197609837513482e-09,-4.556315769121965786e-09,5.510121692253733272e-09,9.398782196967658820e-09,1.171391517118536285e-08,2.251300495117902756e-03,2.455223802044770309e-09,-1.205760170705616474e-03,1.158456085249781609e-03,-3.956272198735177881e-09,-7.352374709057585278e-09,1.275272665246518500e-09,-5.309656270213736207e-09,1.168075017631053925e-03,7.271181878820698330e-09,-2.135671905989511288e-08,-2.289722722537135269e-08,1.695652063204988735e-09,-6.918142503309354652e-09,1.119858783482641229e-08,-1.041364683374013111e-08,2.150844613524327542e-09,1.701544682930489216e-09,2.088167194713719255e-09,-7.345655639312553831e-09,-3.165119560435414314e-03,-6.069499569605341094e-09,2.273837802931666374e-03,-1.028047158513345494e-08,3.044174357036411038e-10,-1.407715544132770447e-08,-6.669925056712600053e-09,-1.201368249326151272e-08,-1.214351039379835129e-03,-2.011488657444715500e-03,-1.307360944338142872e-03,3.138288073856188021e-09,-4.422500143874685818e-09,7.649784805607851013e-09,-5.297076999255523333e-09,-1.576484165433100770e-09,2.780672359037339447e-09,1.163912587799131870e-03,2.293666234720603825e-08,3.666649206479632994e-09,7.397985779533655659e-09,1.873738719737616520e-09,-2.317340630497710663e-08,2.320115477516537794e-08,-6.090141724257591704e-09,3.557415473309788467e-09,9.336248218971832102e-09,5.645175438218075215e-09,-1.212819479405879974e-03,5.611720532705533060e-10,-1.040836306032133507e-08,-2.517398023371697491e-08,-2.285979583405151061e-08,6.360653781456448996e-09,7.595169826402070612e-09,-1.161521184258162975e-03,1.177786401740377187e-08,1.034264569170773029e-03,1.290854867441737497e-09,-1.175282290205359459e-03,3.803412197157740593e-03,1.195068044523850403e-08,-1.257782103493809700e-03,1.043668174105505386e-08,-4.793449193130072672e-09,-2.601431425830469379e-08,1.974941765681137440e-09
2.978189694857746872e-09,4.720104113221168518e-02,-1.189294884795799589e-09,6.636305727170110913e-09,-1.242398295353552840e-09,6.482437697741261218e-09,-7.166295556970680991e-09,-4.039432480931282043e-02,-1.287445972053546939e-08,-2.317519864902806148e-08,-4.399169029056793079e-09,-6.825770171303702227e-09,3.154613822698593140e-02,-2.111401263391599059e-04,-9.440277892736048670e-09,5.937961677915382097e-09,2.090441597601966350e-08,2.111530629917979240e-04,1.667481153155847551e-09,-2.091884985566139221e-02,-3.171347850994266082e-09,2.637819918049899570e-08,2.137583942385390401e-04,1.229693413762333876e-08,9.619760987789049977e-09,6.537476338053238578e-09,-3.575375773223754550e-09,9.607011186574254680e-09,-9.610997331321868842e-09,-6.209485814423487682e-09,-8.115592642354840791e-09,-1.309230945878425700e-09,1.944902911782264709e-02,-1.100459723346602914e-08,-6.585818557169886844e-09,3.970309414569328510e-09,5.841264361094999913e-09,2.108045737259089947e-04,-1.696325413469423893e-09,-5.891939713897897946e-10,-6.859611603431403637e-04,-4.170241041379085800e-09,4.001903253225691515e-09,-6.419373477228873526e-09,2.121202560374513268e-04,-7.492984011037151504e-09,-6.314807385206222534e-02,-5.421741389177725523e-10,-3.680950433349039486e-09,1.223519507931314365e-08,-6.241008265739367289e-10,-2.201429438741797640e-08,-2.312045133123774576e-08,7.492656273200282158e-09,6.013129105753023396e-09,1.015332529163970321e-08,-1.425427220702601971e-09,-6.204053271119391866e-09,1.160859053328522350e-08,6.578932509881951773e-09,-4.329596681174052719e-09,1.756161451339721680e-02,6.846777367286449589e-09,-2.127519983332604170e-04,2.118867269018664956e-04,-1.358728685119103829e-09,7.735767582062180736e-09,-7.241391486445536430e-09,1.990509090887826460e-09,2.130618668161332607e-04,-7.632496412668388075e-09,-2.281278055349389433e-09,-3.047709196124515074e-09,2.287572264947357326e-08,4.611595105785681881e-09,1.113227909854686004e-08,5.587240892168665596e-09,1.631978663318989220e-09,-1.123587090035016445e-08,-2.239593843711418231e-09,3.007629256757127223e-09,-4.751641303300857544e-03,-6.563402710213495084e-09,7.636198308318853378e-03,2.273044863443374197e-08,1.992885634294339070e-09,-3.926484470895275081e-09,-4.058458014100096989e-09,7.716845829008889268e-09,-2.115969109581783414e-04,-7.196658849716186523e-02,-1.136709615821018815e-04,4.747481296973887765e-10,-1.352316804544007045e-12,1.181965014751540366e-08,-7.137954227687259845e-09,1.273975813731453854e-09,-1.423613493756192838e-08,2.122750011039897799e-04,7.597980911100421508e-09,7.786661981867837312e-09,-6.990473755408288525e-10,-1.162060492276850709e-08,6.498559468326448041e-09,-2.792945735796692475e-11,-2.131789855752685980e-09,-7.142797464609884628e-09,7.153733605491652270e-09,-2.779025232158005565e-09,-2.116599061992019415e-04,-9.732449512966923066e-09,3.752853583449677899e-09,-7.385699607453943827e-09,2.082223993227216852e-08,1.200450761018601042e-08,-7.045084959855785200e-09,-2.122504665749147534e-04,2.284697586674155900e-08,4.229015030432492495e-04,4.610772208479829715e-09,-2.125272440025582910e-04,2.229467593133449554e-02,-1.670310001422592450e-09,-2.095917880069464445e-04,-3.251137803417236682e-09,-1.224710222125224846e-09,1.856450271287002352e-10,1.243383507265605203e-09
-9.210038287577049232e-10,1.704911142587661743e-02,-7.047482153410555838e-09,-7.582606542655412341e-09,-1.525886794695452409e-08,2.653736252966609754e-08,-6.540887387274096909e-09,-1.577813364565372467e-02,1.879745144262034984e-11,1.843639546583730748e-10,1.212329525657196427e-08,1.918854186655494232e-09,-1.400800328701734543e-02,3.408747434150427580e-04,-1.215746614491308719e-08,-6.626722726110756412e-09,1.166994323398284905e-08,-3.402106813155114651e-04,1.035515584391077937e-08,-1.887890882790088654e-02,6.450994849416247234e-09,2.193257309102136787e-08,-3.293695335742086172e-04,2.128740739237855450e-08,3.770974643657609704e-09,1.030859220207958060e-08,-1.568015606245865001e-09,5.286713289365252422e-09,-2.398094167688213929e-09,-2.302744661619726685e-08,3.297560446924308053e-09,-1.761461532190367052e-09,1.384341716766357422e-02,-6.870796820379609926e-09,3.785702418213077181e-09,-6.602913771303065005e-09,1.610965028042699032e-09,-3.417787957005202770e-04,1.001343541418009409e-08,1.565809704118237278e-08,-9.024498052895069122e-03,1.182095044072184464e-08,-9.691754954133102729e-09,-4.056112778982878808e-09,-3.362393763381987810e-04,-1.250787828865895790e-08,-2.002637833356857300e-02,-6.254430751084782969e-09,-2.265797505174305115e-08,2.272639321176939120e-08,-1.254366477354551535e-08,2.057597292548507539e-08,9.913634357872069813e-09,2.343727523168581683e-08,-1.036324448477898841e-08,1.332611687665519185e-09,2.168551027637022344e-08,7.602885432334005600e-09,7.868790952159088192e-09,-1.131654858710362532e-08,1.243513825244235704e-08,1.588059216737747192e-02,-1.237927804709215707e-08,3.397339023649692535e-04,-3.351714112795889378e-04,-3.136292336947121839e-09,-6.641362571002673576e-09,9.404660383793839173e-10,3.266703130222481377e-09,-3.358016838319599628e-04,1.263095938952574215e-08,1.031442753429701042e-08,6.243767280977863265e-09,-2.134854426572019293e-08,-8.350480307228735910e-09,-1.214176847952330718e-08,9.492507224706514535e-09,-6.188993761924166392e-09,-9.440843662389397650e-09,-4.557659138981762226e-09,-4.278440712823794456e-09,-2.341336011886596680e-02,1.523000503489413404e-09,1.354782655835151672e-02,-1.886649059201772616e-09,1.217849376899948766e-08,-1.232011825891277113e-08,1.246231207119308237e-08,1.215805411902692867e-08,3.408316988497972488e-04,-1.808946952223777771e-02,-2.341015351703390479e-04,8.001908469168483862e-09,-7.115847910910133578e-09,-1.457981957386778049e-09,1.002397898020035427e-08,-2.747895910815145726e-09,2.640580021306959679e-08,-3.361143462825566530e-04,1.188902931659185924e-08,-1.588117748418937936e-09,1.268299598677913309e-08,-1.916964365022977290e-09,7.723532036152391811e-09,6.338663371963093596e-09,-2.287410083567920083e-08,2.348919636574464676e-08,2.251431396871339530e-08,1.249187775442806014e-08,3.408840857446193695e-04,-2.337218774073335226e-08,4.118832497290725314e-10,-1.928369908199556448e-09,7.687956937729722995e-09,-5.452396756311372883e-09,6.610914038418513883e-09,3.356952511239796877e-04,1.168455643352217521e-08,-7.882035337388515472e-03,-1.939545057894065394e-08,3.377076063770800829e-04,2.616025321185588837e-02,1.249217174148498088e-08,3.436819533817470074e-04,-1.266625382356778573e-08,-1.292818185838484624e-09,-2.174768143348160265e-09,1.929301163272612030e-09
-3.163607820155789341e-09,-3.514932701364159584e-03,-1.226002499521428035e-08,-1.324632137311709812e-08,1.519813253025859012e-08,-9.927520139285661571e-09,-6.150009390637478646e-10,6.578105036169290543e-03,8.950769292415117206e-11,-1.256706827490461365e-08,-2.351341343853619037e-08,6.591603263217393760e-09,-1.057201810181140900e-02,1.022928845486603677e-04,-2.229614182169825654e-08,1.308204478078778266e-08,-1.175791819463256616e-08,-9.265984408557415009e-05,2.235678131512486289e-08,2.671412006020545959e-02,-1.522230563821835858e-09,-3.998367414936865316e-09,-5.373883323045447469e-05,-7.684724856460434239e-09,2.084724393114356644e-09,6.437834265682340629e-09,-6.574142119575299148e-09,-4.919647800250004366e-09,3.514204038879142900e-09,-2.124915354784207011e-09,-4.695908106810975369e-09,-3.094781764190202011e-09,-1.261969003826379776e-02,-1.569779151111561077e-08,3.659768044173006274e-09,2.142920152437000070e-08,-7.666962176244851435e-09,-1.136628561653196812e-04,-2.945954591382360377e-09,1.253952852664497186e-08,2.154382318258285522e-02,1.269620675259375275e-08,-5.120495694121984798e-10,4.110978668592224494e-09,-7.391516555799171329e-05,1.161683815809055886e-08,1.166982855647802353e-02,-1.061192911322450527e-08,-2.809425581062896526e-09,2.353476702410262078e-08,-8.687973118703951059e-10,-7.101763621619738842e-09,-6.441601918538708560e-09,-1.206685151800002131e-08,-9.527016509025543201e-09,4.425985355993589110e-09,-2.170300605897068635e-09,1.433893537239327998e-08,-7.083000408414363847e-09,-7.969468640567356488e-09,-5.552966975130857463e-09,-8.090179413557052612e-03,4.379658857800450278e-09,1.023097429424524307e-04,-7.036639726720750332e-05,7.435102311603714043e-09,2.297221435298979486e-08,1.593375542618957752e-09,3.231308332019011686e-09,-7.825716602383181453e-05,2.497292150849261816e-09,5.487483800692416480e-09,3.147747840159809130e-09,2.273641541705728741e-08,-7.756150388615878910e-09,-4.336324632703281168e-09,2.115860908702416054e-08,1.827339168869457353e-09,2.345944594139837136e-08,-1.648840397550088710e-09,-6.493182436173583483e-09,1.302864868193864822e-02,7.351797837173990047e-09,-1.141397282481193542e-02,-1.138562399916054346e-08,1.212763045543852058e-08,1.561244022951768784e-09,1.213816513967458377e-08,1.227613122267712242e-08,1.060755312209948897e-04,1.022723503410816193e-02,1.863088691607117653e-03,-2.382433983427745261e-08,5.397375879567789525e-09,4.248214224844559794e-09,6.602069113625930186e-09,-2.940548027297040790e-09,-2.283870337294047204e-08,-7.457578612957149744e-05,5.836432226402621382e-09,-1.019818363090507773e-08,5.950283821221091785e-09,-1.336697508236284193e-08,2.342523153231468314e-08,-5.771146338595656289e-10,-3.849212948381364185e-09,-2.330759141244698185e-09,6.960821918866599844e-10,-1.342698929818197939e-08,1.054021995514631271e-04,-7.903256715735551552e-09,-7.538287327690795792e-09,-7.377508381978259422e-09,-2.243395513801260677e-08,6.681367459293596767e-09,1.282046646622347907e-08,7.227903552120551467e-05,6.572182353892230822e-09,5.148088559508323669e-03,-1.126531756767690240e-09,8.268401143141090870e-05,-1.545918826013803482e-02,-1.058627407957146715e-09,1.305062614846974611e-04,-1.214960843043400018e-08,1.859813414384348107e-09,-6.473709568410868087e-09,-2.300246570996478113e-08
-2.103421614663147921e-08,-8.975901291705667973e-04,-4.487439753120270325e-09,6.137279129347916751e-09,1.188131548701676365e-08,1.659547499421876182e-09,2.267220011731296836e-08,1.391321653500199318e-03,1.611544342416948439e-09,2.321021419504631922e-08,2.279383792824773991e-08,8.062635004080220824e-09,-8.568451739847660065e-03,-1.141955071943812072e-04,7.054445472221004820e-09,-3.769308198897647344e-10,-1.718771458492085458e-09,1.137573126470670104e-04,-1.133649796258850984e-08,5.929318256676197052e-03,2.023944567497437674e-09,2.360571471626826678e-08,1.133398254751227796e-04,1.012708406022966301e-08,-2.316002323254906514e-08,-6.419635933951894913e-09,7.042610050689290802e-09,-1.155035445066232569e-08,-2.084603600849277427e-08,4.696461441966448547e-09,4.573569523103060419e-09,-2.458591774612273184e-09,-6.744850892573595047e-03,-1.492209245057551925e-09,-1.969426177694799662e-09,4.423966082356400875e-09,1.292784723716522421e-08,1.138456573244184256e-04,-6.765071169922975969e-09,1.210139877194649216e-09,-1.706096809357404709e-04,4.487940685748981196e-09,1.904994828549888553e-09,2.238571134016709152e-10,1.145869464380666614e-04,2.307360524866908236e-08,1.612380845472216606e-03,-9.627813213342051313e-09,-1.970317464738968738e-09,1.027490625915561395e-08,-1.202124955135275286e-09,-2.290084744061005040e-08,-2.097651830013091967e-09,1.410456018646755183e-08,-2.385849207087176183e-08,-9.193860256440089529e-11,-3.440781881636212347e-09,-1.013936579141727634e-08,6.845320754678141384e-09,6.842632682690918955e-09,-1.018155604270987169e-08,-3.179691731929779053e-03,1.027241136597467630e-08,-1.131466269725933671e-04,1.141691245720721781e-04,-2.328071291302080681e-09,2.195926107617651724e-08,5.726782603687752271e-09,2.065508875048749360e-09,1.131700919358991086e-04,-1.909570501723578673e-09,1.430879148500707743e-08,4.107130191499663852e-09,3.408686000128113847e-09,-4.478367898741453246e-09,-1.116272851930943943e-08,-2.301095669565711432e-08,-7.671481228044285672e-09,1.248051884061851524e-08,-2.401394194606609744e-09,-3.851896135387278264e-09,1.100530941039323807e-02,-9.414145019093211886e-09,9.250806644558906555e-03,-7.191282236362894764e-09,-7.390560163855752762e-09,3.598924047665263970e-09,7.617690478411986987e-09,-1.161957374762323525e-08,-1.136415594373829663e-04,3.125114832073450089e-03,-1.408021780662238598e-04,2.124660891666962925e-09,3.454391439561277366e-09,-9.952085378017727635e-09,2.280055078074383346e-08,1.525460824325364229e-08,9.528389632862399594e-09,1.147636503446847200e-04,1.017017314808299489e-08,6.547991482364068361e-09,-3.058363118313423001e-09,-1.100155078148645771e-08,-2.201498011666913612e-10,2.345423766314524983e-08,1.272598559864945855e-08,7.413911706777298605e-09,4.004916398514524190e-09,-2.550227362618784355e-09,-1.141794928116723895e-04,-3.004213322554960541e-09,-4.713000545386591966e-10,7.430792869911329035e-09,-7.037041616086980866e-09,-3.955058502924657660e-09,-6.161869237075734418e-09,-1.146435679402202368e-04,-2.391329267936725955e-08,2.375810618104878813e-05,7.561237858055847028e-09,-1.148493684013374150e-04,-2.181945368647575378e-03,2.288465417166207772e-09,-1.137638246291317046e-04,-4.597100922154595537e-09,-6.696132537342691649e-09,2.018607059284249772e-09,2.326433268251548725e-08
-1.453234332871033985e-08,7.801914471201598644e-04,-5.793484803007231676e-09,-5.077622322602337590e-09,6.092625848275190492e-10,2.103623941707155609e-08,3.063681530690587351e-09,1.487144072598312050e-05,2.695068612723616752e-09,-1.215368605755884346e-08,1.595368059881252520e-09,-1.373494384893092501e-08,-1.252119392156600952e-01,2.079235709970816970e-04,-2.335551307908190211e-09,6.926317297484274604e-09,-1.072538502455699927e-08,-2.127343177562579513e-04,-7.181343519846450363e-09,7.468153536319732666e-02,-6.336589919442303653e-09,6.355372228483702202e-09,-2.427545696264132857e-04,1.312809416731397505e-08,-4.873171643993146063e-09,6.148240139225435996e-09,-5.610222508778406336e-09,1.898228241259403148e-09,-1.334340749004070403e-09,1.000175142706893894e-08,1.310242936369832023e-08,6.776381678008647214e-09,-1.315004825592041016e-01,-4.560188227031858332e-09,-1.245346137324077063e-08,-4.424644650669051771e-09,4.270114928317525482e-09,-2.046019362751394510e-04,-6.853608791601573103e-09,-3.251470204190809454e-10,1.120534798246808350e-04,1.032464425065882097e-08,-1.009892081071939174e-08,-5.285234472296451713e-09,-2.247292140964418650e-04,-1.244524661103696417e-08,1.448379270732402802e-02,-5.174915163053128708e-09,1.165648733092439215e-08,-7.238383670227221955e-09,1.021534767886578265e-08,8.278701613129157977e-10,1.514735892271801276e-08,-1.341733835147351783e-08,6.344091030285881061e-09,-2.664870102364602644e-09,6.517488770896306960e-09,-2.289852218950727547e-08,-6.826400777981689316e-09,-3.008999049924909741e-09,-3.467744980056863824e-09,1.228770473971962929e-03,-1.078815525801246622e-08,2.089332556352019310e-04,-2.272419224027544260e-04,-4.097204797659514952e-09,-9.720063864904204820e-09,-2.558196321444938803e-09,-1.595478527072202724e-09,-2.239864261355251074e-04,-1.836996804671642280e-10,-1.301937224695848272e-08,1.697468721140182879e-09,1.502832347455296258e-08,-1.694247520056535450e-09,2.963696232871626535e-10,-7.101669918796460479e-09,2.942918797543825349e-09,2.431199019881091772e-09,1.207858701945951907e-08,8.607871082588758327e-10,1.210275217890739441e-01,1.093041834820951408e-08,-9.326227009296417236e-02,7.282782821249611516e-09,-2.539252186295470892e-08,6.425981080582232607e-09,2.462344106390901288e-08,-2.190233772125793621e-08,2.066589804599061608e-04,-1.208844361826777458e-03,1.370443846099078655e-03,-1.664031024084522414e-09,-6.953322362335256912e-09,6.837908905765743839e-09,-2.107090857350613078e-08,-2.968939316616570068e-09,1.198059962348452245e-08,-2.245309733552858233e-04,6.335147517688710650e-09,1.324272913549862096e-09,4.651478757722316004e-09,-4.605523518108611825e-09,3.824547345487872008e-10,6.370871830085889087e-09,-2.366805595954701857e-08,5.001552505490280964e-09,2.275388588657278888e-08,2.312378510893609018e-09,2.067042223643511534e-04,-4.695511535146579263e-09,-1.373794078496359816e-09,6.084400538952650095e-09,-1.320239403912459863e-11,-1.140451733050440453e-08,-5.027931404555374684e-09,2.252891572425141931e-04,-3.937712378387914214e-09,-1.017184578813612461e-03,-5.106688849565443888e-09,2.206910867244005203e-04,-1.254235208034515381e-01,1.037939423298439579e-08,2.244828647235408425e-04,1.198008892089319488e-08,-1.639770541572715956e-10,2.355315942281777097e-09,3.014165805836910295e-09
-9.852495708173591993e-09,-7.578996568918228149e-02,2.323443837326522043e-08,1.745148692222642239e-09,-7.548157654468923283e-09,-1.926220294379277220e-09,-1.166013863240777937e-08,5.216468870639801025e-02,-1.046373743207595908e-08,-1.262356974507383711e-08,1.235205449034992853e-08,-6.335597824147498613e-09,-1.011275649070739746e-01,3.980482870247215033e-05,2.165513635077331855e-08,1.125651571953767416e-08,-2.081283589916438359e-09,-3.746354559552855790e-05,-5.605959252363845735e-09,7.209537923336029053e-02,-7.153033276807718721e-09,7.219217668108512953e-09,-2.576519182184711099e-05,-3.799764058953769563e-09,-1.364475377130247580e-08,2.206296922935280236e-09,-1.910450242448291647e-09,-2.293965728483726707e-08,2.242523500228799094e-08,-2.011746769170486004e-09,2.843957958020837395e-09,-1.142065553239035580e-08,-4.539295658469200134e-02,-1.190766774072926637e-08,-6.781918138187847944e-09,-2.131578913378007201e-09,6.523393492052775855e-10,-4.277460902812890708e-05,-2.157348610865028604e-08,1.261421633813597509e-08,-2.676816366147249937e-04,4.531002684160512217e-09,-6.356848825106453660e-09,-6.989197220974574520e-09,-3.177116377628408372e-05,-1.854828957092991004e-09,5.085156857967376709e-02,-2.281321798136559664e-08,2.286447653432333027e-08,1.135052318801399451e-08,-2.011850464000985994e-09,3.061944697790863756e-09,2.875587989947803180e-09,-2.378476526843087413e-09,2.294276235659253871e-08,1.542807881449448359e-09,-2.276531674283432949e-08,-4.255277019638015190e-09,-2.643442265082285303e-08,-2.215020611373574866e-09,-1.369366064984944842e-09,-3.643228113651275635e-02,6.052400802758484133e-09,3.982790440204553306e-05,-3.083676710957661271e-05,3.703210182948168949e-09,1.022656448412817554e-08,-2.268562404594831605e-08,1.460654530660576711e-08,-3.384653246030211449e-05,1.757977763361395773e-09,-7.181072181339231975e-09,7.398009316261777712e-09,-7.228836196304655459e-09,-1.348447398186181090e-08,1.062594123801829937e-09,5.477039710655162708e-09,-1.911917291153031329e-09,-6.393808593685434971e-09,-1.524614101633403607e-09,5.428594462841829227e-09,7.018090039491653442e-02,-2.318001435241967556e-08,-1.117018312215805054e-01,-3.573813689428106954e-09,-2.295211132263830223e-08,1.714046682366188179e-10,-4.499653094569566747e-09,-9.111041920917273274e-10,4.099670695723034441e-05,8.417949825525283813e-02,-1.535723858978599310e-04,-1.174639407963695703e-08,-6.536328367445776166e-09,-7.782963606928205991e-09,-1.122066994874160173e-09,-1.176594111029771739e-08,-1.249199144126578176e-08,-3.158083563903346658e-05,-2.558785894279935746e-08,-2.302667390097212774e-08,-2.167928414564812556e-08,-7.719653360993561364e-09,6.127026441760108355e-09,-1.125991833106354534e-08,1.697804896672039376e-09,-1.273920080535617672e-08,1.426178997121496650e-08,2.309280588974615966e-08,4.051279756822623312e-05,-7.673487623094388255e-09,3.716155605459903200e-09,-4.156048838410697499e-09,1.466284160756003985e-08,9.554614877060885192e-09,7.802724688588114077e-09,3.096526779700070620e-05,-1.269531590963879353e-09,4.547715652734041214e-03,-2.086403760870325641e-08,3.448322604526765645e-05,-1.010604426264762878e-01,4.504241424285737594e-09,4.687400723923929036e-05,-2.308519420068932959e-08,4.590589242070564069e-09,-7.682475100523333822e-09,7.138496904701696621e-09
-1.040787100947682120e-08,-1.358683705329895020e-01,-4.020249022573807451e-09,-3.652838920231715747e-09,1.159248785853606023e-08,-4.972084077792260359e-09,-6.273593200489813171e-09,8.865974098443984985e-02,1.077560352058526405e-08,2.770970297660824144e-08,7.343024521766494672e-10,4.013607668440499765e-09,-8.041729032993316650e-02,-3.978696477133780718e-04,-1.149702200109459227e-08,5.686285220463105361e-09,3.721238206466637166e-09,3.958434099331498146e-04,-1.117958259300166901e-08,6.406335532665252686e-02,2.324445347312575905e-08,-5.662728952415818640e-09,3.725525457412004471e-04,2.323883974142404440e-09,-1.767743951219813425e-09,9.865806838149637770e-09,-2.153558575912484230e-08,-1.581021646934743785e-09,1.289025952644351491e-08,-1.080936673503174461e-09,-3.202980769501095892e-09,1.109349168082474080e-09,-1.728219725191593170e-02,1.000246463433995814e-08,1.118096992769324061e-08,1.719711484327035578e-09,2.349497307818637637e-08,3.986648225691169500e-04,-7.686407954565765976e-09,-2.263505471944426972e-08,5.040201917290687561e-02,7.189327799750344639e-09,-6.916455408401134264e-09,-2.145412958398651426e-09,3.846006875392049551e-04,4.235588546563917589e-10,1.214886456727981567e-01,-4.892098282027745881e-09,-7.410933200446834235e-09,4.127890917970944429e-09,2.569473966929081143e-09,6.188369816584327054e-09,4.178855483871757315e-09,4.427036071064094358e-09,1.262847160177216210e-08,4.895042149399841946e-09,4.380534601722274601e-09,8.279213981055022487e-10,6.089449833268645307e-09,6.229889493170048809e-09,1.618545741877142063e-09,-1.043965741991996765e-01,1.182014042200307813e-08,-3.972341946791857481e-04,3.826598112937062979e-04,-1.442776476068274860e-08,-1.030233320875595382e-08,-6.557234755177887564e-09,-1.280981720697127457e-08,3.857496776618063450e-04,6.611498903907886415e-09,-1.765180113189046551e-09,-2.396456366682286898e-09,1.326169174475921864e-09,7.108636346231378411e-09,-4.826510746624990134e-09,3.411776194894855507e-09,-1.297731344607200299e-08,1.017911088752043725e-08,1.329406185135439955e-08,1.043638953035497252e-08,3.186898678541183472e-02,1.071753263914843046e-08,-3.597825393080711365e-02,4.972708023132099697e-09,1.294807727703073397e-08,3.094338674181074111e-10,2.581982094795876037e-08,5.896304777763816674e-09,-3.979665343649685383e-04,1.255650520324707031e-01,2.730136923491954803e-02,2.110261654308942525e-08,-1.254628045899153221e-08,-2.025782652737007083e-09,1.283105355298630457e-08,5.229574107090684265e-09,1.870618770993814906e-09,3.853558737318962812e-04,-1.130785420855318080e-08,-9.582883819803100778e-09,1.668760241102518194e-08,3.090391276217019367e-09,2.208970073525051703e-08,5.229179866894639872e-10,3.133414638867293434e-09,7.236979904234885907e-09,-2.174325253179176798e-08,-7.942748680989097920e-09,-3.983494825661182404e-04,-2.516035735311561439e-08,1.905390512035864958e-09,5.911803491187583859e-09,3.969781836588026636e-09,6.772511440544803918e-09,-3.691025707297512781e-09,-3.847252519335597754e-04,-3.281340754668349291e-09,9.605033323168754578e-03,1.176904262933931022e-08,-3.871073131449520588e-04,-4.686948284506797791e-02,7.285444247884242941e-09,-4.028633993584662676e-04,2.194437742630839239e-09,5.900955724058576379e-09,6.676353359047482172e-10,-2.366811413523350893e-09
-2.238846086299872695e-08,-1.208896413445472717e-01,2.356989092788808193e-08,2.111379870939344983e-08,-6.609053304629242120e-09,1.215104639129549469e-08,2.301624846268168767e-08,1.039347499608993530e-01,-7.144376645840111451e-09,8.196272105465141067e-09,-1.199840582444267056e-08,-2.616094896268350567e-08,-4.275762662291526794e-02,-9.873725939542055130e-04,2.038516555558089749e-08,2.270890142597181693e-08,-8.626258818367205095e-09,1.060542534105479717e-03,-6.686049491833045977e-09,3.441514447331428528e-02,3.173025620029079619e-09,-7.920103684000423527e-09,7.455019513145089149e-04,-4.571778788875491273e-10,2.347582395145764167e-08,-9.951080848225046793e-09,-3.389273750542542984e-09,-7.975264004755899805e-09,1.660436232953088620e-09,-9.904528752713304129e-09,-3.596663411542522226e-09,-7.763847342801000195e-09,-2.415204420685768127e-02,-2.603527526900961675e-08,-1.003383598430218626e-08,6.800153773411921065e-09,-6.761165516344647131e-10,9.696451015770435333e-04,8.047340571692984668e-09,-6.642704608594840465e-09,-9.080336312763392925e-04,-1.822157424946624360e-09,1.767608615033111619e-09,1.715054986917152746e-09,7.163516711443662643e-04,2.321807052174662545e-10,1.392481476068496704e-01,-1.227840318307471534e-08,1.195840670931147542e-08,1.051168840859872944e-08,2.200283688580384478e-08,-9.541763823506244080e-09,7.561992004800899281e-11,5.246159506810954554e-09,6.197357294013272622e-09,2.193964476759902027e-08,-2.320502456854001139e-09,-4.202030279287782832e-09,-2.329947612622618180e-08,-3.324337916055242204e-09,-4.281789145466063928e-09,-1.082786992192268372e-01,-1.359220402896710311e-09,-1.182489912025630474e-03,7.881795754656195641e-04,-2.179779023947503447e-09,1.559356554992064048e-08,-6.185259415758537216e-09,1.151811535038405054e-08,1.035236404277384281e-03,-7.139769220287917051e-09,-1.215142741983754604e-08,2.957943445736077592e-09,8.417923247350245219e-09,1.296584728471827930e-09,-1.271619143317082035e-09,-7.455004613632354449e-09,-1.221285561570084610e-08,-4.667588537898836876e-09,-5.869961405835510959e-09,-5.553786319723030829e-09,2.926406450569629669e-02,-2.631806594877161842e-08,1.394975930452346802e-03,-2.336044957473859540e-08,-1.961543150130751201e-09,6.401026819702337889e-09,-6.033169519525927171e-09,2.582560121311416879e-08,-1.075332984328269958e-03,8.777885884046554565e-02,-1.364530413411557674e-03,3.996690978169681330e-09,5.659501756127838235e-09,-1.408749117359775482e-09,2.207737814785559749e-08,6.288523174413640504e-11,2.387588349250790998e-09,5.601135781034827232e-04,9.743213347235268884e-09,6.283420006525375356e-09,1.834328799965589951e-09,2.630732787167744391e-08,-2.211939609253477101e-08,-8.651605543086304806e-10,2.472341442683045898e-08,6.152112153046118692e-10,2.606360460788437194e-08,1.276196215371783182e-08,-8.708264795131981373e-04,2.160619905211547120e-09,1.297765361840674814e-08,2.003216437174160092e-08,1.626065171400625786e-09,-7.117584299720647323e-09,-1.211507449916382484e-09,-6.255045882426202297e-04,2.164501289314557653e-08,1.268668565899133682e-02,-2.444791702416182488e-09,-5.516924429684877396e-04,-3.890892118215560913e-02,-7.566383075641169853e-09,-1.335901208221912384e-03,5.539134484422447713e-09,-1.575445995882773786e-09,-1.178623776354470465e-08,7.617869890452766413e-09
-7.223108333676009352e-09,-1.140996515750885010e-01,-5.746431774866778142e-09,-1.270867766578476221e-08,8.051888045201849309e-10,-1.038964825283983373e-08,-2.716943336977806212e-09,9.755377471446990967e-02,-9.383746224500555400e-09,-1.415719275144056155e-08,2.226569328911409684e-08,1.078196998349767455e-08,-6.444767862558364868e-02,1.012756692944094539e-04,-2.106260055256825581e-09,-4.549394638786452560e-09,-4.541039544392333482e-09,-1.010870837490074337e-04,-2.651506569861794560e-09,1.005695834755897522e-01,-4.610551940231744084e-09,-4.392159080879309840e-09,-9.995795699069276452e-05,1.684675510205124738e-09,2.719318326072084346e-09,-6.156153364855754262e-09,-7.971646120985553807e-10,7.092593734547847362e-10,-1.858452391978460128e-09,-9.438290149432759790e-09,-7.605321705739243043e-09,-8.590035904809667500e-10,-5.562462285161018372e-02,-1.017028505856387710e-08,1.265633375879815503e-08,-1.397767679378603134e-09,-2.693748113458127591e-09,-1.014843364828266203e-04,2.217586470010246558e-08,-2.048943681387527249e-09,-2.977611497044563293e-02,9.675822809640521882e-09,-4.261349495493504946e-09,-3.647792512495584560e-09,-1.005005033221095800e-04,3.776071455519058873e-09,9.911999106407165527e-02,-2.261228715383367671e-08,8.071770807305256312e-09,-5.283700144076419747e-09,5.346166176423139405e-09,-2.212431127190939151e-09,-7.234755461382746944e-09,-9.489470542689559807e-09,-4.482332283117784755e-09,1.007896166527189052e-08,2.994562819935708831e-09,-6.275820751966421085e-09,-7.055583672865850531e-09,-2.353596251225553715e-08,-1.174551744753671301e-08,-9.343083947896957397e-02,4.464741909515623774e-09,1.011263375403359532e-04,-1.004919613478705287e-04,4.187290958412859254e-09,1.494619006336961320e-08,-2.330659043536797981e-08,-2.170071455864786003e-09,-1.005489757517352700e-04,7.736720597506518970e-09,-3.905833878548037319e-09,7.278295743873286483e-09,4.979157086637542307e-09,5.261602264994280631e-09,8.651179217444848746e-10,-5.407033043525188987e-09,-1.941659055759714647e-09,7.289518766384617265e-09,-9.357609132010225039e-10,1.263189641775852579e-08,9.963820129632949829e-02,2.328745640767238001e-09,-1.112359017133712769e-01,2.314232361300128105e-08,-7.608891294808017847e-09,-1.132824944960475477e-08,-2.591662173756503762e-08,-2.394022979856913480e-09,1.013392102322541177e-04,9.175667166709899902e-02,-1.518864277750253677e-02,-2.233572793386429112e-08,2.097955809077234335e-09,-1.837494489898006123e-09,1.120348924743552743e-09,2.433454993067130090e-09,-2.186290481986929990e-09,-1.005011945380829275e-04,6.284424092228846348e-09,1.110949909843839123e-08,-1.560451323712186422e-09,-3.863836361972516897e-09,-1.225114765190937760e-08,2.019676648146173648e-09,4.296091926647704895e-09,-2.470648352570492534e-09,-2.877702964809714103e-09,1.017160400351713179e-08,1.012790016829967499e-04,1.353708434237432812e-08,2.132861665060659107e-09,-7.000122259626095911e-09,4.343684079088916405e-09,-2.312544156168883092e-09,-5.118992785213549723e-09,1.004947189358063042e-04,-4.253753183025565932e-10,-1.580029493197798729e-05,5.223880883420406462e-09,1.005887315841391683e-04,-1.083736419677734375e-01,1.296498797209721943e-09,1.022049691528081894e-04,6.396546625708765532e-10,-9.521341048923659400e-09,6.892834636396116821e-10,6.947982189586809909e-09
-4.145746856920595746e-09,-1.065764203667640686e-02,2.266403509310066511e-09,1.748883593499783728e-09,2.893941308812486568e-09,2.170262858314231380e-09,-3.304365447931445487e-09,7.256045471876859665e-03,6.604400581977643014e-09,5.599352981278116204e-09,-2.141034549651976704e-08,-9.361674102592587587e-09,4.089588671922683716e-02,-5.239861202426254749e-04,-2.302929758002392191e-08,-2.420498246280544663e-10,-6.703262389606834404e-09,5.196458077989518642e-04,-6.944251396134859533e-09,-5.035151168704032898e-02,-3.380957513954285787e-09,2.669454213233279916e-09,5.012181936763226986e-04,-7.780752930841572379e-09,1.001572869085975981e-08,1.602797339295136680e-09,7.350025477137478447e-09,-7.681101976686477428e-09,1.181635767011357530e-08,-1.247751058031099092e-08,2.263481846398462949e-08,3.335782983171498017e-09,4.399840161204338074e-02,1.039701991167873985e-09,-1.723818032761670338e-10,7.241248933809174559e-09,6.399472618490165132e-10,5.289089749567210674e-04,5.067411823489464950e-09,4.360242833456595690e-09,6.807182449847459793e-03,7.216611308535902936e-09,2.525470321756984049e-08,-5.588619789165250040e-09,5.115002859383821487e-04,-5.211235443169925929e-09,7.223738823086023331e-03,-1.238944591364088410e-08,-2.377841035183791973e-09,4.177148404949093674e-09,2.685039746097572788e-09,-4.604884917824847435e-09,-3.341657839328604496e-09,1.149727335558736740e-08,2.013642808051940847e-09,5.586837215076911889e-09,7.409120872381436129e-09,-1.027535212472230342e-08,2.792646114357921761e-09,2.031459622742204374e-08,-4.567381473030707184e-10,-9.119983762502670288e-03,6.952834752382841543e-09,-5.227431538514792919e-04,5.096261738799512386e-04,1.310065278481431505e-09,2.267207399597737094e-08,-1.095351986890591434e-08,-2.669961141066323762e-09,5.130275385454297066e-04,1.031497909309564420e-08,1.510035985141655601e-09,-7.377260136109953237e-09,2.354101358292837176e-09,-6.871466728952668745e-10,7.290588133201936216e-09,-2.030820178688941269e-09,-2.401565168952402018e-08,-1.233240887188458146e-08,-2.156734790759173848e-09,1.299648033636913169e-08,-2.851496823132038116e-02,-2.235995921751054993e-08,5.735282227396965027e-02,-4.043389623120674514e-09,-6.218744186270441787e-09,-3.599279319033144020e-09,-8.450017574546109245e-09,-2.091821293959128525e-08,-5.257206503301858902e-04,9.307200089097023010e-03,2.531486796215176582e-03,3.375256740767440533e-09,-1.737604837792616763e-09,-2.824463329886839347e-09,-6.990564127562493013e-09,-2.498846107812369155e-08,-1.711256136793792848e-09,5.100633716210722923e-04,3.702302464603235421e-09,-2.258221876161314867e-08,-6.796196494462947157e-09,6.206879454850877664e-09,6.146812836504977895e-09,-1.170450225629338092e-08,-2.732865933552375282e-09,6.435798560744387942e-10,-3.563057182631723663e-09,7.649544109256112279e-09,-5.245783249847590923e-04,6.397885554676463471e-10,2.179790348222354623e-09,-7.004262503329528045e-09,-9.387196797661090386e-09,2.260426867906062398e-08,5.495866428617546262e-09,-5.102260038256645203e-04,-7.651789424301114195e-09,8.575596730224788189e-04,3.255114622291443993e-09,-5.137628759257495403e-04,5.472953617572784424e-02,-2.591957226627528144e-08,-5.369536229409277439e-04,6.273713548665682538e-09,7.187038519873567566e-09,-1.215486822303546433e-08,1.462870935498017388e-09
6.386727591234375723e-09,1.397962775081396103e-02,2.136823606946336440e-09,7.600418072684078652e-09,-1.201026922359460514e-08,-4.909032735866958319e-09,1.732849308488937368e-09,-2.027994208037853241e-02,1.256298798324451127e-08,-5.500368605027006197e-09,-9.754437257925019367e-09,-1.301387975161105715e-08,-4.953786730766296387e-03,-9.289633482694625854e-03,2.759069417379578226e-09,2.792012621100070646e-09,6.478783731722614903e-09,9.061072953045368195e-03,7.836369775304774521e-09,3.976149111986160278e-02,-1.302525554081057635e-08,-8.003174123416556540e-09,8.706608787178993225e-03,1.265390547899869489e-08,-1.763397095011498550e-09,-1.187079212705555165e-09,2.250235908718423161e-08,-1.184827880251759780e-08,2.603932358624660992e-08,-2.342943616895354353e-08,-1.184775033635787622e-08,7.756299602590388531e-09,-6.167103350162506104e-02,2.288869183075803448e-08,-1.132427485117659671e-08,-1.058862419966999369e-08,2.009235666733388825e-09,1.049741636961698532e-02,7.193010631567631208e-09,7.598835338740173029e-09,-2.920682914555072784e-02,-4.375541262646720497e-09,-2.273245058859174605e-08,-2.103433871525339782e-08,9.089590981602668762e-03,-1.005099470319237298e-08,3.149077296257019043e-02,2.398397924707751372e-08,-1.100692958999616167e-08,-7.629719966928405483e-09,-1.232553437091610249e-08,-1.371634450464398469e-08,-1.214689770989707540e-08,-1.471406191333457514e-10,-2.314540381576080108e-08,-5.187971718889627937e-10,-6.271997504692095049e-11,-1.012498440644549191e-08,2.200665760732078979e-10,-1.901752533228773245e-09,-4.819403098821339881e-09,1.156636979430913925e-02,-5.170059047543418274e-09,-8.850771002471446991e-03,8.921042084693908691e-03,9.479790286093248142e-09,-9.391309063744301966e-09,3.798349190731187264e-09,-3.648144231149785810e-09,8.932764641940593719e-03,-2.088252948340141302e-08,2.336892102050569520e-08,-1.123976378636371010e-08,2.030952073184266737e-09,-1.785345093985313270e-09,2.003541510475770338e-08,9.896911734585955855e-09,4.552133336943597897e-09,-6.096995353033207721e-09,-7.641290267201839015e-09,7.275826607866520135e-09,3.347975015640258789e-02,-2.474621041415048239e-08,-7.045812159776687622e-02,-4.472968662128096184e-09,-6.715130673740077327e-09,-7.125358969517492369e-09,-7.405142721239599268e-09,1.038724128932244639e-08,-9.469581767916679382e-03,-7.920365780591964722e-03,-9.464713744819164276e-03,6.292986576283965405e-09,2.329699100300786085e-09,1.999259646723317019e-09,-1.182250475295631986e-08,-5.183170337375031522e-09,5.650115930677657161e-10,8.809407241642475128e-03,-6.441109867694194691e-09,4.335181102987917257e-09,1.126468962553417441e-08,-1.994600928867384937e-09,4.985213353236872535e-10,1.047732567371895129e-08,-7.357070952451749690e-09,1.514632974597418524e-09,-3.587371288915619516e-09,-1.284075157315101023e-08,-9.262163192033767700e-03,1.262663662515706164e-08,2.519429775915682512e-09,2.353670680577124585e-08,-2.318868297379594878e-08,2.272827259730547667e-08,-1.023350737483497142e-08,-8.816782385110855103e-03,-3.608328913440317365e-10,9.852264076471328735e-03,-2.129911136350415291e-09,-9.411209262907505035e-03,-8.173141628503799438e-02,-2.035711321735078627e-10,-9.623451158404350281e-03,-6.158198395667113800e-09,-1.456653997422563407e-08,-1.114742431695958658e-08,-1.806708449514360382e-09
-1.262455917583338305e-08,-9.789764881134033203e-02,-3.650942881350260905e-09,-1.269551219706954726e-08,-1.060656273921267712e-08,1.414876438232681721e-09,-1.672459726265174140e-09,8.884505927562713623e-02,-5.216526766105289425e-09,1.678462258070112512e-09,-3.712168128444659487e-09,1.024341056421462781e-08,-2.904345095157623291e-01,1.587116392329335213e-03,-4.170880085752060040e-09,-1.015374184731854257e-08,1.098817814515484770e-09,-1.580338226631283760e-03,2.742186921977918246e-09,3.004982173442840576e-01,-1.076310951475534239e-08,5.495720767356715442e-09,-1.553014502860605717e-03,-2.278842003988756915e-08,4.589858271231150866e-09,1.137588601096695129e-08,4.519698393323778873e-09,2.016586453379431987e-09,1.898309509584805710e-09,-1.351062373089462199e-09,-4.178553947298269122e-09,-2.334915549795368861e-08,-2.679526507854461670e-01,2.300482115913382586e-08,1.112432812533370452e-08,6.448775735634626471e-09,3.969211626042579155e-09,-1.595494453795254230e-03,-1.371237523528634483e-08,7.402467971928672341e-09,1.307429280132055283e-03,1.654715364729497651e-09,-5.622325716103659943e-09,2.004306720593262980e-09,-1.568075269460678101e-03,3.857405062035468291e-09,1.017884090542793274e-01,-2.287297107272934227e-08,6.096342985983937979e-09,-1.485959799651936919e-09,6.396044138767820186e-09,-7.086816466994605435e-09,-1.358054224631644047e-09,-5.453453688630816032e-09,-1.018075757031056128e-08,7.708307769860311964e-09,-4.760280170046371495e-09,-5.467529207159316229e-10,-2.100013496431074600e-09,-1.536201743590481783e-08,1.694974050003850152e-09,-8.584766089916229248e-02,-4.613792459196019990e-09,1.585396123118698597e-03,-1.565823797136545181e-03,-2.095161155679647891e-09,1.004165106621712766e-08,-1.030261742585025786e-08,-4.925894803164965197e-09,-1.570376683957874775e-03,1.216963640970902816e-09,-4.501010231194868538e-09,7.106029986658768394e-09,1.120362824735821050e-08,5.695638183311757530e-09,9.571889059145632928e-09,1.020663820128220323e-08,3.032501583177804605e-09,-7.787202882525434688e-09,4.443834189515882827e-09,-1.321924601033197533e-11,2.546470463275909424e-01,-1.012481298801048979e-08,-3.259567022323608398e-01,1.340152100404168323e-09,-1.153259354680358229e-08,-4.499305816807463998e-09,2.636710627612615099e-09,7.592433348690974526e-09,1.589215244166553020e-03,1.108557209372520447e-01,1.448918599635362625e-03,4.861940627876037979e-09,-3.856086117082213605e-09,-1.209833211390787255e-08,4.498068584268821724e-09,1.264994553551446188e-09,7.201259144551386271e-09,-1.568191451951861382e-03,-1.480977118717419216e-09,-4.180633172978787115e-09,-1.195677445942067152e-10,-6.367899541004362618e-09,-2.278698474356133374e-08,-1.011743400169962115e-08,2.315129243868341291e-08,4.465834813061064779e-09,-1.531095694673467733e-09,-4.350161120214579569e-09,1.588605111464858055e-03,1.887198619598962068e-09,-2.142591215559264128e-09,3.041192186969965405e-09,-6.445950884170770223e-09,-5.437627237370179500e-09,1.401047722282555696e-08,1.566561637446284294e-03,-2.152844125191677449e-09,5.669734627008438110e-02,2.512135832688500159e-09,1.573522225953638554e-03,-2.824474871158599854e-01,-1.015866235576368126e-08,1.606483012437820435e-03,7.287896952590244837e-09,-3.045086183206535679e-09,-1.766014778858959744e-09,1.800140259078375493e-09
2.708350488322963656e-10,2.450281940400600433e-02,-2.720330449790253624e-08,1.915085590109555369e-10,-1.339818367362966001e-09,2.298979495662933914e-08,4.469746350821424130e-09,1.177662145346403122e-02,1.273510985555503794e-08,-1.060841303690551740e-09,-4.522446028776272442e-10,3.495922648588667414e-11,1.156635466031730175e-03,4.341931198723614216e-04,-2.893958184202460870e-09,-4.856083979376535353e-09,1.080339284698084157e-08,-4.318729334045201540e-04,5.039895167868735371e-09,-1.896604779176414013e-03,-2.291232625850625482e-08,-3.868329656597779831e-09,-4.228781326673924923e-04,5.032357641709950258e-09,-8.636821924312698684e-09,-1.203645627612104363e-08,-1.711521147029770873e-09,-1.137104366222274621e-08,-1.413820949203170585e-09,6.351281722771773275e-09,1.281732053826090123e-08,-2.133962873074324307e-08,-2.975703915581107140e-03,-1.265144078388402704e-08,5.756139120904890660e-09,6.973844612900848006e-09,-8.266689000002713783e-10,-4.379822348710149527e-04,3.619268662546915039e-09,-1.246472880467308642e-08,2.911818027496337891e-02,-1.007642946859732547e-08,4.073286152816990580e-09,1.032767205089157869e-08,-4.269224300514906645e-04,-2.202803983664125553e-08,4.767335020005702972e-03,-7.027767701117682009e-09,1.210991396050076219e-08,2.149682742924596823e-08,7.388814893261042016e-09,2.401045406941193505e-08,2.371121432531708706e-08,1.263312210397771196e-08,9.906545805904443114e-09,-5.504583011628483291e-09,-2.212038108240221845e-09,-6.683461784007249662e-09,-2.176214053406511084e-08,-8.173177690196098411e-09,-4.316057289344144010e-09,7.780820596963167191e-03,-7.663022216775061679e-09,4.347678332123905420e-04,-4.262752481736242771e-04,-4.351827342929937004e-09,-2.350540562190417404e-08,1.313289144100338035e-09,-8.268222217999721124e-11,-4.287565243430435658e-04,1.249486203391825256e-08,2.601916904154677468e-08,-5.459166008137117387e-09,6.042128575245442335e-09,1.006502259315311676e-08,2.667019849411644827e-08,-1.224147894163252204e-08,7.333810447818223111e-09,-6.063404445200148984e-09,1.826984674657694541e-09,-9.994387539791205199e-09,4.429756477475166321e-02,1.534040983131035318e-08,-4.051386937499046326e-02,1.205039623641823709e-09,-5.645297562750783982e-09,1.932144000349467206e-09,-7.545811087084075552e-09,1.563669016491076036e-08,4.354787233751267195e-04,-3.943794406950473785e-03,1.659702882170677185e-02,-2.532697784829451848e-08,-1.789237646931951531e-09,6.828005272296877592e-09,-3.458052955096491132e-09,-1.012639216924071661e-08,3.385416391665785341e-09,-4.273547092452645302e-04,-3.358292088861958291e-09,1.119807624405666502e-08,2.298379087051216629e-08,-6.039662547863144937e-09,5.741540132220279702e-09,4.296965450123479968e-09,-6.041033784320859468e-10,9.816328194744983193e-09,7.424977854775249853e-10,-2.094281636999539842e-09,4.353513068053871393e-04,5.997906171728573099e-09,-1.514355574272485683e-08,-4.114237395214104254e-09,-4.463502456530932250e-09,-2.296052947770022001e-08,1.036428720624371635e-08,4.263857554178684950e-04,1.177233333038429919e-08,-3.262888931203633547e-04,-2.383620412160780688e-08,4.298791463952511549e-04,-3.327244520187377930e-02,1.217448009072086279e-08,4.410234978422522545e-04,-1.355649259515701033e-09,-1.026646234691952486e-08,2.680496180573754827e-08,-2.198003912212698197e-08
6.315049816407736216e-09,-3.738977015018463135e-02,3.926835745460266480e-09,-4.062636449475576228e-09,-1.212581324239181413e-08,-9.430086045369989733e-09,-1.842073937829979968e-09,1.948607899248600006e-02,7.782039013193298160e-09,9.435793479894982738e-09,1.915261949037017075e-09,7.751405739497840841e-09,-5.691069737076759338e-02,4.427245130500523373e-07,-2.174788349407208443e-08,-2.085275241370254662e-08,-2.284873090729888645e-08,-4.497645136325445492e-07,-3.503472179033906286e-09,2.971488237380981445e-02,3.465499442967256982e-09,-2.283611877373914467e-08,-3.937270491860545008e-07,7.008728264423780274e-09,9.663208011545521003e-09,6.414857534053908239e-09,-1.966501850247937000e-09,2.286301281628766446e-08,-1.039496133614647988e-08,5.456338714182606964e-10,1.365714985546162552e-09,4.074809378806776294e-09,-3.589931130409240723e-02,1.773881042055336366e-09,-7.006483837557198058e-09,5.969717609133340375e-09,-7.190168904713800657e-09,-4.760592844377242727e-07,-3.429910799823687739e-09,-6.435987742747784068e-09,-2.561214932939037681e-05,-2.294622802878620860e-08,-3.432924833290940114e-09,-1.843052488403884581e-09,-4.907835773337865248e-07,1.346861644435648486e-08,4.243734851479530334e-02,-5.272256409227793483e-09,-7.776961297167872544e-09,-6.136090302533148133e-09,2.291461598247224174e-08,-2.771286089497948524e-09,1.291417994764287869e-08,-1.028592766516567281e-08,-1.260449167261867842e-08,1.108867309085326269e-08,7.124255851920224814e-09,2.178902214211575483e-08,7.068876595184292455e-09,2.070674298693120363e-09,1.442238439786081017e-09,-2.361917681992053986e-02,2.078926364390554227e-08,4.333561207658931380e-07,-4.419235892783035524e-07,-2.222361850101606251e-09,-1.073366906467754234e-08,3.920785918154479077e-09,1.210198874446177797e-08,-4.861352067564439494e-07,1.250732672986032412e-08,1.292624052240398669e-08,-1.373770430745935300e-09,-2.293696788058241509e-08,1.212989264587349680e-08,-2.267214505025094695e-08,7.810573521283004084e-09,4.417388232980101748e-09,7.044919314580511127e-09,6.307447897313522844e-09,4.569426614864369185e-09,4.172613099217414856e-02,2.294463818941494537e-08,-5.517508089542388916e-02,-1.429900287064356235e-08,-4.384777874122391950e-09,2.285575462224187504e-08,-2.255971232045794750e-08,1.931499404861369840e-09,4.782884843734791502e-07,2.410413697361946106e-02,-5.206533160162507556e-08,2.944741117616445081e-09,-1.731369048130204646e-09,3.819103699953529940e-09,-1.206444544266105368e-08,1.420533579654659206e-09,-1.084329293021824014e-09,-4.812296197087562177e-07,-1.019720574646498790e-08,-1.245708425301472744e-08,-3.553806804390546858e-09,1.387066017599636325e-09,-7.233992072031014686e-09,4.604109538064449225e-09,-2.574400470578552813e-09,-2.323416792293642175e-09,-2.281631061862299248e-08,-1.018050266310410734e-08,4.460926845695212251e-07,-1.490147782945427934e-09,-1.108348168799011546e-08,-2.647572827640942705e-08,1.442462815859357761e-09,-1.142298788892048833e-08,1.524917636608336124e-09,4.515287344020180171e-07,1.374668823217461977e-09,3.177429083734750748e-03,-7.080093400446685337e-09,4.621955440597957931e-07,-3.359641134738922119e-02,6.232062865763055015e-09,4.494118854836415267e-07,-4.549848053869709474e-09,1.011543915296897467e-08,3.971812212455461122e-09,-1.214760025902705820e-08
-2.635792473171250094e-09,-3.794523654505610466e-03,1.052269915646775189e-08,-1.137441696386076728e-08,1.463103593835057836e-08,1.147967498837942912e-08,7.136828905629499786e-10,-1.223896257579326630e-02,1.349726463928391240e-08,1.133617999471425719e-08,1.424877016376058236e-08,2.169572788091045368e-08,-1.552342027425765991e-01,3.166936221532523632e-04,-2.169656010408971269e-09,3.598331410614719061e-09,-2.936149989807290694e-09,-2.801705850288271904e-04,-3.288853855920592650e-09,1.670410037040710449e-01,-6.725442425192795781e-10,-1.391962545227443115e-08,-1.592751214047893882e-04,-1.188656106876351259e-08,2.370334151180486515e-09,1.005767558126535732e-08,-1.118532932942173375e-09,1.166078522629732106e-08,-2.491158612727417676e-09,2.144214761301554972e-08,1.066292387719158796e-08,3.578802365566957633e-09,-2.011964023113250732e-01,1.978165409255439045e-09,-2.046421032630973968e-09,-6.453392487060227722e-09,-3.727651964879896695e-09,-3.276790666859596968e-04,1.192916787573494730e-08,1.107196645477870334e-08,-5.540134012699127197e-02,1.831202967039757823e-09,7.310503757906872124e-09,1.226340096138756053e-08,-2.204460179200395942e-04,1.931749205041910500e-09,-2.400492876768112183e-02,-1.089752998950643814e-08,-1.017876560815977882e-09,-2.908089102859889863e-09,-1.458581810886983021e-09,-7.179451255723279246e-09,8.137752138814846603e-10,-2.165833734579791781e-09,-1.501957558325273112e-09,2.546964417149411020e-09,6.903058569207587425e-09,7.376940724945768579e-10,-2.111229591150731721e-08,4.667032538208104597e-09,-4.192533875624349093e-09,-3.267030231654644012e-03,-4.424385302570499334e-09,3.287705476395785809e-04,-2.019392413785681129e-04,3.682845139962864778e-09,7.736088214471692481e-09,-8.043662624857006449e-09,4.205459869233152403e-10,-2.343196538276970387e-04,-9.603180473050088040e-09,-2.152867928373325412e-08,-9.227141717360609618e-09,6.347184999810906447e-09,7.249743028125976707e-09,-2.185882408411998767e-08,1.297765228613911859e-09,-6.392790741216458628e-09,9.104056175601726864e-09,1.002024241358867584e-08,4.798868413757872986e-09,2.316359430551528931e-01,-7.935242685164212162e-09,-2.921819686889648438e-01,3.466334108637170175e-09,-1.005354555161375174e-08,-1.134970517568945070e-08,-1.030551644021215907e-08,-8.216222369128445280e-09,3.290059394203126431e-04,3.898523980751633644e-03,-3.041462600231170654e-02,3.186660713083711016e-09,7.632107390520559420e-09,-6.421194242989258782e-09,-3.869690790025970273e-09,1.252532566553554716e-08,-1.556809348102206059e-09,-2.245067444164305925e-04,2.761974260412358717e-10,7.828532488929340616e-09,1.708085783924673251e-09,-1.248799108566345240e-08,5.974285510745858119e-09,5.521305190825387399e-09,6.561557963635777924e-09,-1.058726439850943279e-08,4.527893171513142079e-09,4.781214535398703447e-09,3.323844284750521183e-04,-1.087225509621703168e-08,-1.984073128014074427e-09,-3.622572686268199504e-09,-1.127361493047374097e-08,3.568841666634625653e-09,-8.145317309526944882e-09,2.215451240772381425e-04,2.354093275869217905e-08,4.244879633188247681e-02,4.889837423860399213e-09,2.438070077914744616e-04,-2.361231446266174316e-01,-2.245985619708790182e-09,4.133012262172996998e-04,1.007357131044273046e-08,7.033424398450449644e-10,-6.606420299704041099e-09,-1.255988824055975783e-08
1.018545958686445374e-08,-1.012424545479007065e-04,3.285574035061245013e-09,8.020337283198841760e-09,7.683993885621021036e-09,-1.974577168439850539e-09,-3.665882930548036711e-09,2.022350952029228210e-02,6.252006468088211477e-09,-1.084466738632272609e-08,-1.939444516096955340e-08,2.327027104342960229e-08,-3.245602548122406006e-02,6.012456142343580723e-04,-5.007943393309233215e-09,2.048168301627129040e-09,1.249776016010173407e-08,-5.946264136582612991e-04,-3.016307426051412222e-09,-1.640340196900069714e-03,-1.544015582055635605e-08,7.631949294761852798e-09,-5.596867995336651802e-04,4.581999224484434308e-09,-2.651675545806142509e-09,2.270865451237114030e-08,1.942777672070405970e-08,3.425484562669112165e-09,-2.378104158040628135e-09,-1.847276220878768527e-09,-1.464810317486353597e-08,2.558704359501007275e-09,2.401985693722963333e-03,-2.482103056422602094e-08,-1.721146225541758668e-09,1.166412566533381323e-08,1.471351707138524034e-09,-6.084678461775183678e-04,1.169512930943028550e-09,-1.491206602644012946e-09,-1.637494773603975773e-03,-9.519770749477629579e-09,-2.246402885930365301e-08,2.089583972519903909e-08,-5.797214107587933540e-04,1.702490926014377237e-09,-3.777147270739078522e-03,-5.667853741897488362e-09,-1.016614259441439572e-08,-1.157607965041052012e-08,-2.285423761350102723e-08,-1.400110249960562214e-09,1.142873795600962694e-08,1.169928687261290179e-08,1.177927710926951477e-08,9.777766152296862856e-09,-3.657343983221039707e-09,2.826452183413152852e-09,2.091986139873824868e-08,3.217128508037347956e-10,7.202975993436666613e-09,1.134226797148585320e-03,-6.231711147108853766e-09,5.971228820271790028e-04,-5.772400181740522385e-04,8.084474201197622278e-10,1.281760031446310677e-08,-2.052315206668708925e-09,9.859530081257616985e-09,-5.801060469821095467e-04,7.778925059653829521e-09,1.749315470256362914e-09,-8.238913995484153929e-10,1.239441971279120480e-08,-1.304620589337446290e-08,-1.159103124592775202e-08,-1.117258507932206157e-09,-6.822273856954552684e-09,-5.623960186440513098e-10,-1.179894493219535434e-08,-4.484879578825484714e-09,1.175971794873476028e-02,-2.191523851280408053e-09,-2.112373476848006248e-03,1.263975479837142757e-09,-7.770475818347222230e-09,7.000817703328721109e-09,-2.857123426736052352e-09,3.712631757579742953e-09,6.025283364579081535e-04,-2.288542746100574732e-04,-6.211170111782848835e-04,-9.988236904234781832e-09,5.249204182433686583e-09,1.118060666271958326e-08,7.643446764404870919e-09,2.161491785557245748e-08,2.224027184638543986e-08,-5.789021379314363003e-04,3.450617291900215378e-10,1.202437172054260373e-08,8.012536745205522948e-10,-7.384180378267046763e-09,5.870158525933533156e-11,1.288644835284458168e-08,2.821233802130507229e-10,-2.209010530052069043e-09,-7.085550812746532756e-09,2.355193373659858480e-08,6.014899699948728085e-04,2.382253683208546136e-08,-2.132527265885642009e-09,-4.792483743187858636e-09,7.260708478895594453e-09,-3.807017812107460486e-09,-2.245057650895887491e-08,5.783308879472315311e-04,5.340204722870112164e-09,-8.643500623293220997e-04,-6.157167664611051805e-09,5.833189352415502071e-04,-3.571323817595839500e-03,7.104846933003727827e-09,6.249747239053249359e-04,2.340842186754343857e-08,-4.680024368042268179e-09,5.651650258897689127e-09,-1.552597272969080677e-09
-2.341788274407008430e-08,-1.310109794139862061e-01,-1.455260090210686030e-08,-5.106084444150837953e-10,1.178326503037396833e-08,2.354670458615260031e-09,1.142607608528578567e-08,1.404550224542617798e-01,7.587381389839720214e-09,-3.334325482384770112e-09,-5.324042096077619135e-09,-2.554298328405479879e-09,-4.239795356988906860e-02,1.976763742277398705e-04,6.832385768262838610e-09,-1.021279594226598419e-08,-2.251450759160888992e-08,-2.044712164206430316e-04,-1.184434328393990654e-08,1.077811513096094131e-02,6.974412158911036386e-09,2.171430857345058030e-08,-2.277745661558583379e-04,7.929402134898566601e-10,6.036171118495303745e-09,6.180342349004774860e-10,-6.729430346297249343e-09,-1.133833293920361029e-08,4.499421724091234864e-09,-1.159148421692179909e-08,3.876371224009744765e-09,-2.837721169157703116e-09,-7.968086749315261841e-03,-1.706344066043641305e-09,1.539197935773728432e-10,-2.284395961282825738e-08,4.928158922612446702e-11,-1.882375509012490511e-04,-1.429418894360878767e-08,-9.605155781855501118e-09,-9.695548564195632935e-03,2.190065018226050597e-09,5.254286783440420550e-09,-3.880851640047922047e-09,-2.158482675440609455e-04,-4.917488638511713361e-09,1.518981754779815674e-01,-4.029392375315410391e-09,-7.202275220663523214e-09,7.159407289236696670e-09,3.380270285902042815e-09,-1.327622101143788313e-08,5.243360856610479459e-09,6.636069471710470680e-09,1.621238476801067918e-09,9.720354299247446761e-09,-9.866835348759650515e-09,5.302355443603801177e-09,-1.296422302843325269e-09,-1.538461913419553184e-09,-1.248080749860491778e-08,-1.438221931457519531e-01,6.290863940883184569e-10,1.999610540224239230e-04,-2.158895367756485939e-04,-4.235711781319650981e-09,6.182586442804449689e-09,1.115533110329636202e-09,1.864398413431445078e-09,-2.127203188138082623e-04,6.109440064960836025e-09,-1.033014385143360414e-08,-3.174013274431786158e-09,-5.417642778837716833e-09,1.555674145059526836e-09,5.943668668351165252e-09,1.107209790518481896e-08,-2.308661928296373844e-09,-7.535390089685733983e-09,-7.011625502428842083e-09,2.811407551206457356e-09,1.763390749692916870e-02,-2.476038041265837819e-09,-1.086117420345544815e-02,-3.771605694424806643e-09,-6.869587121371978355e-09,-2.064201476414950776e-09,7.220829711940268680e-09,1.110538239146308115e-08,1.950479927472770214e-04,1.396934241056442261e-01,-5.348172970116138458e-03,-6.986760503480127227e-09,-7.915066824182304117e-09,1.853123321460259376e-09,2.347454497453327349e-08,-1.678308603203504390e-09,1.737771260224008074e-09,-2.159370924346148968e-04,-1.002783456272027252e-08,-4.046326385065412978e-09,-1.970179219767942413e-08,2.099619145212727744e-09,4.091961436358815263e-09,-4.279206322621575964e-09,-2.285986955286034572e-09,2.445501356973522888e-09,8.931561268354926142e-09,-1.185932418934498855e-08,1.976774219656363130e-04,1.221721923627683282e-08,-7.504377563805064710e-09,-1.000136595763478908e-08,2.262759579707562807e-08,2.585195391091588135e-09,1.855410269868684736e-09,2.159030409529805183e-04,-7.108578170544888053e-10,3.785375505685806274e-03,-5.701086269738198098e-10,2.121608558809384704e-04,-1.324440445750951767e-02,-1.048635578371204247e-08,1.877624308690428734e-04,-1.275489491803227793e-08,2.635468954181874324e-09,-3.322244257475404083e-09,-3.132672177219575360e-10
