-5.999733693897724152e-03,1.220943927764892578e-01,2.299928516149520874e-01,-3.613150445744395256e-03,2.700269520282745361e-01,1.182264834642410278e-01,1.703873723745346069e-01,8.973754942417144775e-03,6.777630001306533813e-02,-2.409215867519378662e-01,-7.019786629825830460e-03,2.066116034984588623e-01,2.073296159505844116e-01,-1.751347444951534271e-02,1.853044703602790833e-02,1.025182753801345825e-01
3.331648111343383789e-01,6.554569117724895477e-03,-3.832461833953857422e-01,2.879952453076839447e-02,-8.265955001115798950e-02,1.363401953130960464e-02,2.296679466962814331e-02,4.094246774911880493e-02,3.159860521554946899e-02,8.597782999277114868e-02,1.082305163145065308e-01,1.724325120449066162e-01,-3.955079019069671631e-01,-1.347558647394180298e-01,-3.608313798904418945e-01,-1.557707134634256363e-02
-1.731542199850082397e-01,-7.791554331779479980e-01,4.372003674507141113e-01,4.143521934747695923e-02,-8.950103819370269775e-02,-1.274653077125549316e-01,3.022910561412572861e-03,-1.397511363029479980e-02,3.467249572277069092e-01,3.764938563108444214e-02,-3.659683838486671448e-02,-5.596488248556852341e-03,2.709127068519592285e-01,-4.964137673377990723e-01,4.930178169161081314e-03,-6.227992773056030273e-01
2.816509306430816650e-01,1.971689760684967041e-01,1.558484137058258057e-01,-5.828357338905334473e-01,6.743268668651580811e-02,9.482203423976898193e-02,6.705412268638610840e-02,8.714979141950607300e-02,-7.381636649370193481e-02,2.927738428115844727e-02,1.936211735010147095e-01,9.910627007484436035e-01,1.039422675967216492e-01,1.550240069627761841e-01,1.924934983253479004e-02,9.723828732967376709e-02
2.809033393859863281e-01,-3.723228722810745239e-02,2.294789850711822510e-01,1.313163787126541138e-01,-8.086984604597091675e-02,7.549653947353363037e-02,-1.080986112356185913e-01,-2.516181170940399170e-01,-6.662240624427795410e-02,-2.532103657722473145e-01,3.085216134786605835e-02,-4.930004850029945374e-02,-2.967275977134704590e-01,-1.824913173913955688e-01,5.116707682609558105e-01,4.542216658592224121e-02
-1.944449245929718018e-01,1.957360655069351196e-01,-4.463429749011993408e-01,7.900522090494632721e-03,-1.481734067201614380e-01,-1.098962780088186264e-02,1.228532642126083374e-01,-5.027700066566467285e-01,6.147419288754463196e-02,5.612265691161155701e-02,1.476458460092544556e-01,-7.029693573713302612e-02,1.610068529844284058e-01,1.473955363035202026e-01,-1.081164628267288208e-01,-3.855535760521888733e-02
2.330287992954254150e-01,-2.950340211391448975e-01,1.568525284528732300e-01,1.216867789626121521e-01,2.174256369471549988e-02,1.175009757280349731e-01,-4.715798422694206238e-02,-3.423452079296112061e-01,-2.397143691778182983e-01,1.489290595054626465e-01,-1.832273751497268677e-01,-5.219495669007301331e-02,1.700380146503448486e-01,-1.180253922939300537e-01,-4.390960633754730225e-01,3.035223297774791718e-02
1.043866574764251709e-01,-2.422325462102890015e-01,3.225567042827606201e-01,-2.791996672749519348e-02,4.801143333315849304e-02,-9.821431338787078857e-02,-1.379056274890899658e-02,-1.488974392414093018e-01,1.355636864900588989e-01,1.767262443900108337e-02,1.707973144948482513e-02,3.410109505057334900e-02,9.838254190981388092e-03,1.901398152112960815e-01,7.401557266712188721e-02,-2.381340563297271729e-01
