7.123875711556593160e-09,-1.042435737730329492e-08,-5.613943532267740011e-09,4.595700264786728440e-09,5.615186982055320186e-09,5.701949579162146620e-09,-3.566555051293107681e-09,3.457695463282561832e-09,-3.655848956896079471e-09,7.112784139451377996e-09,1.533160931543875449e-09,1.170997787625083220e-08,-4.435813938385990696e-09,1.206465816139257186e-09,7.100228849310497026e-09,-4.377116002984848819e-09,6.032744082062890811e-09,7.024475223715853645e-09,-4.373399864476823495e-09,7.227115794705696317e-09,9.634196551644436113e-09,-1.458234200057972885e-09,-6.138021646506786055e-09,-1.321653231300956577e-09,4.736212755318547352e-09,-4.456362834304172793e-09,-4.603111225520706284e-09,-1.254463466437982788e-08,6.934282037462935477e-09,2.605778703923533612e-08,1.041865882456249892e-08,6.032545130096877983e-09
-7.196768514461382438e-09,-1.368293700565459403e-09,-1.133324101232346948e-08,-7.087325393229093606e-09,2.317939085116904607e-08,7.257308531904982374e-09,-2.297065115897112264e-08,2.328688131214562418e-09,-7.029250070900161518e-09,2.072453098023174789e-09,2.266884990831385949e-08,7.213707853281903226e-09,5.697665006465513216e-09,-4.370344530713055065e-09,-1.897285661911496391e-09,3.983419816222522059e-09,2.265293508330046279e-09,2.291031186985037493e-08,-7.764299425616627559e-09,4.560251287699657041e-09,-4.462040070762895994e-09,-7.547730440649047523e-09,1.422465611966572396e-08,2.296732581896776537e-08,2.122406028703949232e-09,-2.261087095334346486e-09,-7.133986734686459386e-09,9.619275154193474009e-09,-4.556591992610492525e-09,-4.383759577564205756e-09,-1.408013039494449004e-09,5.224025212413607733e-09
-1.962148887812986686e-09,2.284905242788681790e-08,1.234902883879840374e-04,1.324912513034348649e-09,-2.295987844291857982e-09,6.344760716814334955e-09,-1.524512627248952867e-09,3.926324154690519208e-09,3.665867254198929004e-08,-1.625139667282837763e-08,2.292770417966494279e-08,-2.823259181994330902e-09,-2.035501545094575704e-09,7.746657537666123972e-09,2.160491119340690602e-09,4.380729112796188929e-09,4.535515518711008554e-09,-7.602749541035791481e-09,2.553463662735566686e-09,-4.369878681131922349e-09,-4.722356283792805698e-09,1.257407689081446733e-08,1.056306500686332583e-04,-4.582356272209153758e-09,2.604112125936808297e-08,2.317547220798132912e-08,7.394776790903279107e-09,-1.424333717636727670e-08,-5.685470316763030496e-09,-1.269057037234233576e-08,-4.541794051959868739e-09,2.273763399784911599e-08
1.182775033470306880e-08,2.418886202448788936e-09,-9.370292097798937903e-09,2.260305498325010376e-09,3.966373895991637255e-09,-1.313323894081008802e-09,-1.044041564313147319e-08,2.124367126654647109e-09,-4.604645997829948101e-09,-5.214177090095972744e-09,-1.186808429309849089e-08,1.727041287757913324e-09,-2.101023133249668717e-09,-2.233780937999085836e-09,7.316896422082663776e-09,2.075376670518380706e-08,-7.316839578663802968e-09,-2.342330551741156341e-09,-4.375446227555812584e-09,-1.505627400533171567e-09,2.287952938218040799e-08,1.042275865614783470e-08,1.033771379610470831e-08,-2.310412972050812641e-09,5.629738897283687038e-09,-1.199303545362795376e-09,-2.083174299727375001e-09,-1.202151178603116932e-08,-1.464430132713800958e-09,1.035677765770515180e-08,-1.045056219339812742e-08,-1.459832921213433110e-09
2.077354066543080080e-09,2.259353371059091842e-09,4.601964295747329459e-11,-4.010392018471975462e-09,-4.609420845014255974e-09,4.502732853239876931e-09,-4.231571482105067616e-10,2.241213215015136484e-09,1.045129405241596032e-08,4.492017868784614620e-09,-2.260682485655252094e-08,-2.342884775075049220e-09,4.363921224381783759e-09,-2.838728363485643058e-09,-1.553958517419573582e-09,2.287768197106743173e-08,-1.201867672051548652e-08,-7.584324279719112383e-09,1.197008492326290252e-09,-1.998908150113720694e-09,-7.148190483974303788e-09,5.221111987196991322e-09,3.925617164668437908e-09,-7.159466797190816578e-09,-1.217017375765294673e-09,4.575648748783578412e-09,-2.305077018149859214e-08,6.025056009661966527e-09,2.300369850161132490e-08,6.046802170089904394e-09,-6.036012578647387272e-09,1.533160931543875449e-09
-6.052820467061792442e-09,-1.577029840049704035e-09,-9.562646674510233424e-09,-7.216315545122142794e-09,-1.182345155115172020e-08,2.095337903185168216e-09,2.279567112850600097e-08,-2.133700993667275725e-09,-4.554510102394715432e-09,4.477913595479776632e-09,2.459260572962307378e-09,-1.397759907817430758e-09,1.726984444339052516e-09,2.307950275337589119e-08,2.841797908104126691e-09,7.316782735244942160e-09,9.695692249067633384e-09,1.576653252399751182e-09,-2.332895654433286836e-08,-1.451881948000277589e-09,-1.034597740812159827e-08,1.499907531510302761e-09,-2.221715922345879335e-09,5.200548880424094023e-09,2.307813851132323180e-08,-2.178735192259750875e-09,-5.231613808831525603e-09,6.177639733095929842e-09,1.184840581203161491e-08,-2.315087321846931445e-08,1.034893326590236029e-08,1.186332365676889822e-08
6.600555657598761172e-09,1.022739315459375575e-08,4.611439230473024509e-09,-5.629113619676218150e-09,1.187917586520370605e-08,6.946938579943662262e-09,7.215356312428866659e-09,2.296077106223037845e-08,1.879461697384954277e-09,2.241220320442494085e-09,5.336928676769048252e-09,1.512533875924759741e-09,2.384452457704355766e-08,1.542568517365339176e-09,9.692722180432156165e-09,-2.406246757402641379e-09,7.112386235519352340e-09,-2.400937892943488805e-09,2.287756828422971012e-08,2.294226808530197559e-09,-4.567420663903476452e-09,7.098921450676698441e-09,-2.302095225559241953e-08,-7.749029862225143006e-09,-4.625412206027412765e-11,4.598393221755259219e-09,-2.306934021589768236e-08,2.241717700357526155e-09,1.230480783931398037e-08,-2.272384724832932079e-09,2.307934643397402397e-08,4.555419597096488360e-09
1.202145494261230851e-08,1.166917007466850009e-09,5.717929685289391273e-09,-2.186465897224820765e-09,-2.307739954687804129e-08,-4.365626526947607999e-09,1.023575624259365213e-08,2.355615613680583920e-08,1.485781941923391969e-09,1.578649877487237063e-09,-4.475682491289489917e-09,-1.460451093393544397e-09,-2.149716626931308383e-09,5.756917165200547970e-09,1.545524375146101193e-09,-9.658285726743542909e-09,-2.394399123417656483e-09,-2.281266509029933331e-09,2.296251011557615129e-08,1.035687002826080061e-08,2.354518535696570325e-08,5.653465695587556183e-09,2.357784900652859505e-08,-4.501922834521110417e-09,1.452265641077588043e-09,-2.139605603801442157e-09,9.636543119029283844e-09,-7.026613957350491546e-09,-2.300449430947537621e-08,4.455005697678871002e-09,4.454771218576070169e-09,-6.425890486383423195e-09
7.298984527892571350e-09,-2.248901731505270618e-09,-5.455447760205345276e-10,4.549554510901998583e-09,7.124784762169156238e-09,-1.341268163201903008e-08,-2.604568472008850222e-08,-1.419905637511931218e-09,-3.997603581495923208e-09,2.097551643487349793e-08,-9.554155688817900227e-09,1.558910223131704242e-09,-3.923136482342215459e-09,2.243047081407212318e-09,4.441462753135283492e-09,-4.459955516011859800e-09,2.109167507313713941e-09,1.308308017478054808e-09,4.527829222666923670e-09,-4.397271879952313611e-09,-1.043737274386558056e-08,1.123756110388285379e-08,-1.494570511795245693e-08,-7.800767143351095001e-09,2.286110323268530919e-08,-2.300155443890616880e-08,4.570095857303613229e-09,4.184422142117227850e-09,2.298457202343229255e-09,-4.487083149484760725e-09,7.757771314231831639e-09,4.540470666114515552e-09
7.237034971296907315e-09,2.258445697123079299e-08,5.353225862592125850e-09,-1.170173069553470668e-09,1.231819757308016960e-09,1.874281840841263147e-09,-5.613131737192134096e-09,-1.521079928679114346e-09,-1.859196707698629325e-08,1.310973818391403256e-08,-2.274434640625599968e-09,4.582672463726567003e-09,-2.323513603741389488e-09,-2.262854570389549735e-09,-4.548079690636086525e-09,-1.026997598074785856e-08,6.152635734224531916e-09,4.190516822433210109e-09,2.334216153698775997e-09,1.574919528124496537e-09,5.623541188271019564e-09,-1.721252140818307907e-09,-2.179338309815648245e-08,-7.145017910659134941e-09,-6.076358971540685161e-09,-1.208146249709329823e-09,1.456370801733442022e-09,-5.685383275277899884e-09,-4.379583362634775767e-09,-1.756672807218251364e-09,2.308257585070805362e-08,-1.921638181912044274e-09
-1.424734197286170456e-08,-5.633831623441665215e-09,4.566731437449789155e-09,2.301938195614638971e-08,-2.918380204164350289e-09,-2.131086196399678556e-09,1.273215977093400397e-09,-4.637657813333362355e-09,1.133165650202272445e-08,1.520541692556776070e-09,-1.044703790142875732e-08,-2.116337993740557977e-09,2.293210732418060616e-09,6.962733944959609289e-09,-1.568318586109285206e-09,4.151327726020781483e-09,2.264242304761410196e-08,-2.113602404207881591e-09,2.928100428789548459e-09,1.172230579271626993e-08,-2.843616897507672547e-09,-2.324751724458451463e-09,5.366977529064342889e-09,4.587827451274506529e-09,-2.306745727764791809e-08,2.340440508064034475e-09,2.212734662165871669e-09,-5.972925487540692302e-10,1.264241822340750332e-09,7.315400729623888765e-09,1.266047355841237732e-08,-2.298988555082814855e-08
2.295631418292032322e-08,-2.235479135137552475e-09,2.073147653547380287e-09,5.681670689483553360e-09,-2.305870339114335366e-08,4.464882241705936394e-09,-2.317148917185818391e-09,2.098784035453604702e-09,-1.987602749053962725e-09,-2.265009291235742239e-09,-2.258294662382809292e-09,4.598847969106145683e-09,-1.216470257858759396e-09,-4.384086427222655402e-09,-1.185791997926344266e-08,7.081591313351509598e-09,4.376377038539658315e-09,1.918499359376824032e-09,-4.444219658950032681e-09,1.435454199949504073e-09,-1.133588423130049705e-08,-3.921154956287864479e-09,1.320709497321104209e-08,-1.264866433814404445e-08,-1.864501220083525368e-09,-2.436344237466414597e-09,-2.279538691141169693e-08,1.035069541188704534e-08,2.384489405926615291e-08,-1.311618591515184562e-09,2.358545181380122813e-08,-2.311791424958187235e-09
1.176338804143028938e-09,-2.283990596652074601e-08,4.574852940919527100e-09,4.372206152680746527e-09,-2.310263802485224005e-08,-1.186155795807053437e-08,-2.416953526207521463e-09,-4.625443583705646233e-09,1.455846776465818948e-09,-2.240019503219059516e-09,-4.590833047046771753e-09,-1.185629283639855203e-08,4.637821238162587179e-09,1.898138313194408511e-09,3.935593184678509715e-09,-2.283079858500514092e-08,2.317882241698043799e-08,6.008026298687241251e-10,1.728860277161459180e-09,-1.184433440215570954e-08,5.665633739937447899e-09,-1.172958885575781096e-08,5.759006160843682665e-09,2.923325581605240586e-09,4.591259372688227813e-09,-9.460552341522543429e-09,-1.456926801424174300e-09,-5.706646266645520882e-09,4.603168068939567092e-09,4.589149060763020316e-09,2.299716150844233198e-08,-6.081350534259399865e-09
-2.428542478227768697e-09,-2.303684354387769417e-08,2.533102394508546240e-09,7.146897296195220406e-09,2.299585410980853339e-08,7.155935399794088880e-09,-2.155798872749414841e-09,-1.043458919269824037e-08,1.170713570530779180e-08,-2.303712776097199821e-08,-1.165396446012323395e-09,-7.082834763139089773e-09,5.653373325031907370e-09,2.281323352448794139e-09,-2.294702872163156826e-09,-5.633277400107772337e-09,-1.024005502614500074e-08,-2.279731958765296440e-08,3.921751812185902963e-09,4.390104724194543451e-09,-1.230349333525282418e-08,2.314001212866401147e-09,-1.132801852321563274e-08,9.616958784874896082e-09,-7.139926871957413823e-09,-4.457997082596421023e-09,2.119269870703988090e-09,-4.736042225061964928e-09,-7.288710524022690151e-09,2.076742999790326394e-09,1.312871367176171589e-09,4.677281825737900078e-11
4.365861006050408832e-09,-2.299619517032169824e-08,4.487598292968186797e-09,-2.300252210929443208e-09,2.920085506730174529e-09,4.555568811070997981e-09,-1.538703164882804231e-09,-1.258330062370305313e-08,1.219333745083872600e-09,1.025785412167579125e-08,-4.406170095450079316e-09,-2.357428208199507935e-08,7.316839578663802968e-09,-7.592286799251724005e-09,-1.560666040845148927e-09,1.584028685996941022e-09,-5.616053844192947508e-09,-1.538561056335652211e-09,4.365868111477766433e-09,-4.383461149615186514e-09,1.503318136641951241e-09,2.302752122318452166e-08,-1.931331761184651441e-09,-1.411811667573203977e-09,4.456533364560755217e-09,-2.453823588766113062e-09,1.192858922749451267e-09,-7.140644520120531524e-09,-5.615648834833564251e-09,-4.406397469125522548e-09,-4.505937400978154983e-09,-4.523786234500448700e-09
-7.760036169202066958e-09,3.206128695865118061e-09,-1.273784411282008477e-09,5.215839760097651379e-09,-2.266803100781089597e-08,-1.423973916558907149e-08,-4.437306078131086906e-09,1.043292652269656173e-08,-1.318589015752991145e-09,-2.288733114141905389e-08,-1.325554110920279527e-09,4.633650352303675390e-09,-4.370344530713055065e-09,9.480884521906318696e-09,5.621887400053537931e-09,4.641288686713096467e-09,2.272207089148992054e-09,-7.101642829354659625e-09,2.277195099154027957e-09,1.879767230761331120e-09,-1.202243549158765745e-08,-4.396584873944675564e-09,2.259795728321023489e-08,2.382879316087382904e-08,2.095437379168174630e-09,7.595981621477676526e-09,1.470626065369629032e-09,7.085847464338712598e-09,2.309348623441564996e-08,1.426356366351910765e-08,4.428701405601032093e-09,-1.044203923328268502e-08
-5.629340993351661382e-09,-2.359231565662867069e-08,1.044700947971932692e-08,-7.103404975339344674e-09,-4.544214338153551580e-09,-2.273424115628586151e-08,-1.724135167968654514e-09,7.316839578663802968e-09,9.463323458192007820e-09,-1.175798791663851262e-09,1.171299057745045502e-08,-4.595039460042471546e-09,2.838138613014962175e-09,-7.316839578663802968e-09,2.288926204130348196e-08,-1.459655285529493085e-09,7.185165351586420002e-09,2.973887802681929315e-09,-6.063734403483067581e-09,4.425972921495713308e-09,-4.517640039836123833e-09,-1.898593060545294975e-09,4.423699184741280988e-09,2.122349185285088424e-09,1.566179852474647305e-09,-2.295765000326355221e-08,2.305787205614251434e-08,-2.301676715887879254e-08,7.158714732113935497e-10,-1.424582851683453555e-08,7.586979045015596057e-09,-2.287009870372003206e-08
6.042020217478238919e-09,1.410272565394166122e-09,-4.503983408454814708e-09,4.558823096800779240e-09,1.186592957225229839e-08,7.099091980933280865e-09,-1.575296115774449390e-09,-4.393685859582774356e-09,-4.641174999875374851e-09,2.302757806660338247e-08,7.120578793262666295e-09,-2.287751144081084931e-08,-5.629014143693211736e-09,-2.282338229520064488e-08,1.026262896886009912e-08,-7.163211357408272306e-09,-2.272582833029446192e-08,2.274011867697822709e-09,3.478983323645934433e-09,-1.162163476564614939e-09,5.203220521110551999e-09,-2.293281786691636626e-09,2.120160713658947316e-09,1.122981796441990809e-08,-4.585326340844630977e-09,-1.901833135420361032e-09,-4.386765173336470980e-09,-2.276221655606036620e-09,-2.315898361970880615e-09,-7.316839578663802968e-09,2.298397694389109347e-09,-2.258464171234209061e-08
1.530972459917734341e-09,-2.343609528665524522e-09,1.511589520220013583e-09,2.306406798879834241e-08,-2.434937362849609599e-09,2.175253532854526384e-09,-6.056671608689612185e-09,4.385557250685678810e-09,4.368809758403813248e-09,1.432327811912159632e-09,5.245455181324132354e-09,-2.248027319851075845e-09,-2.081382843854839848e-09,1.026671458959071970e-08,3.998582798203642596e-09,-1.133434945899125523e-08,4.419180132941846750e-09,2.285313094319008087e-08,2.288596512300955510e-08,1.172676089566948576e-08,-2.121851805370056354e-09,-2.302376733709365908e-09,1.021378626120394983e-08,1.187757714404824583e-08,4.534636222075505430e-09,-2.259340980970137025e-08,-2.289913814124133751e-09,1.900639423624284063e-09,-2.405792010051754914e-09,6.920107264996033791e-10,4.637203065982475891e-09,-1.422944340134790764e-08
7.593814466133608221e-09,-6.934864682506258760e-09,-2.284410705044592760e-08,2.073446747630214304e-09,-7.600244877892237128e-09,-2.257953601869644444e-09,1.381744274553398100e-09,1.481312628115460939e-09,1.419012241044015354e-09,-1.572134200600316944e-09,-6.318666034843545276e-09,-2.282239952577924669e-09,-1.879628452883252976e-09,1.385595416181217843e-09,-1.455619402790375716e-09,-7.020013015335280215e-09,2.314178848550341172e-09,-6.134271757218812127e-09,-4.553359023162784069e-09,2.606102000868304458e-08,7.582545258344453032e-09,-2.405883270384379102e-09,1.086095835489686579e-08,5.728616248035223180e-09,-7.111192523723275372e-09,1.452549858171892083e-09,-4.194876002117098324e-09,6.074273528611229267e-09,1.425228735030259486e-08,1.019350026609799897e-08,-8.023039121951569541e-09,1.723111986429159970e-09
1.325753062886292355e-09,-1.027053020408175144e-08,3.899867095924491878e-09,2.262799503327528328e-09,1.264128135503028716e-09,-6.120409068444132572e-09,5.660841129184746023e-09,-2.284376598993276275e-08,2.299960577545334672e-08,2.293729428615165489e-09,2.603133175682614819e-08,7.551119729498623201e-09,1.558790208022742263e-09,-2.271546284404735161e-09,-2.284724942569482664e-08,-7.099717258540749754e-09,1.026739671061704939e-08,-4.479654425182388877e-09,-4.576259815536332098e-09,7.022492809483082965e-09,7.601594909090181318e-09,-4.428658773036886487e-09,-7.407224167366166512e-09,-1.184601838843946098e-08,-7.112734401459874789e-09,-1.186819797993621250e-08,-2.302012802601893782e-08,-1.555209072634511358e-09,1.184849818258726373e-08,-1.202271970868196149e-08,4.456341518022099990e-09,1.453857256805690668e-09
2.264213483371690927e-09,1.491210488424599134e-09,5.703796990275122880e-09,-1.539470551037425139e-09,-2.115812192116095503e-09,1.172298791374259963e-08,-6.449111467077273119e-09,1.520143788624750414e-09,-2.267858567606140241e-09,-2.131086196399678556e-09,-1.533672522313622721e-09,-2.303582036233819963e-08,7.081641051343012805e-09,2.342607663408102781e-09,2.307280411173451284e-08,1.027300999822955418e-08,-2.276832722358790306e-09,-1.567203034014141849e-09,-1.118574299852070908e-08,3.903604550714590005e-09,-4.453073021437603529e-09,1.133708504852393162e-08,-6.070145275316463085e-09,4.584416846142858049e-09,2.291461420611540234e-08,2.158697887111316049e-09,-1.134119198553662500e-08,1.181943698469467563e-08,2.292592604646870313e-08,-3.900954226310204831e-09,-2.092666262498710239e-09,-4.561935273983408479e-09
2.104822760529145853e-09,-1.394400372944915034e-09,1.298887509619817138e-04,1.260134929736977938e-08,-4.488127647306328072e-09,5.643697953416904056e-09,-1.541980432229195230e-09,-9.474947937349043059e-09,4.145139698152888741e-08,-1.914503222621988243e-08,-1.539644745029988826e-09,6.048208156528289692e-09,2.602973125931384857e-08,6.075483671708070688e-09,4.486953475435484506e-09,-2.177139801773364525e-09,-2.242442231903396532e-09,-4.477602288943671738e-09,-2.251469899405833530e-09,-2.210668981206254102e-09,-2.315718994339022174e-08,1.511916480900765691e-09,1.146129725384525955e-04,4.607701331593716532e-09,7.211875541202061868e-09,5.291130200646421144e-09,1.521010317695470349e-09,-3.969076178833574886e-09,9.475535911462884542e-09,7.111597088993448779e-09,4.587732416183598616e-09,4.472774151054181857e-09
1.422437057030379037e-09,-4.495364525070044692e-09,4.436588429967969205e-09,1.423732332028748715e-08,-4.604660208684663303e-09,1.424189921550578219e-08,-9.441524007058887946e-09,1.430345397679388952e-09,9.362797648293508246e-09,7.086245368270738254e-09,2.283454314522259665e-08,1.187581499806356078e-08,-5.262508206982374759e-09,7.248478706145533579e-09,7.147451519529113284e-09,5.728729934872944796e-09,4.165538580735983487e-09,-7.737138041363778029e-09,-7.588925932111578732e-09,2.458130810012448819e-09,-2.305543134184517839e-08,-4.473657444492573632e-09,1.265531501815075899e-08,-2.281486777278018963e-09,-1.873620182613056073e-12,-5.615201192910035388e-09,3.068469478506585801e-09,-6.319426315570808583e-09,-1.584931408338263736e-09,2.301450763297907542e-08,-1.528783988291593232e-09,4.411463638831492062e-09
-1.429030893618232767e-09,6.179401879080614890e-09,-2.291273837329299568e-08,1.186762954574760442e-08,4.549195242731229882e-09,2.343050198305718368e-08,1.334307997424843961e-09,-6.022441212394369359e-09,2.088823114476667797e-09,-2.295006140684563434e-08,7.547957814324490755e-09,1.085426326596916624e-08,-2.248993657971709581e-09,1.044797581783996065e-08,6.022661480642454990e-09,-7.323376571832795889e-09,2.113566877071093586e-09,-2.079848071545598032e-09,1.473454025457954231e-09,4.416877974477984026e-09,-2.303614010656929167e-08,-2.926700659600101062e-09,3.464432296595987282e-09,-1.032644281195871372e-08,1.397475690723126718e-09,2.259784359637251328e-08,5.197649866062192814e-09,2.294592427176667115e-08,2.307968705039797896e-09,-6.920213291294885494e-09,4.516275797783464441e-09,-5.756348731011939890e-09
2.922003972116726800e-09,-6.034108324115550204e-09,1.903325275165457242e-09,1.045240960451110368e-08,4.441768286511660335e-09,7.232309862104102649e-09,1.929292503533019953e-09,4.000799691539214109e-09,2.306179425204391009e-08,-2.307073421192740170e-09,6.900212068394750986e-10,4.550793963886690108e-09,-1.185632836353534003e-08,4.496636396567055272e-09,-2.290064493593035877e-08,2.172127366861786868e-08,2.261358922339695710e-08,1.423654172327815104e-08,7.006730751157874693e-09,4.386338847695014920e-09,1.206750033233561226e-09,4.412254117625025174e-09,2.078498040347653841e-09,1.420831230447561211e-09,-2.329256565403170498e-09,-1.392736370675606850e-09,-1.511361480410755576e-09,-7.084710595961496438e-09,-6.043327616112037504e-09,-6.032687238644030003e-09,-7.797907208839660598e-09,7.099489884865306522e-09
4.641857120901704548e-09,-2.829377621083040140e-09,-1.048982123386110743e-09,-1.265974169939454441e-08,1.133600502356557627e-08,-6.073648251003760379e-09,2.319046066290297858e-09,1.187655396250875128e-08,1.257488069228429595e-08,-1.509947500366592976e-09,-1.177241193417444265e-09,1.423512774323398844e-08,-2.827047040909747011e-09,2.283084121756928653e-08,-6.163273003068070466e-09,-6.073832992115058005e-09,-7.029875348507630406e-09,4.405502185278464822e-09,4.404322684337103055e-09,-1.426200046950043543e-08,-2.940435395171192567e-10,-4.593163627220064882e-09,7.542728219789296418e-09,-1.172239816327191875e-08,4.433753364452286405e-09,-6.935774177208031688e-09,2.312864344489184987e-09,-3.179392304986095041e-09,-7.588002226555090601e-09,5.679460901575339449e-09,1.202243549158765745e-08,-7.316896422082663776e-09
3.851997831816333928e-09,-3.444962537457740837e-09,7.320477557470894681e-09,-4.551135024399854956e-09,2.084558969883687496e-09,-2.126505860289285010e-09,3.909224943754452397e-09,1.424608431221940918e-08,7.020979353455913952e-09,2.343979010888119774e-09,1.900127832854536791e-09,-7.751995489968521724e-09,-1.451356146375815115e-09,-2.273674937214309466e-08,2.272864207952807192e-08,1.534276483639018807e-09,7.100626753242522682e-09,7.156674364239279384e-09,-4.481977899928324405e-09,2.287958622559926880e-08,-1.456649689757227861e-09,1.532677762483558581e-09,-4.436730538515121225e-09,-2.285927669376519589e-09,2.269620713590825289e-09,-5.751794152075717648e-09,1.229503077126992139e-08,1.183162279261296135e-08,-7.316896422082663776e-09,-5.205607944702705936e-09,-2.330158954677585825e-09,2.277713795351132831e-09
-1.184474651694245040e-08,-2.332319004594296530e-09,1.930400950200805710e-09,-2.333057969039487034e-09,4.422704424911216847e-09,2.306194346601841971e-08,1.201821486773724246e-08,-9.652544541438601300e-09,-2.122249709302082010e-09,-1.315647368826944330e-09,-1.425785800535095404e-08,-1.228471324665747488e-09,-5.633433719509639559e-09,3.433146211762050370e-09,4.490134930534850355e-09,-2.186465897224820765e-09,-1.257300485946188928e-08,-2.327430470572267041e-09,-7.098011955974925513e-09,1.183029407769708996e-08,-2.302359547456944711e-08,-7.113018618554178829e-09,2.283128885949281539e-08,-7.317010108920385392e-09,-1.562975304736369253e-09,-4.480194437661566553e-09,-1.176255270962656141e-08,-2.261475451348360366e-08,-2.835374601772855385e-09,7.581595795613793598e-09,5.216450826850405065e-09,-7.778239385913821025e-09
-1.253276371571132586e-09,1.351815770433972830e-09,5.761342070087493994e-09,1.023478990447301840e-08,-1.575580332868753430e-09,-2.319792136162845964e-09,5.658403967601088880e-09,2.267290133417532161e-09,-1.451299302956954307e-09,-2.295909240501714521e-08,-5.222305698993068290e-09,7.032546989194088383e-09,-2.283386102419626695e-08,-5.659199775465140192e-09,-4.474055348424599288e-09,-2.249917363528197711e-09,-1.023999818272613993e-08,-1.454653064669741980e-09,1.491381018681181558e-09,5.215768705824075369e-09,2.330045267839864209e-09,4.571747869164255462e-09,-5.198161456831940086e-09,2.277607213940768816e-09,2.273947075082105584e-08,5.214347620352555168e-09,-4.599075342781588915e-09,2.069822979677837793e-09,7.174750571437016333e-09,1.230360702209054580e-08,2.315914748862724082e-08,-4.495087413403098253e-09
-7.316896422082663776e-09,-9.400141998128219711e-09,2.290961198525565123e-08,-1.174406127901761465e-09,1.540777949671223723e-09,1.012970063385409958e-08,1.503772883992837706e-09,-1.025715068436738875e-08,-2.339594962208479956e-09,-1.718230557834488081e-09,-7.608299767980497563e-09,-2.123578424217953398e-09,4.600212211158805076e-09,-1.481653688628625787e-09,-2.404568766323222917e-09,9.475903617328640394e-09,-2.298772550091143785e-08,1.514686820414112844e-09,1.206465816139257186e-09,2.316239422484045463e-09,7.101244925422633969e-09,4.457606284091752968e-09,2.279407951277789834e-08,6.041217304186830006e-09,-7.102886279142239800e-09,2.087515715842869213e-09,7.316839578663802968e-09,2.081084993221793411e-08,-1.033477214917866149e-08,7.121090384032413567e-09,9.479065532502772840e-09,2.296322909600689854e-09
-7.316839578663802968e-09,-1.529444793035850125e-09,1.424280871020755512e-08,-2.430240675366235337e-09,2.390761144610564770e-09,2.087458872424008405e-09,5.665960589595897545e-09,-7.102438637218710937e-09,1.028600316033134732e-08,-7.167439086686044902e-09,2.300195367510582400e-09,2.301398893678197055e-08,-5.212017040179262040e-09,-1.872541011138650902e-09,-7.776856492114347930e-09,-2.320076353257150004e-09,-2.117162223314039693e-09,-1.171212371531282770e-08,7.107327171240740427e-09,-1.913447400525569719e-09,1.180538111711371130e-09,1.045195485716021722e-08,2.389169528882462146e-09,-5.662169844100617411e-09,5.702873284718634750e-09,-1.184724762737232595e-08,1.237428559619502266e-08,2.282289690569427876e-09,-4.525768648733219379e-09,1.381751379980755701e-09,2.277990907018079270e-09,2.285053035677719890e-08
2.307581503657729627e-08,-5.304099826020092223e-09,-1.451185616119232691e-09,-4.403242659378747703e-09,-2.302888546523718105e-08,-5.245107015383609905e-09,1.454312004156577132e-09,2.300846624336827517e-08,-2.284852129719183722e-08,-2.281971234197044396e-08,1.255948500755721398e-08,-6.057012669202777033e-09,-4.739609149595480631e-09,-4.638787576283220915e-09,1.162781648744726226e-09,2.274942678681668440e-09,4.202368175665327499e-10,7.316953265501524584e-09,1.122836135181159989e-08,2.263758736020804463e-09,2.267339871409035368e-09,-2.328297332709894363e-09,-7.124671519420644472e-09,4.484450588648769553e-09,-4.543802223366810722e-09,2.838422830109266215e-09,-4.532362485321073109e-09,1.269748750587496033e-08,-4.494575822633350981e-09,-7.165996684932451899e-09,-5.216976628474867539e-09,1.729080545409544811e-09
-2.343050198305718368e-08,1.267997351561689356e-08,-2.245199359762750646e-09,7.173635019341872976e-09,9.471279760475681542e-09,2.357900008576052642e-08,-1.187086962062267048e-08,9.637722619970645610e-09,-2.302177648516590125e-08,-4.148769772172045123e-09,2.267308474301898968e-08,4.372277206954322537e-09,-4.594414182435002658e-09,-1.187731424323601459e-08,6.072014002711512148e-09,-1.188252252148913612e-08,1.731183751907394708e-09,-2.302575685675378736e-09,5.667978530965456230e-09,-4.531566677457021797e-09,-4.372220363535461729e-09,-1.254804526951147636e-08,1.387108872208386856e-09,-2.302860124814287701e-08,-1.185757891875027781e-08,-7.238157628819408274e-09,-2.315087321846931445e-08,1.035524288539590998e-08,2.072142235576279745e-09,2.303405821635351458e-08,1.546348604719582909e-09,2.276314026161685433e-09
2.282758870819634467e-08,-4.422986865648681487e-09,-1.673203078098595142e-04,-1.439319441409736555e-09,-5.688707283013627602e-09,-1.156022921833255168e-08,-2.283316291595838265e-08,-7.173415195182997195e-09,-4.749506479129195213e-05,6.785247030904884014e-09,-6.177313105482085120e-10,6.030082655428259386e-09,6.241132055606612994e-09,-5.510179867940223630e-09,-6.177343969682169700e-09,2.303989354857094440e-08,-4.464337344245450367e-09,-2.280805944110397832e-08,-2.254888720187864237e-09,-4.591065305703523336e-09,-2.343959693007491296e-09,2.834570134169211997e-09,-1.591449254192411900e-04,-2.238692786704632454e-09,-4.352584070943521510e-09,-1.544356864613405378e-09,-2.282023103816754883e-08,3.473922260965878195e-09,-4.457743951746806488e-09,-4.538925679753447184e-09,-1.318170905761917311e-09,-4.578362577944972145e-09
-4.514534968080852195e-09,-2.072487514936938169e-09,2.087458872424008405e-09,-4.545955167856163825e-09,-3.550553628883790225e-09,-3.991200259179095156e-09,1.878207367411732776e-09,4.608333714628543021e-09,2.272594201713218354e-08,-5.261328706041012993e-09,-4.567981992664726931e-09,-1.333569032979653457e-09,-4.141550657976722505e-09,-2.098933249428114323e-09,6.662159712789161858e-09,-4.397068043004992433e-09,1.034818719602981218e-08,3.934911063652180019e-09,-2.113204500275855935e-09,-1.417100881084820685e-09,9.562362457415929384e-09,2.091493866984706074e-09,-5.285399229393306086e-09,-1.165211127585052964e-08,2.274601618168503592e-09,-2.837172274894328439e-09,1.187771214716804025e-08,-4.386303320558226915e-09,6.946895947379516656e-09,2.073446747630214304e-09,-4.191095914762854591e-09,-2.642242868944322254e-08
2.118917263871367140e-09,-1.535470195435095775e-09,7.593928152971329837e-09,1.466988086562537319e-09,4.511294893205786138e-09,2.232693807613372883e-09,2.301097756784997728e-09,-5.363024246918257631e-09,-2.083756056592278583e-09,-7.796038481444611534e-09,5.261321600613655391e-09,-6.275351349671609569e-09,-7.163026616296974680e-09,-1.186745901549102200e-08,7.164788762281659729e-09,5.726854102050538131e-09,1.132656191060732453e-08,7.316839578663802968e-09,4.586903745718018399e-09,7.084937969636939670e-09,-5.718384432640277737e-09,-2.289830014490235044e-08,-4.161332167740283694e-09,-2.320147407530726014e-09,-1.132085625243917093e-08,3.096889855669360259e-09,1.221508005855298507e-09,1.473468236312669433e-09,2.173384805459477320e-09,-2.287768197106743173e-08,-1.175770369954420858e-09,5.688179260943115878e-09
2.305753099562934949e-08,-7.173336591392853734e-09,-1.230315227473965933e-08,1.547883377028824725e-09,-2.303719659479952497e-09,-5.650005352464404496e-09,-2.388032660505245985e-09,-1.423774964592894321e-08,2.112796826381213577e-09,-2.323607750653877702e-09,4.548299958884172156e-09,1.456095466423334983e-09,2.832809542496761424e-09,4.541812703706682441e-09,-4.557167532226458206e-09,3.922064450989637407e-09,2.422174238958518799e-09,-2.302739110504603559e-09,3.958188443675680901e-09,-6.781477601691676682e-09,-2.304554058696339780e-08,1.755343093101657814e-09,1.454482534413159556e-09,-2.342231075758149927e-09,-1.488304368635340325e-09,1.730906640240448269e-09,-4.460050551102767713e-09,1.199019328268491336e-09,-4.388633900731520043e-09,2.295315226774619077e-08,6.037929267677100142e-09,-1.411196270950654252e-09
-2.128528242550942196e-09,1.046129671777862313e-08,7.317862760203297512e-09,-1.921448111730228447e-09,-2.307101842902170574e-09,-5.639800182422050057e-09,2.171956614560599519e-09,-4.426598199103182196e-09,-2.323927494884969747e-09,2.279700694884922996e-08,-4.551362398075298188e-09,1.524691262133615055e-09,1.202379973364031684e-08,1.441721186878908156e-09,7.110965150047832140e-09,-3.454014851911324513e-09,2.299301193886549299e-08,2.353616146422154998e-08,5.622306620267636390e-09,-7.550721825566597545e-09,-7.145838587518937857e-09,4.447232360149655506e-09,-1.402328697608368202e-09,7.019266945462732110e-09,1.171122843146576997e-08,-2.296170720228474238e-08,-4.593220470638925690e-09,-2.260987619351340072e-09,-1.042199837542057139e-08,-2.271937082909403216e-09,2.308828461750067618e-09,-1.840895325067037902e-09
2.270814425386902258e-09,1.173496633199988537e-09,2.143861754788645158e-09,4.388100993679699968e-09,2.356367367895018106e-08,-4.604660208684663303e-09,-2.123443421098158979e-09,2.275873489665514171e-09,-1.045922903841756124e-08,-1.228414481246886680e-09,1.187911902178484524e-08,-1.199985666389125072e-09,5.288809834524954567e-09,5.368732569621670336e-09,7.143074576276831067e-09,-1.184867581827120375e-08,-2.124662890068407251e-09,2.295981849087525006e-09,4.564962186037746505e-09,4.582498380756305778e-09,7.083630571003141085e-09,1.868789345493837573e-09,6.224881499150569653e-09,-2.295766421411826741e-08,2.170990276439965783e-09,2.306391300166410474e-09,2.603934845524236152e-08,1.423502116182362442e-08,-2.309359992125337158e-08,1.535100713212500523e-09,1.551521355835916438e-09,-2.286726363820434926e-08
-4.492620941931591005e-09,6.954543607662344584e-09,-7.778248267698018026e-09,-4.479657977896067678e-09,-7.588723427431887103e-09,1.021579443261089182e-08,-4.550273491332745834e-09,2.282793154506634892e-08,-1.076327560411982631e-08,-4.355440452741277113e-09,-6.072017555425190949e-09,-2.086627093333959237e-09,-7.789911826705520070e-09,-1.264938642719926065e-08,2.231546281095120321e-09,1.878202038341214575e-09,7.738361063047705102e-09,9.642378451246713666e-09,-3.468636045056427974e-09,-4.493692085105749356e-09,-7.016547787230820177e-09,-2.118512476556588808e-09,1.653016745706281654e-08,2.264346399272199051e-08,-7.027392889824568556e-09,1.170990504562041679e-08,-1.266699367619139593e-08,-1.325139220575977106e-09,1.805641525187695606e-09,-4.437131995160825682e-09,-2.827269973693091742e-09,-6.949941067091458535e-09
-4.411250476010764032e-09,-2.305696789051125961e-08,2.523727893333216343e-09,-4.493399874405668015e-09,-5.658367552285881175e-09,1.045996977921959115e-08,-1.258649451330029478e-08,-1.186452269763549339e-08,2.632123319301626907e-08,4.734702629960452214e-10,4.541242493161234961e-09,9.488725360995431402e-09,-1.540549687817360791e-09,-4.172734602292393902e-09,-1.258496507006157117e-08,2.307166013792993908e-09,-1.041942621071711983e-08,-2.296965284642737970e-08,-7.174878469129453151e-09,1.404074523314591261e-09,2.265524656763773237e-09,1.133578120260381183e-08,1.043668440559031296e-08,2.260016174204793060e-09,2.274834320914465025e-09,-7.212853425642151706e-09,-2.356677875070545269e-08,-7.262045187417243142e-09,2.295700163301717112e-08,-4.445594559143728475e-09,5.626847876527563130e-09,-7.026757842254482966e-09
-2.827707845654003904e-09,-7.594830542245745164e-09,-7.015685810074501205e-09,-2.283477051889803988e-08,-1.225280987782184638e-09,-7.316953265501524584e-09,-7.316839578663802968e-09,-2.428350631689113470e-09,1.182983933034620350e-08,2.323927494884969747e-09,2.310286539852768328e-08,-2.315905467398238216e-09,-5.192875018877884941e-09,4.220771232521514094e-10,2.285340983121386671e-08,2.937088794396913727e-09,-1.085693490665562422e-08,2.282239952577924669e-09,2.100695395412799371e-09,-2.302100909901128034e-08,1.029783192052491358e-08,1.163527718617274331e-09,-2.261621823151926947e-08,-2.098678342221660387e-09,4.529207675574298264e-09,1.132644822376960292e-08,-1.303449570499992660e-09,6.929578244552203614e-09,5.625418797450265629e-09,-2.001238730287013823e-09,-1.502977076128786393e-09,-2.604895499302983808e-08
7.316839578663802968e-09,-5.688328474917625499e-09,-9.484465657294549601e-09,7.716877803431998473e-09,-5.299154448579201926e-09,-1.266001881106149085e-08,4.586392154948271127e-09,1.910171798513715657e-09,6.077293335238209693e-09,-1.467286514511556561e-09,-1.175209041193170378e-09,-2.342884775075049220e-09,-5.627877275315995576e-09,-2.320253988941090029e-09,-9.692665337013295357e-09,2.266618714941159851e-08,5.662988744603580926e-09,4.470346315343931565e-09,-1.186535758535001150e-08,2.064393767042815853e-09,7.171922611348691134e-09,-1.185189457686419701e-08,-1.562236340291178749e-09,-1.455505715952654100e-09,3.435533635354204307e-09,-4.429525635174513809e-09,1.026939333570453527e-08,2.335267756947700946e-09,4.626480976099855980e-09,-2.252859010454244526e-09,-3.999215181238469086e-09,4.594414182435002658e-09
-2.269965193590905983e-08,-1.480744193926852859e-09,-1.397028048799597855e-09,4.638403883205910461e-09,-3.984421681479943800e-09,-1.266370652786008577e-08,-2.304508583961251134e-08,-7.249933098307792534e-09,-2.287965550351600541e-08,1.133907456818405990e-08,7.098353016488090361e-09,1.461829546300918992e-09,7.406428359502115200e-09,-7.143657221320154349e-09,-2.267851462178782640e-09,-7.156375936290260142e-09,-1.183660369719063965e-08,2.322875891636044798e-09,-2.306452273614922888e-08,-2.306332902435315191e-08,1.229611079622827674e-08,-1.031202589985014129e-08,-1.172033758933821446e-08,2.302867008197040377e-09,2.223776496279583625e-09,2.311130620213930342e-09,2.283357680710196291e-08,-2.260421005928492377e-08,-2.293554679511089489e-08,1.253894543751243873e-09,4.555895660729447627e-09,7.026919490726868389e-09
-1.265265003880244876e-09,9.556294422452538129e-09,-7.807320123731642525e-09,1.535150451204003730e-09,6.036396271724697726e-09,-2.333640614082810316e-09,-7.216372388541003602e-09,4.374650419691761272e-09,-4.514257856413905756e-09,-1.421641249166327725e-09,-1.265010673989763745e-08,2.472467543201961604e-11,7.591192563438653451e-09,-3.460551845080317435e-09,1.426065043830249124e-08,-3.918064095387308043e-09,-5.738627795182082991e-09,1.133267968356221900e-08,4.533705411091659698e-09,7.026258685982611496e-09,1.529132154232115681e-09,-7.777614108306352136e-09,-4.591572011491962257e-09,-2.311038249658281529e-09,3.951232230292589520e-09,1.266041671499351651e-08,1.393844817343392606e-09,4.425887656367422096e-09,-4.470865011541036438e-09,-1.034086150042412555e-08,-2.278587762916117754e-09,4.474772996587716989e-09
2.259743148158577242e-08,-1.033918461956773172e-08,7.083005293395672197e-09,7.262175749644939060e-09,-2.290489398149020417e-08,-7.720601047367381398e-09,-7.019473002856102539e-09,-4.381237150852257400e-09,-2.270970744788769480e-09,1.230467949753233370e-09,-2.304671786745871032e-09,-1.122998849467649052e-08,1.133137228492842041e-08,-1.435454199949504073e-09,7.082209485531620885e-09,-1.424199158606143101e-08,-1.455733089628097332e-09,-5.263211644290777258e-09,2.317370650928296527e-08,2.402394505551797010e-09,-2.426496115148779609e-09,2.090698947299074462e-09,-1.045772446417458923e-08,4.455574131867479082e-09,2.332020576645277288e-09,2.603740867357373645e-08,2.079713068425803613e-09,-4.434208111803172869e-09,6.080540515540633351e-09,-1.188395071238801393e-08,2.300324375426043844e-08,-7.010498848103452474e-09
-1.575146901799939769e-09,2.300927226528415304e-09,2.836035406517112278e-09,4.561679478598534843e-09,-6.070862923479580786e-09,1.461623488907548563e-09,2.304303947653352225e-08,2.203462079464202361e-09,-7.756881359455292113e-09,1.574237407098166841e-09,-7.588115913392812217e-09,7.017824543709139107e-09,-1.396985416235452249e-09,3.919002011798511376e-09,-2.286127909201240982e-08,5.731970009748010852e-09,1.242007163781977397e-09,-2.120146502804232114e-09,-1.872711541395233326e-09,-2.087607198220098326e-09,-2.286320111011264089e-08,1.460792153906709245e-09,1.132079940902031012e-08,-4.738173853269245228e-09,-2.203462079464202361e-09,1.504369739890876190e-09,4.641970807739426164e-09,4.517092921929588556e-09,1.391741610845542709e-09,-1.936533378099625224e-09,-1.028059148922011445e-08,-2.290028966456247872e-08
-1.515745529090395394e-09,7.145405156450124196e-09,4.542217713066065699e-09,-2.286993527889080724e-08,-2.329419990232395321e-09,2.274104238253471522e-09,5.749598575022218938e-09,-1.905020363679454931e-09,6.036282584886976110e-09,1.172663299797704894e-08,-9.633443376344530407e-09,7.098466703325811977e-09,-1.183961639839026248e-08,-5.207483777525112600e-09,1.188658238504558540e-08,-7.170281257629085303e-09,-2.286581368693418881e-09,6.061929624934236926e-09,2.319147007767696778e-08,-2.279284094797162652e-09,-1.042171415832626735e-08,1.524918635809058287e-09,-3.929567782279264065e-09,-2.642212315606684570e-08,7.120465106424944679e-09,-7.599235907207457785e-09,-7.160028125952067057e-09,-1.506160307584991642e-09,4.168323908260163080e-09,-1.187018749959634079e-08,4.502981543197392966e-09,-2.290262024473577185e-08
4.373811979263564353e-09,4.594129965340698618e-09,1.878005084776646072e-09,1.324161447158189731e-09,2.294162859683979150e-09,-1.999185261780667133e-09,1.044249753334725028e-08,1.425466766846739120e-08,-2.146306021799659902e-09,-1.553731143744130350e-09,-1.484446121580162981e-09,2.383955077789323695e-08,7.602063867295782984e-09,5.695000471206412840e-09,-2.306642699068106594e-08,-7.316953265501524584e-09,1.494166346205361151e-09,-6.076476211092085578e-09,4.586107937853967087e-09,-2.259261000503443029e-09,-2.286332678735902846e-09,-1.511247793573033960e-09,1.035524288539590998e-08,-7.775738275483945472e-09,-5.287559279310016791e-09,-5.762478938464710154e-09,5.613538522908356754e-09,-2.355863593095364195e-08,-2.315017288978538090e-09,-2.092233719608316278e-09,2.542839050434508863e-09,-6.032978561165691644e-09
-2.308956403851425421e-08,-3.080248944797858712e-09,2.251082653614844276e-09,2.300114054776258854e-08,5.633334243526633145e-09,-2.428826695322072737e-09,-1.482996614399212376e-09,4.555014587737105103e-09,2.343310967489742325e-08,2.282104105688631535e-08,-2.273973365163328708e-08,2.205735816218634682e-09,7.214517872000669740e-09,-7.597857454300083191e-09,5.302621897129711215e-09,1.515823688791329005e-09,3.933454451043871813e-09,-2.299858259391385218e-08,-1.229039758854355568e-09,7.016542014071092126e-09,-1.183597841958317076e-08,-2.505487151083229946e-09,-1.044362019086975124e-08,-1.528783988291593232e-09,2.304140522824127402e-08,-2.238939478260704163e-09,1.868732502074976765e-09,-3.911171830850435072e-09,4.422505472945204019e-09,-9.620596763681987795e-09,9.615274798591144645e-09,1.265649451909212075e-08
-1.581527575567065469e-09,-7.586076655741180730e-09,-4.426427668846599772e-09,1.411406658213820720e-09,-2.291950274013743183e-08,-2.322314562874794319e-09,4.543986964478108348e-09,1.877329180999254277e-09,2.202836801856733473e-09,3.562171002613467863e-09,1.936576010663770830e-09,-2.289500322660842357e-08,5.629866794976123856e-09,-1.455221498858350060e-09,1.414947936595467581e-09,-1.121692871919321988e-08,-3.931585723648822750e-09,3.634788470208150102e-09,-4.592481506193735186e-09,-2.206652416347765211e-09,4.195614966562288828e-09,2.119990183402364892e-09,1.462724830147976718e-09,-9.613619234016823611e-09,2.685021760484573861e-09,-2.316068892227463039e-09,1.185473674780723741e-08,-7.097216148110874201e-09,1.571963670343734520e-09,1.185128351011144332e-08,2.317816827357432885e-09,-1.184183329172583399e-08
4.597199509959182251e-09,2.283846534112399240e-08,6.022661480642454990e-09,2.301671031545993173e-08,-2.358020090298396099e-08,5.697949223559817256e-09,-2.309247726373087062e-08,-2.542156929408179167e-09,1.226680756971632036e-09,-2.333576665236591907e-09,7.019814063369267387e-09,6.320861611897043986e-09,5.668731706265361936e-09,-1.034975039004848441e-08,-2.306814650410160539e-08,2.288144562712091101e-09,2.267112497733592136e-09,-1.320978215701984482e-09,-1.540948479927806147e-09,-2.119862285709928074e-09,4.536874431693149745e-09,1.187888454268204441e-08,6.036282584886976110e-09,-6.024416521199782437e-09,-4.180842783085836345e-09,4.638680994872856900e-09,-4.559149946459228886e-09,3.911441837090023910e-09,-2.283261046898132918e-08,-4.430723496429145314e-11,1.187280940229129556e-08,-2.306655488837350276e-08
-1.316819764340948495e-09,1.531000881627164745e-09,3.443711982242803060e-09,-4.191756719507111484e-09,1.042722796995576573e-08,7.228330822783846088e-09,-2.193955017659732221e-09,2.339829441311280789e-09,-3.918689372994776932e-09,1.422110207371929391e-09,2.283242572787003155e-08,7.111135680304414564e-09,9.507586717916183261e-09,1.246347292038763044e-08,2.353690042866674048e-08,-2.297118717464741167e-09,-2.283732847274677624e-08,-6.929500084851270003e-09,1.218459777518887677e-09,2.102401586157043312e-09,-2.115414288184069846e-09,1.314510500449728170e-09,-1.999469478874971173e-09,-1.191479626072577958e-08,-2.285932154677539074e-08,1.187934639546028848e-08,7.109316690900868707e-09,-4.591458324654240641e-09,2.305780100186893833e-08,-1.183062803278289721e-08,5.230036403958138180e-09,1.183229780821193344e-08
1.505024216363892720e-09,4.572803025126859211e-09,-1.346674980595707893e-04,-1.719959064061526988e-09,-4.528426966743381854e-09,5.718558515610538961e-09,-5.275366810053583322e-09,6.053378243109364121e-09,-1.708446362158611009e-08,2.342439309188648622e-08,-2.307549706870304362e-09,3.907552059700947211e-09,5.675990344400361209e-09,-1.267044691388719002e-08,2.272528831781528424e-09,2.270382326585718147e-09,-6.058535451103352898e-09,-1.043077890727772683e-08,-5.675407255267828077e-09,-5.664762880996931926e-09,-2.322496328588385950e-08,-4.379112628072334701e-09,-1.235335075762122869e-04,2.666468157386248095e-09,-2.282473232639858907e-08,-2.239817886717787587e-09,2.458147907447028047e-09,-1.585740760923215475e-09,-7.744706209678042796e-09,-1.420013773234529708e-09,-4.604248537987132295e-09,-7.739132890094424511e-09
-4.554865373762595482e-09,1.245439085195698681e-09,2.324893833005603483e-09,-1.426211415633815704e-08,-1.532052484876089693e-09,1.035524999082326758e-08,1.133953642096230396e-08,-2.262217257964493911e-08,-7.404438839841986919e-09,-1.183427311701734652e-08,5.701224825571671317e-09,9.588721816555789701e-09,1.027428186972656476e-08,-5.291936222562299008e-09,-6.230802540585500537e-09,-2.316765224108507937e-09,4.504288941831191551e-09,4.438421630226230263e-09,-1.158866558270688074e-09,-7.104712373973143258e-09,-2.334663795622304860e-09,-5.699853478091654324e-09,2.283142341852339996e-09,-7.208634578148576111e-09,4.306378517671127781e-11,-7.126433665405329521e-09,1.422557094343801509e-08,-1.130894267120652330e-09,-2.838103085878174170e-09,-7.019615111403254559e-09,2.315628355731291776e-09,-2.837932555621591746e-09
-7.093116316525538423e-09,1.993301346203679714e-08,2.341115523663006570e-09,-1.536948124325476783e-09,1.998112342249669382e-09,1.390860537853200185e-09,1.309195640786242620e-09,-2.276441923854122251e-09,2.429167755835237585e-09,-2.312061431197776074e-09,-2.091671502668646099e-09,7.602146467888815096e-09,-1.231420077019151904e-09,-5.692698312742550115e-09,-4.592140445680570338e-09,2.267148602186352946e-08,6.186327450308226616e-09,1.187189280216216503e-08,2.298113477294805307e-09,1.463350107755445606e-09,-7.106133459444663458e-09,-4.597824787566651139e-09,1.172033758933821446e-08,-2.285408973179414716e-09,-1.017242556855535440e-08,-4.461961911061962383e-09,-1.259927051577847124e-09,1.185579545648351996e-08,-2.432677149999395994e-11,7.601310691995877278e-09,1.175997743629864090e-09,7.104364208032620809e-09
6.024494680900716048e-09,1.201565691388850610e-08,2.073446747630214304e-09,1.523987824825212556e-09,4.579226928203006253e-11,-7.317010108920385392e-09,5.742834208177782784e-09,7.083111874806036212e-09,-1.122686921206650368e-08,5.213452336505497442e-09,1.482449496492677099e-09,-1.503772883992837706e-09,1.509315117331766487e-09,4.429497213465083405e-09,1.904061130986178796e-09,1.265288496199445945e-08,-1.203680488615077593e-09,-1.517813208451457285e-09,2.306780544358844054e-08,-3.997673303501869668e-09,2.301716506281081820e-08,-1.426578055685467916e-08,-4.373527762169260313e-09,-2.262384946050133294e-08,2.319152647700661873e-09,2.196072435012297319e-09,1.502373114803390308e-09,1.172033758933821446e-08,-1.122453152646585295e-08,-2.169178392463777527e-09,-7.103973409527952754e-09,7.602582563492887857e-09
1.185418962990070213e-08,-2.311034030810787954e-08,6.052038870052456332e-09,-7.098694077001255209e-09,-1.184100195672499467e-08,-1.728810539169955973e-09,4.421425447986848667e-09,5.676561887213438240e-09,2.305775836930479272e-08,-4.180103818640645841e-09,1.409022010179228346e-09,1.301921903618108445e-09,-2.112145791599573386e-09,-6.059869051000532636e-09,-1.869023824596638406e-09,7.600124085627157910e-09,1.085686385238204821e-08,-4.634645112133739531e-09,-4.602599634750959012e-09,-2.893108842771940914e-11,1.232592472533156069e-09,1.484758760383897425e-09,7.542841906627018034e-09,5.767104571674508406e-09,-3.974999884803764871e-09,4.518059260050222292e-09,-5.222263066428922684e-09,-7.136494950543692539e-09,5.640858891098332606e-09,-2.115442709893500250e-09,1.205670008275205873e-09,4.426257138590017348e-09
-3.921162061715222080e-09,-1.423524853549906766e-08,-1.424360451807160644e-08,4.494312921821119744e-09,1.494528723000598802e-09,-7.316953265501524584e-09,2.247132036004018119e-09,-4.616632853782220991e-09,5.715940165629262992e-09,1.308620101170276939e-09,6.026377619150480314e-09,-3.433039630351686355e-09,-2.085959627251554593e-09,1.183717213137924773e-08,1.431688323449975542e-09,-7.097614052042899857e-09,4.524688623774864027e-09,-1.171349506279284469e-08,1.514310232764159991e-09,1.528840831710454040e-09,2.443094393456135549e-09,2.384188135806653008e-08,3.462029773970698443e-09,1.046138198290691435e-08,2.317269709450897608e-09,7.115590783257630392e-09,-6.044093225909819012e-09,-4.172473477837002065e-09,2.287803502198926253e-09,7.214233654906365700e-09,-6.057424783989517891e-09,-7.160603665568032739e-09
-5.642358136270786417e-09,1.865154919400424660e-09,7.317692229946715088e-09,4.471660819405087750e-09,-7.201927054723000765e-09,2.075301264170548166e-09,1.426166651441462818e-08,-4.598109004660955179e-09,-1.132958171723430496e-08,5.996089180726471568e-10,-6.318431555740744443e-09,-1.186809850395320609e-08,2.331508985875530016e-09,-9.488728913709110202e-09,-1.354567213951440863e-08,1.998901044686363093e-09,1.303257723961337433e-09,-1.183404574334190329e-08,-1.462817200703625531e-09,1.184690656685916110e-08,2.319223701974237883e-09,-1.381722958271325297e-09,-4.168153378003580656e-09,1.184196118941827081e-08,-4.514485230089348988e-09,-4.601157232997366009e-09,4.573204481772563668e-09,1.133788085638798293e-08,4.557451749320762246e-09,-5.214418674626131178e-09,4.392307406675399761e-09,4.165879641249148335e-09
-6.085542736400384456e-09,-6.061858570660660916e-09,2.270075460941711754e-09,-7.101074395166051545e-09,-4.564471911550072036e-09,1.044272490702269351e-08,-3.936055037456753780e-09,-2.303121604541047418e-08,1.202493660201753300e-08,-2.306310165067770868e-08,4.554723265215443462e-09,-2.320275305223162832e-09,-2.305463553398112708e-08,-5.254464863213570425e-09,-2.300881440930879762e-08,-1.577967756460907367e-09,-3.082394783859854215e-09,9.548499768641249830e-09,-2.978222113370065927e-09,-9.620184648895246937e-09,1.187127462998205374e-08,1.041837460746819488e-08,-5.617482035091825310e-09,7.216656605635307642e-09,2.302312784863147499e-09,1.506082147884058031e-09,-2.353753991712892457e-08,-1.422906015235980703e-09,1.026950702254225689e-08,-6.072248481814312981e-09,1.181321973575677475e-08,2.700312640158131217e-09
7.243159849679159379e-09,6.083077153107296908e-09,-2.303570445505442876e-09,5.675027114904196424e-09,-1.201598376354695574e-08,4.637657813333362355e-09,9.643705389805745654e-09,1.265407867379053641e-08,-1.224655710174715750e-09,-2.700767387509017681e-09,-1.474036670501277513e-09,-2.069381777047851756e-09,2.002205068407647559e-09,4.189085078820653507e-09,-2.093007323011875087e-09,2.922039499253514805e-09,1.501953894589291849e-09,2.283745637043921306e-08,7.150066316796710453e-09,-1.509741442973222547e-09,2.332736492860476574e-08,4.564329803002920016e-09,-7.601594909090181318e-09,1.187275255887243475e-08,2.279839961261131975e-08,-2.099181939385630358e-09,-4.606806047746658805e-09,5.207540620943973408e-09,4.500089634262849358e-09,2.316034120042331779e-08,-4.499293826398798046e-09,-3.938882997545078979e-09
1.266067251037839014e-08,1.775802505044055124e-09,-1.183400311077775768e-08,-4.546267806659898270e-09,-1.185445253071293337e-08,-2.606409665872888581e-08,-4.465514624740762883e-09,7.166849336215364019e-09,-7.749892283470671828e-09,4.441263801169270664e-09,-7.022379122645361349e-09,-2.272448673679150488e-09,1.544756988991480284e-09,4.480698923003956224e-09,1.439006913628304574e-09,-5.228785848743200404e-09,-7.154443260048992670e-09,7.316839578663802968e-09,6.464917046145046697e-09,-2.275944543939090181e-09,1.029755303250112775e-08,-7.251560241172683163e-09,3.922234981246219832e-09,-2.605818494316736178e-08,1.535498617144526179e-09,-3.566555051293107681e-09,-2.306332902435315191e-08,-5.738912012276387031e-09,-1.558164930415273375e-09,-1.185666942404850488e-08,5.646033418571505536e-09,-5.671026759301867060e-09
3.080753430140248383e-09,-4.574227663312058212e-09,2.287805322964686638e-08,-4.529754793480833541e-09,1.584078757055351616e-09,1.185371356626774286e-08,4.372234574390176931e-09,2.302137858123387559e-08,-6.292494969528661386e-09,7.804438872938135319e-09,7.379285626996079372e-09,-2.313127245301416224e-09,-9.453546390147948841e-09,3.656104752280953107e-09,-3.432485407017793477e-09,4.544526976957286024e-09,4.521356178344149157e-09,-1.044311215281368277e-08,1.452180375949296831e-09,1.424609141764676679e-08,-1.177898756310469253e-08,-2.176205660120444918e-09,-2.377773533623894764e-09,2.287743150475307630e-08,-7.106531363376689114e-09,9.553047242150114471e-09,-1.122104986706062846e-08,2.296230539045041041e-09,-1.175151798094020705e-08,-2.319820557872276368e-09,-1.535150451204003730e-09,1.718308717535421692e-09
2.258600195759186136e-09,-6.050013823255540046e-09,-2.109308461228920351e-08,2.195276627148246007e-09,4.637373596239058315e-09,1.465197518868421867e-09,2.603868765049810463e-08,-9.593702721133468003e-09,-2.767561069205726199e-09,9.549181889667579526e-09,1.044128605798277931e-08,1.939154836705370144e-09,-1.166050145329222687e-09,2.289118006260082439e-09,-2.092609419079849431e-09,-6.059538648628404189e-09,1.501790469760067026e-09,-1.028714002870856348e-08,5.609801068118258627e-09,1.325006993013744250e-09,-4.527878960658426877e-09,-4.618700533143282883e-09,-6.202366620300381328e-09,-1.541495597834341424e-09,3.977202567284621182e-09,2.125018161436287301e-09,-9.458065441947383079e-09,-2.089710404717948222e-09,2.308849778032140421e-09,1.507439284509359823e-09,-2.095352114039883418e-09,4.447232360149655506e-09
1.033411134443440460e-08,-6.062276458607129825e-09,4.912760108709335327e-02,3.860693098545198154e-09,-1.440261687690735926e-09,1.836774288221931783e-09,-1.419008111014363749e-08,-1.295849760829526076e-09,3.184368833899497986e-03,-1.788497756933793426e-04,1.165218588283778445e-09,-4.390757979422232893e-09,-3.927496550204523373e-09,1.037812946691474281e-08,-1.547363903675602614e-09,-2.053579528649152053e-09,2.134372678597173945e-09,4.367890937828633469e-09,-6.860286116960878644e-09,9.476591955603907991e-09,4.559221888911224596e-09,-5.755926402173372480e-09,4.073038324713706970e-02,-2.363641016245310311e-08,-1.217528211583385200e-08,-2.269787380271282018e-08,5.661103585907767410e-09,9.452928217967837554e-09,-1.211465416872670176e-08,-9.410633161621717591e-09,-2.294178003126035037e-08,2.310794222637468920e-08
-7.588528028179553075e-09,4.174050882710389487e-09,8.111071710115158595e-12,1.533153826116517848e-09,-2.196299808687740551e-09,1.912367375567214367e-09,2.358177120242999081e-08,-4.536824693701646538e-09,7.209865593438280484e-09,4.501004902124350338e-09,2.281743149978865404e-08,3.998042785724464920e-09,5.223897314721170915e-09,-2.303758250832288468e-08,1.184971321066541350e-08,2.357526973639778589e-08,6.914422923109952990e-10,-9.461618155626183579e-09,-2.278090383001085684e-09,1.122929216279544562e-08,-2.301055124220852122e-09,2.432422041565018844e-09,-4.579831625051156152e-09,-2.118175634890917536e-09,2.286308742327491927e-08,-5.292135174528311836e-09,1.253589010374867030e-09,1.855823827945357607e-09,-5.732566865646049337e-09,2.282919986384968070e-08,3.935422654421927291e-09,1.424248186054910548e-08
-7.027317394658894045e-09,-7.010960700881696539e-09,4.491215843671625407e-09,-4.577095299995725952e-11,1.521422765549118594e-09,4.582398904773299364e-09,4.366322858828652898e-09,4.285062235598324776e-11,-3.451532837317472513e-09,-1.919099101854726541e-09,-4.415407151014960618e-09,-2.296195011908253036e-09,-7.126604195661911945e-09,2.207675597887259755e-09,2.303360346900262812e-08,2.235031493214023612e-09,1.407075123083245671e-09,-1.471052391011085092e-09,7.015145797595323529e-09,-4.545216203410973321e-09,-2.330656334592617895e-09,-2.158371037452866403e-09,1.024818896411261449e-08,2.359082351688357448e-08,-4.481871318517960390e-09,-7.745479813081601606e-09,-1.122774317963148860e-08,-4.452518798103710651e-09,1.257954895805823980e-08,2.332935444826489402e-08,2.079343586203208361e-09,2.264369802773558149e-09
-2.302695278899591358e-08,-1.123621995446910660e-08,-1.413532046967702627e-08,-6.320804768478183178e-09,-1.265352445045664354e-08,-4.617030757714246647e-09,2.252802167035383718e-09,-6.469965896371832059e-09,-3.855554098208813230e-09,-9.540244150230137166e-09,2.272983579132414889e-08,7.536248070039164304e-09,6.059151402837414935e-09,2.338912841182150260e-09,4.486170102069308996e-09,4.408557519042233253e-09,-5.298422589561369023e-09,-1.319189424364708429e-09,-2.334777482460026476e-09,-1.527142634571987401e-09,-1.266271887345737923e-08,1.578884356590037896e-09,1.929340243123078835e-09,5.208776965304195983e-09,2.304468793568048568e-08,2.320843739411770912e-09,1.571324181881550430e-09,-1.205044730667736985e-09,2.845208513235775172e-09,2.834330103951288038e-09,3.947565829776067403e-09,-2.844448232508511865e-09
-5.718946649579947916e-09,1.555606976566537014e-09,2.497886564256646125e-09,-1.026031259954152119e-08,-1.579623321035228400e-09,-1.426593732034575623e-09,4.481786053389669178e-09,7.597587448060494353e-09,-9.533776434977880854e-09,7.533179413599100371e-09,-2.339367588533036724e-09,-4.477799908642055016e-09,-4.597540570472347099e-09,-9.615729545942031109e-09,1.506870850320751742e-09,-1.029385465756149642e-08,2.132464649307053151e-09,4.627845218152515372e-09,-4.378743145849739449e-09,7.249975730871938140e-09,2.354485850730725360e-08,3.926746927618296468e-09,3.787678171107700109e-09,2.308104463111249061e-08,1.022841633613325030e-08,-1.410163208426240544e-09,1.180939701583838541e-08,1.227583146246047363e-09,-5.657586843454964765e-09,1.555130912933577747e-09,-2.325490688903641967e-09,2.102046314789163262e-09
-5.695654170523312132e-09,6.031386945437589020e-09,-4.414112186879037836e-09,-1.323109843909264782e-09,2.384739516969602846e-08,4.584388424433427645e-09,7.160568138431244734e-09,-1.424597773080904517e-08,-1.115619685521096471e-08,1.734993926305605783e-09,-1.318070319555886272e-09,-2.302895651951075706e-08,4.367331829513432240e-09,-4.445413370746109649e-09,-4.597448199916698286e-09,1.467506782759642192e-09,-1.034059149418453671e-08,-4.438478473645091071e-09,-3.955225480467561283e-09,-2.315393876628490943e-09,9.441204262827795901e-09,2.176873570292059412e-09,-2.312919278324443439e-08,4.390282359878483476e-09,-2.264527232398449996e-08,-6.061979362925740134e-09,7.022151748969918117e-09,2.195049253472802775e-09,-1.165510132850045011e-09,-7.176697458532999008e-09,6.084803771955193952e-09,4.511806483975533411e-09
6.928463136546270107e-09,-3.836938766710318305e-09,6.423903629183769226e-03,-4.239846251863355064e-09,4.088092087073391667e-09,3.600420850347063606e-09,2.597742287946402939e-08,-3.931317937855283162e-09,2.328528353245928884e-04,1.481818762840703130e-04,-1.001319738236361445e-08,1.116561981762131950e-10,-5.613889908495650616e-10,-1.825246065401131546e-09,-4.639261863559340782e-09,1.050855313877718800e-08,5.345541786994090216e-10,4.232344696930567807e-09,-1.647045277941572294e-09,-7.553904168844383094e-09,-7.764414000632768875e-09,1.033206498135541551e-08,4.262345377355813980e-03,-5.559849025615903884e-09,-4.316472068666143969e-09,7.401259161099460471e-09,9.541475942675958777e-11,-2.395553444500819751e-08,1.675403926704177593e-09,-1.922427550482552761e-09,-3.621472011161586124e-09,-7.815653013665269100e-09
7.004786084507941268e-09,-1.844605246326125325e-09,-4.984481711289845407e-05,-4.442139989180304838e-09,7.179440597582242845e-09,-1.170554675411494827e-08,1.441527119894203679e-09,-3.925561653517206651e-09,-9.190817945636808872e-05,2.305494854226708412e-04,3.821197580577972985e-09,-4.531983233135861155e-09,-1.257375625840495559e-08,-6.164649679618605660e-09,-2.183290659374392817e-09,-1.010787009647629020e-08,1.237499436257394336e-08,7.859651596220373904e-09,1.886218070623613130e-09,7.200455787170767508e-09,-2.407890997702111235e-09,-2.175406521587319730e-09,4.143819751334376633e-05,7.371923960164394884e-09,5.781903844592761743e-09,-5.269091385429192087e-09,-4.410692255873982504e-09,5.469650066203257666e-09,-4.446492951615255151e-09,-1.506269775575219683e-09,-2.301974788565530616e-08,1.466195054256047570e-09
-1.532400650816612142e-09,-7.145348313031263388e-09,1.262560189729811100e-08,-1.201606902867524695e-08,-2.002089383168481618e-09,2.310377489322945621e-08,7.803398816008666472e-09,-7.099148824352141673e-09,2.065150495056400359e-09,-4.373152506786937010e-09,-3.850136209848642466e-09,2.846864077810096205e-09,-1.256408754812810002e-08,1.111800251862860023e-08,1.201832855457496407e-08,4.511067519530342906e-09,4.588381674608399408e-09,2.602407001006667997e-08,4.519352447829305675e-09,-2.262285470067126880e-08,-1.185863762742656036e-08,5.610845565939825974e-09,5.125745605738529775e-09,1.547769690191103109e-09,2.242648511341371886e-09,2.279674893301830707e-09,1.863620147091182844e-09,-1.999640009131553597e-09,-1.183916875646673361e-08,-1.034661689658378236e-08,-1.046180120312101280e-08,1.183883480138092636e-08
-1.269948324278402652e-08,1.333455346141931841e-09,-4.517727969499674145e-09,-1.920765990703898751e-09,-1.201570176689870095e-09,5.225233135064399903e-09,-5.657522894608746356e-09,2.234754381547077173e-09,9.567801662058172951e-09,1.465454757543227515e-09,2.934388732001025346e-09,2.094166395849583751e-09,7.321671269266971649e-09,-1.476878841444317914e-09,2.303518087387601554e-08,-1.537196814282992818e-09,4.193227542970134891e-09,-1.508831948271449619e-09,-1.202131283406515649e-08,-4.592083602261709530e-09,-2.272520305268699303e-08,-6.069122093776968541e-09,-9.447101767534604733e-09,-5.701104033306592100e-09,1.265662907812270532e-09,1.425978259084192956e-12,-9.505888520777716622e-09,-9.455251692713773082e-09,4.405274811603021590e-09,2.299869628075157379e-08,-1.424830831098233830e-08,1.578656982914594664e-09
-1.187837295191229714e-08,-6.319007095356710124e-09,-3.573024542902203393e-09,2.842117652335218736e-09,-1.565781948542621649e-09,1.512640457335123756e-09,-1.186684972509510771e-08,2.295636392091182643e-08,1.925273274139271962e-09,-2.296112988631193730e-08,9.457298055792762170e-09,2.293807588316099100e-09,-5.645749201477201495e-09,-2.927702524857522803e-09,1.452308273641733649e-09,2.304335922076461429e-08,-5.703562511172322047e-09,7.751971509151189821e-09,-2.077389593679868085e-09,-2.105605245716901663e-09,-5.210951226075621889e-09,-2.251580033529876346e-09,-1.130889693001790874e-08,-1.542413086141891654e-09,-1.507410862799929419e-09,1.198813270875120907e-09,2.269258336795587638e-09,-1.490244150303965398e-09,-7.161982118475407333e-09,-2.305212731812389393e-08,4.462786140635444099e-09,-7.812151814334811206e-09
-1.497953538986962485e-09,-2.080838612528168596e-08,-6.886551329188250747e-09,1.963940343685521839e-09,7.587945383136229793e-09,-1.085704859349334583e-08,-2.342430027724162755e-09,1.577257213725147267e-09,-1.957226913873455487e-08,4.545630538643763430e-09,-1.502543645059972732e-09,-3.924736091676095384e-09,-4.397224362406859655e-09,-2.302200385884134448e-08,2.085823735953340474e-09,1.042093256131693124e-08,1.174123642755375840e-08,-4.425688704401409268e-09,-4.441381637465546817e-11,-1.085522960408979998e-08,-1.200859633954109995e-09,-3.450483454514596815e-09,2.883092098393547076e-10,-6.082956360842217691e-09,4.008992249282528064e-09,-4.454039359558237265e-09,4.401707887069505887e-09,7.594873174809890770e-09,7.157846759753283550e-09,-4.594748137520809905e-09,-1.187683817960305532e-08,-2.268139986938422226e-08
-5.689600346414636078e-09,9.442710613427607313e-09,-4.541635956201162116e-09,-4.383134299956736868e-09,-3.974985673949049669e-09,-5.623614018901434974e-09,-2.917492025744650164e-09,-2.310064850519211177e-08,7.058571949158931602e-09,-3.860139763389724976e-09,-1.506160307584991642e-09,2.431711498829258744e-09,2.286050637678727071e-08,1.186301101796516377e-08,-1.265407867379053641e-08,-2.283346312026424130e-08,-9.368913644891563308e-09,2.273919497142173896e-09,-4.378025497686621748e-09,-3.456602115647910978e-09,4.513796003635661691e-09,-5.219491949759458294e-09,-1.430687124326368576e-09,1.260587856322104017e-09,-4.447516577243959546e-09,1.256334858368290952e-08,-1.252992154476828546e-09,-4.580466228532031892e-09,4.592197289099431146e-09,-2.083940797703576209e-09,-1.415118466852050005e-09,-6.022540688377375773e-09
-7.209842500799368281e-09,4.513405205130993636e-09,-4.559188138131275991e-09,-1.247646519431100387e-08,2.336781212974869959e-09,-2.303130131053876539e-08,1.186231113337044007e-08,1.482790557005841947e-09,-4.515703366791967710e-09,-4.433327038810830345e-09,4.495257943659680677e-09,-2.088744066597314486e-09,-2.317137592910967214e-08,1.029845719813238247e-08,2.205551075107337056e-09,7.591249406857514259e-09,1.426295259676635396e-08,4.220273852606482023e-10,4.591905966577769505e-09,-2.306457957956808968e-08,1.034272312239181701e-08,-3.920849422911487636e-09,-4.437357592479429513e-09,-2.292094869460470363e-08,-1.874907118448732035e-09,-2.283454980656074440e-09,-2.285919897815347213e-08,-2.425899259250741125e-09,2.300074575245503183e-09,2.305666546575935172e-09,-7.109941968508337595e-09,2.262961906751570496e-08
2.106912644350700248e-09,5.678579828582996925e-09,7.270175017559665775e-10,-1.529373738762274115e-09,-2.291887746252996294e-08,1.186216191939593045e-08,2.833491663523091120e-09,-1.519575354436142334e-09,-5.602640129609426367e-09,7.609103347405721252e-10,-2.300460799631309783e-08,5.616039633338232306e-09,-2.328865766898502443e-09,-4.398332809074645411e-09,2.359090167658450810e-08,-2.328325754419324767e-09,4.509689066622968312e-09,4.496281125199175221e-09,-7.579497030008042202e-09,-4.457258118151230519e-09,1.033779195580564192e-08,2.332827442330653867e-08,-2.382218156071758131e-08,-4.436432110566101983e-09,2.299854306997417552e-09,-3.438830553648131172e-09,-1.737102572896276342e-09,3.446426255493406643e-09,-6.598806390201161776e-09,2.112320762748254310e-09,-5.694233085051791932e-09,-4.393913233258217588e-09
6.029333476931242330e-09,2.281131505910138912e-09,-2.202818066843192923e-10,-1.451697206888979963e-09,1.033633534319733371e-08,-2.290296130524893670e-08,1.936590221518486032e-09,-7.141518487685516448e-09,7.572750426732000051e-09,4.308902123995039801e-09,2.840810253701420152e-09,-2.301736401477683103e-08,-1.453828835096260264e-09,-3.933774195274963859e-09,-3.905508805246427073e-09,-3.637062206962582422e-09,2.209977756351122480e-09,-1.492205248254663275e-09,-4.451154556051051259e-09,4.538267095455239541e-09,4.447459733825098738e-09,-7.028056359104084549e-09,2.236341956063370162e-08,4.370174000456472641e-09,1.492361567656530497e-09,7.161790271936752106e-09,2.325824643989449214e-09,2.249803676690476095e-09,2.111368635482335776e-09,5.278521175711148317e-09,2.835808032841669046e-09,-1.171065999727716189e-08
1.122045301116258997e-08,-7.169407290064100380e-09,-1.159133322659045007e-08,2.184348479872255666e-09,2.263152332204754202e-08,-7.178912575511731120e-09,-5.250144763380149016e-09,4.532021424807908261e-09,-9.760003916170489902e-10,-3.913378066044970183e-09,4.364120176347796587e-09,1.247194258979789083e-08,2.288397737970626622e-08,6.662046025951440242e-09,-2.258901865559437283e-08,2.784395804200645586e-11,9.481794016608091624e-09,-2.839914969854362425e-09,2.274509247612854779e-09,2.257697806484770808e-09,-1.509492753015706512e-09,7.601440366045153496e-09,-1.343240807472056986e-08,1.424654616499765325e-08,-2.306495616721804254e-08,-4.599181924191952930e-09,6.582546951960921433e-09,-4.497965111482926659e-09,2.403666377048807590e-09,6.068894720101525309e-09,-9.652068477805642033e-09,-2.277055344279688143e-08
4.453598823062066003e-09,-1.573938979149147599e-09,-3.633387368751073154e-09,7.193670548133468401e-09,-1.074617547724976419e-10,1.502636015615621545e-09,-1.201412214157926428e-08,1.638621460742228919e-09,-1.415994876907689104e-09,-1.856998110838503635e-09,4.201867742636977709e-09,-7.601367535414738086e-09,-1.312757680338449973e-09,2.093689444038204783e-09,7.209174590627753787e-09,-3.136114631874242775e-11,4.558062816073515933e-09,2.109328489652284588e-09,2.268156995555159483e-09,5.762365251626988538e-09,2.323003789328481616e-09,2.156466782921029335e-09,1.636713653496713050e-09,2.427704037799571779e-09,-1.426231310830416987e-08,-1.178463326922951637e-09,-1.509187885773144444e-09,5.243629086493228897e-09,-1.255017201273744831e-09,-3.670763248919683974e-09,2.283945255143748909e-09,7.131485624256583833e-09
7.771520316168789577e-09,-4.430122491072552293e-09,-1.139248340109588753e-08,7.536532287133468344e-09,-2.327579684546776662e-09,1.188668630192069031e-08,2.195049253472802775e-09,-4.547276777344677612e-09,-5.678892356364428906e-10,4.020119348524531233e-09,7.152453740388864389e-09,-1.445877861883104742e-09,-1.033343632883543251e-08,2.318058411887591319e-09,-2.089292072682269463e-09,1.473816402253191882e-09,4.439899559116611272e-09,-1.171563956958721064e-09,-2.383204744660361030e-08,-1.422714168697325476e-09,1.424621220991184600e-08,-2.189009640218841923e-09,-1.138084915197623559e-08,-4.485814830701428946e-09,2.303169921447079105e-08,2.111065766641218033e-09,9.459344418871751259e-09,-1.480801037345713667e-09,7.249918887453077332e-09,2.345499572342646388e-09,7.015884762040514033e-09,4.513483364831927247e-09
-2.194878723216220351e-09,-4.547823895251212889e-09,2.289951872569417901e-08,-2.242115604289551811e-09,5.657558421745534361e-09,-2.300452273118480662e-08,-4.511465423462368562e-09,2.339822335883923188e-09,1.994167053709361426e-09,-4.132302944270804801e-09,1.173589847525136065e-08,1.045331909921287661e-08,5.762670785003365381e-09,6.318388923176598837e-09,-9.449965254759717936e-09,-2.259181108854591002e-08,2.072828575450103017e-09,-1.576532460134671965e-09,2.119421749213756812e-09,1.381694536561894893e-09,5.229595867461966918e-09,2.294984113859754871e-08,-4.491191862854293504e-09,1.133410076903373920e-08,-7.028532422737043817e-09,2.254791686695511999e-09,-7.318289085844753572e-09,9.651151877676511504e-09,-4.411008891480605598e-09,-2.069588500575036960e-09,-3.908770196403565933e-09,2.358270201341383654e-08
7.202588747645677358e-09,-5.456992191454901331e-09,3.950241953134536743e-02,2.307372737320179112e-09,-1.401511906529151474e-09,9.522719501831033995e-09,-5.223725452196958940e-09,6.238338734476656100e-09,3.288442967459559441e-03,-1.909284183057025075e-04,6.444298428220918140e-09,3.695778794110538001e-09,-1.216382994329023859e-08,-1.373835156748270947e-09,2.348424033016272006e-08,6.988031042709508256e-09,-6.494244697563544833e-09,-1.461111565070893903e-09,-1.104971114607167237e-09,-1.220847067884278658e-08,-1.165992635776547104e-08,4.271604847616572442e-09,3.187971189618110657e-02,7.654630707065734896e-09,5.908477040961201965e-10,6.955201747871342377e-09,-3.437744311440837919e-09,1.189065845785819420e-09,-4.622532578935079073e-09,-7.365554832716725286e-09,-1.332365995310169637e-09,-2.999251513813305792e-09
-7.104030252946813562e-09,7.118930334115702863e-09,-1.020549067476395066e-08,2.389006104053237323e-09,2.115385866474639442e-09,-2.287021949598511128e-08,-2.282867406222521822e-08,-2.357860218182850076e-08,-3.947464133347011739e-09,1.795597226461609353e-09,-2.383238850711677514e-08,7.216883979310750874e-09,1.462213239378229446e-09,-7.155821712956367264e-09,-1.309756969547493100e-09,2.272796839619672937e-09,1.133412208531581200e-08,-2.303512403045715473e-08,2.123422104816086176e-09,-2.316459690732131094e-09,2.270082566369069355e-09,-9.624661068130535568e-09,5.347572162861524703e-09,-2.082079175735884746e-09,4.151327726020781483e-09,-2.267498189212346915e-08,3.961725170142926800e-09,2.929407827423347044e-09,-2.402813725765895470e-09,-1.184341069659922141e-08,-9.478156037800999911e-09,-7.238001309417541052e-09
-4.419329346916356371e-09,2.307957380764946720e-08,4.545558152102557870e-09,-2.002709553750037230e-09,-1.239811586728478687e-09,-1.538028149283832136e-09,9.490945807044681715e-09,-1.258341431054077475e-08,-8.939909923455502394e-10,-1.141357763856376550e-08,-2.287178224591457365e-09,-3.436102069542812387e-09,-1.268732452430754165e-09,2.241739016639598958e-09,-3.926810876464514877e-09,1.186201092906458143e-08,4.448639234766460504e-09,4.489005167584991796e-09,2.289193368198993994e-08,-1.453601461420817031e-09,2.310440017083692510e-08,2.306492064008125453e-08,4.276188736440644789e-09,-1.026729012920668538e-08,7.133496460198784916e-09,-2.303866253328124003e-08,2.287218237029264856e-08,7.143742486448445561e-09,4.591770963457975085e-09,6.075353553569584619e-09,4.525936223020998739e-11,-1.538731586592234635e-09
-1.185202247455663382e-08,-2.310417279716148187e-08,1.081386802326278485e-08,5.640610201140816571e-09,1.409419914111254002e-09,1.423066553485341501e-08,-1.026316187591191920e-08,-2.287135636436232744e-08,1.816125472231533422e-09,-1.782454406296096749e-09,2.186863801156846421e-09,4.181382795565014021e-09,7.173130533999483305e-09,2.304696167243491800e-08,2.283717881468305677e-09,2.073439642202856703e-09,-3.657241620658169268e-09,-7.584804784244170150e-09,-2.286110323268530919e-08,-2.308281388252453326e-08,2.264185061662260523e-09,-1.243009029039399138e-09,-2.039451940660796936e-09,7.011671243617456639e-09,2.076735894362968793e-09,2.201756776898378121e-09,-2.386270514520560937e-09,4.637203065982475891e-09,-4.522571206422298928e-09,1.271404093117212142e-09,-2.094145079567510948e-09,-7.148076797136582172e-09
-5.640425460029518945e-09,-6.054980516978503147e-09,-2.221083050812922011e-08,1.132028781825056285e-08,9.671304646019507345e-09,-3.924196079196917708e-09,-2.147997113510768941e-09,-7.316583783278929332e-09,7.773206966987800115e-09,-4.452031188151295282e-09,-6.081265269131108653e-09,-5.683638892861608838e-09,-1.043966246783156748e-08,5.762990529234457426e-09,9.626316632704856602e-09,2.260583009672245680e-08,7.024198112048907205e-09,1.222346446283495425e-09,3.447791385724485735e-09,1.247144387761522921e-09,-1.571849983506012904e-09,-2.294425760496210387e-09,5.519833923273154141e-09,5.668234326350329866e-09,-7.724267447883903515e-09,7.026670800769352354e-09,6.042588651666846999e-09,-2.342742666527897200e-09,-1.380110026261149869e-09,-1.725108611516645851e-09,-2.309631375041476531e-09,2.383255903737335757e-08
5.658432389310519284e-09,-7.591142825447150244e-09,-2.306233648496913702e-09,-4.403697406729634167e-09,6.052429668557124387e-09,-4.599466141286256970e-09,-4.667334227437258676e-11,-2.276264288170182226e-09,1.233172852721509116e-08,4.033280376347647689e-09,-4.541286902082219967e-09,-5.664027913354630073e-09,4.580849921609342346e-09,-4.435302347616243424e-09,-9.542367784831640165e-09,-1.509968816648665779e-09,-2.317873670776293693e-09,-4.558375454877250377e-09,-2.262771081618097924e-09,-5.730833141370794692e-09,4.505354755934831701e-09,-1.156109652455938885e-09,9.324430116919302236e-09,-1.772760271911977270e-09,-4.432850975177871078e-09,-9.475257023439098703e-09,-2.827508893687991076e-09,1.229741108943471772e-08,5.661388247091281301e-09,-1.581946795781163928e-09,-2.605573357072898943e-08,2.109593166821355226e-09
-2.265152510005918884e-08,-7.153476921928358934e-09,-1.234930113724885814e-08,-3.924707669966664980e-09,1.187334941477047323e-08,-2.287557876456958184e-08,1.024056661691474801e-08,1.523099646405512431e-09,1.116131809197895564e-08,-7.755446951307476411e-09,9.480827678487457888e-09,-7.327412454571913258e-09,2.307815272217794700e-08,-2.398363951883197842e-09,2.086016470670415401e-09,-4.640634987396197175e-09,4.831367528268515343e-10,4.634453265595084304e-09,7.740908358755405061e-09,-2.285343825292329711e-08,-3.913118717946417746e-09,-2.259971543239203129e-09,1.277668015831068260e-08,2.395877052308037491e-09,-2.343801375204179749e-09,-2.220785111362033604e-09,1.242611125107373482e-09,-1.266084304063497257e-08,7.589650685702054034e-09,-5.647063705538357681e-09,-1.313352315790439206e-09,-4.363153838227162851e-09
-1.486996970001541740e-09,-2.934331888582164538e-09,-6.775485950072379637e-09,-2.542355881374191995e-09,-2.327082304631744591e-09,1.496610613216375896e-09,7.250828382154850260e-09,-1.437713725849221191e-09,5.675427239282271330e-09,-1.170088825830362111e-08,1.021083040342318782e-08,-4.634026939953628244e-09,-3.088648260762827391e-12,1.119233683510856281e-08,1.473127175799504585e-09,-2.978165269951205119e-09,6.022668586069812591e-09,2.267145049472674145e-08,2.283096733890488395e-08,-9.614244511624292500e-09,-2.313063163228434860e-08,2.306412616448483277e-09,7.838751869826410257e-09,-1.442396202477880252e-09,-6.469912161577440202e-09,-2.288198786004613794e-08,4.481132354072769886e-09,3.654996305613167351e-09,-1.133889693250011987e-08,-1.313934960833762489e-09,1.045566389024088494e-08,-2.299431933749929158e-08
-2.285153399839146005e-08,4.492657357246798711e-09,-2.762215878249207890e-08,-2.849649405334275798e-09,3.951402760549171944e-09,4.445299683908388033e-09,5.663560731505867807e-09,-3.982545848657537135e-09,2.103171681255844305e-08,-4.247204365981360752e-09,-2.332705939522838889e-08,-1.459776077794572302e-09,1.043583974791317814e-08,-2.288647849013614177e-08,2.276036914494738994e-09,7.107888500001990906e-09,-2.256326459004753815e-09,-1.443412278590017195e-09,1.426430262796429815e-08,2.420305511563469736e-09,-1.132196469910695669e-08,-1.132611426868379567e-08,7.491403941628504981e-09,-2.107665819650605954e-09,5.650737211482237399e-09,-1.029891727455378714e-08,-1.045920061670813084e-08,3.863710393292585366e-11,7.406712576596419240e-09,2.308082436286440497e-08,-2.258398801302519132e-08,2.099488360940426901e-09
1.479891542643940738e-09,-1.916481418007265347e-09,-6.569198518491248251e-09,-1.035691976625230382e-08,1.730963483659309077e-09,2.286724232192227646e-08,1.039354824428073698e-08,1.183266018500717109e-08,7.122307632556612589e-09,2.270554944061586866e-08,-2.282403377407149492e-09,-5.279714887507225285e-09,2.316102332144964748e-08,3.901778455883686547e-09,2.291974388057838041e-09,-1.265976301567661721e-08,3.480688626211758674e-09,2.302092383388298913e-08,-4.639356010471828995e-09,-3.945874738064958365e-09,-4.185873425655017854e-09,-2.171750557167229090e-09,-1.664364646103422274e-09,9.449965254759717936e-09,5.616764386928707609e-09,2.129778797765879972e-09,4.556840682568008560e-09,2.285478828412124130e-08,-1.174875086107363131e-09,7.761978615405951132e-09,-2.196711923474481409e-09,1.226844181800856859e-09
