-2.679406404495239258e-01,-8.581582456827163696e-02,-2.994766831398010254e-01,2.882632985711097717e-02,1.589898616075515747e-01,-2.634405717253684998e-02,-1.452246904373168945e-01,1.569209545850753784e-01,-2.008853107690811157e-01,1.353874355554580688e-01,4.819472730159759521e-01,2.851431630551815033e-02,1.084712371230125427e-01,-1.364362835884094238e-01,1.275376379489898682e-01,-5.795913934707641602e-01
9.276469051837921143e-02,6.660017371177673340e-02,6.273925304412841797e-02,-9.122783085331320763e-04,8.165684342384338379e-02,1.859473437070846558e-01,2.426034063100814819e-01,7.551684975624084473e-02,2.585554718971252441e-01,-1.691654622554779053e-01,-4.237436056137084961e-01,-7.626895094290375710e-04,5.123628652654588223e-04,1.833239793777465820e-01,2.845341563224792480e-01,2.315201461315155029e-01
-1.273198872804641724e-01,7.970265746116638184e-01,6.705962121486663818e-02,5.129643250256776810e-03,-2.592692077159881592e-01,-2.475510239601135254e-01,-2.992952167987823486e-01,3.405013084411621094e-01,-4.044744372367858887e-01,1.214893311262130737e-01,-1.134685799479484558e-02,5.300315096974372864e-03,1.443734765052795410e-01,-3.663962185382843018e-01,7.250227034091949463e-02,-3.215806186199188232e-01
2.257453948259353638e-01,1.204314157366752625e-01,-2.163811624050140381e-01,-1.486047822982072830e-02,3.393280804157257080e-01,-2.278352901339530945e-02,-1.076323240995407104e-01,-2.167532145977020264e-01,3.331704735755920410e-01,1.216962188482284546e-01,-1.996991187334060669e-01,-1.425392739474773407e-02,-2.785154618322849274e-02,-4.960719943046569824e-01,2.312239259481430054e-01,6.711240410804748535e-01
2.390590608119964600e-01,-1.315114051103591919e-01,-6.456234306097030640e-02,1.063316944055259228e-03,2.103832364082336426e-01,2.497109919786453247e-01,1.690621078014373779e-01,-8.828145265579223633e-02,3.427482545375823975e-01,3.939882218837738037e-01,3.148006275296211243e-02,1.007343875244259834e-03,-1.261704564094543457e-01,2.449258565902709961e-01,4.860074818134307861e-01,4.004855453968048096e-01
2.001696527004241943e-01,-9.605982154607772827e-02,-2.026705443859100342e-02,3.356664907187223434e-03,-6.558940559625625610e-02,4.926865920424461365e-02,-3.637384250760078430e-02,2.800257205963134766e-01,2.008496969938278198e-01,-1.699709445238113403e-01,2.340828627347946167e-01,3.276894800364971161e-03,-2.722484469413757324e-01,-7.921936921775341034e-03,8.900084346532821655e-02,2.896501123905181885e-01
3.276152312755584717e-01,-1.254563406109809875e-02,-5.175346508622169495e-02,-5.527793895453214645e-03,2.192071825265884399e-01,2.138393670320510864e-01,1.138117015361785889e-01,5.808486416935920715e-02,3.310911357402801514e-01,1.163670569658279419e-01,4.707548320293426514e-01,-5.555292125791311264e-03,-1.480863094329833984e-01,9.924861788749694824e-02,2.170168608427047729e-01,5.712069869041442871e-01
-1.448755990713834763e-02,-2.359153181314468384e-01,-4.556837305426597595e-02,-1.793302223086357117e-02,-6.892687082290649414e-02,-1.405094861984252930e-01,9.400784038007259369e-03,5.729159116744995117e-01,-1.170279234647750854e-01,1.734648048877716064e-01,-2.375397272408008575e-02,-1.815499924123287201e-02,2.962599135935306549e-02,5.785979796200990677e-03,2.422572672367095947e-01,2.772569656372070312e-02
