6.292327307164669037e-03,7.941614836454391479e-03,3.768472746014595032e-02,2.275180444121360779e-02,4.162234254181385040e-03,-2.927819825708866119e-02,2.148310840129852295e-02,-6.178899668157100677e-03,-1.628664694726467133e-02,-2.051042020320892334e-01,-2.445921003818511963e-01,-1.425222610123455524e-03,1.318810343742370605e+00,3.600127696990966797e-01,-3.444380462169647217e-01,-3.236790001392364502e-01,-2.007321566343307495e-01
-2.020773105323314667e-02,-1.338250339031219482e-01,3.622248768806457520e-01,-1.247515808790922165e-02,1.102292072027921677e-02,1.265254169702529907e-01,-1.067110896110534668e-01,-2.711151167750358582e-02,-2.835785411298274994e-02,1.738507300615310669e-01,1.439394801855087280e-01,-2.821184461936354637e-03,8.541450649499893188e-02,1.816215664148330688e-01,1.175116300582885742e-01,-1.002226918935775757e-01,1.924980878829956055e-01
-6.090578157454729080e-03,-7.432842999696731567e-02,3.331795036792755127e-01,-1.097963452339172363e-01,6.536878645420074463e-02,-7.919293642044067383e-02,-1.385852247476577759e-01,-2.480285800993442535e-02,9.637326747179031372e-02,-1.250427067279815674e-01,-1.227932423353195190e-01,7.584471721202135086e-03,2.930749058723449707e-01,6.909260749816894531e-01,2.127660624682903290e-02,8.226417936384677887e-03,-1.865017861127853394e-01
9.612795896828174591e-03,-1.204988639801740646e-02,-3.905724361538887024e-02,-1.185841187834739685e-01,4.216703400015830994e-02,-1.147990822792053223e-01,-2.140670120716094971e-01,-3.782581537961959839e-02,9.729527682065963745e-02,-2.686313390731811523e-01,-2.124503254890441895e-01,-3.944963961839675903e-02,4.194884002208709717e-01,8.525402843952178955e-02,1.817754507064819336e-01,-4.303120076656341553e-01,-1.308179497718811035e-01
1.400772295892238617e-02,-2.765698730945587158e-01,2.439487874507904053e-01,-1.255872398614883423e-01,2.193891070783138275e-02,1.344683766365051270e-01,-2.792820706963539124e-02,-2.318862974643707275e-01,3.341983258724212646e-01,1.674878746271133423e-01,1.505125910043716431e-01,-1.921092509292066097e-03,2.607281208038330078e-01,-1.410362422466278076e-01,1.570079922676086426e-01,-4.004832729697227478e-02,1.585123986005783081e-01
-1.196983456611633301e-01,1.638610363006591797e-01,-3.557106256484985352e-01,4.230429232120513916e-01,-1.031679660081863403e-01,-4.694865345954895020e-01,-6.424036026000976562e-01,1.640475094318389893e-01,3.863938450813293457e-01,-5.174134671688079834e-02,2.427931688725948334e-02,-9.681123308837413788e-03,-3.897272348403930664e-01,-3.883587568998336792e-02,-1.523110568523406982e-01,-1.410059183835983276e-01,-2.275931276381015778e-02
4.480947740375995636e-03,-2.739233672618865967e-01,2.046515643596649170e-01,3.312158212065696716e-02,1.674535125494003296e-02,1.307303756475448608e-01,-2.270585447549819946e-01,-1.221865862607955933e-01,2.295094877481460571e-01,-1.983649842441082001e-02,-1.083075813949108124e-02,-3.154666046611964703e-04,4.518875181674957275e-01,-5.271462202072143555e-01,-5.612199753522872925e-02,2.344563417136669159e-02,1.592474058270454407e-02
1.467954553663730621e-02,-8.809893578290939331e-02,2.064893394708633423e-01,-1.091301962733268738e-01,-1.904059015214443207e-02,-6.919474340975284576e-03,1.405808236449956894e-02,1.033037677407264709e-01,4.855275899171829224e-02,6.077580451965332031e-01,5.725335478782653809e-01,1.455167657695710659e-03,3.515164554119110107e-01,-1.443652808666229248e-01,7.393633574247360229e-02,-1.410197373479604721e-02,5.938265919685363770e-01
-4.145501181483268738e-03,7.132917642593383789e-02,7.882362604141235352e-02,-1.625540703535079956e-01,2.072188816964626312e-02,-6.744677200913429260e-03,1.355095207691192627e-02,-1.659762114286422729e-02,4.788935929536819458e-02,-3.028423190116882324e-01,-2.444992214441299438e-01,2.175857778638601303e-03,-2.342557013034820557e-01,4.427185654640197754e-01,1.374314874410629272e-01,6.122299283742904663e-02,-2.649956643581390381e-01
-1.090108230710029602e-01,-1.181728169322013855e-01,1.813168451189994812e-02,-7.295896857976913452e-02,-1.355274301022291183e-02,-6.230253353714942932e-02,-1.314486475223475281e-08,-1.589082032442092896e-01,-5.212363321334123611e-03,-1.820193380117416382e-01,-1.588167622685432434e-02,-6.662086583673954010e-03,6.106894016265869141e-01,-4.901241660118103027e-01,1.151817813515663147e-01,1.715316623449325562e-01,-1.988200843334197998e-02
-2.875960618257522583e-02,2.024115025997161865e-01,-2.557121217250823975e-01,2.874288558959960938e-01,-1.374240815639495850e-01,-8.602879196405410767e-02,-2.309856377542018890e-02,1.706498712301254272e-01,2.457875758409500122e-02,5.945337936282157898e-02,-9.648073464632034302e-03,-7.153867045417428017e-04,-1.104829683899879456e-01,9.828431159257888794e-02,-4.271676391363143921e-02,-9.691712260246276855e-02,-5.352106381906196475e-05
-1.930706202983856201e-02,3.552971407771110535e-02,9.300510585308074951e-02,-1.573205925524234772e-02,1.438632886856794357e-02,1.758223474025726318e-01,-8.818759024143218994e-02,-1.588789075613021851e-01,-1.221440955996513367e-01,1.006790772080421448e-01,6.429491937160491943e-02,2.229052362963557243e-03,8.297687023878097534e-02,6.823126971721649170e-02,4.862970486283302307e-02,8.409602940082550049e-02,1.010777205228805542e-01
1.088580209761857986e-02,-2.843494415283203125e-01,2.782388925552368164e-01,-1.191837638616561890e-01,-1.408250629901885986e-01,1.321246325969696045e-01,2.629683315753936768e-01,-1.982230246067047119e-01,9.176059067249298096e-02,9.015178680419921875e-02,8.312109857797622681e-02,1.372782792896032333e-02,1.479630172252655029e-01,8.238596469163894653e-02,6.194552779197692871e-02,3.883355110883712769e-02,5.794844031333923340e-02
1.232988294214010239e-02,-3.012830018997192383e-01,3.605617582798004150e-01,1.414181757718324661e-02,1.550935208797454834e-01,1.291298419237136841e-01,-2.720650732517242432e-01,-2.165486961603164673e-01,1.650617122650146484e-01,-2.170649170875549316e-01,-2.586349248886108398e-01,1.693358761258423328e-03,-6.753070652484893799e-02,-1.964347809553146362e-01,-3.441824913024902344e-01,1.238436698913574219e-01,-3.126263618469238281e-01
-2.973694913089275360e-02,1.589297652244567871e-01,-1.461409181356430054e-01,2.204949408769607544e-01,5.738178640604019165e-02,-1.873964965343475342e-01,1.792441755533218384e-01,2.169931977987289429e-01,-1.643597520887851715e-02,1.176136061549186707e-01,1.139742061495780945e-01,2.842369955033063889e-03,1.132394671440124512e-01,2.037798464298248291e-01,2.177141048014163971e-02,4.658038541674613953e-02,5.317241325974464417e-02
1.458601560443639755e-02,-5.841397643089294434e-01,5.777494311332702637e-01,2.584606409072875977e-01,3.947113081812858582e-02,5.134985595941543579e-02,-1.383275240659713745e-01,-1.688790917396545410e-01,2.797058224678039551e-01,-1.335268318653106689e-01,-6.703015416860580444e-02,-4.292238038033246994e-03,-2.139029502868652344e-01,-7.358954846858978271e-02,2.501540482044219971e-01,4.400184378027915955e-02,-1.118615865707397461e-01
1.322380360215902328e-02,-2.368355393409729004e-01,2.010800987482070923e-01,-3.159790858626365662e-02,-6.669095903635025024e-02,6.458415091037750244e-02,-1.823447085916996002e-02,-1.023078933358192444e-01,1.080685034394264221e-01,1.140759661793708801e-01,4.554529860615730286e-02,-2.074748044833540916e-03,-9.278762154281139374e-03,1.773509681224822998e-01,-4.348112270236015320e-02,-8.365126699209213257e-02,1.458693444728851318e-01
-1.649274840019643307e-03,4.159752652049064636e-02,2.133912965655326843e-02,2.762188576161861420e-02,-2.430733665823936462e-02,4.259245842695236206e-02,1.380341313779354095e-02,-1.067619118839502335e-02,-3.449684381484985352e-02,1.845634877681732178e-01,8.609338849782943726e-02,-6.121985148638486862e-03,-8.113659620285034180e-01,1.681634485721588135e-01,-1.245328113436698914e-01,-2.614670097827911377e-01,1.246846541762351990e-01
2.160524716600775719e-03,-1.011410877108573914e-01,-2.458668686449527740e-02,-7.031533122062683105e-02,7.003456354141235352e-02,-3.068321198225021362e-02,5.970911681652069092e-02,-2.029387801885604858e-01,1.722902506589889526e-01,-1.888679713010787964e-01,-1.730906367301940918e-01,-6.036253646016120911e-03,4.882403910160064697e-01,1.992173492908477783e-01,-6.650840640068054199e-01,6.126123070716857910e-01,-3.040587902069091797e-01
-1.629110076464712620e-03,-3.133358061313629150e-02,-2.232836093753576279e-03,-2.440144494175910950e-02,-1.549016451463103294e-03,-2.533698268234729767e-02,-7.881472818553447723e-03,5.797185376286506653e-02,-1.341971941292285919e-02,6.119969487190246582e-01,6.599406599998474121e-01,6.000641733407974243e-04,3.089089989662170410e-01,-2.574502229690551758e-01,-1.912052393890917301e-03,-3.026236779987812042e-02,6.830625534057617188e-01
-3.316698968410491943e-01,-9.018962830305099487e-02,8.448606356978416443e-03,-2.449860870838165283e-01,-1.210499554872512817e-01,-4.663843661546707153e-02,-4.082500382196485589e-08,-8.239465951919555664e-02,-6.238792836666107178e-02,1.953542083501815796e-01,1.774117201566696167e-01,1.623048447072505951e-02,-2.877274453639984131e-01,3.162141740322113037e-01,2.188351154327392578e-01,8.002295345067977905e-02,2.034241855144500732e-01
-2.254080399870872498e-02,-4.730967283248901367e-01,4.578582346439361572e-01,2.424961280667048413e-07,-8.388548344373703003e-02,-1.683497130870819092e-01,-1.082167699933052063e-01,-5.045601129531860352e-01,1.044909149641171098e-04,-3.524377197027206421e-02,-5.348357185721397400e-02,-5.171516910195350647e-03,-1.789351105690002441e-01,1.201833263039588928e-01,3.063482642173767090e-01,-1.633402891457080841e-02,-1.668141633272171021e-01
-2.908101014327257872e-04,-1.970179937779903412e-02,1.990489102900028229e-02,6.183597072958946228e-02,-4.590493335854262114e-04,-7.053282856941223145e-02,-2.703483216464519501e-02,7.570307236164808273e-03,-4.936713958159089088e-05,-1.928752362728118896e-01,-1.289122104644775391e-01,3.916424699127674103e-03,-3.983561396598815918e-01,3.914902806282043457e-01,2.658892795443534851e-02,-4.730140417814254761e-02,-2.554856240749359131e-01
-1.747547276318073273e-02,1.598521620035171509e-01,-1.480997949838638306e-01,2.265504449605941772e-01,1.266324222087860107e-01,-2.339440286159515381e-01,-4.344438016414642334e-01,1.861172467470169067e-01,7.620207220315933228e-02,2.765527181327342987e-02,-2.248237654566764832e-02,2.105901250615715981e-03,9.363207221031188965e-02,2.076636254787445068e-02,1.618135273456573486e-01,-5.527333915233612061e-02,4.874649643898010254e-02
-1.818075180053710938e-01,-6.697820872068405151e-02,1.250583231449127197e-01,2.223253250122070312e-01,5.794022232294082642e-02,5.450739877232990693e-07,9.488648089472917491e-08,-1.787385642528533936e-01,-4.203479290008544922e-01,-3.757594227790832520e-01,-4.324321150779724121e-01,-1.006247382611036301e-02,8.663174510002136230e-01,2.302305698394775391e-01,-2.681780047714710236e-02,7.294319570064544678e-02,-3.434140086174011230e-01
-6.707510352134704590e-02,5.550038442015647888e-02,8.961184322834014893e-02,-6.205601990222930908e-02,-7.128450274467468262e-02,-2.342426404356956482e-02,3.578255558522869251e-08,9.184221923351287842e-02,-2.149279415607452393e-02,-5.219932198524475098e-01,-4.132671058177947998e-01,-2.928053773939609528e-02,-4.519172012805938721e-01,6.928416341543197632e-02,6.243887543678283691e-02,8.624647557735443115e-02,-1.518254131078720093e-01
-2.918768525123596191e-01,-4.456809547264128923e-04,-4.189397150184959173e-04,4.825580716133117676e-01,-5.138380220159888268e-05,-1.787470260694590252e-08,4.601327702403068542e-02,-1.352155804634094238e-01,-4.320727242657085299e-08,8.504542708396911621e-02,8.537808805704116821e-02,-1.348209189018234611e-04,5.342283099889755249e-02,2.559336721897125244e-01,1.351384073495864868e-01,2.387520510183094302e-07,7.032351195812225342e-02
-2.145890146493911743e-03,-7.653583586215972900e-02,1.636293381452560425e-01,1.703479588031768799e-01,2.000902406871318817e-02,-2.662588842213153839e-02,-3.706561774015426636e-02,3.988844901323318481e-02,7.394462823867797852e-02,1.383052617311477661e-01,1.008886471390724182e-01,-1.650168560445308685e-03,4.050423502922058105e-01,-1.377694129943847656e+00,8.494371920824050903e-02,3.909053048118948936e-04,1.369990855455398560e-01
1.790985278785228729e-02,-2.586285173892974854e-01,2.483417838811874390e-01,-2.884114682674407959e-01,-1.647716462612152100e-01,1.987186223268508911e-01,-4.812787845730781555e-02,-2.891712784767150879e-01,-3.295508921146392822e-01,1.242093816399574280e-01,8.138756453990936279e-02,1.003774814307689667e-02,2.563558146357536316e-02,5.653800442814826965e-02,-4.283527377992868423e-03,-6.602789461612701416e-02,1.528350859880447388e-01
8.523330325260758400e-04,9.697660803794860840e-02,1.247023865580558777e-01,5.576989427208900452e-02,-7.317864149808883667e-02,-5.968127399682998657e-02,9.519890695810317993e-02,-3.732870146632194519e-02,-6.759628653526306152e-02,-4.231286942958831787e-01,-4.278409481048583984e-01,3.780020633712410927e-03,3.269146084785461426e-01,5.549288392066955566e-01,1.272103637456893921e-01,6.326059997081756592e-02,-4.018915295600891113e-01
6.651371251791715622e-03,2.226881384849548340e-01,2.890297472476959229e-01,-8.465269729640567675e-08,2.640087008476257324e-01,3.393919765949249268e-01,-5.524222254753112793e-01,-4.661232829093933105e-01,6.312986755574456765e-08,-5.688071623444557190e-02,-7.694830745458602905e-02,1.936467480845749378e-03,-3.044712841510772705e-01,-3.036158084869384766e-01,-3.418819308280944824e-01,-5.871391668915748596e-02,-1.240498721599578857e-01
-1.934553533792495728e-01,-1.216770783066749573e-01,2.007981538772583008e-01,1.287007331848144531e-01,1.007940322160720825e-01,-6.882452964782714844e-02,-6.471314151212936849e-08,-6.215604394674301147e-02,-3.466627746820449829e-02,-1.494321674108505249e-01,-1.225494295358657837e-01,3.854114096611738205e-03,1.564343692734837532e-03,3.814443945884704590e-01,-3.645035922527313232e-01,-2.865236252546310425e-02,-1.979435682296752930e-01
-8.079273998737335205e-02,-9.022869914770126343e-02,-4.633231088519096375e-02,-1.866045892238616943e-01,-2.140784710645675659e-01,-6.488165259361267090e-02,-7.341930086113279685e-08,-1.711147725582122803e-01,-2.121391445398330688e-01,-2.494887635111808777e-02,-4.925424233078956604e-02,-8.968999609351158142e-03,1.422352045774459839e-01,1.582619547843933105e-01,4.828206300735473633e-01,3.961761295795440674e-01,-3.571433201432228088e-02
-5.549755296669900417e-04,-3.434047847986221313e-02,-2.409282885491847992e-02,-4.004730656743049622e-02,2.620200975798070431e-04,1.784514635801315308e-02,7.956836372613906860e-03,3.804582357406616211e-02,1.412829663604497910e-02,9.375909715890884399e-02,3.260548412799835205e-02,6.526915822178125381e-03,-1.579855203628540039e+00,1.234090805053710938e+00,5.960245151072740555e-03,-2.293749153614044189e-01,1.434337049722671509e-01
-2.249370142817497253e-02,-6.978452950716018677e-02,3.345450460910797119e-01,-1.020276844501495361e-01,1.074653118848800659e-02,1.013814099133014679e-02,1.081210598349571228e-01,-9.163760393857955933e-02,1.265707314014434814e-01,3.442547321319580078e-01,3.470662832260131836e-01,-4.849147051572799683e-03,3.766621351242065430e-01,-2.476806491613388062e-01,4.458157718181610107e-02,-1.115930676460266113e-01,3.885796368122100830e-01
-4.000465851277112961e-03,-3.097012042999267578e-01,4.361810386180877686e-01,-2.802937626838684082e-01,-7.298560440540313721e-02,-5.175128206610679626e-02,4.488980770111083984e-02,-2.763209640979766846e-01,7.125617563724517822e-02,-3.331264480948448181e-02,-1.122686732560396194e-02,-3.175268415361642838e-03,4.789936915040016174e-02,1.719632297754287720e-01,-3.428860604763031006e-01,-4.567730054259300232e-02,-7.644423097372055054e-02
-1.369069330394268036e-02,-2.689616940915584564e-02,-1.760891079902648926e-02,2.745433337986469269e-02,1.228182390332221985e-02,1.060146559029817581e-02,4.641727730631828308e-02,-5.339808762073516846e-02,9.794135577976703644e-03,7.080749869346618652e-01,7.117244005203247070e-01,-1.356928725726902485e-03,3.091452121734619141e-01,-2.372351437807083130e-01,-1.680132746696472168e-01,-3.795631602406501770e-02,7.145607471466064453e-01
-3.263803664594888687e-03,6.395972520112991333e-02,-1.795272529125213623e-01,1.266161054372787476e-01,-9.229583665728569031e-04,-3.389816358685493469e-02,-6.019077822566032410e-02,1.025332212448120117e-01,-1.773148030042648315e-02,4.657564684748649597e-02,7.296557724475860596e-02,6.911944597959518433e-03,-1.247091218829154968e-01,-1.750176548957824707e-01,9.921237081289291382e-02,6.909329444169998169e-02,4.459911212325096130e-02
-3.596489131450653076e-02,1.640628278255462646e-01,-4.376750811934471130e-02,3.494859933853149414e-01,-4.522167518734931946e-02,6.780274212360382080e-02,-3.669348731637001038e-02,8.206108212471008301e-02,3.079385161399841309e-01,-1.330731213092803955e-01,-1.367539465427398682e-01,2.743081888183951378e-03,5.118931084871292114e-02,-1.493711471557617188e-01,1.864978820085525513e-01,-1.114819198846817017e-01,-1.542573720216751099e-01
1.292852405458688736e-02,2.765541896224021912e-02,-2.554843202233314514e-02,-5.878847092390060425e-03,-2.579481713473796844e-02,-8.079747855663299561e-02,-7.767232507467269897e-02,3.625837713479995728e-02,3.127676621079444885e-02,-1.772807389497756958e-01,-1.788789033889770508e-01,4.952217452228069305e-03,-4.835320413112640381e-01,1.424416154623031616e-01,1.369188576936721802e-01,-1.855882555246353149e-01,-9.440178424119949341e-02
-2.392969839274883270e-02,8.639482781291007996e-03,-2.494592405855655670e-02,-1.162103787064552307e-01,3.943910822272300720e-02,-3.494623303413391113e-02,-1.173396594822406769e-02,-6.706653162837028503e-03,3.567890822887420654e-02,6.396839618682861328e-01,6.169276237487792969e-01,1.532127964310348034e-03,3.522340357303619385e-01,-5.115496367216110229e-02,-2.903845906257629395e-02,-7.208932936191558838e-02,6.229919791221618652e-01
-1.271821744740009308e-02,-2.387005388736724854e-01,2.666895687580108643e-01,1.464798301458358765e-01,-3.058906197547912598e-01,-2.420936822891235352e-01,-2.743749320507049561e-01,-2.020958513021469116e-01,-2.415714263916015625e-01,-1.653115078806877136e-02,-3.099882416427135468e-02,-4.354922275524586439e-04,1.948270350694656372e-01,2.392051517963409424e-01,-6.619166582822799683e-02,7.878442108631134033e-02,-6.804709881544113159e-02
-5.463127493858337402e-01,1.685362309217453003e-01,1.658297926187515259e-01,-2.138584554195404053e-01,-9.911243915557861328e-01,3.347054589539766312e-03,-1.604058041948519531e-08,6.996712684631347656e-01,-2.474372535943984985e-01,3.833914920687675476e-02,2.012273855507373810e-02,-1.391395926475524902e-02,-7.044056057929992676e-02,-2.210021391510963440e-02,-5.214475467801094055e-02,-1.250694394111633301e-01,1.409476995468139648e-02
-3.204010799527168274e-02,1.929534971714019775e-01,-6.091473251581192017e-02,-8.110962808132171631e-03,2.274294048547744751e-01,-6.910601258277893066e-02,2.464251667261123657e-01,1.613390445709228516e-01,-4.637250676751136780e-02,7.079564500600099564e-03,3.880954161286354065e-02,1.524738688021898270e-02,6.967005133628845215e-02,2.450691312551498413e-01,-1.113865897059440613e-01,3.385295718908309937e-02,1.957777515053749084e-02
-1.711589656770229340e-02,1.697526872158050537e-02,2.592835947871208191e-02,-2.958330325782299042e-02,6.835957616567611694e-02,3.738147392868995667e-02,6.362891942262649536e-02,2.119452878832817078e-02,-2.004032731056213379e-01,1.126750651746988297e-02,9.568093344569206238e-03,-3.926043864339590073e-03,1.971483789384365082e-02,1.773213036358356476e-02,4.329982399940490723e-02,-5.104665458202362061e-02,1.656620763242244720e-02
8.868834003806114197e-03,2.988553233444690704e-02,-6.768718361854553223e-02,5.776828154921531677e-02,4.111286997795104980e-02,1.914950311183929443e-01,-9.377747774124145508e-02,3.819670900702476501e-02,-1.003362163901329041e-01,-3.785779476165771484e-01,-3.229106664657592773e-01,1.891416311264038086e-02,1.069797053933143616e-01,6.038410589098930359e-02,-4.714657366275787354e-01,1.982653290033340454e-01,-4.404624998569488525e-01
2.842113608494400978e-03,-3.211426734924316406e-02,6.080391630530357361e-02,2.204548940062522888e-02,-6.395240128040313721e-02,1.990312337875366211e-02,1.521671563386917114e-01,-4.649065807461738586e-02,5.691832676529884338e-02,4.120548442006111145e-02,1.013154089450836182e-01,3.359702415764331818e-03,-1.190951792523264885e-03,1.263439059257507324e-01,3.240363299846649170e-01,1.816391013562679291e-02,8.943102508783340454e-02
-5.590997263789176941e-02,1.867636293172836304e-02,4.790553823113441467e-02,-1.529596000909805298e-01,-2.818337082862854004e-01,7.445225957781076431e-03,2.660494446754455566e-01,8.194866031408309937e-02,-7.427707314491271973e-02,3.909315168857574463e-02,3.819673508405685425e-02,-1.575238443911075592e-02,-1.177858859300613403e-01,2.254871428012847900e-01,-2.770513594150543213e-01,2.347639501094818115e-01,1.778129115700721741e-02
-2.315497724339365959e-03,-5.143595114350318909e-02,3.887453079223632812e-01,-1.439498811960220337e-01,2.206734381616115570e-02,-8.866481482982635498e-03,-2.267023734748363495e-02,7.540689408779144287e-02,1.089504435658454895e-01,-2.066024988889694214e-01,-2.130684703588485718e-01,1.060612965375185013e-03,-1.858028918504714966e-01,3.306909203529357910e-01,-6.551437079906463623e-02,-9.763512760400772095e-03,-2.420782744884490967e-01
-5.480812191963195801e-01,-1.635787189006805420e-01,3.090527094900608063e-02,-6.229869723320007324e-01,1.015108585357666016e+00,-6.039263606071472168e-01,1.028968836180865765e-03,-1.356901973485946655e-01,2.113642665335646598e-07,-1.193785108625888824e-02,-8.725553750991821289e-03,-3.592564025893807411e-03,2.349968068301677704e-02,5.828959122300148010e-02,-7.123614847660064697e-02,8.402002602815628052e-02,-5.185274872928857803e-03
-5.101076792925596237e-03,1.338827759027481079e-01,-1.876802146434783936e-01,2.307851612567901611e-01,1.253232266753911972e-02,-2.240630984306335449e-01,-9.119401127099990845e-02,1.336926221847534180e-01,-9.587250649929046631e-02,7.212471961975097656e-02,6.808598339557647705e-02,-1.200490863993763924e-03,-5.404011160135269165e-02,1.289625167846679688e-01,-2.644782066345214844e-01,-3.094759397208690643e-02,3.471350297331809998e-02
-1.220233365893363953e-01,-2.087604701519012451e-01,-1.515167113393545151e-02,4.294003546237945557e-01,-1.326579749584197998e-01,-9.765760302543640137e-01,3.653037250041961670e-01,-1.473556756973266602e-01,-3.323630094528198242e-01,2.416515350341796875e-01,2.516442239284515381e-01,-1.947857625782489777e-02,-1.950564533472061157e-01,5.992689132690429688e-01,1.149724796414375305e-01,5.750895664095878601e-02,1.725426167249679565e-01
-5.361533910036087036e-02,-9.031042456626892090e-02,3.494130671024322510e-01,-1.616625934839248657e-01,-1.873308420181274414e-01,-1.451769024133682251e-01,-1.213638857007026672e-01,-1.231876015663146973e-01,7.148034870624542236e-02,5.274213552474975586e-01,5.010078549385070801e-01,2.712525660172104836e-03,2.515538632869720459e-01,3.683815002441406250e-01,-9.309279918670654297e-02,-1.367936283349990845e-01,5.178833603858947754e-01
-1.113652214407920837e-01,-3.642083704471588135e-02,-1.215511560440063477e-01,1.098308712244033813e-02,1.797387897968292236e-01,-3.080849349498748779e-01,-1.853646188974380493e-01,2.172387577593326569e-02,-6.350608170032501221e-02,2.504783570766448975e-01,3.099397420883178711e-01,-1.088356226682662964e-02,3.246199190616607666e-01,3.050840198993682861e-01,7.294238805770874023e-01,7.129718065261840820e-01,1.638945490121841431e-01
-2.755789831280708313e-02,-6.683721542358398438e-01,1.927773356437683105e-01,-4.358910918235778809e-01,-7.503826916217803955e-02,-4.405678436160087585e-02,-2.687832117080688477e-01,-5.762466788291931152e-01,4.965233150869607925e-03,4.936591163277626038e-02,1.268026605248451233e-02,-3.876575734466314316e-03,4.306549131870269775e-01,-1.025257539004087448e-02,1.373589783906936646e-01,-7.909753918647766113e-02,4.575210064649581909e-02
-1.209736093878746033e-01,1.386025641113519669e-02,1.901147887110710144e-02,-5.338192358613014221e-02,4.399100318551063538e-02,2.712716720998287201e-02,4.309856891632080078e-01,3.854881227016448975e-02,5.047933459281921387e-01,1.350642275065183640e-02,6.551013141870498657e-02,5.319935269653797150e-03,-2.195502370595932007e-01,-7.732336223125457764e-02,-4.349248856306076050e-02,1.081482097506523132e-01,1.686425239313393831e-04
-4.601769149303436279e-02,1.787957549095153809e-01,-1.025025546550750732e-01,2.887181937694549561e-01,-1.222827211022377014e-01,-2.282813936471939087e-02,5.195418596267700195e-01,1.751947700977325439e-01,1.278246641159057617e-01,-1.166661903262138367e-01,-1.084652990102767944e-01,5.330487620085477829e-03,-5.022844299674034119e-02,9.394218027591705322e-02,-5.970354080200195312e-01,7.133559882640838623e-02,-1.949407309293746948e-01
-1.350574381649494171e-02,-2.156766355037689209e-01,3.020092844963073730e-01,-1.185659021139144897e-01,-7.242009788751602173e-02,-5.361825972795486450e-02,-2.508375942707061768e-01,-1.707671731710433960e-01,-9.282411634922027588e-02,1.026518344879150391e-01,1.335242688655853271e-01,-2.364003332331776619e-03,4.915718361735343933e-02,1.927745044231414795e-01,-3.353315889835357666e-01,-3.383502736687660217e-02,1.112174615263938904e-01
-1.710175909101963043e-02,-2.024618387222290039e-01,3.511225879192352295e-01,-2.008509784936904907e-01,-2.900084108114242554e-02,-2.846783213317394257e-02,-5.132681224495172501e-03,-1.936460286378860474e-01,-3.375973552465438843e-02,1.367877125740051270e-01,2.063716202974319458e-01,3.910704981535673141e-03,2.879836261272430420e-01,5.904601421207189560e-03,1.130255311727523804e-01,-5.718642473220825195e-02,1.717403382062911987e-01
-4.727821424603462219e-02,7.928790152072906494e-02,-2.578285634517669678e-01,1.343286931514739990e-01,-1.851371489465236664e-02,1.595400571823120117e-01,-6.157164648175239563e-02,-1.828151568770408630e-02,-5.045248940587043762e-02,-5.911452695727348328e-02,-1.369344741106033325e-01,-2.287802100181579590e-02,-5.403974056243896484e-01,2.305952459573745728e-01,2.447122633457183838e-01,-8.225802183151245117e-01,-5.408044159412384033e-02
1.767027424648404121e-03,-2.286649048328399658e-01,2.040654122829437256e-01,-1.183158680796623230e-01,5.239648744463920593e-02,1.210801675915718079e-02,-1.415363848209381104e-01,-1.394132077693939209e-01,-2.904502116143703461e-02,2.837957143783569336e-01,2.169918417930603027e-01,-9.649310261011123657e-03,1.905602216720581055e-01,1.360575705766677856e-01,-4.212146997451782227e-01,-1.745417341589927673e-02,1.889752000570297241e-01
-4.832945764064788818e-03,-9.533183649182319641e-03,1.182333007454872131e-01,1.567904055118560791e-01,-6.845225393772125244e-02,-7.364423573017120361e-02,9.937442094087600708e-02,2.857506647706031799e-02,-6.215255707502365112e-02,2.797644436359405518e-01,3.085975348949432373e-01,-5.410308949649333954e-03,2.123297601938247681e-01,1.119051799178123474e-01,-3.461346924304962158e-01,-8.376516401767730713e-02,3.018893599510192871e-01
-1.334937196224927902e-02,4.601081460714340210e-02,3.561962628737092018e-03,2.759071253240108490e-02,-4.566394910216331482e-02,-2.512665279209613800e-02,-2.663524150848388672e-01,1.752369664609432220e-02,4.214457049965858459e-02,1.200483739376068115e-02,2.364311553537845612e-02,-1.364188385196030140e-03,-3.333018720149993896e-02,-1.075214669108390808e-01,-3.715963661670684814e-01,1.313728690147399902e-01,-2.273244783282279968e-03
1.625690050423145294e-02,-1.386798471212387085e-01,-2.227034717798233032e-01,-3.197720646858215332e-01,3.081146255135536194e-02,2.135502547025680542e-01,1.762463450431823730e-01,1.803614571690559387e-02,1.984039247035980225e-01,-1.514894515275955200e-01,-3.722611872944980860e-04,1.255706232041120529e-02,9.751122444868087769e-02,6.993765234947204590e-01,3.814604878425598145e-01,8.226726204156875610e-02,-2.516370415687561035e-01
