-4.046072438359260559e-02,4.086458589881658554e-03,4.242443665862083435e-02,-1.679856446571648121e-03,4.638973157852888107e-03,-1.545191649347543716e-02,3.170899348333477974e-03,-2.201101277023553848e-03,-2.921229973435401917e-02,-8.992561139166355133e-03,-7.827390730381011963e-02,-2.059225179255008698e-02,4.521542228758335114e-03,1.792786456644535065e-02,3.041730821132659912e-02,3.938717767596244812e-02
-2.284716581925749779e-03,3.225227585062384605e-03,-4.405683837831020355e-03,7.406729739159345627e-03,1.129534095525741577e-02,-6.995137780904769897e-03,-3.845437243580818176e-02,-9.595066076144576073e-04,1.550611807033419609e-03,6.463263183832168579e-03,-2.351650182390585542e-04,2.831756137311458588e-02,-7.953044027090072632e-03,-1.803254126571118832e-03,-1.553647452965378761e-04,3.360275644809007645e-03
-7.097021937370300293e-01,8.308026194572448730e-02,1.112612485885620117e+00,-1.087636686861515045e-02,1.462265551090240479e-01,-5.222334265708923340e-01,3.112242519855499268e-01,-1.504001766443252563e-02,-7.588158249855041504e-01,-4.059334695339202881e-01,-1.974312067031860352e+00,-1.036923378705978394e-01,8.042138069868087769e-02,5.088434815406799316e-01,6.755139827728271484e-01,9.682984948158264160e-01
-2.235504239797592163e-02,6.542494148015975952e-02,-1.186247915029525757e-02,1.100923269987106323e-01,1.366066187620162964e-01,-9.675902128219604492e-02,6.275812387466430664e-01,4.310246184468269348e-02,1.176113821566104889e-02,8.130968362092971802e-02,-4.289177712053060532e-03,2.767971754074096680e-01,-2.496961057186126709e-01,2.222163835540413857e-03,-3.543499112129211426e-02,1.755482330918312073e-02
